#include "network_evaluate_takeoff.h"
//network_evaluate_control_freq_50


float linear(float num) {
	return num;
}



float sigmoid(float num) {
	return 1 / (1 + exp(-num));
}



float relu(float num) {
	if (num > 0) {
		return num;
	} else {
		return 0;
	}
}

static const int structure [4][2] = {{18, 16},{16, 16},{16, 32},{32, 4}};
static float output_0[16];
static float output_1[16];
static float output_2[32];
static float output_3[4];
static const float actor_encoder_self_encoder_0_weight[18][16] = {{-0.474209189414978,-0.08544769138097763,-0.7856760621070862,-0.14863502979278564,0.1827256977558136,0.38399678468704224,0.049264732748270035,-0.13004374504089355,0.14342163503170013,0.04522387683391571,-0.14153167605400085,-0.058935850858688354,0.35753723978996277,0.5312970876693726,0.2835352122783661,0.519982099533081},{0.17447470128536224,0.1229461207985878,-0.36723577976226807,-0.742152750492096,0.1898825317621231,0.2711988687515259,-0.38155660033226013,-0.09871013462543488,-0.12317906320095062,-0.04575148597359657,-0.11432771384716034,-0.6768965721130371,-0.03521015867590904,-0.0858776867389679,-0.25443920493125916,0.1358369141817093},{0.6684403419494629,-0.7633234262466431,-0.3271642029285431,-0.32083627581596375,-0.3092004954814911,0.3588672876358032,-0.3535517752170563,0.056496117264032364,0.15280486643314362,0.04509837552905083,0.21778526902198792,0.21461685001850128,0.7530828714370728,-0.8014658689498901,0.1748056709766388,0.7444601655006409},{-0.2440999448299408,0.2644426226615906,0.059069566428661346,0.103742815554142,-0.13385990262031555,0.16467277705669403,-0.10153467208147049,-0.09820938110351562,0.2089938372373581,0.2574537694454193,0.018856028094887733,-0.05239316448569298,0.1347682774066925,0.12848398089408875,0.1731092780828476,0.027267761528491974},{0.006234434433281422,-0.15200145542621613,-0.15780574083328247,-0.21504324674606323,0.2776500880718231,0.21769879758358002,-0.31378301978111267,0.05846267566084862,-0.3400390148162842,-0.030684463679790497,-0.11226523667573929,0.14629893004894257,0.07846137881278992,-0.16362948715686798,-0.2820114493370056,0.12376079708337784},{0.15354496240615845,-0.1904018670320511,-0.15609590709209442,0.055978842079639435,-0.1509854644536972,0.3671070337295532,-0.1244688406586647,0.1320468634366989,0.04178278520703316,0.1040828675031662,0.3067032992839813,0.17653197050094604,0.12296992540359497,-0.02880796231329441,0.12824656069278717,-0.05176543816924095},{-0.13983027637004852,0.021899711340665817,0.3212060034275055,-0.14415490627288818,-0.0024524640757590532,-0.3972398042678833,0.09678290039300919,0.6106160879135132,-0.2943994104862213,0.16162848472595215,0.27573394775390625,-0.12681050598621368,-0.08038323372602463,-0.3108043670654297,-0.21712659299373627,0.5859390497207642},{0.40917545557022095,0.21180318295955658,-0.3287925124168396,-0.1336696743965149,-0.34241893887519836,-0.040455251932144165,-0.08344229310750961,0.13676540553569794,0.03540161997079849,-0.37518739700317383,-0.2949269711971283,0.054710328578948975,-0.2675393223762512,0.24700003862380981,-0.012843145057559013,-0.10823767632246017},{-0.18614955246448517,-0.06415458768606186,0.4946945607662201,0.12175914645195007,-0.23444893956184387,-0.07402540743350983,-0.06102033331990242,0.27393218874931335,-0.15190505981445312,0.5566948652267456,-0.4392978549003601,-0.1786106824874878,0.322294682264328,0.0714140236377716,0.39848682284355164,-0.08257868885993958},{-0.40282922983169556,0.020223302766680717,0.08521789312362671,0.15057770907878876,0.6318297386169434,-0.1165071576833725,0.0679411068558693,-0.19703584909439087,0.09828492999076843,0.32587510347366333,0.3188919723033905,-0.626338541507721,-0.1509084403514862,-0.1502128541469574,0.26065778732299805,-0.05252610146999359},{-0.3897095024585724,0.06457075476646423,0.3062223792076111,-0.4707483649253845,0.10191825032234192,-0.2029658704996109,0.08401458710432053,0.35148802399635315,0.16296209394931793,0.02107655443251133,0.3347108066082001,-0.2385905683040619,-0.21871565282344818,-0.004480298608541489,0.5277557373046875,0.10561639815568924},{-0.051485028117895126,0.25535956025123596,-0.023602444678544998,0.25551480054855347,0.5156424641609192,0.4488197863101959,-0.6735125780105591,-0.47667160630226135,-0.7699221968650818,0.1749313771724701,0.3366667628288269,0.004874977748841047,0.3095704913139343,-0.04386235401034355,-0.15819403529167175,-0.17411036789417267},{-0.3406241238117218,-0.3518957197666168,0.09153037518262863,0.08003044128417969,0.7144527435302734,-0.42701980471611023,-0.5485669374465942,-0.4746059775352478,-0.03710131719708443,0.32820019125938416,-0.07723173499107361,-0.02712038718163967,0.12476680427789688,-0.33848896622657776,-0.3927960693836212,0.4948199689388275},{0.1626337766647339,-0.20060279965400696,-0.3157399594783783,0.03674551844596863,0.3981083035469055,-0.24653984606266022,0.4840961992740631,-0.05452858656644821,0.33047419786453247,-0.6665241122245789,0.39755678176879883,-0.46430662274360657,-0.20167312026023865,0.11490567773580551,-0.4051322042942047,0.059677038341760635},{-0.3337177336215973,0.046044494956731796,0.2784634232521057,0.30150794982910156,-0.056971531361341476,-0.2174316942691803,-0.4702979028224945,0.33113017678260803,-0.05426080524921417,-0.18197646737098694,0.2752459943294525,-0.38882550597190857,-0.18090103566646576,0.07674508541822433,0.19815051555633545,0.05872117355465889},{0.022495314478874207,0.10389548540115356,-0.21573425829410553,0.1489984393119812,-0.09523201733827591,-0.16685417294502258,0.07096520066261292,-0.01594322919845581,0.08212030678987503,-0.09443095326423645,0.11327795684337616,-0.11264567822217941,-0.2770477533340454,-0.04291565716266632,-0.12344548106193542,0.2327796071767807},{0.035792406648397446,-0.18686142563819885,-0.04667040333151817,0.16772209107875824,-0.19269424676895142,-0.0009470303193666041,0.11402741074562073,0.08920247852802277,0.19106315076351166,0.09236045926809311,0.0394241064786911,-0.1863516867160797,-0.32903891801834106,0.21941399574279785,0.09445254504680634,0.0069376081228256226},{-0.23106805980205536,-0.3742634952068329,0.2006596177816391,-0.3018999695777893,-0.1296888291835785,-0.3169725239276886,-0.015872277319431305,0.2462824434041977,0.030075330287218094,-0.04244917258620262,0.16609448194503784,-0.26424655318260193,0.3035403788089752,-0.19662083685398102,-0.004738790914416313,-0.5272948741912842}};
static const float actor_encoder_self_encoder_2_weight[16][16] = {{-0.32530713081359863,0.11373119056224823,-0.12700414657592773,-0.4287984371185303,-0.4347374439239502,0.3246321678161621,-0.6103581786155701,-0.08401728421449661,-0.049995701760053635,0.07520174980163574,-0.1483083963394165,0.018007732927799225,0.09456241875886917,-0.0030033253133296967,-0.41806113719940186,-0.1485777646303177},{-0.03522789478302002,0.1959976851940155,-0.06158452481031418,-0.24938905239105225,0.13126571476459503,-0.22756078839302063,0.12309353798627853,0.028528820723295212,0.11849807947874069,0.4480647146701813,0.318454384803772,0.3815001845359802,-0.016315853223204613,-0.269272118806839,0.15168868005275726,-0.15230931341648102},{0.2995586395263672,0.17804588377475739,-0.020265458151698112,0.01330556534230709,0.1502445489168167,-0.424821674823761,0.03733625262975693,-0.21546292304992676,-0.09959125518798828,0.03358003869652748,0.21727868914604187,0.1363758146762848,-0.2257990539073944,0.4059962332248688,0.29046630859375,0.10151536017656326},{-0.17494206130504608,-0.16036033630371094,0.07848329097032547,-0.14325504004955292,-0.08558357506990433,-0.22197820246219635,-0.02625192329287529,-0.1778741031885147,-0.032771918922662735,-0.21420946717262268,0.012815164402127266,-0.3711947202682495,0.39629191160202026,0.16436976194381714,0.045336008071899414,-0.25868722796440125},{0.0728515237569809,0.22563481330871582,-0.10283277928829193,-0.10179980844259262,0.3119848966598511,-0.07605618238449097,0.3241868019104004,-0.005799223203212023,-0.23215827345848083,0.10997341573238373,-0.5127668976783752,0.12224610149860382,0.28439220786094666,-0.3057337701320648,0.1918191909790039,-0.2978116571903229},{0.2506308853626251,-0.13868005573749542,-0.12846136093139648,-0.4209068715572357,-0.10991440713405609,0.2951772212982178,-0.05731886997818947,0.15864339470863342,-0.086481474339962,-0.11623159050941467,0.05135931074619293,-0.23004353046417236,0.21226225793361664,0.04570235684514046,0.08369414508342743,0.19184187054634094},{-0.28599923849105835,-0.11998051404953003,0.020216044038534164,0.33421626687049866,0.0567324198782444,-0.31606757640838623,0.2830530107021332,-0.23652030527591705,0.5636283159255981,0.005765779875218868,-0.4402233362197876,-0.238175630569458,-0.08645075559616089,0.11262605339288712,-0.23409880697727203,-0.28965243697166443},{-0.2054254561662674,-0.332472562789917,0.27435237169265747,0.046592649072408676,0.1650426834821701,-0.07478974014520645,0.0873328447341919,0.2994215786457062,0.37429726123809814,-0.06514079123735428,0.37439480423927307,0.27609750628471375,-0.20211906731128693,0.375564306974411,0.19437645375728607,-0.08097358047962189},{-0.2640587091445923,-0.27243074774742126,0.19165362417697906,-0.14425426721572876,-0.1489792764186859,0.23682567477226257,-0.2824174463748932,-0.27776211500167847,0.1404275745153427,-0.258312463760376,-0.13268013298511505,-0.007858501747250557,-0.2559628188610077,-0.11242406815290451,-0.2695310413837433,-0.20856909453868866},{0.10669977217912674,-0.04663951322436333,0.4459841251373291,-0.12662048637866974,0.29422780871391296,0.13158628344535828,0.3084424138069153,0.2776179313659668,0.18860897421836853,0.2921561896800995,0.027043744921684265,0.04482840374112129,0.2941831052303314,0.3192700445652008,0.3095209002494812,0.09062972664833069},{0.09634172171354294,0.07804504781961441,0.00022791077208239585,0.14814989268779755,-0.4209088683128357,0.1397188901901245,0.08049432933330536,0.4407236576080322,-0.38108912110328674,0.07940708845853806,-0.5311912894248962,0.33397284150123596,-0.3672229051589966,0.17833077907562256,-0.143638476729393,-0.11890678107738495},{0.015695156529545784,-0.19924046099185944,-0.010274669155478477,-0.35758867859840393,-0.3302048444747925,0.06929793208837509,0.34747314453125,-0.36088526248931885,0.20231370627880096,-0.19996637105941772,0.03598510101437569,0.24315178394317627,0.25196385383605957,-0.08598964661359787,0.03845766559243202,-0.1368187665939331},{0.021492933854460716,0.003814190160483122,0.13799722492694855,-0.016454659402370453,-0.24551118910312653,0.36453545093536377,0.05705951526761055,0.3213203251361847,0.007602514699101448,-0.039234668016433716,0.24472691118717194,0.07880688458681107,-0.07508961856365204,0.3009065091609955,-0.152205690741539,-0.05886702984571457},{0.12238176167011261,0.016600387170910835,-0.06809478998184204,0.015950605273246765,-0.24012327194213867,-0.21996475756168365,0.2618711590766907,-0.2876421809196472,-0.11817958205938339,-0.03749653697013855,0.34302669763565063,-0.04918372631072998,-0.24657343327999115,-0.5563948154449463,0.21559791266918182,0.20320722460746765},{0.011492530815303326,0.11900423467159271,-0.05830046907067299,0.12061943113803864,-0.25054192543029785,0.34481281042099,0.339609831571579,0.08676140010356903,-0.2533939480781555,0.04870694875717163,0.2170058786869049,-0.5128820538520813,-0.20420511066913605,0.4538951516151428,-0.06156384199857712,0.2445785254240036},{0.07279769331216812,0.3527829945087433,0.06579660624265671,0.11632204800844193,-0.40970155596733093,0.5222209095954895,0.25037625432014465,0.15334956347942352,0.20653612911701202,0.21386341750621796,0.29367879033088684,-0.3386266827583313,-0.22277729213237762,0.3648851811885834,0.22842976450920105,-0.17428553104400635}};
static const float actor_encoder_feed_forward_0_weight[16][32] = {{-0.21647833287715912,0.1829880326986313,0.21071085333824158,0.14636120200157166,-0.01777881570160389,0.06251529604196548,-0.33119457960128784,0.003435312071815133,0.01821737550199032,0.36667338013648987,0.1443653255701065,-0.10406068712472916,-0.18242666125297546,-0.3321096897125244,-0.2500617206096649,-0.09713784605264664,0.33471235632896423,-0.35702598094940186,-0.17938806116580963,-0.016477378085255623,-0.10994832217693329,0.0511208139359951,-0.3451119363307953,-0.18094608187675476,0.29412642121315,0.2962643504142761,-0.1763504147529602,-0.15638427436351776,0.11755678057670593,-0.07454107701778412,-0.1531967669725418,0.1378297358751297},{-0.051305804401636124,0.16520808637142181,0.07185156643390656,-0.09953492134809494,0.198166623711586,-0.28842902183532715,-0.10370925068855286,-0.002884207060560584,0.1361328363418579,0.21980109810829163,0.2877688407897949,0.12230107933282852,0.11566503345966339,-0.16633349657058716,-0.2678682506084442,0.4066773056983948,-0.20511317253112793,0.19708459079265594,0.04158788174390793,0.1615224927663803,0.1976436823606491,0.2591680884361267,-0.21462184190750122,-0.4233993589878082,0.02228555455803871,-0.19769755005836487,-0.23065315186977386,0.06214331462979317,-0.14745959639549255,-0.05300738289952278,-0.07826158404350281,-0.10746126621961594},{0.10385116934776306,-0.11013432592153549,0.34492573142051697,0.2861756980419159,-0.15948504209518433,0.10923051089048386,0.2876027822494507,0.034747522324323654,-0.3720376193523407,0.2971079349517822,0.2748740613460541,0.15916167199611664,0.1568061262369156,-0.06342347711324692,-0.28105658292770386,0.32218775153160095,0.14947083592414856,0.4490850269794464,-0.13518568873405457,0.016024434939026833,-0.23710943758487701,-0.03986592963337898,-0.33831357955932617,0.18784920871257782,0.12717247009277344,-0.37941136956214905,-0.17139530181884766,-0.31692013144493103,-0.13479073345661163,0.1085587665438652,-0.3531802296638489,0.04889941215515137},{0.05303143337368965,0.14733988046646118,0.0030030859634280205,-0.3050100803375244,-0.05043439194560051,-0.09774854779243469,-0.391498327255249,-0.12467523664236069,0.0434507317841053,-0.11025035381317139,-0.29478758573532104,0.2596481144428253,0.17781946063041687,0.10662467032670975,-0.11338956654071808,0.002503195544704795,0.21314425766468048,0.07167958468198776,0.30972787737846375,-0.09008662402629852,-0.16554664075374603,0.1847599744796753,0.0025380682200193405,-0.07828475534915924,0.13443933427333832,-0.14729735255241394,-0.008853483945131302,0.3015064597129822,0.13124607503414154,-0.20380949974060059,-0.05587967857718468,0.02045818604528904},{0.2671480178833008,0.07553356140851974,0.1315252035856247,-0.21335318684577942,-0.15915431082248688,-0.5972552299499512,-0.33049964904785156,0.2463379055261612,0.11386192589998245,0.03256187587976456,-0.17717333137989044,0.15462522208690643,-0.2043679803609848,-0.19789938628673553,-0.003258554730564356,0.1312214881181717,0.3685927093029022,-0.09931802749633789,-0.15898610651493073,0.11361317336559296,-0.4221809208393097,0.36061567068099976,0.20021618902683258,-0.17479988932609558,-0.23355084657669067,0.005877842660993338,0.09486499428749084,-0.2951173782348633,-0.08158646523952484,0.10485012829303741,0.2445676624774933,0.07406214624643326},{0.23812803626060486,0.07355397939682007,0.17231562733650208,0.18870681524276733,0.47437894344329834,0.29377487301826477,-0.022772835567593575,0.11646069586277008,-0.20219285786151886,0.0341261550784111,-0.1494111865758896,0.1492404192686081,-0.36914587020874023,-0.09964583814144135,-0.0691966563463211,0.37335777282714844,-0.04191059619188309,0.20819135010242462,-0.049586452543735504,-0.08141733705997467,0.16533689200878143,-0.2589656710624695,-0.012392372824251652,0.09593000262975693,-0.23511086404323578,0.2426225244998932,-0.2798652946949005,-0.3853234052658081,-0.08320411294698715,0.21246734261512756,-0.1064104437828064,0.18111449480056763},{0.172674760222435,0.14892509579658508,-0.10777618736028671,0.0948200449347496,-0.20588843524456024,0.27122896909713745,0.09070335328578949,-0.03875034675002098,0.03130302205681801,-0.20131872594356537,0.03965684771537781,0.030219340696930885,0.35059311985969543,-0.1430189162492752,0.02086365967988968,0.2959585189819336,0.4065386652946472,-0.18704967200756073,-0.35155192017555237,0.02424858696758747,-0.04553183168172836,-0.11705657094717026,0.3279670476913452,-0.2216200828552246,-0.3455055356025696,0.09676104784011841,-0.05177528038620949,-0.28159111738204956,-0.2217940241098404,0.1950168013572693,-0.3309374153614044,-0.02432817593216896},{0.09072060883045197,0.2707120180130005,-0.24592778086662292,0.2778714597225189,0.33964526653289795,0.23792441189289093,-0.3395310044288635,-0.28273487091064453,0.04042290523648262,-0.19349801540374756,0.17725913226604462,0.1621987223625183,-0.12102483958005905,0.2725176215171814,-0.004586847964674234,-0.2811991274356842,0.16445009410381317,-0.14882205426692963,-0.32517531514167786,-0.1771613210439682,-0.006271911319345236,-0.27952319383621216,-0.02813880890607834,0.2881276607513428,0.2028999924659729,-0.20807281136512756,-0.06412426382303238,-0.2910776436328888,-0.24454718828201294,0.3092637062072754,-0.29352694749832153,0.0416928231716156},{0.16248539090156555,0.2951127886772156,0.27048274874687195,-0.18732547760009766,-0.1409107744693756,-0.155595600605011,-0.30854785442352295,0.12311825901269913,0.33518052101135254,-0.18226367235183716,0.0688299760222435,-0.21734009683132172,0.24966835975646973,0.0803779810667038,0.30145931243896484,-0.09412237256765366,0.2040216326713562,-0.2089785635471344,0.03633512556552887,-0.0358181968331337,0.293988436460495,0.15447312593460083,0.05695094168186188,-0.05368304252624512,0.27978605031967163,-0.19214336574077606,-0.18445168435573578,0.023877745494246483,0.18893274664878845,0.06168998032808304,0.04716625064611435,0.06254240870475769},{-0.16268494725227356,-0.27421489357948303,-0.02308621257543564,-0.1800922155380249,0.013202142901718616,0.040720511227846146,0.07837238907814026,-0.14323556423187256,0.04177016764879227,0.009451577439904213,0.21983827650547028,0.23712041974067688,0.12710623443126678,-0.3255824148654938,-0.06552083790302277,-0.19264301657676697,0.05738060548901558,0.21849502623081207,0.14074040949344635,-0.18811383843421936,-0.03893810138106346,0.22898559272289276,0.210974782705307,-0.10724852979183197,-0.08346568048000336,-0.132895827293396,-0.0656050592660904,-0.19596658647060394,-0.17225803434848785,-0.21180137991905212,-0.3902513384819031,-0.2217562049627304},{0.008585834875702858,-0.3374297618865967,0.12287885695695877,0.17533500492572784,-0.25086289644241333,-0.029829228296875954,-0.00034713090281002223,0.18595755100250244,-0.1788770705461502,-0.21994121372699738,0.17338170111179352,-0.1625375747680664,-0.020754778757691383,-0.04395944997668266,0.24377557635307312,0.3988540768623352,-0.13850529491901398,0.4595273435115814,-0.021600132808089256,-0.4631013572216034,-0.2285715937614441,0.05047093704342842,0.41472455859184265,0.16610679030418396,-0.054370611906051636,-0.052507080137729645,-0.3241094946861267,0.049710463732481,0.2801298201084137,-0.08250176906585693,-0.17037144303321838,-0.17000152170658112},{0.23723478615283966,0.2438388466835022,0.22924551367759705,0.03559517487883568,0.20334947109222412,-0.18212002515792847,0.28494441509246826,0.008760699070990086,-0.08746348321437836,-0.16140976548194885,-0.2097398191690445,0.0689191147685051,-0.20969578623771667,-0.42119717597961426,-0.3002382516860962,-0.04114824905991554,-0.149366095662117,0.04183411970734596,-0.22684289515018463,-0.13214139640331268,0.09774401783943176,0.038801174610853195,-0.11490803956985474,0.07270516455173492,0.06152601167559624,-0.31910935044288635,0.04177863523364067,-0.11312255263328552,-0.03641790896654129,-0.08438201248645782,-0.16410930454730988,0.3291054964065552},{-0.18428397178649902,-0.30167654156684875,-0.036895088851451874,0.2895272672176361,-0.2715805172920227,0.40981802344322205,0.16727934777736664,-0.06438587605953217,-0.0744226798415184,-0.1058429628610611,0.26083165407180786,0.19330261647701263,-0.3015699088573456,0.11947780102491379,-0.2060999721288681,0.1381438821554184,0.22794845700263977,-0.2801063656806946,0.004742720164358616,0.08149175345897675,0.2815020978450775,0.1328711062669754,0.34578195214271545,0.02827482484281063,0.20941808819770813,0.15854226052761078,-0.2980348765850067,0.012921491637825966,0.06434238702058792,0.12752482295036316,0.26192986965179443,-0.24334608018398285},{0.022426322102546692,0.036469828337430954,-0.24525274336338043,-0.13390657305717468,0.0723397359251976,0.5900036692619324,-0.27842986583709717,0.1531137377023697,0.17297577857971191,-0.09760162979364395,0.404778391122818,0.0965532585978508,0.02516106143593788,-0.07217981666326523,0.19963906705379486,-0.1839769333600998,0.26623770594596863,-0.2693907916545868,0.0004113511531613767,-0.11409987509250641,0.4288741648197174,-0.038889773190021515,-0.24628771841526031,-0.1493615061044693,0.05516413599252701,-0.0730806291103363,0.08173608779907227,-0.08749695867300034,-0.22315023839473724,-0.0512380450963974,-0.2472192496061325,-0.1449245661497116},{-0.1535506397485733,-0.16323697566986084,-0.03201525658369064,-0.19902071356773376,-0.13708984851837158,0.1704472005367279,-0.20176208019256592,-0.16007256507873535,-0.33989307284355164,-0.2465542107820511,0.11999374628067017,-0.026082199066877365,0.16183078289031982,0.002344789681956172,-0.24246397614479065,-0.174128919839859,-0.33450770378112793,-0.05700642615556717,0.1729627549648285,-0.24488621950149536,0.004740860778838396,0.3361562192440033,0.12224623560905457,0.27491095662117004,0.052150942385196686,-0.3380846679210663,0.2566303312778473,-0.22688764333724976,0.011706145480275154,0.304667592048645,-0.12002746760845184,-0.2650326192378998},{-0.23554041981697083,0.047174081206321716,-0.130202516913414,-0.09523675590753555,0.33872127532958984,-0.11702389270067215,0.2385559380054474,0.10556063801050186,0.2648217976093292,0.1251518279314041,-0.3093433678150177,0.008812343701720238,-0.1488122045993805,0.0115304971113801,0.2028551697731018,0.07094064354896545,0.3363354802131653,0.26036208868026733,-0.13775493204593658,-0.15051531791687012,-0.10826719552278519,0.02029031701385975,0.22517572343349457,-0.049473751336336136,-0.21900539100170135,-0.12327753007411957,0.26360151171684265,-0.3127545416355133,-0.11668867617845535,0.08521326631307602,-0.2436925172805786,0.0019615832716226578}};
static const float action_parameterization_distribution_linear_weight[32][4] = {{0.2885189354419708,-0.13744480907917023,-0.1403338760137558,0.07905043661594391},{0.11040923744440079,-0.03758593276143074,-0.024971995502710342,-0.11315249651670456},{-0.026538506150245667,-0.2350964993238449,-0.034054968506097794,-0.09234590083360672},{-0.10350135713815689,-0.27610141038894653,-0.24955274164676666,-0.049745913594961166},{-0.42602548003196716,-0.06707871705293655,0.2405090481042862,-0.22033043205738068},{-0.010227144695818424,-0.08918948471546173,-0.4144262969493866,-0.17321419715881348},{-0.22429847717285156,0.1937306672334671,0.00012032769154757261,-0.0029210946522653103},{-0.17575596272945404,0.06952288746833801,0.07436306029558182,0.15109720826148987},{0.003428673604503274,-0.01400742307305336,-0.19681502878665924,-0.026151888072490692},{0.01744507998228073,-0.011309389024972916,0.09574419260025024,-0.03817128390073776},{0.024809371680021286,0.20355358719825745,-0.280345618724823,0.04637884348630905},{-0.22304968535900116,-0.13819719851016998,0.30125465989112854,-0.2165282517671585},{0.2426733672618866,-0.09714063256978989,0.1512099951505661,0.1753968447446823},{-0.26092633605003357,0.0023781415075063705,-0.0758197084069252,0.32569965720176697},{-0.1370783895254135,-0.22436821460723877,-0.27717146277427673,-0.005652789957821369},{-0.10649069398641586,-0.10047426074743271,0.05820790305733681,0.11200521886348724},{0.09860050678253174,-0.4725906550884247,0.19405370950698853,0.32257285714149475},{0.12366511672735214,-0.28437766432762146,-0.23299217224121094,0.3871248960494995},{-0.042087990790605545,-0.09787166118621826,-0.10251320153474808,-0.22363324463367462},{0.08584962040185928,0.23268729448318481,-0.4395025670528412,-0.21468092501163483},{-0.15753978490829468,-0.3567102551460266,-0.4302208423614502,-0.4142119586467743},{-0.17656894028186798,0.35203245282173157,0.013169032521545887,0.25276532769203186},{-0.03579462319612503,0.1101885586977005,0.2829969525337219,0.33450451493263245},{0.04346686974167824,-0.1586678922176361,-0.03471846133470535,-0.1250876635313034},{-0.21536855399608612,0.19001123309135437,0.08414576947689056,-0.015573631972074509},{-0.3143787980079651,-0.1383763700723648,-0.13615193963050842,0.15509237349033356},{0.2842406928539276,-0.23346778750419617,-0.17033332586288452,-0.3222293555736542},{0.252393901348114,0.04062088951468468,-0.023564666509628296,0.04178310185670853},{0.04077848047018051,0.2150881588459015,-0.09196269512176514,0.18274317681789398},{-0.016039138659834862,-0.34201285243034363,0.15335898101329803,0.06659677624702454},{0.12474663555622101,0.1228504478931427,0.0973992794752121,0.03229299932718277},{0.10346134752035141,0.09909207373857498,-0.1847897619009018,-0.0168593917042017}};
static const float actor_encoder_self_encoder_0_bias[16] = {-0.08728804439306259,-0.12966877222061157,-0.06308798491954803,0.10455253720283508,-0.09715919941663742,0.10671219229698181,-0.04117788001894951,-0.01059545949101448,0.015973735600709915,-0.014319024048745632,0.036668796092271805,0.004577996209263802,0.1265057623386383,0.05552324280142784,0.08455044776201248,0.07291816174983978};
static const float actor_encoder_self_encoder_2_bias[16] = {0.060962479561567307,0.11604349315166473,0.0642770379781723,-0.05738278105854988,-0.07257881760597229,0.01987404376268387,0.037812136113643646,0.005827724002301693,-0.12849926948547363,0.08227719366550446,-0.02043270319700241,0.02979038469493389,-0.07025399804115295,-0.004916043020784855,-0.03906761482357979,0.023400256410241127};
static const float actor_encoder_feed_forward_0_bias[32] = {-0.009692252613604069,0.029903942719101906,-0.0400594025850296,-0.02323920466005802,-0.006827616598457098,-0.011812351644039154,0.04967622086405754,-0.0019555992912501097,-0.017283085733652115,0.09887618571519852,0.03340088948607445,0.022205660119652748,-0.019414516165852547,-0.04302157089114189,-0.10436353087425232,-0.05241847783327103,-0.10844815522432327,0.01857088692486286,0.0007680011331103742,-0.01568886823952198,-0.027433721348643303,-0.008696727454662323,-0.02396177314221859,-0.02562936209142208,0.06897462904453278,-0.03471939638257027,-0.029181504622101784,-0.04655570164322853,-0.04264526441693306,-0.022563206031918526,0.07069408893585205,0.021534711122512817};
static const float action_parameterization_distribution_linear_bias[4] = {0.006707147695124149,0.039486438035964966,0.021906893700361252,-0.031189296394586563};
void networkEvaluateTakeoff(struct control_t_n *control_n, const float *state_array) {
        for (int i = 0; i < structure[0][1]; i++) {
            output_0[i] = 0;
            for (int j = 0; j < structure[0][0]; j++) {
                output_0[i] += state_array[j] * actor_encoder_self_encoder_0_weight[j][i];
            }
            output_0[i] += actor_encoder_self_encoder_0_bias[i];
            output_0[i] = tanhf(output_0[i]);
        }
    
        for (int i = 0; i < structure[1][1]; i++) {
            output_1[i] = 0;
            for (int j = 0; j < structure[1][0]; j++) {
                output_1[i] += output_0[j] * actor_encoder_self_encoder_2_weight[j][i];
            }
            output_1[i] += actor_encoder_self_encoder_2_bias[i];
            output_1[i] = tanhf(output_1[i]);
        }
        
        for (int i = 0; i < structure[2][1]; i++) {
            output_2[i] = 0;
            for (int j = 0; j < structure[2][0]; j++) {
                output_2[i] += output_1[j] * actor_encoder_feed_forward_0_weight[j][i];
            }
            output_2[i] += actor_encoder_feed_forward_0_bias[i];
            output_2[i] = tanhf(output_2[i]);
        }
        
                for (int i = 0; i < structure[3][1]; i++) {
                    output_3[i] = 0;
                    for (int j = 0; j < structure[3][0]; j++) {
                        output_3[i] += output_2[j] * action_parameterization_distribution_linear_weight[j][i];
                    }
                    output_3[i] += action_parameterization_distribution_linear_bias[i];
                }
    
            control_n->thrust_0 = output_3[0];
            control_n->thrust_1 = output_3[1];
            control_n->thrust_2 = output_3[2];
            control_n->thrust_3 = output_3[3];	
    }