#include "network_evaluate_tof.h"
#include <string.h>


#define D_MODEL 32
#define NUM_TOKENS 2
#define EPS 0.000001 // 1e-6
static int count = 0;

static float obstacle_embeds[D_MODEL];
static float output_embeds[2 * D_MODEL];

float base;
float exponent;
static const int self_structure [4][2] = {{19, 16},{16, 16},{32, 32},{32, 4}};
static const int obst_structure [2][2] = {{16, 16},{16, 16}};
static float output_0[16];
static float output_1[16];
static float obst_output_0[16];
static float obst_output_1[16];
static float output_2[32];
static float output_3[4];
static const float actor_encoder_self_encoder_0_weight[19][16] = {{-0.377612441778183,0.4218507707118988,-0.18669810891151428,0.03745348006486893,-0.029101772233843803,0.3345714807510376,0.009649567306041718,-0.07058940827846527,0.2338895946741104,-0.06729364395141602,0.18345487117767334,-0.14799711108207703,-0.3792281150817871,0.06971743702888489,-0.271483451128006,-0.047133415937423706},{-0.2382277101278305,0.14727559685707092,0.2444400191307068,-0.11963489651679993,-0.0107154231518507,0.06403516978025436,0.34126564860343933,0.1831572949886322,-0.14427107572555542,-0.030155165120959282,0.16185928881168365,0.07473291456699371,-0.16884064674377441,-0.19175344705581665,0.09923730045557022,0.00567263038828969},{-0.023116620257496834,-0.21971361339092255,-0.5278412103652954,0.36543360352516174,0.2679302990436554,0.12156906723976135,-0.06978338956832886,0.450072318315506,-0.3223148286342621,-0.05617455393075943,0.09812448918819427,-0.15762294828891754,-0.43522781133651733,-0.22112302482128143,0.04188201203942299,0.18898223340511322},{-0.12604010105133057,0.4254002571105957,0.18190792202949524,0.16752275824546814,0.390536367893219,-0.06805884093046188,0.42356422543525696,-0.11525022238492966,0.17418354749679565,0.09178363531827927,-0.05538494512438774,0.375139445066452,-0.36657941341400146,0.027770843356847763,0.0010551975574344397,-0.4253374934196472},{0.36632803082466125,-0.09009276330471039,0.16603511571884155,-0.28464242815971375,-0.12515513598918915,0.40093719959259033,0.1565265655517578,0.03994610533118248,0.5162535905838013,0.09862938523292542,-0.0764353945851326,0.26551714539527893,-0.3290216624736786,0.2980223596096039,0.149873286485672,0.5129244923591614},{0.22487981617450714,-0.2428678572177887,-0.371225506067276,0.2506127953529358,0.046971824020147324,0.009108584374189377,0.21910357475280762,0.4822978377342224,-0.3332121968269348,-0.09316620975732803,-0.1089843288064003,-0.14040875434875488,-0.27676498889923096,-0.03525941073894501,-0.2742733359336853,-0.15421590209007263},{-0.27637389302253723,-0.1723116785287857,-0.31622835993766785,-0.3458245098590851,-0.47619277238845825,-0.4931139051914215,-0.3459279239177704,0.23392251133918762,-0.411455363035202,-0.19915273785591125,0.2576947510242462,0.1651848405599594,-0.4975036680698395,0.13300374150276184,0.09945186972618103,0.2034061849117279},{-0.06952650845050812,0.17101308703422546,0.07139801234006882,-0.062489550560712814,0.26463624835014343,0.12559279799461365,-0.15775226056575775,-0.20704065263271332,-0.1555865854024887,0.2240269035100937,0.11852780729532242,-0.25775352120399475,0.22187648713588715,-0.11172881722450256,-0.2862362861633301,-0.011240577325224876},{0.11461323499679565,-0.0374334491789341,0.10823111981153488,-0.03068072721362114,0.7429857850074768,0.2752206325531006,0.047308508306741714,-0.011491953395307064,0.37555935978889465,0.3419262170791626,-0.6566898822784424,0.5605778098106384,0.23056577146053314,0.23498785495758057,-0.2126469910144806,-0.44272270798683167},{-0.05450143665075302,-0.004599936306476593,-0.2852438688278198,-0.2904207110404968,-0.16059143841266632,0.16770340502262115,-0.17402087152004242,0.23380233347415924,-0.19922105967998505,-0.1295538991689682,-0.3543936312198639,-0.08878222852945328,0.07347290962934494,-0.0668831318616867,0.38361626863479614,0.26441073417663574},{-0.27152156829833984,0.02067379653453827,-0.027669815346598625,-0.3615785837173462,0.04462121054530144,0.017865968868136406,-0.3544672429561615,0.19748973846435547,-0.009030815213918686,-0.4306085407733917,-0.1887422651052475,0.3602422773838043,-0.5234639048576355,-0.21724821627140045,0.13024726510047913,-0.32844147086143494},{0.018111564218997955,-0.3814694285392761,-0.16657111048698425,-0.34213411808013916,-0.057024285197257996,0.2854318916797638,0.3599921464920044,0.3618328869342804,0.5850764513015747,0.17568287253379822,0.4947511553764343,0.11880874633789062,0.1572282761335373,-0.26607251167297363,-0.25107741355895996,0.5029271245002747},{-0.2687477469444275,0.4086345136165619,-0.55517578125,0.6970915198326111,-0.11799435317516327,-0.10463179647922516,-0.24786564707756042,-0.6015917658805847,-0.47529837489128113,-0.8575395345687866,0.16946157813072205,-0.4204352796077728,0.22638709843158722,0.4338863492012024,0.30127519369125366,-0.3192175626754761},{-0.17790533602237701,0.26965370774269104,-0.22453570365905762,-0.03615918010473251,0.768771767616272,0.4713304340839386,-0.08842635154724121,-0.011984938755631447,-0.004496792796999216,0.22037148475646973,-0.5738099217414856,0.1940183788537979,0.2892652750015259,0.8757439255714417,-0.44164636731147766,0.238337442278862},{-0.3494202792644501,-0.19952429831027985,0.2657361924648285,-0.134809672832489,0.23223274946212769,-0.12060482054948807,-0.3483889698982239,-0.06094355508685112,-0.23133866488933563,0.23872904479503632,0.002060604514554143,-0.18153326213359833,-0.20214517414569855,0.03207118436694145,-0.2780328392982483,-0.4443865418434143},{-0.2992549538612366,0.37672051787376404,-0.07508105784654617,0.07834819704294205,0.0418093241751194,0.02248843014240265,0.29191964864730835,0.12483850121498108,0.09731921553611755,0.08428721874952316,-0.08557005971670151,0.14794610440731049,0.1594918817281723,0.29268336296081543,0.2500907778739929,0.04807545617222786},{-0.2207040935754776,-0.18974772095680237,0.16268980503082275,-0.11615246534347534,-0.026636268943548203,0.025864798575639725,-0.05526132136583328,0.051737766712903976,0.22906523942947388,0.16611367464065552,0.2788625955581665,0.03211862966418266,-0.31503790616989136,0.09628860652446747,-0.10634486377239227,0.35422900319099426},{0.4228822886943817,-0.088527150452137,-0.09334518015384674,0.14591343700885773,0.0653127133846283,0.0075197648257017136,0.39694419503211975,-0.31687110662460327,0.17688536643981934,0.2276957780122757,-0.1839095652103424,-0.09069450199604034,0.1785508394241333,-0.13955970108509064,-0.2817777097225189,-0.26377105712890625},{-0.2747020721435547,0.14416435360908508,-0.17570361495018005,0.24924376606941223,0.1539149135351181,-0.2725531756877899,0.058314453810453415,-0.08379721641540527,0.2725750505924225,0.21922872960567474,-0.25361260771751404,-0.1368124932050705,0.2384040653705597,-0.1808437705039978,-0.023250309750437737,0.022699907422065735}};
static const float actor_encoder_self_encoder_2_weight[16][16] = {{-0.23159468173980713,-0.053485624492168427,-0.2921289801597595,-0.27217549085617065,0.3617406487464905,0.14800718426704407,-0.34355226159095764,0.24047969281673431,-0.3499331474304199,0.03232888877391815,-0.40425026416778564,0.2242264449596405,0.23849351704120636,-0.35356253385543823,-0.15616068243980408,-0.17546746134757996},{0.20231963694095612,-0.38517341017723083,0.10783418267965317,0.11565062403678894,-0.20199845731258392,0.028836607933044434,0.13321684300899506,-0.09805894643068314,-0.06925621628761292,0.3909439444541931,0.2648524343967438,-0.38787412643432617,-0.16841617226600647,0.15875186026096344,-0.16168926656246185,-0.11743554472923279},{-0.4631931781768799,-0.15672801434993744,-0.1834251433610916,-0.287417471408844,-0.36688435077667236,-0.22308027744293213,-0.4237046241760254,-0.4390917420387268,0.09272780269384384,-0.04312523081898689,0.22150056064128876,-0.4241968095302582,0.16925251483917236,0.1546097844839096,0.1842554807662964,-0.095542773604393},{0.33387693762779236,-0.18420378863811493,-0.06630346924066544,-0.07320085912942886,0.30431169271469116,-0.22055955231189728,-0.39834728837013245,0.22966349124908447,0.1543978750705719,0.32801297307014465,0.0607689805328846,-0.15727925300598145,0.2185506671667099,-0.4992753863334656,0.18024462461471558,-0.059472616761922836},{-0.1323850154876709,-0.4493730664253235,-0.12886092066764832,0.6154054403305054,0.36230331659317017,0.3308623731136322,-0.348796546459198,-0.03870973363518715,0.08183853328227997,0.039277706295251846,-0.3558059632778168,0.2519671320915222,-0.09321566671133041,0.18772028386592865,-0.35772445797920227,-0.34311193227767944},{0.3891635239124298,-0.007893349044024944,-0.12479855120182037,-0.10745906829833984,0.1869315356016159,-0.008606680668890476,0.015087729319930077,-0.21559755504131317,-0.2410845011472702,0.3216830790042877,0.37850379943847656,0.1332646757364273,0.24840955436229706,-0.10449699312448502,-0.4317706227302551,-0.0012999334139749408},{-0.047837670892477036,0.35829389095306396,-0.3486691415309906,-0.11553061753511429,0.42367181181907654,0.12006059288978577,0.026270924136042595,0.2829640209674835,-0.455092191696167,0.19172251224517822,0.3128701150417328,-0.4268004298210144,-0.19574381411075592,0.5104311108589172,0.1514514535665512,-0.3438889980316162},{-0.20092906057834625,0.09176574647426605,0.2130550593137741,0.3641376793384552,0.46956926584243774,-0.41638097167015076,0.21691332757472992,0.025800807401537895,0.4008060097694397,0.507091224193573,0.3176521956920624,-0.06143468618392944,0.30824437737464905,0.4277622699737549,-0.4181579053401947,0.047408077865839005},{-0.024913521483540535,0.37153831124305725,-0.14769434928894043,0.07395338267087936,0.3192765712738037,-0.2336997538805008,-0.09134958684444427,-0.2583070695400238,0.3323977291584015,0.04903062433004379,0.21058835089206696,-0.17461223900318146,0.003399011678993702,0.06121128797531128,0.03366298973560333,0.28267091512680054},{-0.4412698745727539,-0.013546448200941086,0.24238479137420654,0.2808278799057007,0.41686394810676575,0.09976059943437576,0.32735970616340637,-0.3249983489513397,-0.12754562497138977,-0.21301990747451782,0.2917829155921936,-0.012835307978093624,0.2559702396392822,0.37172701954841614,-0.48038607835769653,-0.28089597821235657},{-0.13982465863227844,-0.16006886959075928,0.054651111364364624,-0.28215065598487854,0.3394767940044403,-0.07305405288934708,0.298698365688324,0.3599763512611389,-0.4770036041736603,0.12683628499507904,-0.061862099915742874,0.3061647117137909,0.41198596358299255,0.1272491067647934,0.33730044960975647,0.2165525257587433},{-0.07521091401576996,0.2126820683479309,-0.3826810121536255,0.16678014397621155,0.11189495772123337,0.3707696795463562,0.275106817483902,0.16588479280471802,0.18208499252796173,0.4101615250110626,-0.2531428337097168,0.032737646251916885,-0.3807782828807831,0.39297032356262207,0.2942686080932617,0.3390961289405823},{-0.3126564919948578,-0.27746909856796265,-0.35438409447669983,-0.10326214879751205,-0.13257978856563568,-0.14812831580638885,0.3761356770992279,-0.29750731587409973,-0.3487551510334015,0.06877370923757553,0.13926583528518677,-0.26778143644332886,0.37896403670310974,-0.13781867921352386,-0.2157084345817566,-0.0656561553478241},{0.4889962375164032,-0.3986782729625702,-0.20121383666992188,-0.28038841485977173,-0.0221162810921669,0.32986387610435486,0.07624106854200363,-0.016674641519784927,-0.14388690888881683,0.13574708998203278,0.04591706022620201,-0.01309202704578638,0.3094203770160675,-0.08469182997941971,-0.4018113613128662,0.13608264923095703},{-0.3296237289905548,-0.00941044744104147,0.22393904626369476,-0.1494990438222885,-0.20735500752925873,-0.12224958837032318,-0.04685330018401146,-0.0041281916201114655,0.1176108792424202,-0.24647028744220734,-0.12288791686296463,-0.09296930581331253,-0.351164847612381,-0.1462339609861374,-0.1720983386039734,-0.23411688208580017},{-0.27004995942115784,0.2822313904762268,-0.25777244567871094,-0.41040608286857605,0.21429380774497986,0.16184747219085693,0.106265127658844,0.1923658698797226,0.009034114889800549,0.1651085764169693,0.1553097665309906,-0.3437705636024475,0.21326419711112976,-0.0228811576962471,0.10461875796318054,0.011620540171861649}};
static const float actor_encoder_feed_forward_0_weight[32][32] = {{-0.1787761151790619,-0.1497204750776291,0.007291950285434723,0.006486185360699892,-0.16530314087867737,-0.2222619354724884,-0.2406785786151886,-0.1950414627790451,0.31928500533103943,-0.29466909170150757,0.06850133836269379,0.3411964476108551,0.2208365648984909,0.01523466594517231,0.31841856241226196,-0.026691937819123268,0.1623425930738449,0.0017284455243498087,-0.22626203298568726,-0.2274772822856903,-0.23855528235435486,0.08425354212522507,-0.22582437098026276,0.218139186501503,-0.13503402471542358,-0.20063093304634094,-0.045231275260448456,-0.3237830400466919,0.26282623410224915,0.023867856711149216,-0.3105972707271576,0.020611876621842384},{-0.2979675531387329,-0.1470557451248169,0.1639048308134079,0.009641001932322979,-0.00047487756819464266,-0.23445560038089752,0.3100833594799042,-0.07226339727640152,-0.292603999376297,0.1014152467250824,-0.06501216441392899,-0.2423495501279831,0.25443869829177856,-0.08774875849485397,0.07828933000564575,-0.01089323591440916,0.15371787548065186,0.33237674832344055,0.06156989559531212,-0.006233213469386101,0.3179393410682678,0.2198185920715332,0.24397210776805878,-0.259431928396225,-0.0927121564745903,-0.2041010856628418,0.1428714543581009,0.16507412493228912,-0.23528745770454407,-0.3266860246658325,-0.020725620910525322,0.20871424674987793},{-0.13174913823604584,-0.1364726573228836,0.20140033960342407,0.2710285782814026,-0.14233674108982086,0.029001722112298012,-0.13960334658622742,0.2610785663127899,0.1517023891210556,0.18071788549423218,0.11957588791847229,0.07776098698377609,-0.23338618874549866,-0.11122222989797592,0.0448971688747406,0.24254253506660461,0.16062411665916443,0.07024378329515457,0.32150179147720337,0.11266372352838516,0.21466970443725586,0.04262750968337059,0.35327407717704773,0.20627634227275848,0.25314828753471375,0.22497612237930298,0.18360064923763275,-0.021139781922101974,0.2577929198741913,0.15213987231254578,-0.2848377823829651,0.20917172729969025},{0.051590535789728165,0.31441351771354675,-0.04689736291766167,-0.03090694732964039,0.09227921068668365,0.3515903353691101,0.1881173700094223,0.1007758378982544,-0.33677712082862854,-0.1410866528749466,-0.06739440560340881,0.1616082489490509,0.2701529562473297,-0.1535332202911377,0.02411910519003868,-0.28871628642082214,0.00835693720728159,-0.05869825929403305,0.1535400152206421,0.25764575600624084,-0.2468254268169403,0.17315790057182312,0.23111973702907562,0.2602423429489136,0.11959577351808548,0.246102973818779,0.3543102741241455,-0.2923966944217682,0.06572430580854416,0.3204299211502075,-0.23054741322994232,0.04140724241733551},{0.036931391805410385,0.01579332910478115,-0.13922445476055145,0.2611677646636963,-0.042673420161008835,0.40012219548225403,-0.033285025507211685,-0.08760279417037964,-0.38089028000831604,0.1369183212518692,0.19077803194522858,0.0075362385250627995,-0.27146947383880615,-0.2123783379793167,-0.2440921813249588,-0.4422655403614044,-0.0622427873313427,0.14932799339294434,0.012077916413545609,-0.15728838741779327,0.21485598385334015,-0.17346814274787903,-0.07419311255216599,-0.30147671699523926,0.2231828272342682,-0.22342833876609802,-0.30579763650894165,0.021620817482471466,0.3152158260345459,0.1456518918275833,-0.047743141651153564,-0.1779845505952835},{-0.12572450935840607,-0.23486056923866272,-0.44613948464393616,-0.042395055294036865,-0.36280858516693115,0.29731056094169617,0.15204638242721558,0.04123426601290703,-0.1817101538181305,0.198714017868042,0.32841411232948303,0.19455860555171967,-0.05856289714574814,0.022491779178380966,0.22979329526424408,0.15519025921821594,-0.009350109845399857,-0.23798112571239471,-0.12487489730119705,-0.0809028372168541,0.18217578530311584,0.008827009238302708,0.020436758175492287,-0.28641724586486816,-0.07568956911563873,-0.09775323420763016,-0.1415330320596695,0.15712366998195648,0.345118910074234,-0.0017533405916765332,-0.06542688608169556,-0.0952269434928894},{0.15167254209518433,0.1796317845582962,0.23271016776561737,-0.009003919549286366,-0.07376428693532944,-0.050739165395498276,-0.08582236617803574,0.2308158427476883,-0.25101178884506226,0.15213622152805328,0.2909291982650757,0.30518168210983276,0.18848280608654022,0.08994702994823456,-0.07252752780914307,-0.1372954249382019,-0.19047541916370392,-0.009329285472631454,-0.10323433578014374,-0.2239261269569397,-0.19924555718898773,0.41282451152801514,0.13595838844776154,-0.20809797942638397,-0.18076537549495697,0.11848515272140503,0.11888311803340912,0.3241986036300659,-0.13121072947978973,-0.33943334221839905,0.17347939312458038,-0.19259752333164215},{-0.1594301164150238,0.009816506877541542,0.1576385498046875,0.19446152448654175,-0.12592467665672302,0.11760995537042618,-0.27027225494384766,-0.214351624250412,-0.02786601148545742,-0.2674822211265564,0.16021151840686798,-0.2632140815258026,0.11678505688905716,-0.1591046154499054,-0.21279701590538025,0.31915217638015747,-0.36377087235450745,-0.013606943190097809,0.30476874113082886,0.06363094598054886,-0.006567645817995071,-0.22696423530578613,-0.17306503653526306,-0.09590218961238861,0.15508416295051575,-0.03118881955742836,0.17298804223537445,-0.05506349354982376,0.28067585825920105,0.17876848578453064,0.22121590375900269,0.2847015857696533},{-0.00033278181217610836,0.18640448153018951,-0.1571827083826065,0.21277785301208496,-0.1684262603521347,-0.1447679102420807,0.033602550625801086,-0.04198278859257698,0.21116839349269867,-0.05049600824713707,-0.0682082325220108,0.1066087856888771,0.25112152099609375,0.18234211206436157,0.23678471148014069,0.15344077348709106,0.22827968001365662,0.13021141290664673,-0.30096662044525146,-0.12397293001413345,0.019825363531708717,0.2284703105688095,-0.13102051615715027,0.010651792399585247,0.17397785186767578,-0.13946880400180817,-0.06586216390132904,0.01894783042371273,0.05590899661183357,-0.17333324253559113,0.0017957626841962337,0.40483278036117554},{0.25556713342666626,0.1097971647977829,-0.14720988273620605,0.15970057249069214,0.009663199074566364,-0.25087931752204895,0.15039755403995514,0.1981986165046692,-0.03768223524093628,0.18742536008358002,-0.030291341245174408,-0.1999334990978241,-0.20545025169849396,-0.2466573268175125,-0.264261394739151,0.12454213947057724,-0.4021293818950653,-0.06882888078689575,-0.21472525596618652,-0.1616998165845871,0.032659124583005905,-0.20245836675167084,-0.3367433249950409,0.10082017630338669,0.29485082626342773,-0.2010921686887741,0.32100412249565125,0.1293327957391739,0.11541615426540375,-0.1032523363828659,0.29867470264434814,0.12856508791446686},{-0.12130144983530045,-0.04701776057481766,0.09530968219041824,0.13487470149993896,0.30774661898612976,0.20811520516872406,0.038745757192373276,-0.0044716596603393555,-0.19881534576416016,0.08231930434703827,-0.17479096353054047,0.31263047456741333,-0.27156996726989746,0.33414432406425476,-0.12518416345119476,-0.04612363502383232,0.14332784712314606,0.28377148509025574,0.1544923186302185,-0.2069128155708313,0.1966850310564041,-0.014518375508487225,0.2166910320520401,0.12386932969093323,-0.3016539216041565,-0.20003145933151245,-0.14289750158786774,-0.19807010889053345,-0.02378254383802414,-0.3077118992805481,0.06852581351995468,-0.22462961077690125},{0.27780547738075256,0.24441106617450714,-0.14024516940116882,-0.04461795836687088,-0.2520952820777893,0.11294214427471161,0.11315280199050903,-0.24860049784183502,-0.06425801664590836,0.24841250479221344,0.142962247133255,-0.19574971497058868,-0.2056579291820526,-0.1120765283703804,-0.05265923961997032,0.043346211314201355,0.17283226549625397,-0.01785317435860634,0.2398318648338318,0.28709590435028076,0.4024556279182434,-0.1794598549604416,-0.13914772868156433,0.023402201011776924,-0.2248687595129013,-0.02177594229578972,0.2334849089384079,-0.020837267860770226,0.004015062935650349,0.2196347564458847,0.3132656514644623,0.05341067537665367},{0.12520399689674377,0.05503476411104202,0.22255371510982513,0.3262220323085785,0.0024182561319321394,0.1447698473930359,-0.08961308002471924,-0.2241169512271881,-0.2724590003490448,0.016402699053287506,-0.0795513316988945,-0.028179345652461052,0.10692070424556732,0.1503363847732544,-0.29998666048049927,-0.0035272862296551466,0.1510305404663086,0.10741011053323746,0.07197374850511551,0.19606973230838776,0.04286551848053932,0.18545560538768768,0.2591061294078827,-0.28519725799560547,0.19205914437770844,-0.20255786180496216,-0.3450084328651428,0.15459750592708588,-0.04404476284980774,0.0709332823753357,0.07150007784366608,-0.12940940260887146},{-0.08541809022426605,0.11271318048238754,-0.06608373671770096,0.2466401904821396,0.25188887119293213,0.12878666818141937,0.08828191459178925,0.2920921742916107,0.15662850439548492,-0.15614302456378937,0.18294647336006165,0.13769030570983887,-0.3496507704257965,-0.1527763158082962,-0.16752177476882935,-0.10792364925146103,0.035939231514930725,0.19264863431453705,-0.03777167201042175,-0.13443702459335327,0.3114049434661865,-0.23948317766189575,-0.0367850586771965,0.3304116129875183,0.12312234938144684,-0.32896652817726135,0.19758760929107666,0.22274848818778992,-0.2877478301525116,0.2157888263463974,0.046604450792074203,0.25618094205856323},{-0.0857534110546112,-0.17198145389556885,0.0038417773321270943,0.19786405563354492,-0.07818666100502014,-0.16380037367343903,-0.0554044209420681,0.27741530537605286,0.07810047268867493,0.29833757877349854,0.027207113802433014,-0.23113185167312622,-0.292385071516037,-0.2601485550403595,-0.13703031837940216,0.3576037585735321,0.12399011850357056,0.2772290110588074,0.009929553605616093,0.043772097676992416,-0.17106787860393524,-0.020478107035160065,-0.11038143932819366,0.3059362471103668,0.19209425151348114,0.28225240111351013,-0.08670862019062042,0.07750052213668823,-0.06567979604005814,0.16566765308380127,0.1498507410287857,0.03661946579813957},{0.1166754886507988,0.033160142600536346,-0.27033963799476624,-0.25168466567993164,-0.22211356461048126,0.15782320499420166,-0.021471768617630005,0.22284363210201263,0.2610340416431427,0.1251789778470993,-0.07283076643943787,0.0001852940913522616,0.2833305299282074,0.05010363832116127,-0.09170204401016235,0.23572106659412384,0.1816728115081787,0.12768320739269257,0.11602857708930969,0.15768781304359436,0.011901858262717724,0.12804654240608215,0.17033201456069946,0.14264912903308868,-0.04791322723031044,0.09968245029449463,-0.3273043632507324,-0.007502442691475153,0.28558897972106934,-0.3366895914077759,-0.19016940891742706,0.2126542180776596},{0.05912218615412712,-0.127949059009552,0.06243409216403961,-0.1237366646528244,0.09168253093957901,0.1282699704170227,0.09693460166454315,-0.0933893546462059,0.1231260821223259,0.12938188016414642,0.1202022135257721,-0.18395376205444336,-0.06773197650909424,-0.11443890631198883,0.2307533323764801,0.09230266511440277,0.0883396789431572,-0.20994046330451965,-0.15937435626983643,0.12489234656095505,-0.21291932463645935,-0.10081387311220169,-0.05161826312541962,0.10143163055181503,0.3372792899608612,-0.15638798475265503,0.19319801032543182,0.079439677298069,0.18492822349071503,0.17543534934520721,0.2167178988456726,0.09555798768997192},{-0.11902928352355957,-0.09534826129674911,-0.07154525071382523,-0.1985888034105301,-0.09040676802396774,-0.15159650146961212,-0.1842307448387146,-0.1853078156709671,0.0826018899679184,-0.2353750765323639,-0.0074723465368151665,0.09684354811906815,0.14377856254577637,-0.07475203275680542,0.19344891607761383,0.05835103988647461,-0.07754012942314148,-0.24919010698795319,0.2748467028141022,-0.20311444997787476,0.21630564332008362,-0.04358943924307823,-0.23155780136585236,-0.1977003961801529,0.14250928163528442,-0.01488712802529335,-0.06885918974876404,0.009316002950072289,-0.2748950719833374,-0.3101375699043274,0.28649747371673584,0.057088274508714676},{0.28517794609069824,0.1189374029636383,0.015917660668492317,-0.03272394835948944,0.01009416300803423,0.2100122570991516,-0.21579088270664215,-0.26792511343955994,0.16547143459320068,-0.18863053619861603,0.02013096772134304,0.017996421083807945,-0.3940345048904419,-0.16197016835212708,0.27216675877571106,-0.058541566133499146,-0.25634944438934326,-0.3137371838092804,0.30622953176498413,0.15569528937339783,0.07698626071214676,0.2966044247150421,-0.018031712621450424,0.07847515493631363,-0.16721372306346893,-0.12993508577346802,-0.030285952612757683,0.011093603447079659,0.025541188195347786,-0.14716316759586334,-0.2153347134590149,-0.05722576752305031},{-0.2502177953720093,-0.15281523764133453,0.1703840047121048,0.252129465341568,0.13878799974918365,0.0664043128490448,-0.12622304260730743,-0.008014720864593983,0.26338231563568115,0.14000095427036285,-0.08985361456871033,-0.26693302392959595,0.16822688281536102,-0.008463753387331963,0.13884492218494415,-0.05175831913948059,0.11545184254646301,-0.17608296871185303,-0.1721578985452652,-0.013681640848517418,-0.22503480315208435,-0.27784672379493713,-0.16096436977386475,-0.212430939078331,-0.07370012998580933,-0.21222048997879028,0.02915951982140541,0.20275138318538666,0.07210931926965714,0.13321232795715332,-0.2620689570903778,0.35540536046028137},{-0.37880149483680725,-0.029774179682135582,0.16471323370933533,-0.13631300628185272,-0.25681814551353455,0.08078508079051971,0.14699730277061462,-0.03038635291159153,-0.2955050468444824,0.07694128900766373,0.035899028182029724,-0.21146602928638458,0.30083367228507996,-0.19141720235347748,0.016079213470220566,-0.22375674545764923,0.11701064556837082,-0.24812640249729156,0.2800828516483307,0.22410254180431366,-0.1487785279750824,-0.24858784675598145,-0.11920758336782455,0.2511180639266968,0.09591555595397949,-0.3812251687049866,-0.08117262274026871,0.2202920913696289,0.11620798707008362,-0.15671515464782715,0.22560319304466248,0.26966553926467896},{-0.13281428813934326,-0.09436262398958206,0.04628394544124603,0.11039680987596512,-0.1971120536327362,0.054038070142269135,0.3432706296443939,0.26688891649246216,-0.21899005770683289,0.19458504021167755,0.24299338459968567,0.038500625640153885,0.08152066171169281,0.29398196935653687,-0.045079320669174194,-0.18108122050762177,0.2279459536075592,-0.009962894953787327,-0.06876305490732193,-0.1635504961013794,-0.08820643275976181,-0.26156073808670044,-0.12955603003501892,-0.29359865188598633,0.028255145996809006,0.19509077072143555,-0.06689967960119247,-0.16831496357917786,-0.27562034130096436,0.14882750809192657,0.04668400436639786,0.15007884800434113},{-0.3132617175579071,0.15776051580905914,0.06749380379915237,0.017603714019060135,0.24466893076896667,0.27478909492492676,0.3318614363670349,-0.1201510950922966,0.19884634017944336,-0.25446730852127075,0.14980725944042206,0.16170869767665863,0.13993974030017853,0.17844164371490479,-0.15040454268455505,-0.2644155025482178,-0.11566372960805893,0.2833065390586853,-0.197322815656662,-0.17753970623016357,-0.16157037019729614,0.31690773367881775,0.15975862741470337,0.2173275500535965,-0.12842696905136108,-0.22072193026542664,0.13444188237190247,0.2836759686470032,0.04296158254146576,0.04673457890748978,-0.13856184482574463,-0.05103166028857231},{0.06455401331186295,-0.13931779563426971,-0.23664048314094543,-0.282748818397522,-0.2601708173751831,-0.025139229372143745,0.08437695354223251,-0.1510949432849884,0.07614468038082123,-0.17020907998085022,-0.1060662642121315,-0.2605352997779846,-0.28582456707954407,-0.06001869961619377,-0.24030740559101105,-0.04138583689928055,-0.15151581168174744,-0.11890152841806412,0.08478795737028122,0.18612028658390045,-0.007462875917553902,0.10272791981697083,0.04025494307279587,0.292428582906723,-0.1487228125333786,-0.30407828092575073,0.01138033252209425,-0.10787688940763474,-0.19511400163173676,-0.03272789344191551,-0.13629156351089478,-0.05529840290546417},{0.07454941421747208,-0.02796141803264618,0.31775742769241333,-0.05426620692014694,0.0279387217015028,0.1676161140203476,-0.06729234755039215,0.13830430805683136,0.2491532862186432,0.0430355966091156,0.17870277166366577,-0.191104918718338,-0.13306650519371033,0.18617843091487885,-0.27888405323028564,0.07828506827354431,-0.08954712748527527,0.08909980207681656,-0.040491919964551926,0.026708830147981644,-0.2640005052089691,-0.19124124944210052,-0.08856591582298279,-0.1493886262178421,0.00913243182003498,0.25058236718177795,0.10610342770814896,0.12166203558444977,-0.036558445543050766,0.042328353971242905,-0.05791285261511803,0.1923293173313141},{-0.02336524985730648,-0.072840116918087,0.2957504391670227,-0.0024504554457962513,0.15542151033878326,0.2609797418117523,0.32666632533073425,-0.08809062093496323,0.03223952278494835,-0.1685468554496765,-0.11643502861261368,0.14205823838710785,0.2692442536354065,-0.110761858522892,0.1555609107017517,0.2994615435600281,0.05399679020047188,-0.1281796246767044,0.23949812352657318,-0.15155498683452606,-0.2271476536989212,-0.26443231105804443,0.15359528362751007,-0.30181288719177246,0.15708084404468536,-0.1605943739414215,0.13841329514980316,0.28143975138664246,0.1853964477777481,0.24804651737213135,-0.07602861523628235,-0.11572489142417908},{-0.22234390676021576,0.26407960057258606,0.04760786145925522,-0.1240101084113121,-0.14534416794776917,0.05205255746841431,0.1782800704240799,0.0018527049105614424,0.07188532501459122,0.190043106675148,0.2713562548160553,-0.1825769692659378,-0.17493322491645813,-0.22238725423812866,-0.17353220283985138,-0.27155569195747375,0.30956676602363586,0.24545803666114807,0.015885790809988976,0.23363929986953735,0.2245267778635025,0.2422274798154831,-0.042309824377298355,0.07730557024478912,0.2926308810710907,-0.07019609957933426,0.0065109506249427795,-0.12703026831150055,0.2033928632736206,0.07758598774671555,0.2698134779930115,0.08701745420694351},{0.21385948359966278,-0.03244295343756676,0.2447371780872345,-0.12115532159805298,-0.2996159791946411,0.416979044675827,0.011224626563489437,0.38825422525405884,0.05744915455579758,0.20667271316051483,0.010907676070928574,-0.2498369812965393,0.1392376720905304,0.24642552435398102,-0.008682768791913986,-0.32026341557502747,-0.023364929482340813,0.27231812477111816,-0.066535085439682,0.0423414409160614,0.019055286422371864,0.2834734320640564,-0.06553377211093903,-0.289864182472229,-0.10950849205255508,-0.17597343027591705,0.17908528447151184,0.17432574927806854,-0.11434770375490189,0.14652761816978455,-0.10628504306077957,0.17635929584503174},{0.02463235892355442,-0.27878156304359436,0.26378798484802246,0.1232338696718216,-0.15447406470775604,-0.2119731456041336,-0.19670917093753815,0.20385053753852844,0.24952374398708344,0.30991390347480774,0.27350732684135437,-0.3040573000907898,-0.38823267817497253,-0.14527548849582672,0.08141327649354935,0.25941547751426697,0.2831847071647644,0.12458307296037674,-0.19440153241157532,-0.14247240126132965,0.12844200432300568,-0.15245452523231506,0.08347512781620026,-0.22788259387016296,-0.21250730752944946,-0.3184850215911865,-0.16888363659381866,-0.025470811873674393,0.2638956904411316,0.009503670036792755,0.07142582535743713,0.07985495775938034},{-0.06269686669111252,-0.14760512113571167,0.15057949721813202,-0.06124158576130867,-0.23350408673286438,-0.05868464708328247,-0.2058437317609787,-0.30593106150627136,0.15338577330112457,0.06665514409542084,0.1758633404970169,-0.0627649798989296,0.011465577408671379,0.22482727468013763,-0.21254537999629974,-0.08714566379785538,0.2586134970188141,0.24086205661296844,0.2574375569820404,-0.023787755519151688,0.10265554487705231,0.10274997353553772,-0.08933887630701065,-0.18771244585514069,-0.18903620541095734,-0.30356964468955994,-0.28384485840797424,-0.1824914962053299,-0.05185769498348236,-0.22805769741535187,0.11866888403892517,-0.23086678981781006},{-0.003349798498675227,0.2403387576341629,0.09973748028278351,-0.16289843618869781,-0.2220880091190338,-0.03865627571940422,0.02285943180322647,0.03888779878616333,-0.1299605816602707,-0.22341258823871613,-0.0012235265458002687,-0.2257804423570633,-0.41145333647727966,-0.0670442208647728,0.11996828019618988,0.0717104971408844,-0.2103997766971588,-0.18348605930805206,0.20578184723854065,-0.14665034413337708,-0.06849443167448044,0.0018448695773258805,-0.11903555691242218,0.3412904739379883,-0.22386518120765686,-0.28097572922706604,-0.2036990076303482,0.051419567316770554,-0.1437838226556778,-0.1487385779619217,-0.11888335645198822,-0.05496532842516899},{0.12392768263816833,0.12382834404706955,0.08857188373804092,-0.09108229726552963,-0.039964333176612854,0.1041475385427475,-0.012531016021966934,0.029923751950263977,0.1131395548582077,-0.09052880853414536,0.18540354073047638,0.08609317988157272,0.21211035549640656,-0.16769953072071075,0.035108380019664764,0.14639942348003387,0.23037411272525787,-0.2632817029953003,-0.03183117136359215,-0.15998682379722595,0.10497274249792099,0.17027781903743744,0.2376629114151001,-0.1719272881746292,0.30613774061203003,-0.10140763223171234,-0.15256044268608093,0.29953494668006897,0.12299143522977829,0.1978674829006195,0.0404818020761013,0.055514995008707047}};
static const float action_parameterization_distribution_linear_weight[32][4] = {{0.16482937335968018,-0.05406714230775833,-0.03228359669446945,-0.19391827285289764},{-0.3452642261981964,0.25124436616897583,-0.2755517065525055,0.02611902914941311},{-0.25233495235443115,-0.33143162727355957,0.44046345353126526,0.12531162798404694},{-0.21142809092998505,-0.354324609041214,-0.23492681980133057,-0.19694481790065765},{0.3133805990219116,-0.018093695864081383,0.40180110931396484,0.18331672251224518},{0.287029892206192,-0.1728692650794983,-0.09960932284593582,-0.27414947748184204},{0.1437264084815979,-0.17116977274417877,0.14563632011413574,-0.18605339527130127},{0.22442759573459625,0.031945932656526566,-0.01301401387900114,0.17757543921470642},{0.05189524218440056,0.15069928765296936,0.11092673987150192,-0.007874330505728722},{0.2607211172580719,0.11229149252176285,0.22259686887264252,0.11354400962591171},{-0.20117628574371338,0.013066153973340988,-0.2417706698179245,0.15528225898742676},{0.32793372869491577,0.3072976768016815,0.16663706302642822,-0.24839958548545837},{0.17302514612674713,-0.17840459942817688,-0.19408784806728363,0.14801143109798431},{0.12488045543432236,0.004175719805061817,-0.26792433857917786,0.28404316306114197},{0.13821934163570404,0.20758160948753357,-0.26199278235435486,0.04648973420262337},{-0.12634415924549103,0.19649051129817963,0.0816071406006813,0.36973708868026733},{-0.13208051025867462,-0.17501406371593475,0.2489365041255951,0.20168426632881165},{-0.03509391471743584,0.20692132413387299,-0.2944168746471405,0.31258028745651245},{-0.19738759100437164,-0.34178847074508667,0.10618381202220917,0.3080666959285736},{0.015290900133550167,-0.18337102234363556,0.15049126744270325,0.21318906545639038},{0.24654895067214966,-0.39531850814819336,-0.43568381667137146,0.08883210271596909},{0.11145009845495224,0.020070450380444527,0.07154405862092972,0.18681828677654266},{0.05980963259935379,-0.3306470811367035,-0.10918416827917099,0.3092428147792816},{0.08735787868499756,0.2926871180534363,0.04003181308507919,0.04616374149918556},{-0.38667306303977966,-0.2671559751033783,-0.16542907059192657,0.023982856422662735},{-0.2685220241546631,0.09104783087968826,0.40763527154922485,-0.10855675488710403},{-0.3332546055316925,0.3499983847141266,-0.3830719292163849,0.08652643114328384},{0.37622329592704773,0.2861601412296295,0.19263917207717896,0.22078830003738403},{-0.3355790376663208,0.09713124483823776,-0.13196781277656555,-0.131189227104187},{0.16060353815555573,0.13122603297233582,0.02006768062710762,-0.22601114213466644},{0.20334340631961823,0.058501049876213074,0.04537264630198479,0.08159883320331573},{-0.11625492572784424,0.1878400295972824,-0.3280462324619293,0.06497946381568909}};
static const float actor_encoder_self_encoder_0_bias[16] = {0.027878936380147934,0.04305000603199005,-0.07855596393346786,-0.1005556657910347,0.01908758096396923,0.0873468890786171,-0.18410825729370117,0.017303284257650375,0.041577551513910294,-0.06146536022424698,-0.0304422527551651,0.09079307317733765,-0.10060946643352509,0.04490678757429123,-0.003956074360758066,-0.1022646576166153};
static const float actor_encoder_self_encoder_2_bias[16] = {0.045096367597579956,-0.04063517972826958,0.022766796872019768,-0.002870795549824834,-0.024241672828793526,-0.012928697280585766,0.02839985117316246,0.03693147376179695,-0.01772558130323887,-0.01645781099796295,-0.008172399364411831,-0.03434167802333832,-0.03367123007774353,0.014582504518330097,-0.0033230665139853954,0.0754271075129509};
static const float actor_encoder_feed_forward_0_bias[32] = {-0.06057067960500717,0.013633809052407742,0.06288504600524902,0.0007211426855064929,0.038066934794187546,0.009836087934672832,0.0391496904194355,0.03811901435256004,-0.01885787397623062,0.012625021860003471,0.0009187370887957513,0.006334890145808458,0.0673399493098259,0.022008167579770088,0.0025692740455269814,0.039955008774995804,0.07079974561929703,0.021875688806176186,0.00862519908696413,0.009095065295696259,-0.049737121909856796,0.03703055903315544,0.04972659423947334,-0.016473514959216118,0.007933339104056358,0.052089422941207886,0.008649304509162903,0.02626919373869896,-0.006289986427873373,0.020506680011749268,-0.013392571359872818,0.02864065393805504};
static const float action_parameterization_distribution_linear_bias[4] = {-0.002448622602969408,-0.0158042311668396,0.014901799149811268,0.043478723615407944};
static const float actor_encoder_obstacle_encoder_0_weight[16][16] = {{0.17530670762062073,0.11056073009967804,-0.004149627406150103,0.11611366271972656,-0.10110372304916382,0.18742872774600983,-0.2615731656551361,-0.15346792340278625,0.2783993184566498,0.029897397384047508,0.2884626090526581,0.4287295639514923,0.3668290674686432,-0.6710689663887024,-0.14521095156669617,-0.5316964387893677},{0.4377199113368988,0.27396151423454285,0.36814624071121216,0.01375563908368349,-0.12505990266799927,-0.0951421931385994,-0.5207484364509583,0.06571993976831436,-0.33865904808044434,-0.07927963882684708,-0.3596274256706238,0.38342633843421936,0.005602011922746897,-0.35808661580085754,-0.11538083106279373,-0.5926559567451477},{-0.10756316035985947,-0.258894145488739,0.23179183900356293,0.3396562933921814,0.186178058385849,0.06945629417896271,-0.2468346208333969,0.2660055458545685,-0.021456781774759293,0.22555378079414368,0.01385987177491188,0.0704943984746933,-0.13702575862407684,0.13037735223770142,0.0229715034365654,-0.4618518054485321},{-0.03790644183754921,0.23885631561279297,0.38747695088386536,0.5764195322990417,-0.035430848598480225,-0.2408982366323471,-0.18423980474472046,0.10964257270097733,0.5317406058311462,-0.11063245683908463,-0.1045362576842308,0.18535105884075165,-0.21898867189884186,0.42393824458122253,0.3474597632884979,-0.09976979345083237},{-0.17178308963775635,0.2653345763683319,0.3259640336036682,0.45932045578956604,-0.20065760612487793,-0.31303250789642334,-0.3840705156326294,0.4053863286972046,0.3448984920978546,-0.01993943564593792,-0.4259697198867798,0.28796735405921936,-0.3285115361213684,-0.043815728276968,0.14793270826339722,0.26422056555747986},{-0.39093536138534546,-0.1529516577720642,-0.024553902447223663,-0.3783235251903534,-0.3405265808105469,-0.24144068360328674,0.00494193471968174,-0.04728298261761665,0.4240695536136627,0.019901886582374573,0.03818125277757645,-0.19763588905334473,-0.10338990390300751,0.11693570762872696,-0.34793055057525635,0.1384732872247696},{0.077692911028862,0.06054479628801346,0.39239153265953064,-0.23378697037696838,0.12177445739507675,-0.17195233702659607,-0.23141907155513763,-0.27725884318351746,0.20865507423877716,-0.14108695089817047,0.11203204840421677,0.18514782190322876,-0.22457414865493774,-0.21028801798820496,0.4617139995098114,0.01683899573981762},{-0.3396538197994232,0.03149624168872833,-0.2537510097026825,-0.08540122210979462,-0.054606013000011444,-0.6488137245178223,-0.3036559522151947,0.5921042561531067,-0.1005951538681984,0.4969037175178528,0.2445974498987198,0.36956116557121277,0.31828269362449646,-0.2290453165769577,0.5692214369773865,-0.28048941493034363},{-0.06471745669841766,0.030122196301817894,-0.2631898820400238,-0.15326057374477386,-0.2624717354774475,0.1376161277294159,-0.10451808571815491,-0.03645797446370125,-0.2769176959991455,-0.044262584298849106,0.29080602526664734,0.311570942401886,-0.2534225881099701,0.3810019791126251,0.26593148708343506,-0.11375610530376434},{-0.1267102211713791,-0.22855982184410095,0.033572159707546234,0.155954509973526,0.025143392384052277,-0.24435235559940338,-0.517836332321167,0.3054863512516022,-0.25632813572883606,0.1197192445397377,0.44374290108680725,0.23628582060337067,0.18445929884910583,0.3293823301792145,0.16642527282238007,0.10376571118831635},{0.08423301577568054,0.5321476459503174,-0.135231152176857,0.09075560420751572,0.38286909461021423,-0.18423689901828766,-0.3700941801071167,0.2658001184463501,0.1111658364534378,-0.01819516345858574,0.10487695783376694,0.4981842339038849,-0.3518063724040985,-0.1963721662759781,0.046615343540906906,-0.3047587275505066},{0.15289992094039917,0.4037267565727234,0.1465863585472107,-0.14492890238761902,0.5771954655647278,0.2791229486465454,0.06669916957616806,0.10509389638900757,-0.19855590164661407,-0.03889092430472374,0.3290313184261322,0.2941407561302185,0.2505170702934265,-0.19748517870903015,0.2810872793197632,0.08625145256519318},{-0.4114677309989929,-0.3283887207508087,-0.16002769768238068,-0.05871810019016266,0.435852974653244,-0.27137210965156555,0.2881820499897003,-0.2582235634326935,-0.09660226851701736,-0.3024265170097351,0.28542378544807434,-0.2726437449455261,0.2787221670150757,0.03559213504195213,-0.3208773732185364,-0.016878513619303703},{-0.20348753035068512,-0.28234097361564636,0.04056382179260254,-0.003068633144721389,-0.16031359136104584,0.3700126111507416,-0.35621267557144165,-0.30871346592903137,-0.010722956620156765,-0.2733575105667114,-0.22598247230052948,0.28913021087646484,-0.3111782670021057,0.27078983187675476,-0.17244189977645874,0.28253552317619324},{-0.031847916543483734,0.4125622808933258,-0.13536639511585236,0.27927201986312866,0.28525495529174805,0.35372602939605713,0.17577089369297028,0.2618068754673004,0.16706342995166779,-0.508515477180481,-0.03842815384268761,-0.23618555068969727,-0.11438331007957458,-0.3233698904514313,0.0035845180973410606,-0.19288213551044464},{-0.21893656253814697,0.07974202930927277,0.2988850474357605,0.19159258902072906,0.23156553506851196,-0.06038391962647438,-0.0706101581454277,0.13823631405830383,0.10689259320497513,-0.27222639322280884,-0.2595788240432739,0.2858399748802185,0.1829979419708252,-0.2886981964111328,-0.09585460275411606,0.32056039571762085}};
static const float actor_encoder_obstacle_encoder_2_weight[16][16] = {{-0.003666422562673688,-0.2960658371448517,0.23874199390411377,-0.03701663389801979,-0.3325880467891693,0.26903635263442993,-0.40137413144111633,-0.28950467705726624,0.37509897351264954,-0.188721165060997,-0.3989991247653961,-0.4125586748123169,-0.05877293273806572,-0.26162660121917725,-0.07760782539844513,-0.24207927286624908},{-0.26283249258995056,0.004721805453300476,-0.4402882158756256,-0.3582272529602051,0.21152742207050323,0.4179905652999878,0.18927690386772156,-0.2951260507106781,-0.3349796235561371,-0.3677010238170624,-0.22186818718910217,-0.20591092109680176,-0.27323541045188904,-0.008340875618159771,-0.3561181426048279,0.19016678631305695},{0.4531995356082916,-0.3439044654369354,0.2334727942943573,-0.04584468901157379,0.0304966289550066,0.14781804382801056,0.35156452655792236,-0.316348671913147,0.24093472957611084,0.519834578037262,0.3141765892505646,-0.34382888674736023,0.19984468817710876,-0.26395902037620544,0.18593168258666992,0.18310697376728058},{0.41836652159690857,-0.40127140283584595,0.11751163750886917,0.4230712652206421,-0.03707553818821907,0.1759127825498581,-0.3477312922477722,0.11631172895431519,0.3129134476184845,0.26373031735420227,0.024098141118884087,-0.2191881686449051,-0.4102778136730194,0.03903454542160034,0.21177200973033905,-0.1739136129617691},{-0.3432226777076721,-0.0291097741574049,-0.1604844033718109,-0.1487264484167099,0.08006667345762253,0.16464483737945557,0.18398967385292053,-0.2897944450378418,0.348984956741333,0.36672982573509216,0.47524693608283997,0.3180970847606659,0.44710850715637207,0.0002474719367455691,-0.029630254954099655,0.08181693404912949},{-0.23931559920310974,0.07062560319900513,0.1290956437587738,-0.10558152198791504,0.3506292700767517,0.2760835886001587,-0.37122613191604614,-0.24757154285907745,0.3033643066883087,-0.35381007194519043,-0.1848355382680893,-0.34447649121284485,0.1744718700647354,0.0679733157157898,0.06355421990156174,-0.06553833186626434},{0.1749049574136734,0.36682337522506714,0.38205093145370483,-0.19707712531089783,0.40873467922210693,0.18716448545455933,-0.38484513759613037,0.2887723445892334,0.0677819699048996,-0.47911500930786133,-0.42187848687171936,0.39084169268608093,0.1546594798564911,0.20002451539039612,0.14031922817230225,0.1385156214237213},{-0.18548578023910522,-0.4222840368747711,0.32441461086273193,-0.14909563958644867,0.20708823204040527,0.17032186686992645,-0.10106351226568222,-0.2903771698474884,0.02010672353208065,0.34357890486717224,0.036744799464941025,0.1695588231086731,0.08404276520013809,-0.3232117295265198,0.13194891810417175,0.3185875117778778},{0.31944766640663147,-0.1682964265346527,0.25726550817489624,0.14696276187896729,0.1473471224308014,-0.11934914439916611,-0.01839425228536129,0.04780782386660576,0.062238454818725586,-0.07402535527944565,-0.15807943046092987,0.08095061033964157,0.31976640224456787,-0.21742506325244904,-0.09241828322410583,-0.13166601955890656},{-0.2075030356645584,0.0795796737074852,-0.2546374499797821,0.20306022465229034,-0.2393631637096405,-0.2782776653766632,-0.15872548520565033,-0.3089165985584259,-0.2306399941444397,-0.004174927249550819,-0.33764907717704773,0.06942698359489441,-0.23221032321453094,-0.3392814099788666,-0.2260201871395111,0.20843811333179474},{-0.1317226141691208,0.210479274392128,0.159837543964386,0.07198449224233627,0.201075479388237,0.023938458412885666,0.13996149599552155,0.15481483936309814,-0.13379698991775513,0.18946945667266846,0.2420596033334732,0.1166556105017662,-0.28940698504447937,0.35638102889060974,-0.2974351644515991,0.25470638275146484},{-0.09410940855741501,0.27370506525039673,0.32495224475860596,0.010280869901180267,-0.28546252846717834,0.24086855351924896,0.19835910201072693,0.2108742892742157,0.027948569506406784,0.11281996220350266,0.0065189264714717865,0.13659244775772095,-0.18299853801727295,-0.11033201217651367,0.021254640072584152,-0.3186565935611725},{0.3571026027202606,-0.28284162282943726,0.07083284854888916,-0.03289594128727913,0.23523293435573578,-0.213730126619339,0.02133091539144516,-0.2940712869167328,-0.27077731490135193,0.04236718267202377,-0.024510767310857773,-0.3786461353302002,0.27494508028030396,0.20409590005874634,0.33361560106277466,0.3691580295562744},{-0.12634685635566711,-0.08425820618867874,0.3378497362136841,-0.374131977558136,-0.35867413878440857,0.0521932914853096,0.25298011302948,0.22331100702285767,-0.06939636915922165,0.16512078046798706,0.355374276638031,-0.003643136005848646,-0.2925884425640106,0.024442696943879128,-0.06438859552145004,-0.06727202981710434},{-0.03249039128422737,0.07581796497106552,-0.23261334002017975,-0.17046596109867096,-0.02158176712691784,0.43613401055336,-0.11660322546958923,-0.26293036341667175,-0.07986970245838165,0.2117624431848526,0.3032349944114685,0.32171645760536194,-0.2786499261856079,-0.48692062497138977,0.36423516273498535,0.30629751086235046},{0.1873473972082138,-0.38769203424453735,0.2986500561237335,-0.09583715349435806,0.3182534873485565,0.28855159878730774,-0.461805522441864,0.3277227282524109,-0.13479700684547424,-0.2560228407382965,-0.23056776821613312,0.396205335855484,0.17424805462360382,-0.2414190024137497,0.1901286542415619,0.32203418016433716}};
static const float actor_encoder_obstacle_encoder_0_bias[16] = {-0.06259234994649887,0.041975997388362885,-0.012158273719251156,-0.02863934449851513,0.0159161314368248,0.013940416276454926,-0.09345732629299164,0.03840137645602226,-0.0415673702955246,0.032991841435432434,-0.0012357133673503995,0.1367747187614441,-0.0012837478425353765,0.015387197025120258,0.0016897651366889477,-0.05892886593937874};
static const float actor_encoder_obstacle_encoder_2_bias[16] = {0.03737545758485794,0.011301511898636818,-0.03831737861037254,0.02045663259923458,-0.0021995052229613066,0.021899592131376266,0.07109121978282928,-0.05544958636164665,0.02088857814669609,0.07935955375432968,0.042497970163822174,0.008359883911907673,0.026398692280054092,0.004184336867183447,-0.04149600490927696,0.02230965904891491};
void networkEvaluate(struct control_t_n *control_n, const float *state_array) {
        for (int i = 0; i < self_structure[0][1]; i++) {
            output_0[i] = 0;
            for (int j = 0; j < self_structure[0][0]; j++) {
                output_0[i] += state_array[j] * actor_encoder_self_encoder_0_weight[j][i];
            }
            output_0[i] += actor_encoder_self_encoder_0_bias[i];
            output_0[i] = tanhf(output_0[i]);
        }
        
        for (int i = 0; i < self_structure[1][1]; i++) {
            output_1[i] = 0;
            for (int j = 0; j < self_structure[1][0]; j++) {
                output_1[i] += output_0[j] * actor_encoder_self_encoder_2_weight[j][i];
            }
            output_1[i] += actor_encoder_self_encoder_2_bias[i];
            output_1[i] = tanhf(output_1[i]);
        }
            
        // Concat self_embed, neighbor_embed and obst_embed
        for (int i = 0; i < self_structure[1][1]; i++) {
            output_embeds[i] = output_1[i];
            output_embeds[i + self_structure[1][1]] = obstacle_embeds[i];
        }
    
        // Feedforward layer
        for (int i = 0; i < self_structure[2][1]; i++) {
            output_2[i] = 0;
            for (int j = 0; j < 2 * self_structure[1][1]; j++) {
                output_2[i] += output_embeds[j] * actor_encoder_feed_forward_0_weight[j][i];
                }
            output_2[i] += actor_encoder_feed_forward_0_bias[i];
            output_2[i] = tanhf(output_2[i]);
        }
    
        for (int i = 0; i < self_structure[3][1]; i++) {
            output_3[i] = 0;
            for (int j = 0; j < self_structure[3][0]; j++) {
                output_3[i] += output_2[j] * action_parameterization_distribution_linear_weight[j][i];
            }
            output_3[i] += action_parameterization_distribution_linear_bias[i];
        }
        
        control_n->thrust_0 = output_3[0];
        control_n->thrust_1 = output_3[1];
        control_n->thrust_2 = output_3[2];
        control_n->thrust_3 = output_3[3];	
    }

void obstacleEmbedder(float obstacle_inputs[OBST_DIM]) {

        // if (count == 67) {
        // DEBUG_PRINT("Embedder: %9.2f,%9.2f,%9.2f\n", obstacle_inputs[0],obstacle_inputs[1],obstacle_inputs[3]);
        //     count = 0;
        // }
        // count++;

        //reset embeddings accumulator to zero
        memset(obstacle_embeds, 0, sizeof(obstacle_embeds));

    
        for (int i = 0; i < obst_structure[0][1]; i++) {
            obst_output_0[i] = 0;
            for (int j = 0; j < obst_structure[0][0]; j++) {
                obst_output_0[i] += obstacle_inputs[j] * actor_encoder_obstacle_encoder_0_weight[j][i];
            }
            obst_output_0[i] += actor_encoder_obstacle_encoder_0_bias[i];
            obst_output_0[i] = tanhf(obst_output_0[i]);
        }
    
        for (int i = 0; i < obst_structure[1][1]; i++) {
            obst_output_1[i] = 0;
            for (int j = 0; j < obst_structure[1][0]; j++) {
                obst_output_1[i] += obst_output_0[j] * actor_encoder_obstacle_encoder_2_weight[j][i];
            }
            obst_output_1[i] += actor_encoder_obstacle_encoder_2_bias[i];
            obstacle_embeds[i] = tanhf(obst_output_1[i]);
        }
        }

