
#include "network_evaluate_tof.h"
#include <string.h>


#define EPS 0.000001 // 1e-6

static float obstacle_embeds[4];
static float output_embeds[20];

float base;
float exponent;
static const int self_structure [4][2] = {{18, 16},{16, 16},{20, 20},{20, 4}};
static const int obst_structure [2][2] = {{16, 4},{4, 4}};
static float output_0[16];
static float output_1[16];
static float obst_output_0[4];
static float obst_output_1[4];
static float output_2[20];
static float output_3[4];
static const float actor_encoder_self_encoder_0_weight[18][16] = {{0.34157413244247437,-0.30203312635421753,0.2115342766046524,0.26983335614204407,0.00788594875484705,-0.18670906126499176,0.03155224397778511,0.19240249693393707,-0.4821813702583313,-0.11337556689977646,-0.19108690321445465,0.056434787809848785,0.1345873475074768,-0.12975327670574188,-0.006602304521948099,0.22672788798809052},{-0.09798724204301834,0.2996964752674103,-0.30817195773124695,0.4847847819328308,0.24191689491271973,-0.2311142086982727,-0.2136182337999344,-0.20071755349636078,0.34793704748153687,-0.15714602172374725,0.2963501513004303,-0.21122996509075165,0.17185631394386292,-0.02183634787797928,0.09667287021875381,0.1836639791727066},{0.11136113852262497,0.02995140664279461,0.4392384886741638,0.14225323498249054,-0.012774774804711342,-0.18758819997310638,0.10701011121273041,0.06430944800376892,-0.13337360322475433,-0.7287179231643677,-0.325700581073761,0.3830951452255249,0.026032855734229088,-0.44443172216415405,0.1477588266134262,-0.667384147644043},{0.10154464095830917,-0.4622810482978821,0.16332200169563293,-0.005075816996395588,-0.30369478464126587,0.19050893187522888,0.006779717281460762,-0.07983828336000443,-0.21697218716144562,-0.031274765729904175,-0.12782521545886993,-0.2156110554933548,0.5539471507072449,0.19137220084667206,0.056315649300813675,0.23639005422592163},{-0.0410640724003315,0.06281185895204544,-0.009837119840085506,0.16275495290756226,0.20123612880706787,-0.22136840224266052,0.06074364483356476,-0.021650182083249092,0.07971476018428802,-0.04829218238592148,0.23632746934890747,0.22533784806728363,-0.004257531370967627,0.3190089464187622,0.229130819439888,0.02205018885433674},{0.09253890812397003,0.05076604336500168,-0.13783936202526093,0.11091142892837524,0.2915526032447815,0.38039079308509827,-0.32551732659339905,0.15386438369750977,0.12440728396177292,-0.4398798644542694,-0.19087788462638855,-0.0470491386950016,-0.10323797166347504,-0.23067551851272583,0.010296978987753391,-0.2244313806295395},{-0.4135487675666809,0.00838184729218483,-0.0420115627348423,0.23939171433448792,-0.23070597648620605,-0.43816742300987244,0.35492584109306335,-0.05481179431080818,-0.19544370472431183,0.014993807300925255,-0.08431438356637955,0.3402734398841858,-0.6470714211463928,0.27625077962875366,-0.28175783157348633,-0.22790870070457458},{0.22812776267528534,0.05613629147410393,0.09137502312660217,-0.10014581680297852,0.034857772290706635,-0.0028424905613064766,0.3672005832195282,-0.2569674849510193,0.3561687171459198,-0.05221700668334961,-0.028538448736071587,0.1227104663848877,-0.20538291335105896,0.13193880021572113,-0.4612745940685272,0.31436288356781006},{-0.12633831799030304,-0.6390777230262756,0.1119544506072998,-0.04402836039662361,-0.32434332370758057,0.3288416564464569,0.15807323157787323,-0.32630565762519836,0.17516566812992096,-0.1365300863981247,-0.4792126715183258,0.32387325167655945,0.116914764046669,0.22873042523860931,0.1190229132771492,0.7651388049125671},{-0.46482136845588684,-0.5735854506492615,-0.27556875348091125,-0.26173660159111023,0.2916369140148163,-0.4932546317577362,-0.4761296510696411,0.023584172129631042,0.08785264939069748,-0.2744594216346741,0.3862788677215576,0.17608821392059326,0.2786739766597748,0.0181341003626585,0.3736260235309601,-0.40455353260040283},{-0.21000397205352783,-0.04687058553099632,-0.4548916220664978,0.49298158288002014,-0.46107885241508484,-0.33521705865859985,0.5932278037071228,-0.4977840185165405,-0.24307675659656525,0.017192376777529716,-0.1097821518778801,0.4065225124359131,-0.563517689704895,-0.22294659912586212,-0.17779262363910675,0.15224087238311768},{-0.5968073010444641,-0.17881399393081665,0.11063440889120102,0.2682359516620636,0.6368602514266968,-0.6800441741943359,0.2791863977909088,-0.3766900599002838,-0.041678838431835175,0.0754164457321167,0.6679691672325134,0.7268998026847839,-0.01868138089776039,0.7761169075965881,-0.0681842714548111,0.31923142075538635},{0.4188496470451355,0.5171141624450684,0.07333800196647644,-0.25899484753608704,0.183681920170784,0.159431591629982,0.2406543493270874,0.0013990809675306082,0.11871277540922165,0.6861734390258789,0.3644239902496338,-0.13198833167552948,-0.3100017309188843,-0.5170830488204956,0.4213962256908417,-0.12150558829307556},{-0.08236385136842728,-0.2848316729068756,0.1638026088476181,-0.15893395245075226,-0.28170400857925415,0.01258600503206253,-0.4394785165786743,-0.008557534776628017,-0.04544936865568161,-0.46280938386917114,-0.1510215550661087,-0.5413514971733093,-0.32137906551361084,-0.06224094331264496,0.35915157198905945,0.25001323223114014},{-0.4293852746486664,-0.12002691626548767,-0.1073848307132721,-0.20292061567306519,-0.23022618889808655,-0.4645689129829407,0.4764416813850403,0.03161050006747246,-0.218275249004364,-0.07287225872278214,0.12262970209121704,0.009796300902962685,-0.07267004251480103,-0.027230260893702507,0.32798925042152405,0.36068814992904663},{0.2508157193660736,0.05817078799009323,-0.07223489880561829,0.0947466492652893,-0.1833532750606537,0.23216404020786285,-0.2637915015220642,-0.16358862817287445,-0.3497641980648041,-0.025772353634238243,-0.2354084998369217,-0.34444716572761536,-0.24777518212795258,-0.11800814419984818,0.1308695524930954,0.09272359311580658},{0.13781598210334778,-0.2862362563610077,0.09805313497781754,0.15043234825134277,0.1397223025560379,-0.09770526736974716,-0.18073980510234833,-0.3585539162158966,-0.10353900492191315,-0.1495887190103531,-0.04568333923816681,0.2785564363002777,0.017266813665628433,0.020673412829637527,0.016114136204123497,-0.03509248048067093},{-0.2943964898586273,-0.19262249767780304,0.5549584627151489,-0.10604383051395416,0.1718212068080902,0.031931132078170776,6.356510129990056e-05,0.374181866645813,-0.37371349334716797,-0.11817335337400436,0.14186988770961761,0.2662805914878845,-0.1453733742237091,-0.3451211154460907,0.3069862127304077,0.10256946086883545}};
static const float actor_encoder_self_encoder_2_weight[16][16] = {{-0.13321739435195923,0.08299285173416138,0.12103387713432312,-0.32201138138771057,-0.024952707812190056,0.17706996202468872,-0.012732598930597305,0.16921521723270416,0.19614335894584656,0.28757229447364807,-0.17277657985687256,-0.10653801262378693,0.20738457143306732,-0.15371255576610565,0.4022756814956665,-0.08175557851791382},{0.08983281999826431,-0.3921128511428833,0.2146817445755005,-0.1116965189576149,-0.32008126378059387,-0.07038778811693192,0.25974828004837036,-0.14801852405071259,0.32609042525291443,-0.20746931433677673,-0.06537427008152008,-0.15589076280593872,0.0546957366168499,0.26679810881614685,0.11045677959918976,-0.17585057020187378},{-0.13197438418865204,0.0027115666307508945,-0.26201575994491577,-0.11622391641139984,-0.18790386617183685,-0.07822578400373459,0.3518090844154358,0.16021931171417236,-0.12038859724998474,-0.08122781664133072,-0.026436904445290565,0.1461949348449707,0.17591716349124908,-0.33276358246803284,0.3989841938018799,-0.3174290955066681},{0.08112508058547974,0.1968427300453186,-0.29072248935699463,-0.30756130814552307,-0.49548402428627014,0.04756125062704086,0.10315021127462387,-0.014988435432314873,-0.08087264746427536,-0.2686026394367218,0.22959473729133606,0.026057401672005653,0.09504278004169464,-0.1945612132549286,0.11147372424602509,0.3188951909542084},{-0.03185122832655907,-0.025736982002854347,-0.0568169504404068,0.3728584945201874,-0.35406967997550964,-0.05800248682498932,-0.0013140032533556223,-0.1955820769071579,-0.28319621086120605,-0.19827212393283844,0.4229426383972168,-0.17877626419067383,-0.016073716804385185,0.0893954187631607,-0.29206109046936035,-0.44989386200904846},{-0.4819093942642212,0.31961461901664734,-0.006059922743588686,0.0512797050178051,0.44305887818336487,-0.38121524453163147,-0.16978295147418976,-0.31476837396621704,0.027620816603302956,-0.06380876153707504,0.3071015477180481,-0.21421733498573303,0.35250306129455566,0.13205330073833466,0.4434559643268585,0.12447736412286758},{0.17804251611232758,-0.056022290140390396,0.3711296319961548,0.23060017824172974,0.2855481505393982,0.49230101704597473,0.17025226354599,0.4153186082839966,0.036143723875284195,0.05735549330711365,0.19661006331443787,0.03901088237762451,-0.374526709318161,-0.16243955492973328,0.1725013107061386,0.2938648462295532},{0.1908319592475891,-0.22583641111850739,0.18322718143463135,-0.05614059045910835,-0.019899118691682816,-0.13940435647964478,-0.16298997402191162,-0.15450023114681244,-0.05922935903072357,-0.10273626446723938,-0.002305540256202221,-0.3396676182746887,-0.044314660131931305,-0.09739109873771667,0.29632166028022766,-0.4371914565563202},{0.03909354656934738,0.03577672317624092,0.29554611444473267,0.02517670951783657,-0.31969666481018066,0.09837585687637329,0.16481541097164154,-0.09323989599943161,0.17137952148914337,0.21861231327056885,0.1369650512933731,0.019625432789325714,0.002168250735849142,0.4664226472377777,0.12211634963750839,0.20614589750766754},{0.0464799590408802,0.1370943784713745,-0.33845704793930054,0.07543080300092697,-0.054611120373010635,-0.1525423228740692,-0.2626093029975891,0.19633345305919647,0.1352996677160263,-0.1716250330209732,-0.2602951228618622,-0.13457894325256348,-0.28646180033683777,0.03052595630288124,0.1281617134809494,-0.2917631268501282},{0.4262195825576782,-0.0032076218631118536,-0.40428096055984497,-0.36490005254745483,-0.4130326211452484,0.03742077201604843,0.23087023198604584,0.11699997633695602,-0.1442272663116455,0.19993428885936737,-0.12481405586004257,0.08123791217803955,-0.24132369458675385,0.3646348714828491,0.057116709649562836,-0.07948926091194153},{-0.2903427183628082,0.31010743975639343,-0.3077073097229004,-0.44072291254997253,0.2702125608921051,0.25034329295158386,0.2843959331512451,-0.2627227306365967,0.10846149921417236,0.5720643401145935,0.27410924434661865,0.07850565761327744,-0.3891444802284241,0.2543116807937622,0.01157614029943943,0.288387656211853},{-0.147043839097023,-0.2546994388103485,0.1373559981584549,0.21969811618328094,-0.11959698796272278,-0.42125242948532104,0.30916932225227356,-0.3171267807483673,0.09027822315692902,-0.029516123235225677,-0.241102933883667,-0.3757346272468567,0.06222659349441528,-0.4443964958190918,-0.13069187104701996,-0.23451486229896545},{-0.17679575085639954,0.1325071007013321,-0.41198450326919556,-0.1313973218202591,-0.09577871114015579,0.22778691351413727,0.06691629439592361,-0.35284149646759033,-0.06440529227256775,-0.13527515530586243,-0.4309394061565399,0.12179625034332275,-0.17574019730091095,0.08302873373031616,-0.11219680309295654,0.43307793140411377},{0.40427830815315247,0.2656760513782501,-0.2522450089454651,-0.5699795484542847,-0.25875964760780334,-0.4924103915691376,0.32206812500953674,0.16607390344142914,-0.01809552125632763,-0.04697437584400177,0.08759012818336487,0.44595572352409363,-0.3919486403465271,0.13619227707386017,-0.1331896334886551,-0.1764637529850006},{-0.3038371503353119,0.4634939432144165,-0.27428048849105835,0.354615181684494,0.18463069200515747,-0.1051284670829773,-0.37426063418388367,-0.3624871075153351,-0.15900930762290955,-0.14226865768432617,-0.30966609716415405,0.16245326399803162,0.28487011790275574,0.08432543277740479,0.14598912000656128,-0.1939820796251297}};
static const float actor_encoder_feed_forward_0_weight[20][20] = {{-0.45464327931404114,-0.23090268671512604,-0.2197287231683731,0.285401314496994,0.26415377855300903,-0.22071251273155212,-0.21159727871418,-0.3101656138896942,0.12740205228328705,0.31122615933418274,-0.09047046303749084,-0.22288022935390472,-0.3052508234977722,0.13623806834220886,-0.3574584126472473,0.22268059849739075,-0.0019454328576102853,0.0909164547920227,0.039886295795440674,0.18095612525939941},{0.009185424074530602,0.29110613465309143,0.33051127195358276,0.2271805852651596,0.0634666308760643,-0.18762226402759552,0.07235792279243469,-0.23966988921165466,0.11031489074230194,-0.0709666833281517,0.010287604294717312,0.02647554501891136,-0.2493814378976822,-0.31961071491241455,0.11535847187042236,-0.24600954353809357,0.18753527104854584,0.01465614140033722,-0.13947509229183197,0.24331513047218323},{0.09191132336854935,-0.20974785089492798,0.010826821438968182,-0.1298758089542389,0.024839578196406364,0.18228867650032043,-0.054531555622816086,0.4423341155052185,-0.2672426700592041,-0.017476720735430717,-0.453388512134552,0.18956246972084045,0.2089054435491562,-0.25697240233421326,-0.10843867808580399,0.04461417719721794,-0.24967582523822784,0.2631928324699402,-0.10714485496282578,-0.05562819167971611},{0.3538762331008911,0.18485930562019348,-0.1432812362909317,0.19491006433963776,-0.2247847467660904,0.11778061836957932,0.41443103551864624,-0.4159087836742401,-0.3081928491592407,-0.09844757616519928,0.0855344608426094,0.4234251379966736,-0.09947630017995834,-0.2634565830230713,0.23249086737632751,0.3558041453361511,-0.289345920085907,-0.2932146489620209,0.05779996141791344,0.21900807321071625},{-0.04057098552584648,-0.22774779796600342,-0.31389302015304565,0.042845066636800766,0.275949090719223,0.3996346592903137,-0.02990722842514515,-0.28458037972450256,0.1328919529914856,-0.03935255482792854,0.27228835225105286,0.08237946033477783,0.22509047389030457,-0.07813836634159088,-0.18896542489528656,0.19034309685230255,-0.19127213954925537,-0.008364571258425713,-0.19577106833457947,0.3134669363498688},{0.2228943407535553,0.13450294733047485,-0.01846982166171074,0.07665637880563736,-0.11113643646240234,-0.3458448350429535,-0.4119945466518402,0.042189694941043854,-0.22934985160827637,0.1897905319929123,0.19719064235687256,-0.04287130385637283,0.23571664094924927,-0.2954961061477661,0.35937100648880005,-0.11455865949392319,0.24044454097747803,-0.11297070235013962,0.27020135521888733,-0.22406171262264252},{-0.040700364857912064,-0.08473866432905197,0.1080162450671196,0.14160539209842682,0.35379254817962646,-0.49936917424201965,0.0944584310054779,0.12192368507385254,-0.09924385696649551,-0.3511597514152527,0.10707494616508484,-0.02675745077431202,-0.057026393711566925,-0.07169084995985031,0.2869027853012085,0.4005248248577118,0.17951716482639313,0.20133721828460693,-0.21229025721549988,-0.1947728395462036},{-0.1491064727306366,0.1398022323846817,-0.1303088366985321,0.37242087721824646,0.1628771275281906,-0.022303324192762375,0.042556244879961014,-0.3352808654308319,-0.01444264780730009,0.2416446954011917,-0.20768941938877106,0.19256827235221863,-0.18611818552017212,-0.1464955359697342,0.007493163924664259,-0.018466142937541008,0.21323822438716888,-0.17484164237976074,-0.27039700746536255,-0.29843080043792725},{0.18720531463623047,-0.13902832567691803,0.13554880023002625,0.36352527141571045,0.048889175057411194,0.09644295275211334,-0.23401924967765808,-0.16284437477588654,-0.34867390990257263,0.09330771118402481,-0.15055271983146667,-0.04387742653489113,-0.35389581322669983,-0.31063416600227356,0.0955313891172409,0.27526023983955383,-0.3361825942993164,0.20508083701133728,-0.253370463848114,0.13275057077407837},{-0.3007053732872009,-0.27463120222091675,0.2844464182853699,-0.38831081986427307,-0.32847410440444946,0.052533794194459915,0.028781557455658913,0.02513004280626774,0.2035057693719864,0.1929778754711151,-0.27183884382247925,0.16027580201625824,0.11383119970560074,-0.4165566861629486,0.3075653314590454,0.049805935472249985,-0.4015483558177948,0.08620292693376541,0.08888143301010132,0.234600231051445},{0.33987799286842346,0.05737011134624481,0.11220582574605942,-0.2876591384410858,0.05235819146037102,-0.39161673188209534,0.3411727547645569,-0.07828432321548462,-0.3641505241394043,0.2822449207305908,-0.10086723417043686,-0.2855440676212311,0.23970462381839752,-0.3479723036289215,0.22093956172466278,-0.2695572078227997,-0.15648852288722992,0.15793269872665405,0.04821687191724777,-0.12203060835599899},{0.3508910834789276,-0.2858526110649109,0.10130659490823746,0.15969769656658173,-0.21475420892238617,0.0029927100986242294,0.09243284910917282,0.21181820333003998,0.11365295946598053,-0.12246149778366089,0.09469348192214966,-0.09757392853498459,0.0787835344672203,-0.203591451048851,-0.42626017332077026,-0.18413087725639343,0.2841781675815582,-0.13089247047901154,-0.10897839814424515,0.08282655477523804},{0.06664993613958359,-0.355474054813385,0.19337280094623566,-0.2804149091243744,0.054663486778736115,0.044375400990247726,-0.050034038722515106,0.20054733753204346,-0.03212257847189903,-0.04574364051222801,0.25388026237487793,0.2694094479084015,-0.49668988585472107,-0.003746806411072612,-0.1763283759355545,0.06959930807352066,-0.2430098056793213,0.06638063490390778,0.24879954755306244,0.19899851083755493},{1.4301099326985423e-05,0.1776067316532135,-0.16625694930553436,0.22031013667583466,0.018398772925138474,0.27185747027397156,0.010632933117449284,-0.41386258602142334,0.07208140939474106,0.08809980750083923,0.041975829750299454,0.15018506348133087,-0.12722429633140564,-0.045795850455760956,-0.25857454538345337,0.3294331431388855,0.07742958515882492,0.02595907263457775,0.029600709676742554,-0.021775061264634132},{0.4308605194091797,-0.1614898443222046,0.032038599252700806,-0.05161362513899803,0.28956758975982666,0.00533142127096653,0.111315056681633,-0.2945065498352051,-0.30614838004112244,-0.19490563869476318,0.2524452209472656,0.0024316664785146713,-0.13563896715641022,0.04922701045870781,0.582338273525238,-0.3350590765476227,-0.28550511598587036,0.12913988530635834,0.08977635949850082,0.23784689605236053},{0.11726757138967514,-0.24806085228919983,0.3054772913455963,-0.04934424161911011,-0.26346880197525024,0.34796690940856934,-0.28499987721443176,0.29061153531074524,-0.08969052881002426,-0.04026012495160103,-0.41160088777542114,-0.2973635196685791,0.19195616245269775,-0.17056983709335327,-0.11461236327886581,0.3472018241882324,0.23950891196727753,-0.3064873218536377,0.17329294979572296,0.047974567860364914},{0.08147060126066208,0.007011757232248783,-0.30609047412872314,0.3528561294078827,0.036820702254772186,-0.14137175679206848,0.33570775389671326,-0.3142358362674713,0.25368329882621765,0.07768379896879196,0.264538049697876,-0.22051334381103516,-0.1412513107061386,0.36309102177619934,-0.026465635746717453,-0.2790835201740265,-0.21142578125,-0.21364529430866241,0.3768574297428131,-0.30934974551200867},{0.19096490740776062,0.042885832488536835,0.05112164840102196,0.13722673058509827,0.021183066070079803,-0.202356219291687,0.34929224848747253,-0.0874519869685173,-0.24480029940605164,-0.13141164183616638,0.2900885045528412,0.21519328653812408,-0.29484421014785767,-0.15921398997306824,-0.15764877200126648,0.2153581827878952,-0.13315415382385254,-0.30784741044044495,0.31080353260040283,-0.3035507798194885},{-0.0964570865035057,-0.1635967344045639,-0.07929395884275436,0.20015427470207214,-0.05844671279191971,-0.36361101269721985,0.2129865437746048,0.2751356363296509,0.07359611988067627,-0.449867308139801,0.06868404895067215,0.2694965600967407,-0.27854737639427185,0.3699732720851898,-0.13734209537506104,0.3218398094177246,-0.3309018015861511,-0.28492921590805054,0.03726901859045029,-0.41503244638442993},{0.08634401112794876,-0.039162203669548035,-0.3083280920982361,0.13821503520011902,0.2917289137840271,0.4061872661113739,-0.18334366381168365,-0.0924927368760109,0.06823644787073135,-0.2588653266429901,-0.22418838739395142,0.2715698778629303,0.25178685784339905,-0.1838507205247879,-0.033407147973775864,0.17669488489627838,-0.31956058740615845,-0.09847258031368256,-0.16708461940288544,0.13784964382648468}};
static const float action_parameterization_distribution_linear_weight[20][4] = {{-0.2880696654319763,0.45336422324180603,-0.2726288437843323,0.08519449084997177},{0.11698416620492935,0.07777867466211319,0.2540445327758789,0.29152148962020874},{0.03767367824912071,-0.35435426235198975,-0.140122190117836,0.38126909732818604},{0.06628546118736267,0.04037147015333176,0.3168191611766815,-0.08543194830417633},{-0.12140032649040222,0.00556842191144824,0.17679733037948608,-0.26230818033218384},{0.2018175572156906,0.3374282419681549,0.15756872296333313,0.4407232105731964},{0.4129970073699951,-0.4730473756790161,0.18553991615772247,-0.0008113820222206414},{0.11452945321798325,0.09236914664506912,-0.33739951252937317,-0.2021513730287552},{0.20759162306785583,0.05240701138973236,0.3090610206127167,0.2790144681930542},{-0.41080453991889954,0.06843685358762741,0.27951928973197937,0.19786210358142853},{0.20233584940433502,0.34965354204177856,-0.003373931162059307,0.1312226951122284},{0.27742716670036316,0.13145774602890015,0.15124288201332092,0.01357273105531931},{0.03961191698908806,-0.4662962257862091,-0.03298701345920563,-0.0019802579190582037},{0.16812272369861603,-0.2300345003604889,0.26245442032814026,0.5013620257377625},{-0.19465267658233643,-0.1699330359697342,0.23157723248004913,0.4125024080276489},{-0.09110631048679352,0.028356704860925674,0.20535808801651,0.17624174058437347},{0.47309261560440063,0.16146627068519592,-0.43656018376350403,0.39169713854789734},{0.20065799355506897,-0.020743845030665398,0.3337891399860382,-0.1881221979856491},{-0.2877994477748871,-0.08678532391786575,0.2125571221113205,0.09797386825084686},{0.3891851007938385,0.27169954776763916,0.2079513669013977,-0.28323429822921753}};
static const float actor_encoder_self_encoder_0_bias[16] = {0.04133687540888786,-0.01763875037431717,-0.15944311022758484,-0.016479967162013054,-0.2524116039276123,-0.08283073455095291,0.17442533373832703,-0.058530595153570175,0.091424360871315,0.04619089514017105,0.09464074671268463,0.18598395586013794,-0.12683144211769104,-0.09463553875684738,0.13825777173042297,-0.0073511479422450066};
static const float actor_encoder_self_encoder_2_bias[16] = {0.23537923395633698,-0.007431555073708296,-0.030345547944307327,-0.08491344004869461,-0.006968936417251825,0.009460615925490856,-0.05594911798834801,0.1223827451467514,0.06456846743822098,-0.00681636156514287,-0.07657400518655777,0.0019840248860418797,-0.03560669347643852,0.07809911668300629,0.03494671359658241,0.047593530267477036};
static const float actor_encoder_feed_forward_0_bias[20] = {-0.052801601588726044,0.02523031458258629,-0.06131993234157562,0.05764345824718475,0.0673060193657875,0.08710138499736786,-0.0320989228785038,-0.12111286073923111,0.026790600270032883,0.07566418498754501,-0.007177522871643305,-0.0008365853573195636,0.01196473091840744,-0.00505926925688982,-0.07614366710186005,0.05173204839229584,0.03247153013944626,0.03069267049431801,-0.015103168785572052,0.03292145952582359};
static const float action_parameterization_distribution_linear_bias[4] = {-0.016222231090068817,0.027829816564917564,0.04137606918811798,-0.010714239440858364};
static const float actor_encoder_obstacle_encoder_0_weight[16][4] = {{-0.18221576511859894,0.19955752789974213,-0.16460667550563812,0.13790260255336761},{-0.18830247223377228,-0.019455740228295326,0.18838049471378326,-0.02300582453608513},{0.4806361198425293,0.05214659124612808,-0.26768288016319275,-0.07873456180095673},{0.32360219955444336,-0.28209829330444336,0.5051326155662537,0.5316078662872314},{-0.06103866547346115,-0.4471384584903717,-0.14627987146377563,0.0533328615128994},{-0.01741192303597927,0.15529952943325043,0.29606980085372925,0.1189897283911705},{-0.475568950176239,-0.09676596522331238,-0.412174254655838,0.24733291566371918},{0.39224979281425476,-0.4780769348144531,0.5131133198738098,0.12242824584245682},{0.012526731006801128,-0.08882415294647217,0.2950822412967682,-0.09635079652070999},{-0.11850579082965851,-0.20530538260936737,0.3259134888648987,-0.2887991666793823},{-0.3036080300807953,-0.11001595854759216,0.0751754492521286,-0.5622622966766357},{0.6263102293014526,0.2840110659599304,0.28768137097358704,-0.569019079208374},{0.6918439865112305,-0.22779721021652222,0.2399737536907196,-0.16559401154518127},{0.7616878747940063,0.6741466522216797,0.46103164553642273,-0.1481103003025055},{0.4931274652481079,0.4129818081855774,0.4010910391807556,-0.34981173276901245},{-0.0064384955912828445,0.12695494294166565,-0.5086398124694824,0.2587098181247711}};
static const float actor_encoder_obstacle_encoder_2_weight[4][4] = {{0.674960196018219,-0.6207813024520874,-0.43304768204689026,-0.03287466615438461},{0.5084927678108215,0.3711155354976654,-0.47236984968185425,-0.2986145615577698},{-0.24474357068538666,-0.7830583453178406,-0.7154582142829895,0.6148375868797302},{0.14085635542869568,0.46754196286201477,-0.33769339323043823,0.48341673612594604}};
static const float actor_encoder_obstacle_encoder_0_bias[4] = {0.22218696773052216,-0.032745495438575745,0.1375926285982132,-0.18160977959632874};
static const float actor_encoder_obstacle_encoder_2_bias[4] = {-0.13333092629909515,-0.19960136711597443,-0.10093574225902557,-0.007446857634931803};
void networkEvaluate(struct control_t_n *control_n, const float *state_array) {
        for (int i = 0; i < self_structure[0][1]; i++) {
            output_0[i] = 0;
            for (int j = 0; j < self_structure[0][0]; j++) {
                output_0[i] += state_array[j] * actor_encoder_self_encoder_0_weight[j][i];
            }
            output_0[i] += actor_encoder_self_encoder_0_bias[i];
            output_0[i] = tanhf(output_0[i]);
        }
        
        for (int i = 0; i < self_structure[1][1]; i++) {
            output_1[i] = 0;
            for (int j = 0; j < self_structure[1][0]; j++) {
                output_1[i] += output_0[j] * actor_encoder_self_encoder_2_weight[j][i];
            }
            output_1[i] += actor_encoder_self_encoder_2_bias[i];
            output_1[i] = tanhf(output_1[i]);
        }
            
        // Concat self_embed, neighbor_embed and obst_embed
        for (int i = 0; i < self_structure[1][1]; i++) {
            output_embeds[i] = output_1[i];
        }
        for (int i = 0; i < obst_structure[1][1]; i++) {
            output_embeds[i + self_structure[1][1]] = obstacle_embeds[i];
        }
    
        // Feedforward layer
        for (int i = 0; i < self_structure[2][1]; i++) {
            output_2[i] = 0;
            for (int j = 0; j < self_structure[2][0]; j++) {
                output_2[i] += output_embeds[j] * actor_encoder_feed_forward_0_weight[j][i];
                }
            output_2[i] += actor_encoder_feed_forward_0_bias[i];
            output_2[i] = tanhf(output_2[i]);
        }
    
        for (int i = 0; i < self_structure[3][1]; i++) {
            output_3[i] = 0;
            for (int j = 0; j < self_structure[3][0]; j++) {
                output_3[i] += output_2[j] * action_parameterization_distribution_linear_weight[j][i];
            }
            output_3[i] += action_parameterization_distribution_linear_bias[i];
        }
        
        control_n->thrust_0 = output_3[0];
        control_n->thrust_1 = output_3[1];
        control_n->thrust_2 = output_3[2];
        control_n->thrust_3 = output_3[3];	
    }
    
    void obstacleEmbedder(float obstacle_inputs[OBST_DIM]) {
        //reset embeddings accumulator to zero
        memset(obstacle_embeds, 0, sizeof(obstacle_embeds));

    
        for (int i = 0; i < obst_structure[0][1]; i++) {
            obst_output_0[i] = 0;
            for (int j = 0; j < obst_structure[0][0]; j++) {
                obst_output_0[i] += obstacle_inputs[j] * actor_encoder_obstacle_encoder_0_weight[j][i];
            }
            obst_output_0[i] += actor_encoder_obstacle_encoder_0_bias[i];
            obst_output_0[i] = tanhf(obst_output_0[i]);
        }
    
        for (int i = 0; i < obst_structure[1][1]; i++) {
            obst_output_1[i] = 0;
            for (int j = 0; j < obst_structure[1][0]; j++) {
                obst_output_1[i] += obst_output_0[j] * actor_encoder_obstacle_encoder_2_weight[j][i];
            }
            obst_output_1[i] += actor_encoder_obstacle_encoder_2_bias[i];
            obstacle_embeds[i] = tanhf(obst_output_1[i]);
        }
        }

