
#include "network_evaluate_tof.h"
#include <string.h>


#define EPS 0.000001 // 1e-6

static float obstacle_embeds[16];
static float output_embeds[46];

float base;
float exponent;
static const int self_structure [4][2] = {{18, 30},{30, 30},{46, 60},{60, 4}};
static const int obst_structure [2][2] = {{16, 16},{16, 16}};
static float output_0[30];
static float output_1[30];
static float obst_output_0[16];
static float obst_output_1[16];
static float output_2[60];
static float output_3[4];
static const float actor_encoder_self_encoder_0_weight[18][30] = {{0.17284221947193146,0.05667434632778168,-0.06010718271136284,-0.19315175712108612,0.06562008708715439,0.05240229144692421,-0.06630003452301025,-0.251640647649765,0.1422320306301117,0.18978475034236908,-0.1735745072364807,0.006498462986201048,0.02673197165131569,-0.18049106001853943,-0.05479375645518303,0.03594593703746796,0.265179306268692,-0.06593314558267593,-0.1905062049627304,0.01155676506459713,-0.531626284122467,-0.042463406920433044,0.01686784438788891,-0.13302236795425415,0.14228872954845428,-0.05542243644595146,0.07286106050014496,0.21444138884544373,0.4665949046611786,0.16070327162742615},{-0.37079954147338867,0.08031293004751205,0.14909712970256805,0.316246896982193,-0.07682115584611893,0.16424019634723663,0.1057199016213417,-0.10611145198345184,-0.10541292279958725,0.08546379208564758,0.07879720628261566,-0.020963940769433975,-0.16554290056228638,-0.3191351294517517,0.021260883659124374,0.12739454209804535,0.24579815566539764,-0.11894983798265457,-0.2844293713569641,-0.28726452589035034,-0.30639323592185974,-0.15923570096492767,0.05659213662147522,0.03166414797306061,-0.029811255633831024,-0.049993809312582016,0.02042626217007637,0.18556605279445648,0.11209134012460709,-0.03344747796654701},{0.3558405041694641,0.055050045251846313,-0.1520170122385025,0.14936479926109314,-0.19108392298221588,-0.0797310620546341,-0.012946182861924171,-0.1410471796989441,0.17756418883800507,0.2634236812591553,0.4917372167110443,0.2717265188694,0.3466387689113617,0.10052983462810516,-0.10037457942962646,0.010046632960438728,-0.36664700508117676,0.34719961881637573,-0.3977419137954712,0.12245624512434006,-0.3506108820438385,-0.26090261340141296,0.001980037894099951,-0.4351542294025421,-0.1837110072374344,-0.1333906650543213,-0.0983869731426239,0.047511257231235504,-0.4152543544769287,-0.29880255460739136},{-0.3017343282699585,-0.4391809105873108,-0.02151578851044178,0.1134391576051712,0.3967641592025757,0.2724163830280304,0.030067240819334984,-0.23605136573314667,0.06430017203092575,0.06197613105177879,-0.23263736069202423,0.2208733856678009,-0.19376981258392334,0.3840041160583496,-0.17010687291622162,-0.11712989211082458,0.002659528749063611,0.2000184804201126,-0.14567531645298004,-0.2990100085735321,-0.01680193468928337,-0.17314200103282928,0.33703693747520447,-0.22930936515331268,-0.19031432271003723,0.3789232671260834,-0.3028101325035095,-0.014406328089535236,0.03915761038661003,0.2540057301521301},{-0.1517937034368515,-0.25558415055274963,0.18861840665340424,-0.21251711249351501,-0.3255724310874939,0.26848527789115906,-0.030349459499120712,-0.022477848455309868,-0.41265591979026794,-0.0713619738817215,-0.36596688628196716,0.33650684356689453,0.33946651220321655,0.21007071435451508,-0.02103363536298275,0.10366547852754593,-0.21476060152053833,0.0569293349981308,-0.36543911695480347,0.24178257584571838,-0.024306369945406914,-0.3866639733314514,0.12259647995233536,-0.04930704087018967,0.21528366208076477,-0.3401242792606354,0.14761535823345184,-0.10833428800106049,0.23498588800430298,-0.2031257152557373},{0.01811499521136284,0.23037877678871155,-0.15744909644126892,-0.11261390894651413,-0.18691182136535645,-0.21794535219669342,0.34267666935920715,-0.2988760471343994,0.35559526085853577,-0.09183531254529953,0.0088008688762784,-0.028679678216576576,0.38199788331985474,-0.32141950726509094,-0.19072961807250977,-0.15354830026626587,0.07056858390569687,0.43510350584983826,-0.30329981446266174,-0.06893111765384674,-0.16556315124034882,-0.1958020180463791,0.20183056592941284,0.0580647774040699,0.010016513988375664,0.11858291178941727,-0.15528297424316406,-0.2178644984960556,-0.020853517577052116,-0.16125237941741943},{0.1516849845647812,-0.17583730816841125,0.019732765853405,-0.2810448706150055,0.23941044509410858,0.2960585355758667,-0.020792175084352493,-0.47739270329475403,-0.12616825103759766,-0.30744826793670654,0.015280135907232761,-0.1362903118133545,0.13727733492851257,0.567182183265686,0.2437250316143036,0.23478816449642181,0.13648928701877594,0.42375344038009644,0.1679718792438507,-0.1494656205177307,0.20123517513275146,0.3149169087409973,0.3117406368255615,0.04746764153242111,0.37813669443130493,-0.0746191143989563,0.6375793814659119,-0.03256445750594139,0.05843310430645943,-0.15682430565357208},{-0.2799949049949646,-0.32808995246887207,-0.05489508807659149,-0.17733843624591827,0.2226066142320633,-0.12337790429592133,0.09698744863271713,-0.18438322842121124,-0.3298506438732147,0.027841076254844666,0.07057096064090729,-0.1292594075202942,-0.1923978179693222,-0.0865919291973114,0.0968012660741806,-0.2411331683397293,-0.08020094782114029,-0.18945902585983276,-0.36581018567085266,0.22140322625637054,0.15772615373134613,-0.3874620795249939,0.10315384715795517,0.4049629867076874,-0.28901490569114685,-0.1368175446987152,-0.07598517835140228,-0.14962483942508698,-0.12151875346899033,-0.13212615251541138},{-0.12827861309051514,-0.5550666451454163,-0.23573105037212372,0.07786697149276733,0.16703450679779053,0.31151166558265686,0.2169238179922104,0.23365701735019684,-0.3069738447666168,-0.1979910433292389,0.08869271725416183,-0.1300472468137741,-0.03652150556445122,0.07892392575740814,0.0150279700756073,-0.4537399411201477,0.010587570257484913,0.022524593397974968,0.21560566127300262,-0.37634217739105225,0.08925650268793106,0.13060833513736725,0.36852020025253296,-0.46814465522766113,-0.09727539122104645,0.6087280511856079,-0.0018465861212462187,0.010468450374901295,-0.29531964659690857,0.004603893030434847},{-0.3562653958797455,0.027832137420773506,0.11675336956977844,0.31058409810066223,-0.3440788686275482,0.23008547723293304,0.2932831346988678,0.006750999018549919,0.05895550176501274,0.3958236575126648,-0.11468581855297089,-0.06641026586294174,0.329174667596817,0.1927243024110794,-0.5374203324317932,0.375363290309906,-0.10335372388362885,-0.13857264816761017,0.10287022590637207,0.15654689073562622,-0.3927114009857178,0.3878266215324402,0.12205962091684341,-0.06961323320865631,-0.28642669320106506,-0.018063832074403763,-0.03498472645878792,0.1365591138601303,-0.18374542891979218,-0.06592033058404922},{-0.10856644809246063,0.30260804295539856,0.062050677835941315,0.2120240330696106,0.6000834107398987,0.5618224143981934,-0.11923720687627792,-0.4565235376358032,-0.1902928203344345,-0.40444156527519226,0.1846437305212021,-0.11627499014139175,-0.1555989682674408,-0.00451910262927413,0.3186871111392975,-0.3844445049762726,-0.43585383892059326,0.22347725927829742,-0.23958104848861694,0.15007710456848145,-0.3375706076622009,0.15765380859375,-0.16949190199375153,0.014594395644962788,-0.0831175222992897,-0.10626490414142609,0.20520827174186707,-0.020017394796013832,-0.15842550992965698,-0.43809080123901367},{0.34713637828826904,-0.20729990303516388,0.4481709897518158,-0.0812324658036232,-0.29263821244239807,-0.34540313482284546,0.2891307473182678,-0.33073434233665466,-0.12770499289035797,-0.03627156466245651,-0.02912374958395958,0.539548397064209,0.15602275729179382,-0.16530324518680573,-0.13018286228179932,0.2710554897785187,0.27816712856292725,-0.14852900803089142,0.07747653871774673,0.3593885004520416,-0.5500341653823853,0.13714253902435303,0.7913044095039368,-0.14955607056617737,0.34984755516052246,0.055613745003938675,0.36353063583374023,-0.8232566714286804,0.0033026577439159155,-0.28718987107276917},{0.20733456313610077,0.6667136549949646,-0.4589826762676239,0.03605496138334274,0.21576082706451416,-0.10192597657442093,-0.04699745029211044,-0.26150473952293396,-0.022157110273838043,0.5186423659324646,-0.12648817896842957,-0.7280646562576294,0.20275229215621948,0.045258231461048126,0.4376137852668762,0.16500148177146912,0.10842328518629074,0.21674911677837372,-0.30261939764022827,-0.08424289524555206,0.026604287326335907,0.22617775201797485,-0.25379180908203125,-0.0012338516535237432,0.1032523363828659,-0.06091102212667465,-0.10029227286577225,0.053077179938554764,0.20636405050754547,0.3779301941394806},{0.13207027316093445,-0.027032632380723953,-0.2713310718536377,-0.13521941006183624,0.20897385478019714,-0.04406960681080818,0.029567351564764977,0.06296858936548233,-0.1159646138548851,0.16929271817207336,0.003439443651586771,-0.022175949066877365,0.15088358521461487,-0.36360061168670654,0.2496548742055893,-0.35485225915908813,0.3546910583972931,-0.1714836061000824,0.2953561544418335,-0.5146329998970032,-0.3104397654533386,0.29768186807632446,0.21604520082473755,-0.46370214223861694,0.3218483626842499,0.5294265747070312,-0.2608667016029358,-0.3931269645690918,-0.08706242591142654,-0.215489462018013},{-0.1918991059064865,0.1898403912782669,-0.041265834122896194,0.06272000819444656,0.13620971143245697,0.030768299475312233,-0.11394977569580078,0.3514361083507538,0.15738320350646973,0.19327211380004883,-0.33356359601020813,0.24365565180778503,0.3612082600593567,0.2757945656776428,-0.4448166787624359,-0.22379203140735626,-0.23602192103862762,-0.03751758113503456,0.3983938694000244,0.2243281453847885,0.29059380292892456,0.11770164966583252,-0.12199854850769043,0.057016197592020035,0.3880206048488617,0.3283695578575134,-0.11181055754423141,0.27692002058029175,0.16066673398017883,0.19683678448200226},{-0.058537643402814865,0.01993766613304615,-0.08144806325435638,-0.325358510017395,0.1090560182929039,-0.12724530696868896,0.21480117738246918,-0.2626737952232361,-0.28030163049697876,-0.18615928292274475,-0.2071806639432907,-0.20050238072872162,0.20958355069160461,0.26718106865882874,0.19522041082382202,-0.19717450439929962,-0.16219067573547363,-0.14034992456436157,0.16230826079845428,0.0017870962619781494,-0.09155964851379395,-0.11801505833864212,0.04547283425927162,-0.1086663231253624,-0.08123814314603806,0.08936882764101028,-0.2711619436740875,0.12601318955421448,-0.18985944986343384,-0.005363609176129103},{-0.05319754406809807,-0.04277750104665756,0.09950679540634155,-0.2307387888431549,-0.025473877787590027,0.10508105903863907,-0.30500343441963196,0.20718874037265778,-0.003049722407013178,0.2285938709974289,-0.04033108055591583,-0.046877771615982056,0.30283093452453613,0.12849962711334229,0.10523790121078491,-0.03950610011816025,-0.009502450935542583,-0.15231306850910187,-0.22935689985752106,-0.2885710299015045,-0.13208967447280884,-0.10744954645633698,0.09564640372991562,0.08531425893306732,0.20061717927455902,0.1529422402381897,0.21815180778503418,-0.1641484946012497,0.0863821730017662,-0.06003767251968384},{0.25666698813438416,-0.04900331422686577,0.08041514456272125,-0.14383800327777863,-0.26574966311454773,0.24812422692775726,0.15382882952690125,0.24483320116996765,0.18327590823173523,-0.37954649329185486,-0.1325613558292389,0.04183542728424072,0.08429326862096786,-0.12098270654678345,0.325429767370224,-0.07167722284793854,0.16713552176952362,-0.09380829334259033,0.13118663430213928,0.09789649397134781,0.1082003191113472,0.2833164632320404,0.03626022860407829,-0.01792103610932827,-0.16495181620121002,-0.1727716624736786,-0.1184835210442543,-0.17531557381153107,0.1964069902896881,0.2571805417537689}};
static const float actor_encoder_self_encoder_2_weight[30][30] = {{0.14571931958198547,0.20509639382362366,-0.30531322956085205,-0.009484383277595043,-0.1409996598958969,0.009080509655177593,0.1942441612482071,-0.12670037150382996,-0.051018573343753815,0.20964117348194122,0.19956380128860474,0.22949306666851044,-0.22235450148582458,0.14870139956474304,-0.1266474425792694,0.04156917706131935,0.05260651186108589,0.06433222442865372,0.08496611565351486,0.16570846736431122,0.2521098852157593,0.1545684039592743,-0.17211812734603882,-0.12886612117290497,0.11251084506511688,-0.2007329761981964,-0.2692875266075134,0.01328660361468792,-0.3053196966648102,0.1330186128616333},{0.20341446995735168,-0.24872878193855286,-0.07100873440504074,-0.2224295288324356,0.0329996682703495,0.30535951256752014,-0.23432935774326324,-0.24469031393527985,0.26145651936531067,-0.07861679047346115,0.2563646137714386,-0.05054057016968727,0.1551184058189392,-0.01726597361266613,0.20651111006736755,-0.05533341318368912,0.012365375645458698,0.014605951495468616,0.22986456751823425,-0.15634439885616302,-0.005859706550836563,-0.14140477776527405,-0.09781666100025177,0.002908666618168354,-0.3293689489364624,0.05975562706589699,-0.025647079572081566,0.12338069826364517,-0.16743092238903046,-0.11027306318283081},{-0.18360935151576996,0.12813124060630798,0.3155427575111389,0.14200474321842194,0.052717551589012146,-0.011206844821572304,0.22324630618095398,0.024306053295731544,0.19586317241191864,0.019648177549242973,-0.27685096859931946,0.18604102730751038,-0.2024093121290207,-0.12691235542297363,0.21980659663677216,-0.32124435901641846,0.2551633417606354,-0.2994394302368164,-0.25548282265663147,0.32373636960983276,-0.2310141623020172,-0.13372866809368134,0.14929725229740143,0.1373666673898697,-0.0644538626074791,0.341876357793808,0.14092949032783508,0.17031535506248474,0.26652398705482483,0.19920919835567474},{0.10283594578504562,-0.17054001986980438,0.0945863127708435,0.0269455723464489,-0.3037581443786621,0.07108631730079651,0.16450396180152893,0.07963772118091583,0.13750693202018738,-0.09451926499605179,0.15402020514011383,0.2924668490886688,-0.27085360884666443,-0.002069928450509906,-0.12196019291877747,0.03305741772055626,-0.23784464597702026,0.2375801056623459,-0.0012977879960089922,-0.11989981681108475,0.06428854167461395,0.012362295761704445,-0.13989616930484772,-0.1650717705488205,0.02102835103869438,-0.016548216342926025,0.12461303174495697,-0.2844926416873932,0.29345762729644775,0.11162715405225754},{0.118862584233284,-0.38108882308006287,-0.17340554296970367,0.09073910862207413,0.14870354533195496,0.16218547523021698,0.3837302327156067,-0.19756697118282318,0.07395144551992416,-0.23720020055770874,0.23105724155902863,0.017090952023863792,0.23388276994228363,0.16133643686771393,-0.3279746174812317,0.14521877467632294,0.10891474783420563,-0.2456117421388626,-0.04179857298731804,-0.061127133667469025,-0.25565484166145325,-0.34756651520729065,-0.2566527724266052,0.05052894726395607,0.06028854846954346,-0.009304392151534557,-0.08709258586168289,0.04670718312263489,-0.3507639765739441,0.02088158205151558},{-0.03901025652885437,0.30955737829208374,0.3499710261821747,0.061499759554862976,-0.11082040518522263,0.3511485457420349,0.263220876455307,-0.133074551820755,0.26922765374183655,0.231736421585083,0.1462080180644989,-0.27706125378608704,0.2406182736158371,-0.2548965811729431,-0.24348999559879303,0.1541820615530014,-0.25905144214630127,0.21175715327262878,0.13937467336654663,0.0928623378276825,0.10220455378293991,-0.1916108876466751,0.04578830301761627,-0.16489773988723755,-0.1811259686946869,0.005493609234690666,-0.3100993037223816,-0.016048476099967957,0.0703187882900238,0.1908825784921646},{-0.1059168204665184,0.2708992660045624,0.03510627895593643,-0.30151593685150146,-0.059881459921598434,-0.2433442622423172,0.25511181354522705,0.07349609583616257,-0.16854773461818695,0.0784863755106926,0.07000522315502167,-0.2356768399477005,-0.15849952399730682,0.013229859992861748,-0.05985027924180031,0.036826472729444504,-0.027909789234399796,-0.06576259434223175,-0.004426043480634689,-0.0908195748925209,0.26599061489105225,0.25683438777923584,-0.09530229866504669,0.1845209151506424,-0.27900436520576477,-0.2564210295677185,0.17655976116657257,-0.22502203285694122,-0.3510574698448181,-0.2286248654127121},{-0.15556052327156067,-0.2767460346221924,-0.20829254388809204,-0.1309000849723816,-0.19013649225234985,-0.15182514488697052,-0.311998188495636,0.290885329246521,-0.22702670097351074,-0.10840638726949692,0.12686248123645782,0.17416565120220184,0.21700738370418549,0.12703335285186768,-0.265082985162735,-0.23619109392166138,0.20587807893753052,0.054858267307281494,-0.10254571586847305,-0.17664922773838043,0.3123989999294281,0.22254109382629395,0.09184408187866211,0.0169402863830328,-0.21500694751739502,0.14920423924922943,-0.044004276394844055,0.2697417736053467,-0.1886862814426422,0.1816815882921219},{-0.2884979546070099,0.15173451602458954,0.0765150710940361,-0.25291886925697327,0.15544256567955017,-0.2178596556186676,-0.19606344401836395,-0.1348767727613449,0.05726870894432068,0.19733527302742004,0.19371511042118073,-0.19704076647758484,-0.0056264568120241165,-0.05026736855506897,0.08353715389966965,0.016768816858530045,-0.10640115290880203,-0.21552854776382446,0.042639438062906265,-0.06347129493951797,0.2281578779220581,-0.31205445528030396,0.011133215390145779,0.06486062705516815,0.22241291403770447,-0.21314586699008942,-0.059124380350112915,0.008498892188072205,0.1447976529598236,0.00012563035124912858},{0.17342068254947662,-0.24016045033931732,-0.2342664897441864,-0.06796111166477203,0.09689001739025116,-0.3039161264896393,-0.2699156701564789,0.18214759230613708,0.16830088198184967,0.1288820505142212,0.02894151397049427,0.2996925115585327,0.11722079664468765,0.2781525254249573,0.04379994049668312,-0.18864032626152039,0.10417191684246063,0.24829193949699402,-0.0019752446096390486,-0.06426921486854553,0.14536643028259277,0.1698693037033081,-0.06811608374118805,-0.18061716854572296,0.16165196895599365,-0.14573934674263,0.2262817621231079,-0.1169748604297638,-0.04404062405228615,-0.20929105579853058},{0.012108164839446545,0.24139507114887238,0.24548546969890594,-0.21256908774375916,0.31696778535842896,-0.2085694819688797,0.26667073369026184,-0.3263236880302429,-0.1807418018579483,0.0786062628030777,0.27495765686035156,0.058951236307621,-0.3239675760269165,0.061274152249097824,-0.003432583762332797,0.3390374183654785,0.215696781873703,0.15219268202781677,0.06615659594535828,0.16465288400650024,0.3757167160511017,0.33725351095199585,-0.3348214328289032,0.2751734256744385,-0.07498912513256073,-0.3918887972831726,0.17649686336517334,-0.06214958056807518,0.06310443580150604,-0.04399693012237549},{-0.24422164261341095,0.1566038876771927,0.07200772315263748,-0.036913033574819565,0.16710717976093292,-0.009475206024944782,-0.15366894006729126,-0.127068430185318,0.18946219980716705,0.029819948598742485,-0.12158751487731934,-0.19288404285907745,-0.1664847433567047,0.18205542862415314,0.008622647263109684,-0.058446165174245834,0.10725893825292587,-0.2591223418712616,-0.26638931035995483,0.2542535066604614,0.02946307696402073,-0.1613224893808365,0.03379443287849426,0.25448060035705566,0.13024406135082245,0.026964500546455383,0.06104196980595589,0.217505544424057,-0.1831028312444687,-0.10783256590366364},{0.01504544261842966,-0.027301138266921043,0.027696922421455383,-0.14937075972557068,-0.10837700963020325,0.3078882396221161,0.15236835181713104,0.19025404751300812,0.401316374540329,-0.0393194705247879,0.21212969720363617,0.3292061388492584,-0.11617809534072876,0.14287909865379333,0.2919124662876129,-0.23433808982372284,-0.0025916036684066057,0.06492850929498672,-0.2636004090309143,-0.23996202647686005,0.053154461085796356,-0.03565232455730438,-0.02135963924229145,0.07320872694253922,-0.12887254357337952,-0.18244020640850067,0.16691993176937103,-0.14197808504104614,-0.20811747014522552,0.21713900566101074},{-0.14136168360710144,0.13591806590557098,-0.264448881149292,0.07454614341259003,-0.18579797446727753,0.029571430757641792,0.07678557932376862,-0.07053343951702118,0.10520631074905396,-0.13651162385940552,0.28660711646080017,0.2673221528530121,0.006698461249470711,0.06646916270256042,-0.08025749027729034,0.2540477514266968,0.01483824010938406,-0.11721678823232651,0.08611547201871872,0.15172173082828522,-0.2058914452791214,-0.2134866714477539,0.16516128182411194,0.11143307387828827,-0.022382106631994247,0.029251741245388985,0.0004196362569928169,-0.22432664036750793,-0.20491324365139008,-0.008489941246807575},{-0.018992558121681213,-0.12001203745603561,0.1539253145456314,-0.23938311636447906,0.2765597701072693,0.13235802948474884,0.3545416593551636,0.10746035724878311,0.05165870487689972,0.15077680349349976,0.0056214714422822,-0.07678768038749695,0.16605743765830994,0.07567289471626282,-0.3163699507713318,0.19747291505336761,-0.23701393604278564,-0.18018119037151337,0.308149129152298,0.07897282391786575,0.0396462120115757,-0.05502636730670929,-0.27048084139823914,-0.2058391571044922,-0.05057475343346596,-0.18176960945129395,-0.004453814122825861,-0.09499874711036682,0.11199452728033066,-0.2352903038263321},{-0.16797102987766266,0.007056787144392729,-0.015264620073139668,-0.18699365854263306,-0.2805010676383972,-0.04833022505044937,-0.22385984659194946,-0.1356106847524643,0.09494383633136749,0.01616855151951313,0.1987738162279129,-0.08314947038888931,0.06740124523639679,-0.20816899836063385,0.0064259544014930725,-0.08286360651254654,0.039858825504779816,-0.08198866993188858,0.18495215475559235,0.18307971954345703,0.14013294875621796,-0.1782047152519226,0.24675066769123077,0.2612086236476898,-0.23323045670986176,0.18457967042922974,-0.13729733228683472,-0.062344882637262344,0.15218478441238403,-0.2178046703338623},{0.1086590513586998,-0.3498205840587616,0.028645852580666542,0.15278615057468414,0.2642146646976471,-0.31295907497406006,0.13490307331085205,0.15870831906795502,0.05132654309272766,0.10697996616363525,0.14847514033317566,-0.12822242081165314,-0.09668639302253723,0.2321465164422989,0.0828394964337349,0.12453226000070572,0.2594554126262665,0.22211837768554688,-0.1550547331571579,-0.1585661917924881,0.08847148716449738,0.23047813773155212,0.06910160928964615,0.08270146697759628,0.1657642275094986,-0.2386617511510849,0.10973469167947769,0.1634129136800766,-0.10848280042409897,-0.173445925116539},{0.1922205239534378,0.20093762874603271,0.20618973672389984,0.1362612098455429,0.21520061790943146,0.3091370165348053,-0.22880393266677856,-0.14580859243869781,-0.09930022805929184,-0.16314774751663208,0.04698144271969795,-0.0711468905210495,0.1984802633523941,-0.022813329473137856,-0.3543388247489929,-0.13447093963623047,0.07432927936315536,-0.02026953548192978,0.22574856877326965,-0.14779049158096313,0.22008016705513,0.09663699567317963,0.09974540770053864,-0.16414441168308258,0.2501702904701233,-0.3252800405025482,0.12448373436927795,-0.08723225444555283,0.2962559163570404,-0.2825085520744324},{-0.133137047290802,-0.182051420211792,-0.2625424861907959,0.052167098969221115,0.23018808662891388,0.1856812834739685,-0.2038271427154541,0.0412231981754303,0.2920476496219635,0.0704452320933342,-0.08136601001024246,0.09822136163711548,0.16466593742370605,0.0736563578248024,0.11987023055553436,-0.048063427209854126,0.3036479949951172,0.36729350686073303,-0.12462372332811356,-0.09326738864183426,0.19762252271175385,-0.08292140811681747,0.04974374175071716,-0.07010679692029953,-0.2690570652484894,-0.220591738820076,0.18437322974205017,0.15449506044387817,-0.302343487739563,0.04646981880068779},{0.16982965171337128,0.13015732169151306,-0.21437115967273712,-0.17316006124019623,0.1214752122759819,-0.2577836513519287,-0.26832541823387146,0.007171641103923321,-0.26705312728881836,0.26912254095077515,-0.20969124138355255,-0.050313591957092285,-0.25294575095176697,-0.16794446110725403,0.18837155401706696,0.07760310173034668,0.17680731415748596,-0.366681307554245,0.2866930365562439,-0.003082558512687683,-0.2624397277832031,-0.28265753388404846,0.058448426425457,0.014994446188211441,-0.020409993827342987,0.20612841844558716,-0.18108484148979187,-0.2771429419517517,-0.0974012091755867,0.08243148028850555},{0.1826414316892624,-0.17738769948482513,-0.3301986753940582,-0.3055419921875,-0.08836076408624649,0.06954602897167206,0.13232964277267456,0.07206879556179047,0.04502382129430771,0.04220440983772278,0.10391315072774887,-0.25143471360206604,-0.038003109395504,-0.2832350730895996,0.12853169441223145,-0.03834909945726395,-0.15789762139320374,0.08542386442422867,0.08336886763572693,0.11191871017217636,-0.1419522762298584,-0.017397619783878326,0.04918596148490906,0.09381350129842758,0.07259643077850342,0.11122612655162811,0.1191144585609436,0.12347789853811264,-0.39310646057128906,-0.28397759795188904},{-0.255095899105072,-0.12046283483505249,-0.018295085057616234,0.17920425534248352,-0.24187231063842773,0.30642133951187134,-0.05732034146785736,0.2590726315975189,0.20987126231193542,-0.1853306144475937,0.18486568331718445,-0.004290347918868065,0.28291651606559753,-0.040295958518981934,0.13242295384407043,-0.12367857992649078,-0.05314624682068825,0.059152886271476746,-0.17057926952838898,-0.265764445066452,-0.31336647272109985,-0.14628078043460846,0.24939793348312378,0.05719675123691559,-0.1145867332816124,-0.22948697209358215,-0.014766871929168701,0.20154015719890594,0.25216445326805115,0.16232724487781525},{-0.3329744338989258,0.026043390855193138,0.1569673866033554,0.037114519625902176,-0.020573068410158157,0.21139486134052277,0.04571159556508064,0.04950333759188652,0.34253910183906555,-0.07705468684434891,-0.37044647336006165,0.20454558730125427,-0.04813537001609802,0.1970532238483429,-0.1615723967552185,0.05890974774956703,0.17205563187599182,-0.09799718856811523,-0.0238848514854908,0.39300572872161865,0.29404720664024353,0.16960380971431732,-0.10271486639976501,0.3079880475997925,-0.14716844260692596,-0.06880974769592285,-0.24344803392887115,-0.03769216313958168,0.04458349943161011,-0.026225494220852852},{0.010471804067492485,-0.05833195149898529,0.11570338904857635,-0.07231088727712631,-0.13849781453609467,0.17900966107845306,0.20889808237552643,-0.02886577881872654,-0.12457121163606644,0.4433560371398926,0.07882227748632431,0.09246817976236343,-0.29520443081855774,-0.15723134577274323,0.0023093887139111757,-0.08022349327802658,0.06189819425344467,0.18969430029392242,0.32968491315841675,0.2435387223958969,-0.09506484121084213,-0.13185840845108032,0.10726100206375122,-0.06136379763484001,-0.1893787533044815,0.2857342064380646,0.149016872048378,0.39859625697135925,0.037770066410303116,-0.18147994577884674},{-0.17101101577281952,-0.2801649868488312,-0.014542610384523869,-0.039986494928598404,0.1866990178823471,0.3593634068965912,0.143522247672081,0.24750357866287231,-0.013455213978886604,-0.08768405020236969,-0.06155760958790779,0.13225878775119781,0.22666943073272705,0.32706063985824585,0.041081756353378296,0.2012077122926712,0.1281503289937973,-0.062013089656829834,0.12514440715312958,0.041743118315935135,-0.21344801783561707,-0.2814238965511322,0.21456126868724823,-0.0651015192270279,0.07129066437482834,0.12743493914604187,0.11699078232049942,0.08107829838991165,-0.13716958463191986,-0.32159823179244995},{0.05470895394682884,0.09602943807840347,-0.11218544840812683,-0.0721265971660614,-0.131527841091156,0.2764568030834198,0.09864730387926102,0.0733836218714714,0.40138688683509827,-0.16362044215202332,-0.11793245375156403,-0.16789183020591736,0.16738846898078918,0.06183180585503578,0.276267409324646,0.34647250175476074,-0.2598353624343872,0.3632517457008362,-0.17905056476593018,0.1474837362766266,0.1546536237001419,0.020999804139137268,0.05956584960222244,0.03784544765949249,0.35623735189437866,0.28687766194343567,0.03314196318387985,-0.25503677129745483,-0.2916215658187866,0.23941291868686676},{0.28156235814094543,0.009599604643881321,0.046564146876335144,0.17528027296066284,-0.05817372724413872,0.07545355707406998,-0.11245527118444443,-0.18573394417762756,-0.17506034672260284,0.0740058496594429,0.12371048331260681,-0.11460410058498383,0.26454824209213257,-0.2394426465034485,0.11348523944616318,-0.12299683690071106,0.13880544900894165,-0.01661285199224949,0.037790536880493164,0.03849544748663902,-0.31504032015800476,-0.30843618512153625,0.010677828453481197,0.20266318321228027,0.14638730883598328,-0.0207833182066679,-0.22120356559753418,-0.16511516273021698,0.2870836555957794,-0.0339767150580883},{-0.1486852765083313,-0.04589641094207764,0.21868151426315308,-0.2646442651748657,-0.12444207072257996,0.16365858912467957,0.18029986321926117,-0.2240399867296219,0.0064228009432554245,0.15640515089035034,0.21010984480381012,0.11353585124015808,-0.01722324639558792,-0.052543897181749344,0.10959848761558533,0.017955461516976357,0.11861694604158401,-0.12550419569015503,0.09333353489637375,-0.1954406201839447,-0.028379304334521294,0.06327632069587708,0.10144298523664474,-0.2589837610721588,-0.051911577582359314,0.0199186559766531,0.1976560652256012,0.18243949115276337,0.13168151676654816,0.08002938330173492},{0.05214512348175049,0.002350811380892992,-0.09302293509244919,-0.09372659027576447,-0.01661955565214157,0.04174376279115677,0.30788275599479675,0.24798519909381866,-0.07168235629796982,0.09944029152393341,-0.12036152184009552,0.18167701363563538,-0.018414054065942764,0.04328148812055588,0.08921343833208084,0.022861402481794357,-0.23131556808948517,0.22388064861297607,-0.11408717185258865,-0.3496861755847931,0.18582667410373688,-0.32191982865333557,0.040209997445344925,0.1697496622800827,0.002087909961119294,0.21918654441833496,-0.15129242837429047,-0.0017204786418005824,-0.04656381532549858,-0.02338326908648014},{-0.016846856102347374,-0.18646758794784546,-0.23947162926197052,0.17973686754703522,-0.27106210589408875,-0.3544892966747284,-0.1824309378862381,0.2162894308567047,0.24457573890686035,0.06732388585805893,0.09468453377485275,0.042949479073286057,-0.0350947268307209,-0.03348534554243088,0.19972114264965057,0.17051295936107635,0.04587041586637497,-0.10994186252355576,0.009350957348942757,0.14134784042835236,0.10571765899658203,-0.029648611322045326,0.20989058911800385,-0.20517879724502563,-0.2100822627544403,0.014875605702400208,0.1243617832660675,0.2393861711025238,-0.08217435330152512,0.053748227655887604}};
static const float actor_encoder_feed_forward_0_weight[46][60] = {{-0.18515540659427643,0.2308310866355896,-0.14472176134586334,-0.16978338360786438,0.08499128371477127,-0.06758153438568115,0.1905226707458496,-0.25925353169441223,-0.2635143995285034,0.1978665590286255,0.25226452946662903,-0.17212897539138794,-0.08820287138223648,-0.028208568692207336,0.09501762688159943,-0.1411527693271637,0.051262907683849335,-0.11507075279951096,0.12604670226573944,0.011266356334090233,0.09785104542970657,0.14252977073192596,0.19564376771450043,0.207121342420578,-0.05434799566864967,-0.007104162126779556,0.07464233785867691,0.060013022273778915,0.10361404716968536,0.21376842260360718,0.032375384122133255,-0.12231875211000443,-0.15775591135025024,-0.033478058874607086,0.020083529874682426,0.03737904503941536,-0.0994333028793335,-0.12905722856521606,0.1741577535867691,0.164403036236763,-0.007406981661915779,-0.03899478539824486,-0.27807578444480896,0.0967443659901619,-0.07040313631296158,-0.037557464092969894,0.11520256847143173,0.06210440769791603,-0.22867421805858612,0.09181229025125504,0.2104187160730362,0.1741914004087448,0.2831422984600067,-0.16963456571102142,-0.11950921267271042,-0.1458829641342163,-0.07226590067148209,-0.10128660500049591,0.10505829006433487,0.2836514115333557},{-0.09784996509552002,-0.05005725845694542,0.16801607608795166,0.2698942720890045,0.2214869260787964,-0.19065865874290466,-0.08759433776140213,-0.10104439407587051,0.06946597993373871,0.13763439655303955,0.08639628440141678,0.18600423634052277,0.03536627069115639,0.2264900505542755,0.0027219164185225964,-0.23886814713478088,0.21482940018177032,0.1203102245926857,-0.14543573558330536,0.14038705825805664,0.0857713520526886,-0.1860457807779312,-0.07711274176836014,0.15778076648712158,0.20902015268802643,-0.09853357821702957,0.06599751859903336,-0.20485536754131317,-0.09662769734859467,0.07198716700077057,0.1322551667690277,-0.09631368517875671,-0.04743973910808563,-0.17917831242084503,0.2395470291376114,-0.1036350354552269,0.05442015826702118,0.05859684944152832,-0.11983984708786011,-0.06268218904733658,-0.25022372603416443,-0.13511575758457184,0.05733701214194298,-0.20518678426742554,0.1505015641450882,-0.129691481590271,-0.13678373396396637,-0.14758196473121643,0.20158962905406952,0.07709453254938126,-0.1998879462480545,-0.02397831901907921,0.04420413076877594,0.22706028819084167,-0.32444387674331665,0.03289911523461342,-0.09260895103216171,-0.11143086105585098,0.0867721289396286,0.06891413778066635},{-0.03451147675514221,0.11142987757921219,0.18763485550880432,2.0600746211130172e-05,-0.24791063368320465,0.1116834357380867,-0.03780794516205788,0.21709150075912476,-0.3454969823360443,-0.07365147769451141,0.060413658618927,-0.21593104302883148,0.16502779722213745,0.10814826190471649,0.023761719465255737,-0.023683086037635803,-0.13081097602844238,-0.01948043517768383,-0.13954126834869385,0.05372012406587601,-0.039747919887304306,0.2303396463394165,-0.06915875524282455,-0.1673440784215927,-0.0543985441327095,0.11752868443727493,-0.19498446583747864,-0.11147348582744598,-0.20045322179794312,-0.04703135043382645,0.1698116511106491,0.1309640258550644,-0.09285762161016464,0.0042495932430028915,0.07601653784513474,0.060714077204465866,0.04644390195608139,-0.023320768028497696,0.11190643906593323,0.0682838186621666,-0.04431584104895592,0.22250910103321075,0.06753847002983093,0.1421441286802292,0.08422832936048508,-0.0394427515566349,0.2794855535030365,0.10900821536779404,-0.1633910834789276,-0.13121281564235687,-0.13472190499305725,-0.0989762544631958,-0.051235005259513855,0.017735037952661514,-0.04207436367869377,0.038030315190553665,-0.06485100090503693,0.2535524368286133,-0.040251363068819046,0.0673333927989006},{0.043122678995132446,-0.10843176394701004,0.1318054050207138,0.09808282554149628,-0.0789225697517395,-0.225175142288208,-0.12547989189624786,-0.11265727132558823,0.225326269865036,0.17497895658016205,-0.13773684203624725,-0.0018187473760917783,-0.0017179695423692465,-0.08628430217504501,-0.02774982899427414,0.12174568325281143,0.052916187793016434,-0.13333892822265625,-0.09252642840147018,0.061457082629203796,0.010613708756864071,0.0529462955892086,0.16304463148117065,0.09256018698215485,-0.06915951520204544,0.29639002680778503,-0.1289045214653015,-0.046466417610645294,0.07366378605365753,0.28354188799858093,-0.13117964565753937,0.1938486546278,-0.08092756569385529,-0.023791562765836716,-0.00871974416077137,-0.028636833652853966,0.015771573409438133,0.16813255846500397,-0.09687468409538269,-0.0955556109547615,-0.24079200625419617,0.20628587901592255,0.11834874749183655,-0.28067973256111145,-0.18246781826019287,0.227909654378891,0.09782170504331589,-0.19543935358524323,-0.05227838456630707,0.0585787370800972,0.21693553030490875,0.08280779421329498,-0.051813073456287384,-0.17886289954185486,0.315550833940506,0.12471538782119751,-0.05275772139430046,-0.10563384741544724,0.1362023800611496,-0.011079289950430393},{-0.23374484479427338,0.015828529372811317,0.1287667453289032,-0.01013440266251564,0.31653231382369995,-0.1021660566329956,0.023787716403603554,-0.14891362190246582,-0.2598046064376831,0.13114295899868011,-0.2736184597015381,0.2880241274833679,-0.20942705869674683,-0.031423673033714294,-0.0058583905920386314,-0.20957855880260468,0.10929907858371735,-0.12297004461288452,-0.1251031756401062,-0.17273925244808197,0.161412313580513,-0.014091264456510544,-0.061465855687856674,-0.06483767181634903,-0.011942035518586636,0.028140457347035408,-0.033492013812065125,0.1727750152349472,0.04480637237429619,-0.08487207442522049,-0.08721575140953064,0.15960665047168732,-0.12453901022672653,0.016954658553004265,-0.23413756489753723,-0.17423172295093536,0.1477089673280716,0.05284246802330017,-0.23509331047534943,0.008471643552184105,0.02723538503050804,-0.07077235728502274,-0.1697174459695816,0.054712504148483276,-0.11336653679609299,-0.11294545233249664,-0.046132925897836685,-0.21889352798461914,0.026331746950745583,0.19713585078716278,0.1302347332239151,0.04110323265194893,0.016020171344280243,0.20402365922927856,-0.040669627487659454,0.0017863543471321464,-0.13280948996543884,0.14855867624282837,0.0969720408320427,0.2006707489490509},{-0.2660767436027527,-0.0046113040298223495,-0.20151585340499878,-0.09856797754764557,0.047117363661527634,-0.13900452852249146,-0.24268928170204163,0.20862267911434174,0.050195612013339996,0.005961996968835592,-0.19893930852413177,-0.06400413066148758,-0.12128587812185287,0.07276099920272827,0.17631997168064117,0.12606129050254822,-0.17926380038261414,0.16358986496925354,-0.11678916215896606,-0.14621588587760925,-0.022825660184025764,-0.2561289072036743,0.012995962984859943,-0.08342303335666656,-0.10396028310060501,0.13787148892879486,-0.12361296266317368,-0.42083975672721863,0.0069474875926971436,0.053466565907001495,-0.0789305791258812,-0.16485732793807983,-0.2215413600206375,-0.13434553146362305,0.19991782307624817,0.2932780086994171,-0.03682775795459747,0.08700225502252579,-0.08245919644832611,0.17212273180484772,-0.17582623660564423,0.23898980021476746,0.12567101418972015,-0.16195769608020782,0.09266999363899231,-0.0441008135676384,0.15095023810863495,0.23288649320602417,-0.013434218242764473,-0.17326122522354126,-0.14214365184307098,0.07912630587816238,-0.29984375834465027,-0.06285574287176132,0.05957235023379326,-0.16539080440998077,0.2587644159793854,-0.0626244768500328,-0.18550145626068115,-0.14494161307811737},{0.17442303895950317,0.019323021173477173,-0.13591963052749634,-0.2161974012851715,0.17190255224704742,-0.11527926474809647,0.15969155728816986,0.17621637880802155,-0.22995953261852264,-0.25619596242904663,-0.20712655782699585,0.09247596561908722,-0.1918252557516098,-0.22006285190582275,0.2060147076845169,-0.12492255121469498,-0.1060514897108078,-0.2599755525588989,0.007909785956144333,0.10546624660491943,-0.06643633544445038,-0.20663557946681976,0.004127683117985725,0.11907419562339783,-0.07322241365909576,0.16134285926818848,0.17426373064517975,-0.2693822681903839,0.19097033143043518,0.04443662613630295,0.12771302461624146,-0.1877998262643814,-0.11843778192996979,-0.22991061210632324,0.05541694909334183,-0.19737763702869415,-0.09729042649269104,0.12925417721271515,-0.1564159095287323,0.11399049311876297,0.13000689446926117,0.05487571284174919,-0.23203465342521667,-0.16455136239528656,-0.18523570895195007,-0.08070138841867447,0.14362011849880219,-0.16512706875801086,-0.1412653923034668,0.2040260136127472,-0.11695944517850876,-0.1116849035024643,0.16264235973358154,-0.2314681112766266,-0.018353749066591263,0.2241680771112442,-0.19405099749565125,0.2102436125278473,0.04922247678041458,-0.05840643122792244},{0.05942803993821144,-0.18771308660507202,-0.008290248923003674,-0.0903085395693779,-0.12397397309541702,-0.2599717974662781,-0.039491601288318634,0.003997378516942263,-0.05567977577447891,-0.1974816620349884,0.2098989486694336,-0.07484441250562668,0.009679991751909256,-0.0168081633746624,0.15401259064674377,0.17656846344470978,-0.17207728326320648,-0.06935157626867294,0.16479076445102692,0.16452090442180634,0.16775357723236084,0.14726468920707703,0.08724134415388107,0.21307308971881866,0.13197576999664307,-0.20704753696918488,-0.21904444694519043,-0.13845445215702057,0.16627006232738495,0.008629515767097473,-0.035595640540122986,0.1918308585882187,-0.03512158989906311,0.009532436728477478,0.11542107164859772,-0.2098923921585083,0.03388025239109993,0.0116305872797966,-0.05038664862513542,0.19820275902748108,0.08230297267436981,-0.07410454750061035,0.02092311717569828,0.11381618678569794,0.10115194320678711,0.13742847740650177,0.03303643688559532,-0.20911815762519836,0.1592274159193039,0.02578810788691044,-0.00016035679436754435,-0.08067113906145096,-0.05966804921627045,-0.16994352638721466,0.020310139283537865,-0.011095683090388775,-0.009908197447657585,-0.10785772651433945,-0.17817078530788422,-0.18270283937454224},{-0.016549959778785706,0.19185134768486023,0.13593804836273193,0.25102612376213074,-0.10320217162370682,-0.057110272347927094,-0.12244950234889984,0.2721813917160034,0.3098667860031128,0.2110215127468109,-0.06877220422029495,-0.20615600049495697,0.13638947904109955,-0.22557450830936432,0.23846957087516785,-0.024389144033193588,-0.04964514821767807,0.012460533529520035,-0.018548758700489998,-0.06336630135774612,0.14061564207077026,0.06260672956705093,0.31266486644744873,0.047212839126586914,0.1963043212890625,0.21567803621292114,-0.03588501736521721,-0.21336905658245087,-0.1716272085905075,-0.05502653121948242,-0.09463654458522797,-0.09518720209598541,-0.17651161551475525,0.2174338698387146,-0.11280816048383713,0.21903449296951294,-0.06694329530000687,-0.04654032737016678,-0.016200123354792595,0.1948784738779068,0.0006385383894667029,-0.20959371328353882,-0.012757819145917892,-0.07516929507255554,0.08739162981510162,0.15010099112987518,0.2086188793182373,-0.07522957772016525,0.11947201192378998,-0.09404034912586212,-0.19839374721050262,0.13496854901313782,-0.2067749798297882,-0.10040811449289322,0.215646430850029,-0.0841006264090538,-0.029932519420981407,-0.06314631551504135,-0.11175854504108429,-0.20783604681491852},{-0.1526075303554535,-0.23591461777687073,0.017098240554332733,0.18863072991371155,-0.10531539469957352,-0.13135221600532532,0.20374546945095062,-0.27142730355262756,-0.07780991494655609,-0.21640746295452118,0.1423768550157547,0.03179309517145157,0.03607501834630966,0.06527188420295715,0.08613941073417664,0.12775272130966187,-0.15817558765411377,-0.13805679976940155,0.26605212688446045,-0.1597542017698288,-0.09754052013158798,-0.07002107799053192,-0.07028762251138687,0.15756312012672424,0.015723561868071556,0.13003093004226685,0.13373219966888428,0.34734585881233215,-0.03859597072005272,0.07016896456480026,-0.07292207330465317,0.0540514811873436,0.0015873638913035393,0.18754366040229797,-0.09326059371232986,0.04734891280531883,-0.14651364088058472,0.0934891551733017,-0.15511149168014526,-0.11835718899965286,0.15519535541534424,-0.17988942563533783,-0.027404651045799255,-0.030733196064829826,-0.15208682417869568,-0.09353543072938919,-0.07598400115966797,0.1647641509771347,-0.03221080079674721,-0.07375869899988174,0.0835256427526474,0.15904457867145538,0.043564315885305405,0.08706340938806534,-0.06104390323162079,0.16705462336540222,-0.10986647754907608,-0.17404133081436157,0.07053568959236145,0.14443475008010864},{0.014201018959283829,-0.16920119524002075,-0.08539094030857086,0.19891968369483948,-0.05980522185564041,0.1821243315935135,0.02102382853627205,0.19454386830329895,0.11286969482898712,0.18171058595180511,-0.02408306486904621,0.06541693210601807,0.15315066277980804,0.029173528775572777,-0.07829275727272034,0.059929218143224716,0.1306437849998474,0.0393657311797142,-0.0007772009121254086,-0.20626406371593475,-0.20790378749370575,-0.22677457332611084,0.21246443688869476,0.12674784660339355,0.12060908228158951,0.24090242385864258,-0.07041569799184799,-0.0835307165980339,-0.10509082674980164,0.013687429949641228,0.020244691520929337,0.227702334523201,-0.09733017534017563,0.1851857602596283,-0.15433372557163239,0.10952629148960114,-0.2062608152627945,0.22022122144699097,0.06370943784713745,-0.1569788008928299,0.05409331992268562,-0.17729641497135162,-0.15011858940124512,-0.05527392774820328,-0.12396233528852463,0.002174022374674678,-0.20348608493804932,0.29399213194847107,0.13246774673461914,0.032495930790901184,-0.028894880786538124,0.009413259103894234,0.21510307490825653,0.09227794408798218,-0.07180305570363998,0.1903800666332245,0.021518506109714508,0.024433158338069916,-0.21430572867393494,-0.08558036386966705},{0.1378922015428543,0.17592035233974457,0.043201398104429245,0.15145443379878998,-0.036922141909599304,-0.18496286869049072,-0.034394290298223495,-0.18574856221675873,0.02323509193956852,-0.185657799243927,-0.12244676053524017,-0.13150915503501892,-0.10323304682970047,0.1118130013346672,0.060136038810014725,-0.10023072361946106,-0.09838075190782547,-0.18524523079395294,0.15488316118717194,-0.04203424230217934,-0.13404808938503265,-0.08019408583641052,0.23846659064292908,0.253083735704422,0.20375679433345795,-0.19034457206726074,0.1360856592655182,0.1671099215745926,-0.0006378828547894955,0.10046423971652985,0.05204677954316139,-0.013045807369053364,-0.12022994458675385,0.028394164517521858,-0.1243043914437294,0.10293205827474594,0.2404608279466629,0.19089044630527496,-0.06330105662345886,-0.19818991422653198,0.015283960849046707,-0.04768148064613342,-0.019845766946673393,-0.16639871895313263,0.049636464565992355,-0.17022481560707092,0.22496165335178375,-0.12226634472608566,-0.017579805105924606,-0.21100445091724396,0.25342944264411926,0.0518411248922348,0.004465040285140276,-0.07581885904073715,0.28906017541885376,0.18289974331855774,0.1315270960330963,-0.08233863115310669,0.12570545077323914,0.017669079825282097},{-0.09667116403579712,0.26928380131721497,0.029460696503520012,-0.24313628673553467,0.17081305384635925,0.21868936717510223,0.1109161302447319,-0.053204771131277084,0.060340505093336105,-0.1291331648826599,0.10636778175830841,-0.07484936714172363,0.18631385266780853,-0.21022576093673706,0.20039932429790497,0.09689481556415558,0.06107425317168236,-0.006241326220333576,-0.2207888513803482,-0.11998974531888962,-0.18427230417728424,0.1249634176492691,0.25744304060935974,0.18688569962978363,-0.1750241070985794,0.24399849772453308,0.028639819473028183,-0.08636711537837982,0.0904521718621254,0.24752283096313477,-0.1115822121500969,0.11295334249734879,0.14365069568157196,0.1788082867860794,0.15254177153110504,0.06055479496717453,-0.09531603008508682,0.00835496373474598,-0.22472357749938965,-0.002886310452595353,-0.002031358890235424,0.20410698652267456,-0.011217493563890457,0.21703128516674042,-0.12215859442949295,-0.20008018612861633,0.017207598313689232,-0.09646621346473694,0.22652512788772583,0.08874066174030304,0.1482786238193512,-0.03595603629946709,0.09879802912473679,-0.11252781003713608,0.38063305616378784,0.127188041806221,-0.18360373377799988,-0.14094237983226776,-0.1457698941230774,0.19222138822078705},{0.25841376185417175,0.10790373384952545,-0.08046753704547882,-0.17294150590896606,0.20145964622497559,0.18227536976337433,0.017323939129710197,0.24605852365493774,-0.1347348690032959,-0.05316617339849472,-0.06031927093863487,0.02266153320670128,-0.032143160700798035,0.08957204222679138,-0.17128345370292664,0.07471112161874771,-0.07982656359672546,0.22826629877090454,-0.02382386103272438,0.08177820593118668,-0.05726345628499985,0.147280752658844,0.11560940742492676,0.16119423508644104,-0.16020460426807404,-0.11530204117298126,-0.15419042110443115,0.1729392111301422,0.07146608829498291,0.0953512191772461,0.06608069688081741,-0.13266073167324066,0.23063798248767853,-0.15909221768379211,-0.24327228963375092,-0.12054667621850967,0.016839802265167236,-0.22814323008060455,0.060544710606336594,0.15462662279605865,0.11183498054742813,-0.02597717195749283,-0.0655769631266594,-0.2989875078201294,0.22651463747024536,0.06913387030363083,0.17582803964614868,-0.14273235201835632,-0.06802842020988464,-0.1768343150615692,0.2128210961818695,-0.2300410121679306,0.07823202759027481,-0.0967334732413292,0.15586839616298676,-0.06268002837896347,0.10328487306833267,0.12062014639377594,-0.017009172588586807,0.17327240109443665},{-0.16973771154880524,-0.10979019850492477,-0.09875020384788513,0.09941698610782623,-0.1374417394399643,0.04880056902766228,0.03875350207090378,-0.08692812919616699,0.4017164707183838,0.20666660368442535,0.06136094033718109,-0.16102521121501923,-0.2243061661720276,0.30121222138404846,-0.12844137847423553,0.21927416324615479,0.14265619218349457,0.09663399308919907,0.2238970547914505,-0.14672112464904785,-0.22125500440597534,-0.005578002892434597,-0.15431231260299683,0.14942410588264465,-0.026846719905734062,-0.04246257245540619,-0.2696124017238617,-0.07880803197622299,0.22937047481536865,0.15456922352313995,-0.21912479400634766,0.053040388971567154,0.1629556119441986,0.17657731473445892,-0.3152180016040802,-0.05326094105839729,0.13960030674934387,-0.002826494164764881,0.05835374444723129,-0.11250627785921097,-0.15181070566177368,-0.06714083254337311,-0.060157496482133865,-0.05115064978599548,0.1182156577706337,0.0038619174156337976,-0.09671980142593384,-0.13278913497924805,-0.2104608565568924,-0.1669027954339981,-0.2639771103858948,0.03705864027142525,0.0796772688627243,-0.17028501629829407,0.1939108669757843,0.0935332402586937,-0.034756917506456375,0.10431227833032608,-0.11163895577192307,-0.04288296028971672},{-0.07894885540008545,0.3097454607486725,0.14766322076320648,-0.3171693682670593,0.24886371195316315,-0.0907256156206131,0.18224719166755676,-0.1176118403673172,-0.3584984242916107,-0.03740981966257095,0.11312462389469147,0.09075174480676651,0.13462238013744354,-0.07402537018060684,-0.12443148344755173,0.031200703233480453,0.035229817032814026,-0.05732405558228493,0.07585563510656357,-0.03104437328875065,-0.19697028398513794,0.10248985141515732,-0.0954243540763855,0.0670379102230072,0.033452991396188736,0.33047720789909363,-0.04156572371721268,0.12196618318557739,0.27614519000053406,0.006397046148777008,-0.315595805644989,0.2506987452507019,-0.08922190219163895,-0.05010535940527916,0.2275230437517166,0.0897168293595314,-0.2602572441101074,0.12835727632045746,-0.07436300814151764,0.0715116336941719,0.09096435457468033,0.0773494616150856,0.09340949356555939,0.005811380688101053,0.08974951505661011,0.03976260498166084,0.13320760428905487,-0.17768818140029907,0.12769247591495514,0.08519382774829865,0.1240420863032341,-0.01158044021576643,0.04039464890956879,0.1716713011264801,0.2000885158777237,0.1365058869123459,-0.14007626473903656,-0.13186317682266235,0.1446630209684372,0.29232117533683777},{0.13345615565776825,-0.11883391439914703,-0.07302321493625641,0.004751597996801138,-0.0875718742609024,-0.1047738641500473,-0.14162911474704742,0.04175848513841629,0.036795008927583694,-0.1567780077457428,-0.2542654275894165,-0.2089030146598816,-0.058307405561208725,-0.20276783406734467,-0.18840540945529938,0.12389195710420609,-0.14548428356647491,0.17188982665538788,0.05797959119081497,0.2109963744878769,0.06777556985616684,-0.12683837115764618,-0.1319209188222885,0.2382664680480957,0.004574887920171022,0.04817766696214676,-0.2400648593902588,0.10872466117143631,-0.025412635877728462,-0.1410163938999176,0.11004666984081268,0.06570861488580704,0.14805088937282562,-0.17178040742874146,-0.31069666147232056,-0.2201777994632721,-0.07474157959222794,-0.0006830308702774346,-0.18948620557785034,-0.20135724544525146,0.028124269098043442,0.0738058090209961,0.2226143330335617,-0.08290648460388184,0.12696345150470734,0.04213773459196091,0.11350246518850327,-0.10644149780273438,-0.23027969896793365,0.07767641544342041,-0.16002590954303741,0.12958331406116486,0.3494776785373688,-0.16877274215221405,-0.0036783809773623943,-0.16863232851028442,-0.1731003224849701,0.176912322640419,-0.12388631701469421,-0.1434544324874878},{-0.16389527916908264,-0.044364333152770996,0.18883295357227325,0.04895174130797386,-0.2315066009759903,-0.06557931005954742,0.1649010330438614,0.22543786466121674,0.16458731889724731,0.1822233945131302,-0.19015288352966309,0.12305787205696106,0.05365518108010292,-0.15058405697345734,0.2867457866668701,0.06578613817691803,-0.1419670432806015,0.2849750518798828,-0.16576075553894043,-0.061793792992830276,-0.006055726669728756,-0.0728820413351059,0.27535000443458557,0.0677996426820755,-0.10943975299596786,0.0071711367927491665,-0.17265158891677856,0.07813744246959686,-0.10781089961528778,0.1913592666387558,0.23316742479801178,-0.0776119977235794,-0.03286915645003319,-0.022637370973825455,0.1806369125843048,-0.2161649465560913,-0.11263902485370636,-0.10370948910713196,0.11004522442817688,0.08211012929677963,-0.07696326076984406,-0.1956431120634079,-0.14048461616039276,-0.13162632286548615,0.12303588539361954,-0.10209745168685913,-0.14691774547100067,0.08825107663869858,0.07792311906814575,-0.2564654052257538,-0.052155885845422745,0.01945069618523121,-0.17041869461536407,-0.09150546789169312,-0.028212012723088264,0.19681769609451294,0.01962345279753208,-0.01870565116405487,-0.22312460839748383,0.22857554256916046},{0.03511663153767586,0.08983784914016724,-0.22452202439308167,-0.09316931664943695,0.09137257933616638,-0.1574249565601349,0.037743788212537766,-0.10513393580913544,-0.2452874332666397,0.06994566321372986,0.15632009506225586,-0.12863709032535553,0.058764077723026276,0.041733499616384506,0.06622482091188431,0.14994072914123535,-0.17748647928237915,0.2491285353899002,0.03623051196336746,-0.28529810905456543,-0.003590297419577837,-0.0027850032784044743,-0.032177120447158813,-0.24034158885478973,-0.19478662312030792,0.004598803818225861,-0.1301543414592743,-0.19628819823265076,-0.1888306587934494,-0.224607914686203,-0.024895204231142998,-0.016309237107634544,0.0535561628639698,0.17796948552131653,-0.09676697105169296,-0.03415491804480553,-0.23097501695156097,-0.07899773865938187,-0.12006663531064987,0.021555587649345398,-0.05538110435009003,0.10281869769096375,-0.23847678303718567,0.04404193162918091,-0.14278055727481842,-0.055571530014276505,-0.1952163726091385,-0.03298785164952278,-0.04018422216176987,0.07672101259231567,0.11420618742704391,0.22283349931240082,0.12214186787605286,0.06736171990633011,-0.1521824449300766,-0.13330432772636414,-0.10971366614103317,0.12869010865688324,-0.1554979681968689,0.2578682005405426},{-0.06246939301490784,-0.011428913101553917,-0.16025449335575104,0.04434666410088539,0.18607911467552185,0.012936345301568508,-0.031161827966570854,-0.2625837028026581,-0.11430490761995316,-0.12073059380054474,0.02106098271906376,0.15249644219875336,-0.021051179617643356,-0.12949824333190918,-0.03178432211279869,-0.13291901350021362,0.10950739681720734,-0.15821732580661774,-0.23386137187480927,0.08909397572278976,0.034732844680547714,-0.144754096865654,-0.22516101598739624,0.01899968460202217,0.017856603488326073,-0.08886213600635529,0.3134715259075165,-0.0531618595123291,0.12950430810451508,-0.14471136033535004,0.1350935846567154,-0.10847631096839905,-0.15769173204898834,-0.11297674477100372,-0.20188912749290466,0.010182974860072136,0.034422412514686584,0.09241905808448792,-0.0653250589966774,-0.23439103364944458,-0.12097866833209991,0.011595883406698704,0.13339056074619293,0.011722435243427753,0.18686489760875702,-0.05709535628557205,-0.053996551781892776,-0.23622429370880127,0.054237525910139084,0.07325759530067444,-0.2232530117034912,0.0009685388649813831,-0.10050513595342636,-0.004603366367518902,-0.02103876695036888,0.09754043817520142,0.070532888174057,-0.08098284155130386,0.09373901784420013,-0.20439842343330383},{-0.16874583065509796,-0.0074741290882229805,-0.04549082741141319,-0.009928612038493156,0.20450995862483978,0.22198471426963806,0.20247870683670044,0.11147406697273254,0.012186027131974697,0.2611786425113678,-0.09049101918935776,0.22177407145500183,0.023840928450226784,-0.1815301924943924,-0.16813690960407257,-0.10784833133220673,0.20459990203380585,0.14633621275424957,0.10552620887756348,-0.19056057929992676,0.07309622317552567,0.25565239787101746,-0.2273358553647995,0.20987586677074432,0.17668160796165466,0.12379380315542221,0.15750771760940552,0.35657957196235657,0.08667756617069244,-0.0035100567620247602,0.17126591503620148,0.2756536602973938,0.22404727339744568,-0.2422187626361847,0.03001190721988678,0.0897165983915329,0.07479646056890488,0.15961197018623352,0.20310889184474945,-0.11903943121433258,0.08219629526138306,0.06722591817378998,0.11681940406560898,0.19304755330085754,-0.10703252255916595,0.14815151691436768,-0.030252162367105484,-0.034287229180336,-0.11464628577232361,-0.08918171375989914,-0.02382778562605381,0.145730659365654,-0.09857144951820374,-0.020731089636683464,-0.11799637228250504,-0.09415087848901749,-0.23371990025043488,-0.26543524861335754,-0.08768152445554733,0.10428763926029205},{0.10220136493444443,0.05005286633968353,0.14298023283481598,-0.10226067155599594,-0.15646541118621826,-0.09985117614269257,0.09544751793146133,0.20130042731761932,0.09256985038518906,0.14405457675457,0.13234871625900269,0.24607203900814056,0.1557769775390625,-0.12464310228824615,0.05789787322282791,-0.05646128207445145,0.05564868822693825,0.09101050347089767,0.21588961780071259,0.01374210324138403,0.18100827932357788,0.2105170637369156,-0.24951322376728058,0.13814078271389008,0.008931669406592846,-0.32894036173820496,0.05371839180588722,0.04339608550071716,0.22403185069561005,0.0704667717218399,0.21641090512275696,0.22784794867038727,-0.18645328283309937,0.2134535312652588,-0.11233155429363251,-0.2002018839120865,0.12022090703248978,-0.28244447708129883,-0.07313019782304764,-0.0198716651648283,-0.16273678839206696,-0.01838487572968006,-0.30717039108276367,0.08058831840753555,0.101471908390522,0.007466103415936232,-0.21453827619552612,0.1935507357120514,-0.19536566734313965,-0.011215217411518097,0.16164880990982056,-0.20075060427188873,0.20501931011676788,-0.21843762695789337,-0.17074668407440186,0.18777334690093994,0.17093877494335175,-0.17293468117713928,0.0815650150179863,0.1399490088224411},{0.07424131780862808,0.201498880982399,0.13367055356502533,0.07876556366682053,-0.08340376615524292,-0.0365070179104805,-0.20140020549297333,-0.17663314938545227,0.1820388287305832,0.04474276676774025,-0.013375132344663143,-0.25070059299468994,0.2208074927330017,0.04829316586256027,0.03220939263701439,0.1875731498003006,0.04978802800178528,0.05763430520892143,-0.006180183030664921,-0.2318701446056366,0.002328815869987011,-0.01133021991699934,-0.15735092759132385,0.19426998496055603,0.2661806344985962,0.06308519840240479,-0.26916518807411194,-0.19054079055786133,-0.25337281823158264,0.17712554335594177,0.05799660086631775,-0.05721193552017212,0.1392015516757965,0.13648368418216705,0.015023093670606613,-0.14826782047748566,0.2645677328109741,-0.02995084784924984,0.11435041576623917,0.18393871188163757,0.06278100609779358,-0.029964370653033257,0.23229055106639862,0.1745404452085495,0.26468780636787415,0.11732108891010284,-0.015376018360257149,0.04466554522514343,-0.15739266574382782,0.104573555290699,-0.1804550141096115,-0.007423827890306711,0.18950673937797546,-0.07282418012619019,0.17077115178108215,-0.14998368918895721,0.2580201327800751,-0.16471469402313232,0.09377848356962204,-0.012897429056465626},{-0.16899104416370392,0.16962146759033203,0.13355500996112823,0.10868503898382187,0.18390275537967682,0.14048734307289124,-0.08202105015516281,-0.21892958879470825,-0.0858360081911087,0.0023384385276585817,0.08138980716466904,0.10732744634151459,-0.09764881432056427,-0.04251393303275108,-0.03078662045300007,-0.15806563198566437,-0.1854361891746521,0.1396612524986267,-0.1511888951063156,-0.16032066941261292,0.022814862430095673,-0.0897550880908966,-0.1006462499499321,-0.11930704861879349,-0.07090970873832703,-0.07043825089931488,-0.14086344838142395,-0.15412382781505585,-0.2552296817302704,-0.21749387681484222,0.0323132760822773,0.1564723253250122,0.13544194400310516,0.08079833537340164,0.14016319811344147,-0.23795516788959503,0.10841813683509827,0.14277681708335876,0.015792567282915115,-0.276228666305542,-0.17647385597229004,-0.047977548092603683,0.11921773850917816,-0.11142510920763016,0.0513896606862545,-0.03615463897585869,-0.07894565910100937,-0.00034615490585565567,0.14236676692962646,-0.15467514097690582,0.09715093672275543,-0.04103933647274971,-0.16949450969696045,-0.1339976042509079,-0.14194566011428833,0.045863356441259384,0.014636209234595299,0.22779248654842377,0.008390883915126324,0.07891260087490082},{-0.006935727316886187,-0.1695159673690796,0.05311475321650505,-0.19022127985954285,0.1399904191493988,-0.225211501121521,-0.09705133736133575,0.04912789538502693,-0.2006736397743225,0.10679321736097336,-0.2292395532131195,-0.046347424387931824,0.04594888538122177,-0.2276630699634552,-0.19937780499458313,0.10781387239694595,-0.02856048382818699,-0.022600743919610977,0.19522443413734436,-0.003980196081101894,-0.137460395693779,0.20631994307041168,-0.10639680176973343,0.21170227229595184,0.3043892979621887,-0.07099678367376328,0.25673121213912964,0.0339127741754055,-0.12763626873493195,0.01633252203464508,-0.1620360165834427,0.32464471459388733,0.002258224645629525,-0.17391015589237213,-0.23736608028411865,-0.049303218722343445,-0.0582234263420105,0.047535110265016556,0.01813686080276966,-0.23542334139347076,0.04541068524122238,0.05940735712647438,0.14926838874816895,0.1939334273338318,-0.19078709185123444,0.07418932765722275,-0.2044321894645691,-0.17601214349269867,-0.019288623705506325,-0.030132876709103584,0.14491000771522522,-0.007707329001277685,-0.12305085361003876,0.13845360279083252,-0.12381007522344589,-0.038405053317546844,-0.09968798607587814,0.2323085069656372,0.2567184567451477,0.2347172498703003},{0.033795103430747986,0.015964368358254433,0.03302454575896263,0.23156952857971191,-0.1268496960401535,-0.06911355257034302,0.19335225224494934,-0.013212387450039387,0.10316835343837738,0.0987146869301796,-0.14418819546699524,-0.266528844833374,-0.01629643887281418,0.15590600669384003,0.25187966227531433,0.22884584963321686,0.09285172820091248,-0.16661366820335388,-0.09467083215713501,0.06426768004894257,-0.2160513699054718,-0.052784983068704605,0.1722010225057602,0.04950910806655884,-0.09853778034448624,-0.25709086656570435,0.04459694027900696,0.090448759496212,0.06511425226926804,-0.21355263888835907,0.02048860490322113,0.1510990411043167,0.1502959281206131,0.2386937439441681,-0.1648470163345337,-0.14202295243740082,-0.08785582333803177,0.16388176381587982,-0.1200777068734169,0.06985841691493988,0.028453059494495392,0.10204145312309265,0.19348569214344025,-0.11660922318696976,-0.014207317493855953,-0.16172844171524048,-0.04630735144019127,-0.1836925446987152,-0.0676935687661171,0.056258607655763626,-0.19361063838005066,-0.17717348039150238,-0.13103501498699188,-0.08580299466848373,-0.026886150240898132,0.08024442940950394,-0.19692054390907288,-0.010156734846532345,0.07018285989761353,-0.10316168516874313},{0.2156497687101364,-0.05413861572742462,-0.2322656661272049,0.19106638431549072,-0.032607752829790115,-0.18851225078105927,0.09910864382982254,-0.08059170097112656,0.13807310163974762,-0.06021479144692421,0.13570135831832886,0.2462187260389328,0.03982197865843773,-0.10932120680809021,0.04820263758301735,0.10898445546627045,0.016100015491247177,0.0933518186211586,-0.04423170164227486,0.01585349440574646,-0.19643744826316833,0.028417086228728294,-0.13640516996383667,-0.08194505423307419,0.13778835535049438,-0.19411969184875488,0.009097408503293991,-0.03491706773638725,0.24834753572940826,0.08357551693916321,-0.11771590262651443,0.08716966211795807,0.16386349499225616,0.20111854374408722,-0.030179549008607864,-0.061410922557115555,-0.04368968680500984,-0.1937853842973709,0.19548813998699188,0.10119172930717468,-0.10861168056726456,0.15355803072452545,-0.190066397190094,-0.061119195073843,-0.09089924395084381,0.11926224827766418,-0.13959701359272003,-0.13680200278759003,0.14401964843273163,-0.2202555239200592,0.12367557734251022,-0.12216849625110626,-0.06617999076843262,-0.14125199615955353,0.15093056857585907,0.07009679824113846,0.07983569800853729,-0.27468928694725037,-0.21069541573524475,0.0850454568862915},{0.12353938072919846,0.08653128892183304,-0.014353426173329353,-0.19815470278263092,0.2108938843011856,-0.16565445065498352,0.06774090230464935,-0.00014939169341232628,-0.16965214908123016,0.14152757823467255,0.052198510617017746,0.23315536975860596,0.10482598841190338,-0.1116422712802887,-0.1681230515241623,0.2544748783111572,-0.17693892121315002,0.007480151019990444,-0.10302148759365082,-0.13186004757881165,0.06090284511446953,0.19216401875019073,0.17858171463012695,0.05064978450536728,-0.022303003817796707,-0.16746170818805695,-0.2504746913909912,0.2455315738916397,-0.035148948431015015,-0.1447419375181198,-0.06779629737138748,-0.11022521555423737,0.008991559036076069,-0.12283055484294891,-0.08474183827638626,-0.13411742448806763,-0.24207231402397156,0.06981758773326874,-0.003611981403082609,-0.10723287612199783,-0.059336915612220764,0.20903648436069489,-0.2595805525779724,0.09901971369981766,-0.19008387625217438,0.0399894043803215,0.004350441507995129,-0.08019620925188065,0.19135169684886932,-0.03405015170574188,-0.2464168220758438,0.1806986927986145,-0.00953892432153225,-0.0924331545829773,-0.16215766966342926,0.05007222294807434,-0.011748332530260086,0.060431238263845444,-0.1963065266609192,-0.15832045674324036},{-0.07823473960161209,0.06093456223607063,0.009268748573958874,-0.10277669876813889,0.16040119528770447,-0.07916108518838882,0.17754830420017242,-0.037611138075590134,-0.1971045732498169,0.2448631078004837,-0.04780298471450806,0.04605894535779953,0.23198667168617249,-0.046199943870306015,0.203653022646904,-0.12472660094499588,-0.20443643629550934,-0.08247298747301102,0.1797950267791748,-0.24394963681697845,0.12407155334949493,-0.05822285637259483,-0.015198200941085815,0.14393240213394165,0.20981913805007935,0.031518712639808655,-0.15907137095928192,0.11118156462907791,-0.21605244278907776,0.05749711021780968,0.19008313119411469,-0.1578739881515503,0.02545890398323536,0.07187146693468094,0.24200159311294556,0.11322695016860962,-0.19021719694137573,-0.09931322187185287,0.02781125158071518,-0.1501263976097107,-0.07474794238805771,0.09774912893772125,0.2249523401260376,-0.02901608496904373,0.11704371869564056,0.2202821522951126,0.2099328339099884,0.012015758082270622,0.01324329525232315,0.1325480341911316,0.1364593654870987,0.04815056174993515,0.15519608557224274,-0.2249368280172348,-0.04960989952087402,-0.06843794882297516,0.2519233226776123,0.1435258388519287,-0.15765288472175598,-0.19921882450580597},{-0.1570395827293396,0.06882119178771973,-0.1236257404088974,0.002835233695805073,0.10775386542081833,0.23691847920417786,0.04091525450348854,0.08883833140134811,-0.08177028596401215,-0.005001153331249952,0.0022577885538339615,-0.18656817078590393,-0.02231849730014801,-0.025519946590065956,-0.024674326181411743,0.018710987642407417,-0.1905146688222885,0.1061084195971489,0.04163961112499237,-0.006795181892812252,0.032866720110177994,0.12464195489883423,-0.1569923758506775,-0.12423237413167953,0.22978618741035461,0.1343827247619629,0.09778010845184326,-0.30533137917518616,0.03422745317220688,0.13900041580200195,-0.03464384004473686,0.1293460726737976,0.017671996727585793,0.2623883783817291,0.2867492437362671,-0.07443787902593613,-0.09836921840906143,-0.023906191810965538,-0.20185710489749908,-0.09483850002288818,-0.16672463715076447,-0.14795973896980286,0.18062730133533478,-0.12144196033477783,-0.02504633367061615,-0.0749145969748497,0.21784783899784088,-0.12869231402873993,0.045043036341667175,-0.05193686857819557,-0.07043614983558655,0.1690015345811844,0.012154349125921726,-0.024730781093239784,0.16422531008720398,0.11536051332950592,-0.11385101079940796,0.16716553270816803,-0.21549175679683685,-0.04697069525718689},{0.01267347950488329,-0.13468299806118011,0.19322749972343445,0.001279128948226571,0.11398801952600479,0.05128003656864166,0.2661200165748596,0.1812514364719391,-0.35445550084114075,0.10056743770837784,0.06915675103664398,-0.0029203284066170454,-0.12205107510089874,-0.29360800981521606,-0.18519873917102814,0.15444344282150269,0.05104213207960129,0.0011569819180294871,-0.26365000009536743,0.17265959084033966,0.10955944657325745,0.03630021959543228,-0.15016156435012817,-0.08449968695640564,-0.08933982253074646,-0.2635718286037445,0.021215958520770073,0.06783031672239304,-0.18920955061912537,-0.13062819838523865,-0.1980210840702057,0.15812969207763672,-0.028734643012285233,-0.22005988657474518,-0.10615813732147217,-0.21148811280727386,0.1191539540886879,-0.143045574426651,0.22220191359519958,0.1919642984867096,-0.06225789338350296,-0.05004521459341049,-0.19547559320926666,0.09444712847471237,0.1382931023836136,0.1951695680618286,0.09989633411169052,0.09680572897195816,-0.04976635053753853,0.17372970283031464,0.113805390894413,0.06763644516468048,-0.08210939913988113,-0.12220015376806259,-0.23773424327373505,0.1592835634946823,0.13263297080993652,0.027420373633503914,-0.009134823456406593,0.1454828828573227},{0.060356903821229935,0.04459448158740997,-0.04171343892812729,-0.1005796566605568,-0.10832367837429047,0.059309422969818115,0.09378980845212936,0.14304766058921814,0.09354458004236221,-0.027804501354694366,0.16242724657058716,-0.02945167012512684,0.11026402562856674,0.2762237787246704,-0.1318664699792862,-0.12803396582603455,0.09389831125736237,0.1995076835155487,0.22971346974372864,-0.07423030585050583,-0.06887182593345642,-0.2374991476535797,-0.05965327098965645,0.20332908630371094,-0.04252656176686287,-0.0651363804936409,-0.003028138540685177,0.1438605934381485,0.21830707788467407,0.22825142741203308,0.22437353432178497,-0.17325782775878906,-0.14363060891628265,0.10549966990947723,0.06895780563354492,0.09765830636024475,0.12871043384075165,-0.11472901701927185,-0.040707413107156754,0.21218547224998474,-0.05011340230703354,0.12755677103996277,-0.1310795694589615,0.18146264553070068,-0.1573580950498581,0.12403552234172821,0.1873069554567337,0.14885567128658295,0.1929263323545456,0.16214530169963837,-0.09350437670946121,0.11582723259925842,0.13216310739517212,-0.1618693619966507,0.23241378366947174,-0.041962627321481705,-0.08566161245107651,0.11708351969718933,-0.2376571148633957,-0.10061364620923996},{0.17538273334503174,-0.016899827867746353,-0.06213575229048729,-0.010054318234324455,-0.25845450162887573,0.24956580996513367,0.07882650941610336,-0.06462693959474564,0.17215494811534882,-0.2434762865304947,0.20515631139278412,0.07875096797943115,-0.11714113503694534,-0.08095256984233856,0.04506640508770943,-0.024022534489631653,0.026091035455465317,-0.19108396768569946,0.184215247631073,-0.08849573135375977,-0.10446033626794815,-0.09520873427391052,-0.09117331355810165,-0.09366843104362488,-0.00982988066971302,-0.1551404446363449,-0.1596137434244156,0.08845819532871246,-0.17767862975597382,0.236630380153656,0.02524954080581665,0.12943081557750702,0.07129475474357605,-0.15960724651813507,0.1348792016506195,0.012432432733476162,0.2467804104089737,0.11405769735574722,0.11582218110561371,0.0566716305911541,0.13896231353282928,0.04061875492334366,0.0927245169878006,-0.10696373134851456,0.1197986751794815,-0.1420900672674179,-0.011709021404385567,-0.04464145004749298,-0.28237706422805786,0.008737447671592236,0.1387643963098526,-0.12827184796333313,-0.3918652832508087,-0.15199339389801025,0.23080502450466156,-0.10264717042446136,-0.10067864507436752,0.06611742079257965,-0.17520247399806976,0.07393231987953186},{-0.0049203126691281796,-0.18757100403308868,-0.12038395553827286,0.03980811685323715,0.20423628389835358,0.09813831746578217,-0.08943641930818558,0.1972663849592209,-0.2697128653526306,-0.009410625323653221,-0.12744732201099396,-0.18404176831245422,-0.3229573667049408,0.06361042708158493,-0.15707118809223175,-0.07896052300930023,0.1956987828016281,-0.10526607185602188,0.005928491707891226,0.014768296852707863,0.15006856620311737,-0.15814179182052612,-0.27081426978111267,-0.10706517100334167,0.054754819720983505,0.13085396587848663,-0.06599164754152298,-0.07256612181663513,0.02996259555220604,-0.024218810722231865,-0.21417492628097534,0.0883602499961853,-0.20126304030418396,0.16266870498657227,-0.2752125859260559,0.13055573403835297,0.10490982234477997,0.1000848263502121,0.15279938280582428,0.22943328320980072,0.05212916061282158,0.13322123885154724,0.19155076146125793,0.1760784387588501,-0.06016096472740173,-0.1568177193403244,0.06514324247837067,-0.18346606194972992,-0.13157203793525696,0.27522099018096924,0.06893022358417511,0.05593940243124962,0.0136016346514225,0.1712529957294464,0.038376566022634506,0.056164421141147614,-0.029411738738417625,0.2153410017490387,0.10823824256658554,-0.11117587983608246},{0.08756358176469803,-0.03283766284584999,0.07901641726493835,0.03693617507815361,0.104107566177845,0.049582406878471375,0.039355285465717316,-0.15507113933563232,-0.016354646533727646,0.01633112132549286,-0.13515692949295044,-0.11934369802474976,-0.12006217986345291,0.12121457606554031,-0.19204013049602509,0.13404090702533722,-0.17312486469745636,0.16728535294532776,0.1838066279888153,0.1146879643201828,-0.021594543009996414,-0.053344421088695526,-0.05619528517127037,0.02769584208726883,-0.12018302828073502,-0.23975731432437897,-0.3228469789028168,-0.21847285330295563,-0.025099560618400574,-0.08962712436914444,-0.031155841425061226,-0.24135610461235046,0.11005837470293045,0.16396090388298035,0.18857960402965546,0.003658974776044488,0.2227586954832077,-0.02979828231036663,0.005729066673666239,0.26831987500190735,0.16385099291801453,-0.10193035006523132,0.37331488728523254,0.11913535743951797,-0.005598824005573988,0.2476983368396759,-0.060964468866586685,-0.06293585151433945,0.1483057290315628,-0.196833536028862,-0.12162795662879944,-0.26379045844078064,0.11427722126245499,-0.20432323217391968,-0.19158205389976501,-0.1823502629995346,-0.013879110105335712,-0.04222248122096062,0.030167492106556892,-0.059037674218416214},{-0.16795991361141205,-0.2013794183731079,0.24738118052482605,0.15968725085258484,-0.041452549397945404,0.06142648681998253,-0.17452402412891388,0.0156125882640481,0.20680667459964752,0.1419576108455658,-0.07378554344177246,0.07559982687234879,-0.2068955898284912,-0.06059460714459419,0.11369506269693375,0.07528145611286163,0.050408706068992615,-0.12328857183456421,0.06418309360742569,0.013111084699630737,-0.021722445264458656,0.024939822033047676,-0.15177816152572632,0.07273133844137192,-0.020583804696798325,0.08869435638189316,-0.290213018655777,-0.023862959817051888,0.12904055416584015,0.3091612458229065,0.002866277936846018,-0.12247573584318161,-0.05581522360444069,0.1465211808681488,0.1993475705385208,0.1865425854921341,0.05887821316719055,0.14540830254554749,0.1166360080242157,-0.055854249745607376,-0.06312565505504608,-0.20296137034893036,0.09687311947345734,0.11040501296520233,0.1609332114458084,0.0700787752866745,0.1652573198080063,0.2237735092639923,0.22581565380096436,-0.04443209990859032,-0.2507416009902954,-0.18338236212730408,-0.26002687215805054,-0.014658519998192787,0.16231848299503326,-0.09365873038768768,0.1286059319972992,0.12474323809146881,-0.08984041213989258,-0.21028459072113037},{0.09745956212282181,-0.027166955173015594,0.14731623232364655,0.025158118456602097,-0.07458631694316864,-0.07176335155963898,-0.3765135109424591,-0.07283606380224228,0.10238219052553177,-0.18698738515377045,-0.09797623008489609,0.01245507225394249,-0.12070553004741669,-0.17297732830047607,0.06532081961631775,-0.16658630967140198,0.14414308965206146,0.003355763154104352,-0.2304702252149582,0.03734632581472397,-0.11674876511096954,-0.05696043744683266,-0.02103085070848465,-0.1525297611951828,-0.0741305872797966,0.1875167191028595,0.3037128150463104,0.09366437047719955,-0.10412929952144623,0.30020827054977417,0.03028392791748047,-0.1731816530227661,0.026143837720155716,-0.07591384649276733,-0.03159704804420471,0.1688927561044693,0.07682053744792938,-0.08659836649894714,-0.15321962535381317,-0.13113893568515778,-0.2425781488418579,0.12604016065597534,0.27350082993507385,0.08921093493700027,-0.2472173124551773,0.1064658910036087,0.11349856108427048,-0.1156802847981453,0.004685826133936644,-0.09033713489770889,-0.11543899774551392,-0.2615016996860504,0.23234397172927856,0.11236429214477539,0.011198366992175579,0.17911675572395325,-0.07892510294914246,-0.16464075446128845,0.006009515840560198,0.06627783924341202},{-0.23865264654159546,-0.05659886822104454,-0.2112881988286972,0.08328370749950409,-0.15037444233894348,0.12668706476688385,-0.13875123858451843,-0.13321362435817719,0.23260748386383057,-0.1174747571349144,-0.059877071529626846,-0.1005874052643776,0.0437215119600296,0.0021579887252300978,-0.14371736347675323,0.18415898084640503,-0.09410036355257034,-0.064849853515625,-0.10508197546005249,-0.17706872522830963,0.16691617667675018,-0.3004869520664215,-0.05276676267385483,0.06633643060922623,0.15197278559207916,-0.031087597832083702,-0.006486105266958475,-0.13017718493938446,0.12158112227916718,-0.11324339359998703,0.18938039243221283,-0.1216825470328331,-0.011882005259394646,0.22546949982643127,0.29479071497917175,-0.05308119207620621,0.11019358783960342,0.2036868929862976,0.03661215305328369,-0.1411551833152771,-0.06563881784677505,0.18256299197673798,0.19126012921333313,0.10967616736888885,0.2515237033367157,-0.06801880896091461,0.11435230076313019,-0.05324259400367737,-0.04279153794050217,-0.3206138014793396,-0.015823913738131523,0.12826655805110931,0.05396266281604767,0.1782195270061493,-0.04754658043384552,0.08246594667434692,0.15771503746509552,-0.013604482635855675,-0.15923921763896942,0.11624487489461899},{0.20744796097278595,0.06956588476896286,-0.023500576615333557,-0.03139128163456917,-0.2238277643918991,0.08590222150087357,-0.31169089674949646,-0.04843711853027344,0.027570273727178574,0.04748395085334778,-0.019916599616408348,-0.23956681787967682,0.04760956019163132,0.31349092721939087,0.0017745523946359754,0.2048950344324112,-0.2883460223674774,0.20165200531482697,0.1432552933692932,-0.16610054671764374,0.21682307124137878,-0.01746104285120964,-0.14323484897613525,0.067559614777565,0.23871757090091705,0.29457905888557434,-0.007765480782836676,-0.30582523345947266,-0.02017093449831009,0.2140471637248993,-0.12046031653881073,-0.07417315244674683,-0.13937273621559143,-0.03277138993144035,0.20815247297286987,0.2630302608013153,-0.1499626636505127,0.057711537927389145,0.06329372525215149,-0.0844133272767067,0.07676877826452255,0.21759897470474243,0.1986130177974701,0.2234567552804947,-0.0064936368726193905,-0.08885325491428375,-0.09997759014368057,0.12306847423315048,0.1113479882478714,-0.047418296337127686,-0.05848592147231102,0.06280101835727692,-0.35320591926574707,0.03754427656531334,0.11639705300331116,-0.029443271458148956,-0.11486131697893143,0.043394431471824646,-0.044023606926202774,0.13600066304206848},{0.032991908490657806,-0.12242784351110458,-0.0964890867471695,-0.09681006520986557,0.18466182053089142,0.16949042677879333,0.0823579877614975,-0.0830392837524414,0.03293180465698242,0.10767631977796555,0.14439822733402252,-0.07509196549654007,0.12784355878829956,0.43589112162590027,-0.14890111982822418,-0.026209695264697075,-0.09212227165699005,-0.24056540429592133,-0.1699562668800354,0.217332661151886,-0.11002576351165771,-0.02872639335691929,0.08820857852697372,0.15505723655223846,0.0005623651668429375,-0.016622131690382957,0.004073661286383867,0.18998068571090698,0.09570974856615067,0.2432156503200531,-0.1800578534603119,-0.09181665629148483,-0.06579094380140305,0.12513287365436554,0.2655279040336609,-0.010675057768821716,-0.13117994368076324,0.13399064540863037,0.07990267127752304,-0.10942523926496506,-0.17072650790214539,0.20948489010334015,-0.10956484824419022,0.1243932768702507,0.16003546118736267,0.1809503138065338,0.028842460364103317,-0.03292989730834961,0.19139085710048676,-0.06333816051483154,-0.05946822091937065,-0.15656259655952454,-0.11885271966457367,0.10194732248783112,-0.15448717772960663,-0.13739900290966034,0.11369889229536057,0.24165396392345428,-0.09374582767486572,0.08496613800525665},{0.17669105529785156,-0.08117115497589111,-0.09415115416049957,0.10959500074386597,-0.002616934012621641,-0.2679855227470398,0.2460414618253708,-0.2392692267894745,-0.2727690637111664,-0.26472029089927673,-0.1700345128774643,0.19973552227020264,0.0652855932712555,0.018577763810753822,0.17446230351924896,0.19504354894161224,-0.10017215460538864,-0.13859733939170837,0.11178417503833771,0.11872028559446335,0.19020579755306244,0.2442256063222885,-0.22680610418319702,-0.03329845145344734,-0.008977441117167473,0.06674206256866455,0.17268988490104675,0.18304117023944855,-0.14740271866321564,-0.08002680540084839,-0.020092815160751343,0.03676150366663933,-0.20900073647499084,0.07579358667135239,-0.05179400369524956,-0.08921240270137787,0.1444603055715561,-0.23478448390960693,-0.02420123666524887,0.268780380487442,0.1948050856590271,-0.2816666066646576,-0.20514759421348572,0.02620498277246952,-0.21433939039707184,-0.10742636024951935,-0.008219081908464432,0.23755960166454315,-0.10483892261981964,-0.028614697977900505,-0.0923130214214325,-0.010175357572734356,0.33838245272636414,-0.12547938525676727,-0.0027999533340334892,0.07205351442098618,0.15634268522262573,0.11479262262582779,0.17944683134555817,0.29749882221221924},{-0.09498226642608643,0.12685751914978027,-0.16549146175384521,0.21875721216201782,-0.2618207037448883,0.023419098928570747,-0.04789503663778305,0.04017632082104683,-0.07020292431116104,-0.13592718541622162,0.1970340758562088,0.22002044320106506,-0.008759693242609501,0.32842081785202026,-0.24186165630817413,-0.21041899919509888,0.19232115149497986,-0.21245461702346802,-0.12136424332857132,-0.1765449047088623,0.1847367286682129,-0.181459441781044,-0.07474540174007416,0.13724170625209808,-0.1624104231595993,0.1901630163192749,-0.12964102625846863,-0.28352612257003784,0.1970016360282898,0.12716726958751678,0.13731291890144348,-0.0715925469994545,-0.13715216517448425,-0.13607162237167358,0.2768394947052002,0.06675950437784195,0.15654902160167694,0.14208874106407166,0.0836782306432724,-0.010755060240626335,-0.016033591702580452,0.12603509426116943,0.2781548798084259,-0.17375501990318298,-0.03813564404845238,0.23978906869888306,0.2014472484588623,-0.07671990990638733,0.15560685098171234,-0.23127125203609467,-0.024091653525829315,0.23796027898788452,-0.0770472064614296,-0.12499961256980896,0.06174972280859947,0.1944800615310669,-0.08828689903020859,0.21472759544849396,0.12106699496507645,-0.26164188981056213},{0.013128754682838917,0.20541609823703766,0.1708136945962906,0.0006230035214684904,-0.028684871271252632,0.14149151742458344,-0.04200160503387451,0.22568470239639282,0.0555310919880867,-0.18735389411449432,0.16545690596103668,0.0008014931227080524,0.20035479962825775,0.2193147838115692,-0.05592796206474304,0.004849995020776987,0.17905986309051514,0.011647678911685944,0.08453638851642609,0.37990623712539673,0.0036638621240854263,0.023318303748965263,0.28739529848098755,0.061967138200998306,-0.24750974774360657,-0.2533567249774933,0.11300727725028992,0.06302259117364883,0.04692491143941879,-0.005988691933453083,0.16830827295780182,0.20581325888633728,0.17175835371017456,-0.21014566719532013,0.3087300658226013,0.19495049118995667,-0.08471184223890305,0.11786749958992004,0.2365187555551529,-0.15991118550300598,0.18764647841453552,0.22304464876651764,-0.07330898940563202,-0.024267731234431267,-0.05258570984005928,0.10132501274347305,-0.06266852468252182,0.21182546019554138,0.14922434091567993,-0.10666674375534058,0.05155657231807709,-0.15939074754714966,-0.0070016998797655106,-0.1768820881843567,0.0825643315911293,0.11150313168764114,-0.22663342952728271,0.06977974623441696,0.07789719104766846,0.001214361167512834},{-0.061240095645189285,0.1880764663219452,0.21704646944999695,-0.1582348495721817,-0.1306953877210617,0.11853005737066269,0.0005833285395056009,-0.15328280627727509,0.10974784195423126,-0.09576743096113205,0.20377306640148163,-0.10432951897382736,0.1599947214126587,0.023454954847693443,-0.0795041099190712,0.05178491771221161,0.19754384458065033,0.0012210934655740857,-0.07778052985668182,0.2324909120798111,-0.09540209919214249,-0.043406322598457336,0.20672349631786346,0.1949111670255661,-0.11205112934112549,0.19552494585514069,0.14174896478652954,-0.11480244249105453,-0.16088253259658813,-0.01440458931028843,-0.096016064286232,0.16516780853271484,0.19497260451316833,0.06109939143061638,0.051636017858982086,0.22848421335220337,-0.20361128449440002,-0.012809914536774158,-0.14388588070869446,-0.1700672209262848,-0.13444381952285767,-0.19373731315135956,-0.09557410329580307,-0.1335049271583557,-0.05024293065071106,0.21281136572360992,0.22050593793392181,0.12768544256687164,0.06069116294384003,-0.010549800470471382,-0.12691450119018555,-0.1485407054424286,0.11144383996725082,-0.1623256653547287,-0.1254381239414215,0.011531389318406582,0.0997958779335022,-0.12159021198749542,0.07854093611240387,-0.052558738738298416},{0.11089833080768585,-0.009453905746340752,-0.19803740084171295,0.09723848104476929,-0.27348992228507996,0.014845939353108406,0.2420414686203003,-0.07295506447553635,0.14421780407428741,0.26555874943733215,0.13713683187961578,0.03126145899295807,-0.19837763905525208,0.3148868978023529,-0.20527206361293793,0.09563777595758438,0.11313929408788681,-0.05581337958574295,0.15422187745571136,-0.2823030352592468,-0.16981224715709686,-0.15613135695457458,0.03711612522602081,0.16165494918823242,-0.13442204892635345,0.3499637544155121,-0.24928851425647736,0.10795806348323822,-0.0356423445045948,0.08786750584840775,-0.1284950226545334,-0.19561992585659027,-0.15316392481327057,-0.1789742112159729,-0.11935987323522568,0.3170780837535858,-0.147659033536911,-0.05466209724545479,-0.0260410625487566,-0.1192195862531662,-0.23791322112083435,0.016384899616241455,-0.015597868710756302,0.22852973639965057,-0.1304667890071869,0.12764285504817963,-0.001391241210512817,-0.166061133146286,-0.078872911632061,0.14440284669399261,-0.03380945324897766,-0.2451188862323761,-0.2272220402956009,0.11154014617204666,0.039708930999040604,-0.04403028264641762,-0.16630668938159943,0.03629821166396141,-0.02453833818435669,-0.19063732028007507},{0.11025604605674744,0.06486337631940842,0.11997579783201218,-0.22940146923065186,-0.1983136385679245,-0.06290271878242493,-0.1632353663444519,-0.037521690130233765,0.2619953453540802,0.18692530691623688,0.12461685389280319,0.1066526249051094,0.2952694892883301,0.15792624652385712,-0.15808355808258057,0.15690085291862488,-0.03273070976138115,-0.15920880436897278,-0.14165423810482025,0.05990515276789665,-8.970660564955324e-05,-0.04952705651521683,0.1009376049041748,-0.12880854308605194,-0.18486328423023224,0.03743710741400719,0.2789064943790436,0.10693385452032089,-0.08160225301980972,0.04355023056268692,0.021944625303149223,0.03809186443686485,-0.07215235382318497,-0.030535157769918442,0.3140799403190613,-0.1283997893333435,-0.147898331284523,0.219950333237648,-0.0246348325163126,-0.14860184490680695,-0.12853839993476868,0.070127472281456,0.04112668335437775,-0.07356435805559158,0.13565298914909363,-0.13259297609329224,0.1215616837143898,0.2013264149427414,0.002851710421964526,-0.0767783671617508,-0.08522441238164902,-0.026810361072421074,0.05999875068664551,-0.052732810378074646,0.015661530196666718,0.0883171558380127,-0.07623014599084854,0.01731228455901146,-0.24762900173664093,0.19271618127822876}};
static const float action_parameterization_distribution_linear_weight[60][4] = {{-0.02810797095298767,0.05960531160235405,0.07028782367706299,-0.09883823245763779},{0.028544960543513298,0.14771924912929535,0.05838735029101372,-0.029905961826443672},{0.03265487402677536,-0.04604259133338928,0.05600303038954735,-0.07227358967065811},{-0.0830177590250969,-0.06229199469089508,0.038778018206357956,-0.14972393214702606},{0.24888862669467926,-0.11301682889461517,-0.15255573391914368,0.10729514062404633},{0.12515343725681305,-0.17364110052585602,0.02521594613790512,0.06663103401660919},{-0.2876421809196472,0.2422991544008255,0.16510352492332458,-0.23384930193424225},{0.033819057047367096,-0.00431626383215189,-0.15955372154712677,-0.06848431378602982},{0.17573994398117065,-0.011519182473421097,0.30086982250213623,-0.21837809681892395},{-0.02939452975988388,0.0525759719312191,-0.12882959842681885,-0.09178811311721802},{0.016534406691789627,0.0005650522653013468,0.0024376953952014446,0.003916120622307062},{-0.020280489698052406,-0.1021452322602272,-0.007819054648280144,-0.1320808231830597},{0.06520255655050278,-0.16875924170017242,0.006010689307004213,0.17024807631969452},{-0.2120044231414795,-0.16722992062568665,0.23214469850063324,0.09427569806575775},{-0.001002174336463213,0.047346536070108414,0.013106148689985275,0.11020903289318085},{0.2335658073425293,0.0843508169054985,0.14669516682624817,0.05911655351519585},{0.0437275692820549,0.07998616248369217,-0.06694947183132172,-0.1033741757273674},{-0.14902733266353607,-0.09006335586309433,-0.06069973483681679,-0.012836114503443241},{0.1212606206536293,-0.21326948702335358,-0.2146165668964386,-0.16995231807231903},{0.043190304189920425,-0.0784040242433548,-0.15265679359436035,-0.11597300320863724},{-0.038141537457704544,-0.17681626975536346,0.16551245748996735,0.008917449042201042},{0.16239771246910095,0.11503997445106506,-0.10693004727363586,-0.23072366416454315},{0.18040834367275238,0.12263622879981995,0.15446814894676208,0.24775971472263336},{0.06227148696780205,0.043546367436647415,-0.10134441405534744,0.07413879036903381},{-0.1253245770931244,-0.10810696333646774,0.11569586396217346,0.008252444677054882},{-0.22367486357688904,0.11211695522069931,-0.02375924028456211,-0.04748334735631943},{0.09998028725385666,0.20167602598667145,-0.08318716287612915,-0.061558183282613754},{0.24543525278568268,-0.020340027287602425,0.32661357522010803,0.04175088182091713},{-0.07599938660860062,0.22382639348506927,-0.0038302396424114704,0.09492761641740799},{0.1640101671218872,0.12869344651699066,0.18858328461647034,-0.06432322412729263},{0.0021503507159650326,-0.09979373216629028,0.054094452410936356,-0.07548248022794724},{-0.03373565152287483,0.08402054756879807,0.16526250541210175,-0.062063515186309814},{-0.06222066283226013,0.07136284559965134,-0.03565395623445511,-0.031147168949246407},{0.1466813087463379,-0.08953288942575455,-0.050438813865184784,-0.18468604981899261},{0.1363840103149414,0.12273331731557846,-0.14744290709495544,-0.24690945446491241},{-0.23416481912136078,0.10395175963640213,-0.1538945883512497,-0.0657460018992424},{0.12524594366550446,0.04038779437541962,-0.1857607513666153,0.10255004465579987},{-0.10995706170797348,-0.05802339315414429,-0.02361898496747017,0.15974347293376923},{-0.13061828911304474,-0.07296032458543777,0.16170945763587952,-0.04152573645114899},{0.02545994520187378,0.03391881287097931,0.031060732901096344,0.17525431513786316},{0.19561243057250977,0.11882918328046799,0.09481532871723175,-0.10379177331924438},{0.20608694851398468,-0.04219943657517433,-0.08567941933870316,0.031001729890704155},{-0.13678935170173645,0.07686316967010498,-0.0294811874628067,0.33142393827438354},{0.028396958485245705,0.018460091203451157,0.06345748156309128,0.0080864317715168},{0.08668497204780579,-0.10101290047168732,-0.1860223263502121,-0.13094161450862885},{0.04187838360667229,-0.057381294667720795,-0.0070121739991009235,0.011748326942324638},{-0.15794157981872559,-0.09214378148317337,-0.17511864006519318,-0.20930296182632446},{-0.16563387215137482,0.12675741314888,-0.10168692469596863,0.06578470021486282},{-0.13442352414131165,0.03544454649090767,0.1726556271314621,-0.21019139885902405},{-0.03902141749858856,0.09901344031095505,0.14290030300617218,0.14547210931777954},{-0.11854642629623413,0.06698329746723175,-0.1403830200433731,-0.045800745487213135},{0.08144938945770264,-0.04769963398575783,0.04121113941073418,-0.04354718700051308},{-0.2918846905231476,0.011932115070521832,0.19623583555221558,-0.03534361347556114},{0.12036426365375519,0.005404424387961626,-0.1310950219631195,-0.1650237739086151},{-0.06175478547811508,0.08281023055315018,0.15186326205730438,0.2652452290058136},{0.170914426445961,-0.16795174777507782,-0.14258866012096405,0.12706521153450012},{-0.03732367232441902,-0.031045321375131607,-0.014601009897887707,0.03457865118980408},{-0.02933613955974579,0.08650178462266922,0.02382456138730049,0.11586681008338928},{-0.2043052613735199,-0.22775733470916748,0.00792464055120945,0.2460423707962036},{-0.2899940609931946,0.037148427218198776,-0.150323748588562,0.2972472608089447}};
static const float actor_encoder_self_encoder_0_bias[30] = {-0.02006140537559986,0.07159201055765152,0.04283333197236061,0.047420684248209,0.02671024017035961,-0.04842212796211243,-0.07618936151266098,0.014646749012172222,0.015399386174976826,-0.08097230643033981,-0.0384545624256134,0.020354880020022392,0.10465153306722641,0.11567725986242294,-0.19538086652755737,0.10225756466388702,0.07603222131729126,0.017456253990530968,0.11157044023275375,-0.059685688465833664,0.07127656042575836,0.05132531002163887,-0.02630448341369629,0.15182170271873474,0.09124057739973068,0.11512695252895355,-0.02686874009668827,-0.011526083573698997,0.0850796103477478,0.044366784393787384};
static const float actor_encoder_self_encoder_2_bias[30] = {-0.0017529852921143174,0.0676829144358635,-0.006815341301262379,-0.011555731296539307,-0.1504034847021103,0.13994868099689484,-0.011398820206522942,0.03853554278612137,0.05256011337041855,0.011538374237716198,-0.022211413830518723,0.021563224494457245,0.012220307253301144,0.11612924933433533,0.07693132758140564,-0.025023428723216057,0.025102056562900543,0.10927296429872513,0.032963499426841736,0.01496619638055563,-0.043834440410137177,-0.04038585349917412,0.03654751554131508,-0.013676504604518414,-0.024222848936915398,0.053804583847522736,0.012248615734279156,-0.027358103543519974,-0.009346372447907925,-0.06077774614095688};
static const float actor_encoder_feed_forward_0_bias[60] = {-0.029993373900651932,-0.01213678065687418,0.01739524118602276,0.0029325978830456734,-0.037002068012952805,0.030199334025382996,-0.04378148540854454,-0.0049452329985797405,0.13197274506092072,0.041413936764001846,0.008253869600594044,-0.052045758813619614,-0.022931253537535667,0.09417757391929626,0.013468032702803612,0.030441755428910255,-0.009106424637138844,-0.012664679437875748,0.008394485339522362,-0.06454174965620041,0.015802990645170212,-0.08340839296579361,0.04119221121072769,0.03619068115949631,0.014735606499016285,0.07202348858118057,-0.05030138045549393,-0.0838542953133583,-0.003295344300568104,0.05382078140974045,-0.007389226462692022,-0.058592334389686584,0.013175556436181068,0.030656874179840088,-0.02177845500409603,0.0679129809141159,0.03648659586906433,0.06911465525627136,-0.053233709186315536,-0.02508019097149372,-0.02052753046154976,0.048975590616464615,0.07753381878137589,-0.0034143133088946342,0.045076459646224976,0.020523248240351677,0.0367618128657341,0.009902462363243103,0.03258739039301872,-0.08247661590576172,-0.026564130559563637,0.005446069408208132,-0.05614268407225609,0.015784524381160736,0.00977346207946539,-0.04336456581950188,0.010424056090414524,0.02339751459658146,-0.045566003769636154,-0.04415493085980415};
static const float action_parameterization_distribution_linear_bias[4] = {-0.007197168655693531,-0.029537754133343697,-0.018595952540636063,-0.010018874891102314};
static const float actor_encoder_obstacle_encoder_0_weight[16][16] = {{0.292096883058548,-0.12348011881113052,-0.17112243175506592,-0.03891783952713013,-0.4645121693611145,-0.26213234663009644,0.2850734293460846,0.29731032252311707,-0.28529953956604004,0.22192712128162384,0.40475770831108093,-0.3458475172519684,0.4022086262702942,-0.45168817043304443,-0.28175246715545654,-0.19082005321979523},{0.028269469738006592,0.16768600046634674,-0.22311539947986603,0.07954771816730499,-0.39681389927864075,0.08033247292041779,-0.2888850271701813,-0.1225811094045639,0.22341760993003845,-0.3915523886680603,0.15586277842521667,-0.03124447539448738,-0.2664056420326233,-0.11534339189529419,-0.507688581943512,-0.2830805480480194},{-0.018539806827902794,0.3212132751941681,-0.42204034328460693,0.32179251313209534,-0.036091241985559464,-0.18295246362686157,-0.055618055164813995,-0.22927533090114594,-0.13494142889976501,-0.20710469782352448,0.059100814163684845,-0.07490123808383942,-0.06769561022520065,-0.21257175505161285,0.23449954390525818,0.010960008017718792},{0.021978754550218582,0.13403266668319702,-0.11034157872200012,0.032086946070194244,-0.22987276315689087,0.17852813005447388,-0.24057385325431824,0.10880188643932343,0.39036065340042114,0.20786738395690918,-0.004709593951702118,-0.3834678828716278,0.2953094244003296,-0.1289268136024475,-0.6062431931495667,-0.052754711359739304},{-0.4008900225162506,0.04085174575448036,0.11321640759706497,0.359365314245224,0.18043522536754608,0.13569946587085724,-0.02824478968977928,0.16517575085163116,0.3984796404838562,0.026942171156406403,0.5062260627746582,-0.4406774044036865,-0.24916838109493256,-0.2632720470428467,-0.6044794321060181,0.02216203883290291},{0.060117848217487335,-0.1516892910003662,-0.40509194135665894,0.4381261169910431,0.1312832087278366,0.05408092960715294,0.30393198132514954,0.12125302106142044,0.22172540426254272,0.2979361116886139,0.5002701878547668,0.3306145668029785,0.14424492418766022,0.28244665265083313,0.008891912177205086,-0.2620568573474884},{-0.16848395764827728,-0.21096041798591614,0.21515333652496338,-0.20961885154247284,0.2277766764163971,0.5250202417373657,-0.22687584161758423,0.19379660487174988,0.26078763604164124,0.3231760263442993,-0.2046860158443451,0.3133850395679474,0.1770174503326416,0.25640687346458435,0.16209514439105988,-0.1475995033979416},{0.3226240277290344,0.43981000781059265,-0.15464477241039276,-0.14120225608348846,0.5076339840888977,-0.3203940689563751,-0.30667275190353394,-0.08211956173181534,0.03662228211760521,-0.10580519586801529,0.25032898783683777,-0.043905340135097504,-0.06527429819107056,-0.23749755322933197,-0.38165292143821716,-0.48613253235816956},{0.48505544662475586,-0.07205979526042938,0.4000605046749115,0.3748549520969391,0.6052835583686829,-0.24783560633659363,-0.037451013922691345,0.08163998275995255,-0.28252094984054565,0.042362768203020096,-0.08020543307065964,0.0941433385014534,-0.2889595925807953,0.2749629020690918,0.11054150760173798,0.1320255547761917},{0.2034769058227539,-0.09154529869556427,-0.31399571895599365,-0.08663234859704971,0.33196645975112915,0.1949135959148407,-0.2865856885910034,0.223115012049675,0.2966744005680084,-0.30522578954696655,0.4796668589115143,-0.1282094120979309,-0.3124881982803345,0.3348149061203003,-0.09656576812267303,-0.3656882643699646},{-0.065858393907547,0.36749139428138733,0.3947436213493347,0.07117071747779846,-0.06718331575393677,-0.12008127570152283,0.21647901833057404,-0.37037307024002075,-0.019457882270216942,-0.16809582710266113,-0.09931306540966034,0.05849019065499306,0.08352910727262497,-0.23016981780529022,-0.3323613107204437,0.13985618948936462},{-0.049367137253284454,0.4420883357524872,-0.010639726184308529,0.09397705644369125,0.20404383540153503,-0.12384673207998276,0.432677298784256,-0.1464032381772995,-0.23590701818466187,0.023496121168136597,-0.17695572972297668,0.027438214048743248,-0.7016730904579163,0.12915262579917908,0.17128615081310272,0.39369162917137146},{0.40245845913887024,-0.11678852140903473,0.2586476504802704,-0.10748661309480667,0.0795316994190216,-0.0967017188668251,0.4996751844882965,0.2594945430755615,-0.013450113125145435,-0.21126222610473633,0.16563411056995392,0.19700267910957336,-0.3535304069519043,-0.43932297825813293,0.21941015124320984,0.27018117904663086},{-0.08355670422315598,-0.1511707603931427,-0.02207980677485466,-0.20934562385082245,0.16118043661117554,0.457649290561676,0.16328594088554382,-0.11386381834745407,-0.20349912345409393,0.2848926782608032,-0.210650235414505,-0.20786094665527344,0.2877485752105713,0.36064186692237854,-0.2722321152687073,0.28697794675827026},{0.15402667224407196,-0.31423547863960266,-0.20552757382392883,0.29180842638015747,-0.26529398560523987,-0.26620927453041077,0.38305020332336426,0.2962760031223297,0.2801460921764374,0.20770154893398285,0.5015679001808167,0.37015220522880554,-0.023227863013744354,-0.17459574341773987,-0.339986115694046,0.359430730342865},{-0.3128073215484619,0.05932769179344177,-0.1661984920501709,-0.0035079752560704947,0.011133412830531597,-0.5401739478111267,-0.0008057047380134463,0.22282791137695312,-0.3945375382900238,0.33348581194877625,0.5842930674552917,-0.14986546337604523,-0.24700914323329926,-0.5390688180923462,-0.016933295875787735,0.027189215645194054}};
