
#include "network_evaluate_tof.h"
#include <string.h>


#define EPS 0.000001 // 1e-6

static float obstacle_embeds[4];
static float output_embeds[20];

float base;
float exponent;
static const int self_structure [4][2] = {{18, 16},{16, 16},{20, 20},{20, 4}};
static const int obst_structure [2][2] = {{16, 4},{4, 4}};
static float output_0[16];
static float output_1[16];
static float obst_output_0[4];
static float obst_output_1[4];
static float output_2[20];
static float output_3[4];
static const float actor_encoder_self_encoder_0_weight[18][16] = {{0.28011253476142883,-0.29987096786499023,0.265312522649765,0.2227141112089157,-0.13945835828781128,-0.1706155240535736,-0.03226654604077339,0.16916947066783905,-0.29404982924461365,-0.17840081453323364,-0.29723304510116577,-0.007735751569271088,0.20187436044216156,-0.1879119724035263,0.04771985486149788,0.3562963902950287},{-0.226029172539711,0.1572607159614563,-0.06995093822479248,0.48964059352874756,0.14521341025829315,-0.14132970571517944,-0.22954267263412476,-0.11115642637014389,0.2376035749912262,-0.17620199918746948,0.3872252106666565,-0.3382585048675537,-0.09559432417154312,0.029625048860907555,0.04706317186355591,0.14821791648864746},{-0.044301167130470276,-0.07000300288200378,0.43891558051109314,0.2587219476699829,0.11426249146461487,0.03443372622132301,0.14460192620754242,0.07929295301437378,0.0161090400069952,-0.7994408011436462,-0.2719076871871948,0.4384644329547882,-0.048326026648283005,-0.5078251361846924,0.22059021890163422,-0.5339309573173523},{0.25242748856544495,-0.3399271070957184,0.17024926841259003,0.12062474340200424,-0.1099105104804039,0.01025285292416811,0.10958175361156464,-0.05146865174174309,-0.18074756860733032,-0.14939998090267181,-0.18615470826625824,-0.15993782877922058,0.2983371913433075,0.011494404636323452,0.13324274122714996,0.21857595443725586},{-0.0643976628780365,0.11549706012010574,0.007636337075382471,0.13047577440738678,0.21009230613708496,-0.149873748421669,0.132482647895813,-0.10550403594970703,0.16025356948375702,-0.05807061865925789,0.28929173946380615,0.18741467595100403,0.163822203874588,0.23327219486236572,0.18961326777935028,0.12759807705879211},{-0.10827723890542984,-0.03977787122130394,-0.08682766556739807,0.10521009564399719,0.24337463080883026,0.10011078417301178,-0.3237392008304596,-0.04628610983490944,0.2895820438861847,-0.3864637613296509,-0.21036376059055328,0.05851713567972183,-0.24037706851959229,-0.1444624960422516,0.11137614399194717,-0.37219956517219543},{-0.5375853180885315,0.009549287147819996,-0.07152841240167618,0.22546742856502533,-0.16229259967803955,-0.43024522066116333,0.25399282574653625,-0.002917615929618478,-0.3541784882545471,-0.012373439967632294,0.07386405020952225,0.31652987003326416,-0.47735655307769775,0.2563742995262146,-0.2933962047100067,-0.2059309035539627},{0.29759272933006287,0.22696426510810852,0.25580212473869324,0.01047032792121172,-0.058738041669130325,-0.09633978456258774,0.390720009803772,-0.36478400230407715,0.6063295602798462,-0.09930433332920074,0.20005497336387634,0.15413598716259003,-0.3712329864501953,0.31777408719062805,-0.5401078462600708,0.35274121165275574},{-0.2544831335544586,-0.665830671787262,0.134138286113739,0.09018073230981827,-0.1429145336151123,0.493001788854599,0.28854942321777344,-0.2819764018058777,-0.026781009510159492,-0.22457529604434967,-0.2122625708580017,0.4847876727581024,-0.169813871383667,0.18936821818351746,0.09789733588695526,0.5825658440589905},{-0.40370649099349976,-0.6765694618225098,-0.44823816418647766,-0.343148410320282,0.3594300150871277,-0.4592091143131256,-0.4348808825016022,0.10948649048805237,-0.1724736988544464,-0.2155507355928421,0.17798085510730743,0.1109524741768837,0.3858391046524048,-0.12801049649715424,0.41353368759155273,-0.44403526186943054},{-0.3315017819404602,-0.05483483523130417,-0.4645613729953766,0.44346821308135986,-0.4503020644187927,-0.30264779925346375,0.4992663264274597,-0.4467116892337799,-0.40904200077056885,0.03663862124085426,0.03131277486681938,0.3349010944366455,-0.4213128983974457,-0.24692128598690033,-0.17379480600357056,0.15537577867507935},{-0.48437416553497314,-0.0770067349076271,0.11150211840867996,0.3764004707336426,0.8480367064476013,-1.0303713083267212,0.5358884930610657,-0.43298113346099854,0.41145044565200806,-0.035705145448446274,0.6130956411361694,0.7358641028404236,-0.031677231192588806,0.610702633857727,-0.12214475125074387,0.3675175607204437},{0.5016937851905823,0.47963422536849976,0.062422364950180054,-0.08099807053804398,-0.019965464249253273,0.3414307236671448,0.19816546142101288,-0.06959175318479538,0.06961766630411148,0.45849111676216125,0.1685161590576172,-0.0864633098244667,-0.30295056104660034,-0.383338987827301,0.48830705881118774,-0.14104433357715607},{-0.2034861445426941,-0.23576857149600983,0.015730658546090126,-0.3090542256832123,-0.3358914852142334,0.3185719847679138,-0.5115461945533752,-0.04886883124709129,-0.37718915939331055,-0.39492684602737427,0.06202748045325279,-0.47302645444869995,-0.31345608830451965,0.09821230173110962,0.25631269812583923,0.18074339628219604},{-0.6371499300003052,-0.27297648787498474,-0.06574982404708862,-0.13638101518154144,-0.2930533289909363,-0.42077764868736267,0.4606495797634125,0.030417243018746376,-0.38316625356674194,-0.12363814562559128,0.0909104272723198,-0.03345833718776703,-0.08029147237539291,0.026516307145357132,0.3125428259372711,0.3627086579799652},{0.24050582945346832,-0.009638271294534206,-0.05041341856122017,0.03307510167360306,-0.1491818130016327,0.1371106505393982,-0.18579745292663574,-0.28700128197669983,-0.1871933490037918,-0.11940988898277283,-0.31778886914253235,-0.2930479943752289,-0.20571355521678925,-0.07897800207138062,0.09001710265874863,0.029062805697321892},{0.09403359889984131,-0.2605595290660858,0.04860631749033928,0.06224372237920761,0.11019664257764816,-0.08264012634754181,-0.2194792628288269,-0.20858660340309143,-0.22254590690135956,-0.06156960502266884,-0.01524627860635519,0.2841537594795227,0.10099565982818604,0.10473393648862839,-0.01505036186426878,0.1441909521818161},{-0.18665000796318054,-0.09921736270189285,0.3548193871974945,-0.20452579855918884,0.002195534761995077,-0.057410456240177155,0.016946179792284966,0.39754512906074524,-0.3667263388633728,-0.08589685708284378,0.18802665174007416,0.1425754427909851,-0.2714369595050812,-0.25385618209838867,0.14681707322597504,0.0749693438410759}};
static const float actor_encoder_self_encoder_2_weight[16][16] = {{-0.07339753955602646,0.03545346111059189,0.14061561226844788,-0.38599321246147156,0.00046897432184778154,0.23000285029411316,-0.06577888876199722,0.11983674019575119,0.22871792316436768,0.33396488428115845,-0.22498251497745514,-0.2275570183992386,0.2087193876504898,-0.1383495032787323,0.3579893708229065,-0.10664497315883636},{0.051374323666095734,-0.3867488205432892,0.16702589392662048,-0.11825753003358841,-0.23743151128292084,0.026744278147816658,0.22503021359443665,-0.06824436038732529,0.3566071093082428,-0.2669150233268738,-0.13446961343288422,-0.15997707843780518,0.15153808891773224,0.3409136235713959,0.17138534784317017,-0.11794241517782211},{-0.1528996229171753,-0.07481834292411804,-0.16729630529880524,-0.20211449265480042,-0.22494441270828247,-0.0346546433866024,0.3266543745994568,0.2298179566860199,-0.08584348112344742,-0.04450441524386406,-0.03652564808726311,0.1877003163099289,0.1366800218820572,-0.3513968586921692,0.4344788193702698,-0.3438138961791992},{0.1570853739976883,0.16993141174316406,-0.40346723794937134,-0.1380111575126648,-0.5185391306877136,0.030787473544478416,0.09538524597883224,-0.027080388739705086,-0.1661958247423172,-0.30359986424446106,0.21330352127552032,0.10148190706968307,0.013425043784081936,-0.20920123159885406,0.04469330236315727,0.3254973888397217},{-0.016641758382320404,-0.045187659561634064,-0.05669243633747101,0.382131427526474,-0.3806891143321991,0.0003227792039979249,0.051740121096372604,-0.24252010881900787,-0.27898457646369934,-0.1688161939382553,0.3795514404773712,-0.32741495966911316,-0.11328541487455368,0.03611209988594055,-0.28175970911979675,-0.4211074113845825},{-0.46986818313598633,0.36804360151290894,0.0707298070192337,-0.1010373905301094,0.40798261761665344,-0.3797772228717804,-0.16191041469573975,-0.38519933819770813,-0.0032345138024538755,-0.0037920945324003696,0.3034771680831909,-0.21594037115573883,0.3346825838088989,0.17668643593788147,0.47617506980895996,0.12733617424964905},{0.1067882776260376,-0.051275141537189484,0.34459248185157776,0.27829882502555847,0.19168812036514282,0.4797971546649933,0.16262947022914886,0.4256959855556488,-0.06218389421701431,-0.006993899587541819,0.23377542197704315,0.14023099839687347,-0.3974486291408539,-0.11626441776752472,0.04618920758366585,0.34838613867759705},{0.17355501651763916,-0.22192895412445068,0.2634706199169159,-0.17224827408790588,-0.01340725738555193,-0.14928093552589417,-0.1449856013059616,-0.26840484142303467,0.009283952414989471,-0.1064591333270073,0.09492840617895126,-0.25701048970222473,-0.07935946434736252,-0.12189897894859314,0.2418278157711029,-0.4248131811618805},{0.014411508105695248,0.11975859850645065,0.2711341679096222,-0.13375136256217957,-0.3537537455558777,0.17635059356689453,0.2698724865913391,-0.0901135578751564,0.1528712958097458,0.3038182854652405,0.1908596158027649,0.046234846115112305,0.08273967355489731,0.37539803981781006,0.14068247377872467,0.23667778074741364},{-0.09407409280538559,0.277631014585495,-0.34545326232910156,0.07961367070674896,0.05357588827610016,-0.18783460557460785,-0.24894601106643677,0.17138144373893738,0.2022634595632553,-0.2464398294687271,-0.34240442514419556,-0.16836129128932953,-0.18583646416664124,0.09678346663713455,-0.0046013109385967255,-0.31932657957077026},{0.35138291120529175,-0.0012804080033674836,-0.4618980884552002,-0.3643557131290436,-0.4876865744590759,0.07748684287071228,0.28495949506759644,0.15508979558944702,-0.16584642231464386,0.14457696676254272,-0.12286738306283951,0.16432970762252808,-0.3121091425418854,0.3390636444091797,0.06521687656641006,-0.056870561093091965},{-0.3241094946861267,0.29020097851753235,-0.3118736445903778,-0.29825401306152344,0.17282482981681824,0.24664796888828278,0.2704846262931824,-0.2042481005191803,0.12448973208665848,0.46996185183525085,0.2567448616027832,0.004095629323273897,-0.37750717997550964,0.24313925206661224,-0.024019431322813034,0.3080655336380005},{-0.11153995990753174,-0.23253853619098663,0.10850101709365845,0.1339893639087677,-0.09489480406045914,-0.33833929896354675,0.2839570641517639,-0.3894946277141571,0.16415007412433624,-0.055426303297281265,-0.2724696695804596,-0.402413934469223,0.09218945354223251,-0.4887470602989197,-0.11941047012805939,-0.21160906553268433},{-0.19215381145477295,0.267617791891098,-0.4490234851837158,-0.2052156776189804,-0.1130964383482933,0.23421187698841095,0.1250036060810089,-0.28067919611930847,-0.10793827474117279,-0.173445925116539,-0.4018384516239166,0.14146541059017181,-0.08562538772821426,0.17344793677330017,-0.05658895522356033,0.3678211271762848},{0.36864224076271057,0.22700512409210205,-0.21395641565322876,-0.6450380086898804,-0.2838098704814911,-0.48720282316207886,0.34560728073120117,0.1708260327577591,-0.052017614245414734,-0.010587725788354874,0.149042546749115,0.4077286720275879,-0.2589849531650543,0.06597808748483658,-0.1757560819387436,-0.22912947833538055},{-0.4459576904773712,0.37741363048553467,-0.3382270038127899,0.3164888620376587,0.07134180516004562,-0.04476895555853844,-0.3692203462123871,-0.4250301420688629,-0.20661373436450958,-0.054306257516145706,-0.3052443265914917,0.21967533230781555,0.2623522877693176,-0.17473946511745453,0.09348659217357635,-0.14012017846107483}};
static const float actor_encoder_feed_forward_0_weight[20][20] = {{-0.4157714247703552,-0.24636153876781464,-0.2485765516757965,0.260757178068161,0.29909077286720276,-0.2325296550989151,-0.18787893652915955,-0.35482239723205566,0.12734027206897736,0.30398815870285034,-0.11377794295549393,-0.21744944155216217,-0.334736704826355,0.12471283972263336,-0.397640585899353,0.26376619935035706,-0.01942797563970089,0.03695894405245781,0.1250329315662384,0.13107110559940338},{-0.04785236716270447,0.22085745632648468,0.41423067450523376,0.145225390791893,0.049916043877601624,-0.24149189889431,0.21446546912193298,-0.12581175565719604,0.0759408175945282,-0.18102101981639862,-0.011888785287737846,0.07524015754461288,-0.1280795782804489,-0.25884583592414856,0.12266290187835693,-0.22061659395694733,0.22670651972293854,-0.015302145853638649,-0.19481925666332245,0.2227049469947815},{0.12688373029232025,-0.2768755853176117,0.05522885546088219,-0.16359014809131622,0.013647551648318768,0.22609250247478485,-0.14803779125213623,0.49091339111328125,-0.3219742774963379,0.002930789953097701,-0.44989386200904846,0.08952776342630386,0.23510892689228058,-0.34126487374305725,-0.18584033846855164,-0.03256674483418465,-0.34267687797546387,0.27537086606025696,-0.15370261669158936,-0.04252686724066734},{0.2814912497997284,0.08643000572919846,-0.1264677345752716,0.1317998766899109,-0.20809830725193024,-0.005707030650228262,0.4788026213645935,-0.4616556763648987,-0.2569219172000885,-0.13623389601707458,0.04170585051178932,0.38428714871406555,-0.06811735033988953,-0.3099064230918884,0.2215607613325119,0.36062297224998474,-0.1256883442401886,-0.39524754881858826,0.04731722176074982,0.23728318512439728},{-0.03612062707543373,-0.22990356385707855,-0.32097503542900085,0.05392390862107277,0.31436359882354736,0.44776424765586853,0.04885284602642059,-0.33390286564826965,0.15799565613269806,-0.15696822106838226,0.32144784927368164,0.2075733095407486,0.2998642921447754,-0.0583190843462944,-0.31113147735595703,0.23256132006645203,-0.14432819187641144,-0.06813447922468185,-0.24430833756923676,0.3689395785331726},{0.11835848540067673,0.20029522478580475,-0.0036606816574931145,0.1303851157426834,-0.02066560834646225,-0.40834397077560425,-0.27330252528190613,-0.06347377598285675,-0.18905039131641388,0.13757926225662231,0.16262447834014893,0.10868524014949799,0.2186814397573471,-0.1973365694284439,0.38893982768058777,-0.022396394982933998,0.2879032492637634,-0.25084054470062256,0.3644857406616211,-0.2214035838842392},{-0.015308081172406673,0.0018977965228259563,0.12817369401454926,0.1594068706035614,0.34104353189468384,-0.467497855424881,-0.004914384335279465,0.2011263221502304,-0.1268860548734665,-0.29331400990486145,0.1353301703929901,-0.058108072727918625,-0.1441737860441208,-0.035100653767585754,0.28315144777297974,0.40495648980140686,0.1624244749546051,0.17199690639972687,-0.1609867811203003,-0.22373761236667633},{-0.13527071475982666,0.1292915642261505,-0.17347346246242523,0.36764976382255554,0.22064614295959473,-0.0024587775114923716,0.05390872433781624,-0.3767286539077759,-0.04358245059847832,0.24005934596061707,-0.2346503585577011,0.2678142189979553,-0.16719001531600952,-0.1436389833688736,-0.02886132150888443,0.050184737890958786,0.18894541263580322,-0.2886787950992584,-0.1987229734659195,-0.30867961049079895},{0.27167442440986633,-0.07419847697019577,0.1787099838256836,0.40095511078834534,0.02678677625954151,0.18469151854515076,-0.37763193249702454,-0.17843694984912872,-0.2798212468624115,0.26896917819976807,-0.020449895411729813,-0.07304754108190536,-0.5175544023513794,-0.3326796293258667,0.17628780007362366,0.3216659724712372,-0.4088362753391266,0.20904415845870972,-0.294394314289093,0.13452771306037903},{-0.24422530829906464,-0.26191744208335876,0.4114304780960083,-0.38908132910728455,-0.3216015100479126,0.06624631583690643,-0.04501074180006981,-0.010162455961108208,0.19475121796131134,0.21677586436271667,-0.22873614728450775,0.15189862251281738,0.20810815691947937,-0.4147337079048157,0.24829381704330444,0.09587788581848145,-0.5283701419830322,0.019256822764873505,0.10454565286636353,0.17974810302257538},{0.31684041023254395,-0.058316029608249664,0.13382287323474884,-0.32179272174835205,0.054808441549539566,-0.46904048323631287,0.3637455105781555,-0.03910018876194954,-0.44571229815483093,0.14975376427173615,-0.1668759286403656,-0.2971726059913635,0.38465002179145813,-0.4744875431060791,0.05793236941099167,-0.38852861523628235,-0.2032693773508072,0.031370583921670914,0.03610202670097351,-0.14164027571678162},{0.36138975620269775,-0.3291376531124115,0.023983197286725044,0.14167048037052155,-0.17342627048492432,-0.056127142161130905,0.11467556655406952,0.240354523062706,0.01730727031826973,-0.1598377674818039,0.050525132566690445,-0.053741902112960815,0.07383405417203903,-0.2109699845314026,-0.4472493529319763,-0.16263526678085327,0.2828981280326843,-0.21835947036743164,-0.05847305804491043,0.0824589878320694},{0.03957577049732208,-0.3636864423751831,0.169053852558136,-0.2513953745365143,0.03262203559279442,0.05454874783754349,-0.11498764157295227,0.20944051444530487,-0.03698815032839775,0.024738725274801254,0.22273607552051544,0.17578403651714325,-0.46465715765953064,0.006519650109112263,-0.13791416585445404,0.05746398866176605,-0.2871211767196655,0.16953426599502563,0.24492722749710083,0.22742131352424622},{0.009115858003497124,0.09128987044095993,-0.18774090707302094,0.22406762838363647,0.13405466079711914,0.17148646712303162,0.03911954537034035,-0.2967059910297394,0.02446674183011055,0.07755115628242493,-0.0004518170899245888,0.15295948088169098,-0.17748016119003296,-0.09569115191698074,-0.2755429744720459,0.3734673857688904,-0.006033055018633604,-0.018029285594820976,0.10595446079969406,-0.09912178665399551},{0.40295183658599854,-0.23047493398189545,0.07381772249937057,-0.10152575373649597,0.3214279115200043,0.01854756288230419,0.06266723573207855,-0.31550830602645874,-0.3770045042037964,-0.17449691891670227,0.1701551079750061,-0.09799972921609879,-0.1160435751080513,-0.01457858458161354,0.5399158596992493,-0.36365586519241333,-0.3774948716163635,0.16707368195056915,0.06918184459209442,0.20823532342910767},{0.1969890296459198,-0.26279720664024353,0.3194088041782379,-0.06301470845937729,-0.2649739384651184,0.2645093500614166,-0.2407812774181366,0.3064289391040802,-0.15532511472702026,-0.12077189236879349,-0.36147499084472656,-0.22764550149440765,0.17825636267662048,-0.19122333824634552,-0.16936638951301575,0.29735469818115234,0.28796544671058655,-0.46809521317481995,0.15390223264694214,-0.0011825055116787553},{0.12423467636108398,-0.09369909763336182,-0.27914413809776306,0.2455882877111435,-0.042912278324365616,-0.20842231810092926,0.39327162504196167,-0.23454974591732025,0.17887620627880096,-0.09154907613992691,0.2644023597240448,-0.17642717063426971,-0.1345834732055664,0.352671355009079,-0.10812441259622574,-0.2531961500644684,-0.06064397096633911,-0.323830246925354,0.32497429847717285,-0.3434164524078369},{0.16175372898578644,0.05338123068213463,0.08495977520942688,0.11155834048986435,0.012401278130710125,-0.160374715924263,0.3159935474395752,-0.01812300831079483,-0.2108263224363327,-0.13403020799160004,0.285473108291626,0.1881254017353058,-0.2667827904224396,-0.17280064523220062,-0.15661576390266418,0.15222817659378052,-0.11889985203742981,-0.2711049020290375,0.27672064304351807,-0.30492982268333435},{-0.12362263351678848,-0.1369764357805252,-0.07297932356595993,0.23295554518699646,-0.018577035516500473,-0.31644633412361145,0.15879900753498077,0.28912705183029175,0.10322528332471848,-0.3854292631149292,0.051575109362602234,0.22433291375637054,-0.27562516927719116,0.3565240800380707,-0.11292247474193573,0.28924551606178284,-0.3858996033668518,-0.22685429453849792,0.04397646710276604,-0.4124388098716736},{0.034534674137830734,-0.19720639288425446,-0.3214569091796875,-0.10349561274051666,0.3457767367362976,0.20304489135742188,-0.09807541221380234,-0.1685720980167389,-0.05355094373226166,-0.2702780067920685,-0.42400962114334106,0.124331995844841,0.4560013711452484,-0.2797916531562805,0.024339010939002037,0.016292165964841843,-0.2586098611354828,-0.21285003423690796,-0.12862880527973175,0.04240485280752182}};
static const float action_parameterization_distribution_linear_weight[20][4] = {{-0.30646979808807373,0.319268137216568,-0.3305433988571167,0.026977049186825752},{0.17147108912467957,0.08798029273748398,0.27954962849617004,0.2884422838687897},{0.06419242173433304,-0.43327999114990234,-0.2290632277727127,0.42832642793655396},{0.09698577970266342,0.14066331088542938,0.3867713212966919,-0.05827656388282776},{-0.12978705763816833,-0.0521601065993309,0.2617506682872772,-0.3164108991622925},{0.1648099720478058,0.3595753610134125,0.16020147502422333,0.4066862165927887},{0.4262479841709137,-0.511118471622467,0.032348811626434326,-0.046686265617609024},{0.08689377456903458,0.09384793788194656,-0.441005676984787,-0.23437431454658508},{0.23824307322502136,0.0819564163684845,0.35836589336395264,0.30307435989379883},{-0.36356306076049805,0.10481464117765427,0.3030741214752197,0.2272728532552719},{0.24824918806552887,0.38273921608924866,-0.00802756566554308,0.18227015435695648},{0.2543688118457794,0.09871114790439606,0.17708903551101685,0.04179517179727554},{0.052398934960365295,-0.5710391998291016,-0.020690536126494408,-0.018164899200201035},{0.19536322355270386,-0.21550658345222473,0.3408542573451996,0.5663812756538391},{-0.22267507016658783,-0.2723831832408905,0.20227669179439545,0.4571073651313782},{-0.0805036649107933,0.019337844103574753,0.2680462598800659,0.1143052726984024},{0.47693535685539246,0.20280125737190247,-0.42205777764320374,0.3703327775001526},{0.37927165627479553,-0.15987837314605713,0.4544619619846344,-0.38863977789878845},{-0.19236883521080017,-0.27466654777526855,0.21631300449371338,0.014833792112767696},{0.3775726854801178,0.2723418176174164,0.1747223436832428,-0.2626447379589081}};
static const float actor_encoder_self_encoder_0_bias[16] = {-0.11565887182950974,-0.1363697499036789,-0.13635340332984924,0.04701033607125282,-0.3181951344013214,-0.008074712008237839,0.1540028303861618,-0.05601697415113449,-0.09380148351192474,-0.017659228295087814,0.10332487523555756,0.10203798115253448,-0.06795670837163925,-0.026487737894058228,0.12896446883678436,0.04516679048538208};
static const float actor_encoder_self_encoder_2_bias[16] = {0.19258500635623932,0.0041564228013157845,-0.1170138418674469,0.0014053110498934984,-0.06099565699696541,-0.022323619574308395,-0.05722823366522789,0.10196929425001144,0.02210158109664917,-0.006028886418789625,-0.05707938224077225,0.029663193970918655,0.007731934543699026,0.07521633058786392,-0.02090812288224697,0.0671590119600296};
static const float actor_encoder_feed_forward_0_bias[20] = {-0.03246694803237915,0.008282848633825779,-0.08542117476463318,0.054986998438835144,0.05275190621614456,0.034426499158144,0.02030092105269432,-0.1636105179786682,-0.0003673616156447679,0.03809197619557381,0.007497843354940414,0.04427078366279602,0.0004685430321842432,0.007192860823124647,-0.1031954288482666,0.09226556122303009,0.05131429433822632,-0.011470961384475231,-0.006687470246106386,0.03967509791254997};
static const float action_parameterization_distribution_linear_bias[4] = {-0.019917745143175125,0.029592227190732956,0.06476328521966934,-0.012872755527496338};
static const float actor_encoder_obstacle_encoder_0_weight[16][4] = {{-0.3097934424877167,0.24943095445632935,-0.1304982453584671,0.19484512507915497},{-0.21175538003444672,0.0643058642745018,0.2146865725517273,-0.05508863925933838},{0.5714422464370728,0.17979782819747925,-0.25598931312561035,-0.13263382017612457},{0.48285770416259766,-0.14051780104637146,0.46861764788627625,0.49614977836608887},{0.1500033140182495,-0.2501458525657654,-0.17108646035194397,-0.023301389068365097},{0.1439642608165741,0.4671388268470764,0.2134917676448822,0.13650336861610413},{-0.37325024604797363,0.20097751915454865,-0.4469732642173767,0.3990177512168884},{0.4922296702861786,-0.20428358018398285,0.3723832666873932,0.4143163859844208},{0.0224850345402956,0.10380621999502182,0.5503050088882446,0.3378194570541382},{-0.11547399312257767,-0.05237128213047981,0.5861877202987671,-0.042109645903110504},{-0.323248952627182,0.03255455568432808,0.19023390114307404,-0.42997440695762634},{0.5607449412345886,0.40370088815689087,0.40197834372520447,-0.4602174758911133},{0.37550878524780273,-0.23636437952518463,0.23146942257881165,0.27671322226524353},{0.42370471358299255,0.6617629528045654,0.4117436110973358,0.11396030336618423},{0.1194065660238266,0.4896576702594757,0.380280077457428,-0.2094823718070984},{-0.3061935007572174,0.10508488118648529,-0.4066172242164612,0.3929525911808014}};
static const float actor_encoder_obstacle_encoder_2_weight[4][4] = {{0.7484840750694275,-0.5515655875205994,-0.39979028701782227,-0.06080765649676323},{0.46800196170806885,0.4076120853424072,-0.3577366769313812,-0.3819023072719574},{-0.1474006623029709,-0.6321247816085815,-0.6761618852615356,0.627306342124939},{0.10851475596427917,0.5795202851295471,-0.2185572385787964,0.5121411085128784}};
static const float actor_encoder_obstacle_encoder_0_bias[4] = {0.11189142614603043,0.03916536271572113,0.10405801236629486,0.05800006911158562};
static const float actor_encoder_obstacle_encoder_2_bias[4] = {-0.04075044393539429,-0.0188745204359293,-0.01945839263498783,0.009860904887318611};
void networkEvaluate(struct control_t_n *control_n, const float *state_array) {
        for (int i = 0; i < self_structure[0][1]; i++) {
            output_0[i] = 0;
            for (int j = 0; j < self_structure[0][0]; j++) {
                output_0[i] += state_array[j] * actor_encoder_self_encoder_0_weight[j][i];
            }
            output_0[i] += actor_encoder_self_encoder_0_bias[i];
            output_0[i] = tanhf(output_0[i]);
        }
        
        for (int i = 0; i < self_structure[1][1]; i++) {
            output_1[i] = 0;
            for (int j = 0; j < self_structure[1][0]; j++) {
                output_1[i] += output_0[j] * actor_encoder_self_encoder_2_weight[j][i];
            }
            output_1[i] += actor_encoder_self_encoder_2_bias[i];
            output_1[i] = tanhf(output_1[i]);
        }
            
        // Concat self_embed, neighbor_embed and obst_embed
        for (int i = 0; i < self_structure[1][1]; i++) {
            output_embeds[i] = output_1[i];
        }
        for (int i = 0; i < obst_structure[1][1]; i++) {
            output_embeds[i + self_structure[1][1]] = obstacle_embeds[i];
        }
    
        // Feedforward layer
        for (int i = 0; i < self_structure[2][1]; i++) {
            output_2[i] = 0;
            for (int j = 0; j < self_structure[2][0]; j++) {
                output_2[i] += output_embeds[j] * actor_encoder_feed_forward_0_weight[j][i];
                }
            output_2[i] += actor_encoder_feed_forward_0_bias[i];
            output_2[i] = tanhf(output_2[i]);
        }
    
        for (int i = 0; i < self_structure[3][1]; i++) {
            output_3[i] = 0;
            for (int j = 0; j < self_structure[3][0]; j++) {
                output_3[i] += output_2[j] * action_parameterization_distribution_linear_weight[j][i];
            }
            output_3[i] += action_parameterization_distribution_linear_bias[i];
        }
        
        control_n->thrust_0 = output_3[0];
        control_n->thrust_1 = output_3[1];
        control_n->thrust_2 = output_3[2];
        control_n->thrust_3 = output_3[3];	
    }
    
    void obstacleEmbedder(float obstacle_inputs[OBST_DIM]) {
        //reset embeddings accumulator to zero
        memset(obstacle_embeds, 0, sizeof(obstacle_embeds));

    
        for (int i = 0; i < obst_structure[0][1]; i++) {
            obst_output_0[i] = 0;
            for (int j = 0; j < obst_structure[0][0]; j++) {
                obst_output_0[i] += obstacle_inputs[j] * actor_encoder_obstacle_encoder_0_weight[j][i];
            }
            obst_output_0[i] += actor_encoder_obstacle_encoder_0_bias[i];
            obst_output_0[i] = tanhf(obst_output_0[i]);
        }
    
        for (int i = 0; i < obst_structure[1][1]; i++) {
            obst_output_1[i] = 0;
            for (int j = 0; j < obst_structure[1][0]; j++) {
                obst_output_1[i] += obst_output_0[j] * actor_encoder_obstacle_encoder_2_weight[j][i];
            }
            obst_output_1[i] += actor_encoder_obstacle_encoder_2_bias[i];
            obstacle_embeds[i] = tanhf(obst_output_1[i]);
        }
        }

