// Very aggressive takeoff. 
#include "network_evaluate_tof.h"
#include <string.h>


#define EPS 0.000001 // 1e-6

static float obstacle_embeds[16];
static float output_embeds[46];

float base;
float exponent;
static const int self_structure [4][2] = {{18, 30},{30, 30},{46, 60},{60, 4}};
static const int obst_structure [2][2] = {{16, 16},{16, 16}};
static float output_0[30];
static float output_1[30];
static float obst_output_0[16];
static float obst_output_1[16];
static float output_2[60];
static float output_3[4];
static const float actor_encoder_self_encoder_0_weight[18][30] = {{0.30270957946777344,0.4815230965614319,-0.02248922362923622,-0.14820709824562073,0.11480966210365295,0.18627601861953735,-0.13798797130584717,-0.2005152404308319,0.3061286211013794,0.20747718214988708,-0.12207504361867905,0.014235869981348515,-0.1235349178314209,-0.15981946885585785,-0.12400449812412262,0.027144882827997208,0.27988213300704956,-0.05491890758275986,-0.17331339418888092,-0.050590235739946365,-0.26389381289482117,-0.053332339972257614,0.016174159944057465,-0.2508682608604431,0.14119642972946167,-0.20271456241607666,0.12200448662042618,0.16399559378623962,0.2504614293575287,0.2604773938655853},{-0.2536008059978485,0.1734682023525238,0.18824701011180878,0.16724523901939392,-0.08172986656427383,0.38682836294174194,0.1479731798171997,-0.06402714550495148,-0.18263979256153107,0.20920751988887787,-0.08929727971553802,-0.13996322453022003,-0.1524442583322525,-0.22935831546783447,0.04178019240498543,0.15332745015621185,0.3602350354194641,-0.16608448326587677,-0.3293832838535309,-0.2672087550163269,-0.20398128032684326,-0.02924949862062931,0.05636299028992653,-0.04152875021100044,-0.041635870933532715,-0.04028589278459549,-0.07088232040405273,0.17152714729309082,0.014378239400684834,-0.006550115998834372},{0.3606654703617096,0.025943469256162643,-0.19417662918567657,-0.051819153130054474,-0.31513115763664246,-0.01621144823729992,-0.18312345445156097,-0.18303227424621582,0.21250705420970917,0.197604238986969,0.4939051866531372,0.34114474058151245,0.11073686927556992,-0.047315776348114014,0.04927453026175499,-0.2742103338241577,-0.2841244339942932,0.2680494785308838,-0.41595372557640076,0.2223833203315735,-0.44546493887901306,-0.34310299158096313,0.025984060019254684,-0.31873148679733276,-0.09401319175958633,-0.25702112913131714,-0.41613054275512695,0.20231527090072632,-0.3562552332878113,-0.1006772443652153},{-0.2391895055770874,-0.1715526282787323,-0.06739053130149841,0.2487267106771469,0.2587953805923462,0.22670310735702515,-0.029055386781692505,-0.20001061260700226,0.21025967597961426,0.14863617718219757,-0.073623426258564,0.22501929104328156,-0.16614365577697754,0.22879797220230103,-0.19673578441143036,0.15208780765533447,0.009753542020916939,0.32334044575691223,0.07014624774456024,-0.0840359777212143,0.03713234141469002,-0.13698376715183258,0.1641315221786499,-0.11894945055246353,-0.26883724331855774,0.18081389367580414,-0.04674357920885086,0.15017123520374298,0.10318011045455933,0.22892875969409943},{-0.14288294315338135,-0.2983655035495758,-0.028602251783013344,-0.20889228582382202,-0.2057863175868988,0.3002302348613739,0.08936348557472229,-0.14807695150375366,-0.3872218728065491,-0.01779334433376789,-0.28443413972854614,0.21448439359664917,0.130801722407341,0.492355614900589,0.1355583518743515,-0.01804063469171524,-0.14836058020591736,0.25471410155296326,-0.2661519944667816,0.07486037909984589,0.04702530428767204,-0.19110868871212006,-0.00021389516768977046,-0.2879624664783478,0.2201734185218811,-0.12920045852661133,0.168132945895195,0.15341904759407043,0.1753903478384018,-0.0761481523513794},{-0.0289873369038105,0.2268041968345642,-0.300600528717041,-0.18816505372524261,-0.27599290013313293,-0.1752265989780426,0.3206699788570404,-0.34033671021461487,0.385454922914505,-0.02396426536142826,-0.21576853096485138,-0.001173213473521173,0.2478470504283905,-0.3566787838935852,-0.16722814738750458,-0.2901284992694855,-0.02161180041730404,0.28673458099365234,-0.43301570415496826,-0.18828937411308289,-0.34386950731277466,-0.2674230933189392,0.20463763177394867,0.06303276866674423,0.13951827585697174,0.33308979868888855,-0.2113877236843109,-0.1942240595817566,0.04473487660288811,-0.04775493964552879},{0.20973409712314606,-0.25631245970726013,-0.13115480542182922,-0.3765212893486023,-0.13848620653152466,-0.013390028849244118,0.05615854635834694,-0.3840695321559906,0.11075423657894135,-0.1478164941072464,0.027951302006840706,-0.09513957798480988,-0.18671123683452606,0.3739793300628662,0.4282054007053375,0.419209361076355,0.12469343841075897,0.21737997233867645,0.32573699951171875,-0.14492306113243103,0.22365672886371613,0.40003502368927,0.28406134247779846,0.08084647357463837,0.21222656965255737,-0.1998499184846878,0.2829910218715668,-0.03579558804631233,-0.017643708735704422,0.03528888523578644},{-0.28500866889953613,-0.29788118600845337,0.11638706922531128,-0.3129565417766571,0.20707006752490997,0.157843679189682,0.10922666639089584,-0.058235540986061096,-0.11075304448604584,0.110687755048275,0.10292943567037582,0.12256500869989395,-0.3111512064933777,-0.15884366631507874,0.15340757369995117,-0.10436069965362549,-0.09103567898273468,-0.25091180205345154,-0.18992577493190765,0.2112693041563034,0.130355566740036,-0.2431471347808838,0.11585109680891037,0.4520425498485565,-0.15110036730766296,-0.09005545824766159,-0.32654836773872375,-0.11645481735467911,-0.3606482744216919,0.17347754538059235},{-0.2999025881290436,-0.06144525483250618,-0.4646918475627899,0.18752805888652802,0.15818257629871368,0.451801061630249,0.2366928607225418,0.3249061703681946,0.1623339205980301,0.022084692493081093,0.034009966999292374,-0.07043980062007904,-0.47573593258857727,-0.10088982433080673,0.04636025056242943,0.028510108590126038,-0.09943083673715591,0.2430059164762497,0.35938817262649536,-0.06377886980772018,0.30270200967788696,0.47783976793289185,-0.3623833954334259,-0.034033793956041336,-0.05986574664711952,0.36559203267097473,0.3367116451263428,0.5261738896369934,-0.3005923926830292,0.36688661575317383},{-0.3681161403656006,-0.047025687992572784,-0.053335919976234436,0.426021546125412,-0.30055901408195496,-0.07243358343839645,0.2522047162055969,-0.1118190735578537,-0.12659302353858948,0.34451889991760254,-0.15346659719944,-0.27802854776382446,0.4171442985534668,0.22368746995925903,-0.5509277582168579,0.2134786993265152,-0.08340495079755783,-0.08284268528223038,-0.04844963923096657,0.10355252772569656,-0.3772767186164856,0.26862698793411255,0.145447239279747,-0.11406566947698593,-0.38068389892578125,-0.05345882475376129,0.15941718220710754,0.16543491184711456,0.07685843110084534,-0.3158555030822754},{-0.09699051827192307,0.2078857719898224,-0.05034228041768074,0.09491788595914841,0.19591379165649414,0.2384645789861679,-0.05148206651210785,-0.3182741701602936,-0.017172865569591522,-0.2362157702445984,0.15204904973506927,-0.04765216261148453,-0.477570503950119,-0.23428088426589966,0.5070592761039734,-0.1819433569908142,-0.4365600347518921,-0.047405391931533813,0.02709340490400791,0.15774425864219666,-0.32329061627388,0.2654271423816681,-0.16631564497947693,0.021317005157470703,-0.24846209585666656,-0.2668626606464386,-0.21032358705997467,-0.019066626206040382,-0.21447503566741943,-0.18445344269275665},{0.06985621154308319,0.2356748729944229,0.0777992457151413,0.16764254868030548,-0.12516672909259796,-0.10634662210941315,0.5421033501625061,-0.22498103976249695,-0.5078840255737305,0.2799305319786072,-0.06691654026508331,-0.020716475322842598,0.0020991479977965355,-0.15321221947669983,0.3921770453453064,-0.22899578511714935,0.4914741814136505,0.03353434056043625,0.3498956561088562,0.2328886091709137,-0.29824960231781006,0.3777935206890106,0.24736201763153076,-0.4518209993839264,0.4535873532295227,0.3356083333492279,0.17672467231750488,-0.376554399728775,0.023131735622882843,-0.09139907360076904},{0.17057998478412628,0.2867088317871094,-0.27885937690734863,-0.1697886735200882,0.22924338281154633,0.07370539009571075,-0.041259199380874634,-0.1996864676475525,0.10077708214521408,0.4446626305580139,-0.06362258642911911,-0.4452061355113983,0.13998107612133026,0.19275794923305511,0.3617651164531708,0.3417872190475464,0.21252542734146118,0.2069966048002243,-0.21117381751537323,-0.35086095333099365,0.025854460895061493,0.590485155582428,-0.12813620269298553,-0.18349120020866394,0.15290474891662598,0.04727056622505188,-0.06662805378437042,0.04384194314479828,0.11324314028024673,0.4837859869003296},{0.2992069721221924,0.0032275328412652016,-0.07992339134216309,-0.013112285174429417,0.2366572618484497,-0.20955543220043182,0.2596736252307892,-0.21695691347122192,-0.1850699782371521,0.21295489370822906,0.10131099820137024,-0.20453110337257385,0.2847537696361542,-0.23320382833480835,0.46246668696403503,-0.37248215079307556,0.3906239867210388,-0.3133445382118225,0.11947418749332428,0.07857107371091843,-0.3192024230957031,0.15438754856586456,0.10773672163486481,-0.37972068786621094,0.5033790469169617,0.22409726679325104,-0.2238529622554779,-0.3198602795600891,0.331189900636673,-0.479059100151062},{-0.03917195275425911,-0.05589665472507477,-0.15133102238178253,-0.042645812034606934,0.10265197604894638,0.17120900750160217,0.09161286801099777,0.28436166048049927,0.15515074133872986,0.18757422268390656,-0.2443172186613083,0.32781851291656494,0.20982559025287628,0.0921463668346405,-0.2589283287525177,-0.4066031873226166,-0.33429276943206787,0.027034621685743332,0.14051596820354462,0.16359634697437286,0.07967858016490936,-0.017660198733210564,-0.029648490250110626,-0.05538700520992279,0.1761423796415329,0.1615820825099945,-0.18968521058559418,0.35372284054756165,0.013701453804969788,0.15212467312812805},{-0.18616151809692383,-0.07690247148275375,-0.0750822126865387,-0.17527244985103607,0.34261354804039,-0.07636221498250961,0.18417760729789734,-0.3631545901298523,-0.17095059156417847,-0.21972621977329254,-0.13633418083190918,-0.34914281964302063,0.28264936804771423,0.20604027807712555,0.2241288125514984,-0.21592140197753906,0.024886609986424446,-0.06579729914665222,0.24081483483314514,-0.14422030746936798,-0.07223954051733017,-0.16958962380886078,0.08576056361198425,-0.03596534952521324,-0.11035475134849548,-0.0433853417634964,-0.2801154851913452,0.15226206183433533,-0.19211751222610474,-0.06582625955343246},{0.08840698003768921,-0.251453697681427,0.08081986755132675,-0.35238558053970337,0.008122062310576439,0.012583532370626926,-0.21308183670043945,0.19427809119224548,-0.03836962580680847,0.20448724925518036,0.062367215752601624,-0.05359022691845894,0.2613167464733124,0.1932971477508545,0.016292445361614227,0.03812034800648689,-0.15523172914981842,-0.12941136956214905,-0.28408101201057434,-0.3346540331840515,-0.1931721270084381,-0.2509286403656006,0.18339242041110992,0.1766592115163803,0.20982247591018677,0.22265949845314026,0.1341046839952469,-0.2621093690395355,0.045700643211603165,-0.2503274381160736},{0.3043261766433716,-0.09678315371274948,0.16428177058696747,-0.22276178002357483,-0.42361611127853394,0.26658734679222107,0.1810624599456787,0.22960643470287323,0.14203253388404846,-0.46760886907577515,-0.06306949257850647,0.13904865086078644,-0.08455134928226471,-0.04690280184149742,0.2775361239910126,-0.14652414619922638,0.0613977275788784,-0.22288884222507477,-0.054293565452098846,0.2684904634952545,0.29769495129585266,0.19548816978931427,0.1373084932565689,0.011199718341231346,-0.21638086438179016,-0.0935467928647995,-0.20836085081100464,-0.2979767322540283,0.31565457582473755,0.27473199367523193}};
static const float actor_encoder_self_encoder_2_weight[30][30] = {{0.18144042789936066,0.1263517439365387,-0.30119696259498596,-0.0240012239664793,0.006399950012564659,0.11076794564723969,0.08333124965429306,-0.09156721830368042,0.0005585699109360576,0.13086703419685364,0.24927659332752228,0.2730446755886078,-0.2394864857196808,0.1387903392314911,-0.1329014003276825,0.06969382613897324,0.07694476842880249,0.15998153388500214,0.1151742935180664,0.2519742548465729,0.21492218971252441,0.11639590561389923,-0.23472505807876587,-0.06273245066404343,0.16310225427150726,-0.09960523992776871,-0.2953774333000183,0.0223630852997303,-0.28705883026123047,0.22679342329502106},{0.09978806972503662,-0.24882371723651886,-0.0839906558394432,-0.1537335366010666,0.22614875435829163,0.2645725905895233,-0.15687872469425201,-0.2488897144794464,0.2635033130645752,-0.23410186171531677,0.23272718489170074,0.05244849994778633,0.09915628284215927,-0.05750758945941925,0.14249280095100403,-0.03465042635798454,0.031016841530799866,-0.07670192420482635,0.2521968483924866,-0.02932431362569332,0.014583847485482693,0.04675544053316116,-0.12637101113796234,0.06879227608442307,-0.2009122222661972,0.09135980159044266,-0.08864466845989227,0.07748221606016159,-0.21810662746429443,-0.1235298365354538},{-0.16755913197994232,0.13562774658203125,0.16102458536624908,0.20906487107276917,-0.026545003056526184,-0.16044485569000244,0.39421209692955017,0.04161466285586357,0.07950374484062195,-0.08034513145685196,-0.3359440863132477,0.11510036885738373,-0.12290388345718384,-0.13209585845470428,0.259620726108551,-0.22132499516010284,0.1344052404165268,-0.31095239520072937,-0.15309065580368042,0.32049131393432617,-0.298055499792099,0.046227965503931046,-0.007565186824649572,0.008331355638802052,-0.15156133472919464,0.27786409854888916,0.22894231975078583,0.1634259819984436,0.029954029247164726,0.27309557795524597},{0.07967428117990494,-0.257916659116745,-0.05444343388080597,0.07919329404830933,-0.30807316303253174,0.06004514917731285,0.33596307039260864,0.019769441336393356,-0.026637284085154533,-0.029306652024388313,0.07907018810510635,0.3610570728778839,-0.2717098295688629,0.045450471341609955,0.0019627329893410206,0.059357237070798874,-0.229634091258049,0.24326814711093903,0.05226847901940346,-0.28773120045661926,-0.04191116616129875,0.03606106713414192,-0.12443412095308304,-0.1817435324192047,0.032077062875032425,-0.050417523831129074,0.10028235614299774,-0.3032948672771454,0.22389113903045654,0.01361741404980421},{0.09569276869297028,-0.2512221932411194,-0.3170194625854492,0.07486436516046524,0.21356405317783356,0.056184712797403336,0.31200212240219116,-0.2357984185218811,-0.004661642946302891,-0.1765298694372177,0.3047536313533783,-0.08442975580692291,0.2903469204902649,0.05786145478487015,-0.2520380914211273,0.04038985073566437,0.04251876473426819,-0.2798224687576294,-0.04087433964014053,-0.07310198247432709,-0.16485878825187683,-0.40101879835128784,-0.22878657281398773,0.031019426882267,-0.077429860830307,-0.03977738693356514,0.030705101788043976,0.05262450873851776,-0.3543763756752014,0.007254943251609802},{-0.01480761356651783,0.2886149287223816,0.21589912474155426,0.16858185827732086,-0.03560731187462807,0.10634303092956543,0.3472023010253906,-0.1431049406528473,0.13194119930267334,0.21260620653629303,0.10855713486671448,-0.3165021240711212,0.3225868344306946,-0.33270126581192017,-0.2178933024406433,0.2660137116909027,-0.32453033328056335,0.22076471149921417,0.268255352973938,0.11124500632286072,0.09602698683738708,-0.021932752802968025,0.009317625313997269,-0.28148120641708374,-0.26526421308517456,0.00512088555842638,-0.310177206993103,0.04089595377445221,-0.034410715103149414,0.21430820226669312},{-0.06040321663022041,0.14753560721874237,-0.06659021228551865,-0.2650454044342041,-0.26122620701789856,-0.3033958971500397,0.3052375614643097,0.06254381686449051,-0.11335889995098114,0.14958485960960388,0.11763114482164383,-0.26659098267555237,-0.06910639256238937,0.017304953187704086,0.00779810082167387,0.15982303023338318,-0.034581929445266724,0.07811588793992996,-0.02523098699748516,-0.18524950742721558,0.25905218720436096,0.265628844499588,-0.1137772649526596,0.19252371788024902,-0.21198990941047668,-0.23297743499279022,0.1977604776620865,-0.2964252531528473,-0.2903388738632202,-0.29155105352401733},{-0.11411359161138535,-0.3325307369232178,-0.26137569546699524,-0.11337737739086151,-0.2428387850522995,-0.15090498328208923,-0.28587982058525085,0.2632772922515869,-0.200887069106102,0.02555568516254425,0.16324855387210846,0.18665415048599243,0.1977151483297348,0.11262397468090057,-0.2973668873310089,-0.24692508578300476,0.1900918334722519,-0.07857619971036911,-0.05229880288243294,-0.31759124994277954,0.29445165395736694,0.1538400948047638,0.046287938952445984,-0.08870217204093933,-0.30293840169906616,0.1768351048231125,0.00048356986371800303,0.24924875795841217,-0.3709697723388672,0.010437166318297386},{-0.26953282952308655,0.0985506922006607,0.1378503441810608,-0.3307989835739136,0.4342210590839386,-0.16800594329833984,-0.3029034435749054,-0.20193247497081757,0.06489486992359161,0.2907562851905823,0.2568347454071045,-0.08381416648626328,-0.21012748777866364,-0.15213355422019958,0.02339388243854046,-0.008210829459130764,-0.19171948730945587,-0.27200403809547424,0.17580366134643555,-0.06763533502817154,0.3160358965396881,-0.3201337456703186,0.012462818995118141,0.08153391629457474,0.3312020003795624,-0.2247459441423416,-0.035364191979169846,0.034219350665807724,0.18538230657577515,-0.09172187745571136},{0.1754986196756363,-0.1983402967453003,-0.2283526211977005,-0.12187760323286057,0.1476130485534668,-0.2631201446056366,-0.22422964870929718,0.15997156500816345,-0.0014219260774552822,0.20179374516010284,-0.01612577959895134,0.30012810230255127,0.09734173119068146,0.24408937990665436,0.029817238450050354,-0.195810005068779,-0.1033298522233963,0.1845070868730545,0.024411814287304878,-0.1397857367992401,0.11616750061511993,0.18099099397659302,-0.042144980281591415,-0.2430105060338974,0.1631682813167572,-0.20330139994621277,0.28909584879875183,-0.10103583335876465,-0.2662619352340698,-0.33241426944732666},{0.005129776429384947,0.29248207807540894,0.2236645668745041,-0.28189608454704285,0.25911495089530945,-0.11594820767641068,0.2488539069890976,-0.18583792448043823,-0.09308140724897385,0.1933412402868271,0.24618622660636902,0.016039161011576653,-0.3562147915363312,0.11810466647148132,0.023227522149682045,0.27330073714256287,0.2751750946044922,0.15500760078430176,0.16151197254657745,0.21510568261146545,0.30467480421066284,0.24422064423561096,-0.30725622177124023,0.128703773021698,-0.12222495675086975,-0.27885639667510986,0.15833616256713867,0.05238030105829239,0.04376276209950447,-0.06385647505521774},{-0.2466953843832016,0.011376067996025085,0.10303221642971039,-0.01885143481194973,0.29997754096984863,0.029556764289736748,-0.12244042754173279,-0.13563625514507294,0.1782563328742981,0.16889163851737976,-0.05668991431593895,-0.24427436292171478,-0.1173277199268341,0.18675343692302704,-0.007771284785121679,0.10280407220125198,0.058128662407398224,-0.22338378429412842,-0.13428613543510437,0.1546982377767563,-0.026924705132842064,-0.19624504446983337,-0.13480684161186218,0.15848992764949799,0.11002051830291748,0.05491776019334793,0.1356557458639145,0.2736940383911133,-0.1372295618057251,-0.10824494808912277},{0.0032787700183689594,-0.08570849895477295,0.15768872201442719,-0.1507052332162857,0.03923195227980614,0.23973964154720306,0.1750127524137497,0.17246030271053314,0.30826127529144287,-0.05478820204734802,0.18930166959762573,0.30746257305145264,-0.08632667362689972,0.14777816832065582,0.23596611618995667,-0.16933371126651764,-0.08734498172998428,-0.049897413700819016,-0.3553163409233093,-0.3233143091201782,0.05380139499902725,0.026496803387999535,-0.05458546429872513,0.11025510728359222,0.03763574734330177,-0.17682497203350067,0.12818922102451324,-0.18547672033309937,-0.2856420874595642,0.2671668827533722},{-0.16855943202972412,0.025444395840168,-0.21183840930461884,0.09033475816249847,-0.10781658440828323,0.012831016443669796,0.09343802183866501,-0.06361113488674164,0.08497772365808487,-0.207565575838089,0.26001325249671936,0.19727517664432526,0.057110439985990524,0.015967106446623802,-0.17497041821479797,0.28932565450668335,-0.026484152302145958,-0.16443589329719543,0.031655412167310715,0.12175160646438599,-0.2190094143152237,-0.19241046905517578,0.08054396510124207,0.08640551567077637,0.0006044203182682395,0.004981101956218481,9.639692143537104e-05,-0.17577329277992249,-0.2011099010705948,0.08426079899072647},{-0.07369035482406616,0.006758037954568863,0.06427512317895889,-0.2843235731124878,0.17944329977035522,-0.03342237323522568,0.3017384707927704,0.23898038268089294,0.27250802516937256,0.15893784165382385,0.06791718304157257,-0.25565797090530396,0.1958134025335312,0.13324104249477386,-0.3160068392753601,0.29396936297416687,-0.1689123511314392,-0.19293051958084106,0.2871474027633667,0.2675885558128357,0.14628447592258453,-0.04819333925843239,-0.34016361832618713,-0.3043079078197479,-0.23615780472755432,-0.13830934464931488,0.036395374685525894,-0.044362980872392654,0.1959206461906433,-0.1596907079219818},{-0.1297278255224228,-0.10205800831317902,-0.14082235097885132,-0.15150202810764313,-0.17897121608257294,-0.059896111488342285,-0.06913678348064423,-0.12756721675395966,-0.06178859621286392,-0.16175001859664917,0.1908298283815384,-0.08483641594648361,0.14035341143608093,-0.257466584444046,-0.07147403061389923,-0.09469087421894073,0.1337888091802597,-0.0024024415761232376,0.2903880476951599,0.1973957121372223,0.05601676553487778,-0.14298361539840698,0.25270506739616394,0.2772079110145569,-0.25855085253715515,0.1752295196056366,-0.19642037153244019,-0.032432205975055695,0.12301256507635117,-0.15805260837078094},{0.11689458042383194,-0.27244794368743896,-0.16123802959918976,0.25609123706817627,0.35896122455596924,-0.35152220726013184,0.17463640868663788,0.14631140232086182,0.0181357953697443,0.0654589980840683,0.17083711922168732,-0.15040360391139984,-0.07848040759563446,0.2346917688846588,0.18040256202220917,0.18469515442848206,0.2947704792022705,0.30544421076774597,-0.11001376062631607,-0.17109470069408417,0.11919635534286499,0.32734012603759766,0.08053113520145416,0.07503008842468262,0.21974647045135498,-0.19999083876609802,0.11357587575912476,0.09820966422557831,-0.2012946903705597,-0.0860183984041214},{0.1901533305644989,0.10524009168148041,0.11193113774061203,0.18636628985404968,0.2614724934101105,0.2595207989215851,-0.2513103485107422,-0.1448042243719101,-0.10139403492212296,-0.16482731699943542,0.09236747771501541,-0.12532198429107666,0.2306070625782013,0.006336648017168045,-0.32693445682525635,0.03483321890234947,0.06076277792453766,-0.06265251338481903,0.27092400193214417,-0.28795143961906433,0.22300985455513,0.20564329624176025,-0.025395546108484268,-0.30181455612182617,0.282734215259552,-0.31138572096824646,0.1470104604959488,-0.07079293578863144,0.37330174446105957,-0.23665441572666168},{-0.13161656260490417,-0.26900580525398254,-0.33615341782569885,0.1378895491361618,0.34062090516090393,0.17836782336235046,-0.19665928184986115,0.02529969997704029,0.2145686149597168,-0.014207753352820873,-0.15230804681777954,0.11344201862812042,0.22693665325641632,0.05700970068573952,0.08441393822431564,-0.08332541584968567,0.41417965292930603,0.3512858748435974,-0.28899839520454407,0.012672428973019123,0.1596406102180481,-0.21116213500499725,0.058935388922691345,0.09367578476667404,-0.28868111968040466,-0.15547029674053192,0.07902199029922485,0.14867685735225677,-0.23157083988189697,0.0006694833864457905},{0.10349689424037933,-0.014349625445902348,-0.16522780060768127,-0.11042317003011703,0.230874702334404,-0.2518979012966156,-0.28739506006240845,0.07702522724866867,-0.18976809084415436,0.21825924515724182,-0.23141273856163025,-0.01073641050606966,-0.1371934711933136,-0.08079835027456284,0.23362484574317932,0.19625459611415863,0.14642415940761566,-0.27640002965927124,0.21572014689445496,0.06013090908527374,-0.28790953755378723,-0.29917076230049133,-0.09092393517494202,0.01883593574166298,0.02016392908990383,0.2735653221607208,-0.1693747192621231,-0.24724794924259186,0.020394038408994675,0.08597344905138016},{0.1462031751871109,-0.2596679627895355,-0.27650314569473267,-0.21632452309131622,-0.2016858607530594,-0.00022511077986564487,0.20498883724212646,0.10424847155809402,0.16862867772579193,0.1112082451581955,0.15922783315181732,-0.27265506982803345,0.02349940501153469,-0.2012726366519928,0.1993035227060318,-0.04564055800437927,-0.008114706724882126,-0.020769603550434113,-0.04798785597085953,0.14281003177165985,-0.1290270835161209,-0.22837473452091217,0.10306566953659058,0.07214347273111343,0.01529441773891449,0.22133778035640717,0.03000679425895214,0.09505999088287354,-0.25470083951950073,-0.31020665168762207},{-0.2544676959514618,-0.1756865531206131,-0.1864255666732788,0.24162988364696503,-0.14724677801132202,0.2934770882129669,-0.0639924481511116,0.1862500011920929,0.1407209187746048,-0.30238524079322815,0.25044819712638855,-0.1448691338300705,0.31551095843315125,-0.17921945452690125,0.056485045701265335,-0.12293756753206253,-0.04346468672156334,0.14716987311840057,-0.13457435369491577,-0.3384742736816406,-0.32436251640319824,-0.13066084682941437,0.24996808171272278,0.07752704620361328,-0.18334871530532837,-0.20303499698638916,-0.03304582089185715,0.2619144916534424,0.33231252431869507,0.09009264409542084},{-0.13967962563037872,-0.0037628195714205503,0.06450527161359787,0.004396271426230669,-0.023168198764324188,0.15944728255271912,0.04284350574016571,-0.005558439530432224,0.31589069962501526,0.10236183553934097,-0.20621907711029053,0.06587635725736618,-0.03232177719473839,0.06599698215723038,-0.10111265629529953,0.12376932054758072,0.11523249745368958,-0.11191773414611816,0.13159865140914917,0.20937477052211761,0.2846817672252655,0.057019468396902084,-0.07994768768548965,0.17220637202262878,-0.15932388603687286,-0.14482790231704712,-0.1430230587720871,-0.015369090251624584,0.03449128568172455,-0.03562638908624649},{0.02220558375120163,0.05688848719000816,0.18018080294132233,-0.02343866415321827,-0.347112238407135,0.3488715589046478,0.20374977588653564,-0.028501439839601517,-0.01917416788637638,0.33439236879348755,0.06310207396745682,0.06967790424823761,-0.37213677167892456,-0.12214834988117218,0.05608213692903519,-0.22980783879756927,0.09835419803857803,0.04278194159269333,0.32018330693244934,0.3582277297973633,-0.10335056483745575,-0.20995937287807465,0.17509692907333374,-0.04372909292578697,-0.22405989468097687,0.30799049139022827,0.10046207904815674,0.3013167083263397,0.02079293318092823,-0.20143042504787445},{-0.2444283813238144,-0.26267778873443604,0.13719403743743896,-0.017999371513724327,0.17369496822357178,0.2799539864063263,0.15537193417549133,0.24526254832744598,-0.040118008852005005,-0.0821496769785881,-0.04115249216556549,0.05362210050225258,0.20127107203006744,0.29067787528038025,0.05418726056814194,0.23350299894809723,0.0907437801361084,-0.04817366972565651,0.11086829751729965,0.03726867958903313,-0.2615431249141693,-0.11967988312244415,0.17851950228214264,-0.10443378984928131,0.05059626325964928,0.11925701797008514,0.16132846474647522,0.08184252679347992,-0.19487345218658447,-0.26348522305488586},{0.16704832017421722,0.056608784943819046,-0.14855118095874786,-0.10688444972038269,-0.16889499127864838,0.2548658847808838,0.06870273500680923,-0.029789818450808525,0.2688469886779785,0.08375592529773712,0.028605105355381966,-0.2364785373210907,0.11788470298051834,-0.11731567978858948,0.184956356883049,0.23143097758293152,-0.3056029975414276,0.23076745867729187,-0.04468347877264023,-0.005528049077838659,0.1608871966600418,-0.07464542984962463,0.17136625945568085,-0.05554893612861633,0.29260388016700745,0.24739795923233032,0.13880860805511475,-0.28113436698913574,-0.31784915924072266,0.0192111786454916},{0.24284911155700684,-0.00507408007979393,-0.07233009487390518,0.2977495789527893,-0.020000336691737175,-0.0586741603910923,-0.1224101111292839,-0.20970861613750458,-0.22844602167606354,0.02640313096344471,0.1470317393541336,-0.13745519518852234,0.2842716574668884,-0.33218008279800415,0.21950379014015198,-0.16522786021232605,0.1526271253824234,0.07200301438570023,0.0528932549059391,0.038021694868803024,-0.28087684512138367,-0.31166642904281616,0.06622952222824097,0.19283156096935272,0.01263563334941864,0.0036653068382292986,-0.16414174437522888,-0.14658576250076294,0.20708003640174866,0.02451464533805847},{-0.1611582189798355,-0.05691366642713547,0.14272479712963104,-0.2460974007844925,-0.036761846393346786,0.09575016051530838,0.13565455377101898,-0.26427721977233887,-0.1299431174993515,0.1796262562274933,0.21893294155597687,0.14076223969459534,0.03397940844297409,-0.14754126965999603,0.04996911808848381,0.07388585060834885,-0.008640717715024948,-0.062401264905929565,0.11891259253025055,-0.2196744978427887,0.04693096876144409,0.1187533363699913,0.12332706153392792,-0.1746252179145813,-0.004751334432512522,-0.08233587443828583,0.24848617613315582,0.19607408344745636,0.12486634403467178,-0.0035167261958122253},{-0.022651003673672676,-0.004747181665152311,-0.10822182893753052,-0.009221900254487991,0.10239280760288239,0.02545149251818657,0.30910852551460266,0.19233167171478271,-0.14638930559158325,0.047243356704711914,-0.13215121626853943,0.22990861535072327,-0.00832937192171812,0.012360475957393646,0.10796856135129929,0.12323591858148575,-0.30233654379844666,0.19537213444709778,-0.10259900987148285,-0.28450098633766174,0.19142721593379974,-0.21179068088531494,-0.016992779448628426,0.1915597915649414,0.05050816014409065,0.1987251490354538,-0.1786176562309265,-0.03309222310781479,-0.14218302071094513,0.0395318903028965},{-0.039072733372449875,-0.17602966725826263,-0.32900944352149963,0.2316611111164093,-0.016508474946022034,-0.4136064350605011,-0.3108510375022888,0.12094508111476898,0.3030335605144501,0.10119592398405075,0.21855033934116364,0.04139132425189018,-0.039264097809791565,-0.2227826863527298,0.06214910373091698,0.14531604945659637,0.007047404069453478,-0.042273327708244324,0.14096224308013916,0.15634016692638397,0.2306373566389084,-0.09590041637420654,0.19516535103321075,-0.20092232525348663,-0.2699985206127167,0.031864553689956665,0.21351240575313568,0.3322415351867676,-0.011036764830350876,0.09177239239215851}};
static const float actor_encoder_feed_forward_0_weight[46][60] = {{-0.24495644867420197,0.18776588141918182,-0.09055961668491364,-0.08904016762971878,0.09617004543542862,0.014437436126172543,0.1305037885904312,-0.2930907905101776,-0.13086442649364471,0.11945897340774536,0.21594299376010895,-0.20691338181495667,-0.08634046465158463,0.08413080126047134,0.016943497583270073,-0.12510332465171814,0.05077531933784485,-0.15795035660266876,0.12538042664527893,0.06019345298409462,0.11100845038890839,0.03274286910891533,0.18724481761455536,0.22773534059524536,-0.03385007381439209,0.06633032858371735,-0.05246204510331154,-0.0696907490491867,0.054722707718610764,0.26300936937332153,0.12562166154384613,-0.18439097702503204,-0.15143494307994843,0.03823722526431084,0.006111080292612314,0.06440779566764832,0.002355787204578519,-0.06652214378118515,0.17977139353752136,0.13967283070087433,-0.019865229725837708,0.09337570518255234,-0.21466794610023499,0.07182716578245163,0.014087766408920288,0.043284639716148376,0.14350053668022156,-0.01374879851937294,-0.1708318591117859,-0.02993023581802845,0.1806030422449112,0.21497438848018646,0.1408500373363495,-0.20247295498847961,-0.15849308669567108,-0.14083684980869293,-0.08271422982215881,-0.11134622991085052,0.1335504949092865,0.11098027229309082},{-0.07862893491983414,-0.023237409070134163,0.13077782094478607,0.23189504444599152,0.19010894000530243,-0.18858487904071808,-0.04888838157057762,-0.03001694194972515,0.025087598711252213,0.03620869666337967,0.17598730325698853,0.16283664107322693,0.021222297102212906,0.21664230525493622,0.07564634084701538,-0.2110450267791748,0.19153916835784912,0.05080832913517952,-0.18592144548892975,0.19591590762138367,0.16886939108371735,-0.1543435901403427,0.007700745481997728,0.22572579979896545,0.20523302257061005,-0.17383231222629547,-0.019280092790722847,-0.26132455468177795,-0.13227786123752594,0.12019035220146179,0.0755426213145256,-0.051848046481609344,-0.09161769598722458,-0.16215422749519348,0.23859818279743195,-0.14808516204357147,-0.062220603227615356,0.054822180420160294,-0.0795147716999054,-0.014556975103914738,-0.1714959740638733,-0.19287952780723572,0.03310331329703331,-0.2046038806438446,0.09773959219455719,-0.13526780903339386,-0.12075627595186234,-0.17443881928920746,0.1604567915201187,0.06198258697986603,-0.23103968799114227,0.00913819670677185,0.12037977576255798,0.23125115036964417,-0.1895775943994522,0.015296483412384987,-0.1368090808391571,-0.12519776821136475,0.08966229110956192,0.03695274516940117},{-0.04609670117497444,0.04822906479239464,0.21470211446285248,0.029738180339336395,-0.23452331125736237,0.11698237806558609,-0.120371513068676,0.3196723461151123,-0.2712990939617157,-0.09374435245990753,0.09850367903709412,-0.1964910477399826,0.07973536103963852,0.1815273016691208,-0.026881150901317596,-0.03691296651959419,-0.13969027996063232,0.004887547343969345,-0.10796235501766205,0.16026078164577484,0.062332987785339355,0.21038219332695007,-0.14999507367610931,-0.1511392891407013,0.0024222044739872217,0.11874079704284668,-0.2530418634414673,-0.1640097200870514,-0.2559218108654022,-0.04484957084059715,0.15702271461486816,0.09861277788877487,-0.14706720411777496,0.057839591056108475,0.08793652802705765,0.06922712177038193,-0.11188837885856628,-0.013529256917536259,0.15464986860752106,-0.014226346276700497,-0.08194689452648163,0.27201882004737854,0.04993388429284096,0.1489546000957489,0.15144842863082886,-0.021710416302084923,0.3312584459781647,0.08715401589870453,-0.14761941134929657,-0.20524649322032928,-0.1989174336194992,-0.04603396728634834,0.08306806534528732,0.13931904733181,-0.059775542467832565,0.04926775395870209,-0.1028277724981308,0.16922256350517273,-0.06622578203678131,0.05079546943306923},{0.05442652851343155,-0.10963897407054901,0.07393225282430649,0.07009207457304001,-0.05380181595683098,-0.26905590295791626,-0.15276910364627838,-0.11125408113002777,0.20527885854244232,0.16474036872386932,-0.2185046523809433,0.01352320984005928,-0.04459947720170021,-0.09275368601083755,-0.013219481334090233,0.12282606959342957,0.04463442787528038,-0.15595003962516785,-0.1035597026348114,-0.02124544233083725,-0.03604662045836449,0.13334660232067108,0.129048690199852,0.053734440356492996,-0.10718841105699539,0.17057408392429352,0.0032128554303199053,0.0063568418845534325,0.11283772438764572,0.19198423624038696,-0.24655376374721527,0.1757456511259079,-0.12513467669487,-0.08143263310194016,0.06873638182878494,-0.1290324628353119,0.02890651300549507,0.08991201221942902,-0.12222666293382645,-0.08589957654476166,-0.19393810629844666,0.2530580163002014,0.034893717616796494,-0.2871215343475342,-0.22181706130504608,0.20403233170509338,-0.02160460129380226,-0.13535155355930328,-0.14927418529987335,0.1648133397102356,0.26616427302360535,0.08409429341554642,0.04275475814938545,-0.1606258749961853,0.19501997530460358,0.1791486144065857,-0.09285386651754379,-0.09336020797491074,0.1296592652797699,0.15416736900806427},{-0.16585054993629456,0.055677223950624466,0.12624071538448334,0.028757566586136818,0.29648032784461975,-0.06467364728450775,0.06543216854333878,-0.18287165462970734,-0.24659551680088043,0.12179587781429291,-0.27022793889045715,0.3013494610786438,-0.24301795661449432,-0.016229499131441116,-0.04148441553115845,-0.24432997405529022,0.09188030660152435,-0.11004175990819931,-0.19090044498443604,-0.07615920156240463,0.15749691426753998,0.027008159086108208,-0.08037242293357849,-0.10498017072677612,-0.0004717301344498992,0.027413655072450638,-0.04544343799352646,0.16014152765274048,0.08576616644859314,-0.027692416682839394,-0.09365888684988022,0.22106190025806427,-0.18224723637104034,0.06873227655887604,-0.2444646656513214,-0.124486044049263,0.09929462522268295,0.008450336754322052,-0.2261061668395996,-0.010870423167943954,-0.029853086918592453,-0.1007218137383461,-0.20765049755573273,0.06644763797521591,-0.14227914810180664,-0.25004851818084717,0.006946648005396128,-0.2223902940750122,0.14374178647994995,0.1438773274421692,0.1166752278804779,0.04512803256511688,-0.08824624866247177,0.18660995364189148,0.022453051060438156,-0.019349055364727974,-0.1395729035139084,0.1671467423439026,0.002324816072359681,0.12555530667304993},{-0.2381369024515152,-0.017297035083174706,-0.11368267983198166,-0.06160735338926315,0.17197073996067047,-0.14920704066753387,-0.22700545191764832,0.19301235675811768,-0.05574553832411766,-0.11939796060323715,-0.17284554243087769,0.03025812655687332,-0.11066035181283951,0.05329902097582817,0.10503222048282623,0.09641797840595245,-0.19204939901828766,0.1721048504114151,-0.10161606222391129,-0.10777793079614639,0.0251765176653862,-0.27567058801651,-0.07071646302938461,-0.14504104852676392,-0.049596477299928665,0.04252912104129791,-0.18227875232696533,-0.28529855608940125,-0.02587808482348919,0.10086745023727417,-0.02489781379699707,-0.07985065877437592,-0.21624594926834106,-0.12933701276779175,0.060361508280038834,0.19069379568099976,-0.10862445831298828,0.05779098719358444,-0.020931359380483627,0.16433946788311005,-0.12142409384250641,0.17388032376766205,0.09497363120317459,-0.09789934009313583,0.08208733052015305,-0.0030168844386935234,0.06811008602380753,0.16266921162605286,-0.048070989549160004,-0.11375963687896729,-0.12368188798427582,0.15828047692775726,-0.0972694382071495,-0.029250916093587875,-0.035723522305488586,-0.16147394478321075,0.22701923549175262,-0.2117265909910202,-0.13606664538383484,-0.19326017796993256},{0.0918550118803978,-0.0313752107322216,-0.08283479511737823,-0.1874498575925827,0.22474175691604614,-0.08449007570743561,0.12458320707082748,0.21228352189064026,-0.14154329895973206,-0.226782888174057,-0.1777336597442627,0.05279846489429474,-0.25018081068992615,-0.21032680571079254,0.14299751818180084,-0.10721150040626526,-0.09067285060882568,-0.2504402995109558,0.05048326030373573,0.1279517412185669,-0.049540530890226364,-0.19150564074516296,-0.024752113968133926,0.19924017786979675,-0.06284970790147781,0.09143123030662537,0.1448819488286972,-0.2424914538860321,0.10350339859724045,-0.00469393003731966,0.13345564901828766,-0.13574755191802979,-0.1535789966583252,-0.1804053783416748,0.10770384967327118,-0.23603284358978271,-0.14088064432144165,0.15995755791664124,-0.1323230266571045,0.0478617362678051,0.11864512413740158,0.12977777421474457,-0.22712905704975128,-0.1860356479883194,-0.13357354700565338,0.0007660627015866339,0.11506972461938858,-0.1773681938648224,-0.17900998890399933,0.18594421446323395,-0.2266959697008133,-0.036366838961839676,0.2575877010822296,-0.14767031371593475,-0.1327073574066162,0.23097041249275208,-0.22212621569633484,0.17747628688812256,0.020025622099637985,-0.08003946393728256},{0.01746201515197754,-0.19812200963497162,0.018316900357604027,-0.12055038660764694,-0.20582762360572815,-0.23104920983314514,0.026010150089859962,-0.012825976125895977,-0.11180413514375687,-0.19575537741184235,0.2111314982175827,-0.08838366717100143,-0.00985370110720396,-0.06573117524385452,0.14457331597805023,0.1744242161512375,-0.16780073940753937,-0.028812484815716743,0.19153079390525818,0.1628606766462326,0.1582074910402298,0.21446172893047333,0.08711108565330505,0.15659159421920776,0.10785824805498123,-0.21008355915546417,-0.2262483537197113,-0.1394982486963272,0.16075946390628815,0.03458195552229881,-0.03967225179076195,0.20654582977294922,0.02194506675004959,0.04022873938083649,0.04532957449555397,-0.15907233953475952,-0.0015937910648062825,0.003268507542088628,-0.08502950519323349,0.18552306294441223,0.0504530631005764,-0.06949261575937271,0.020117755979299545,0.14174877107143402,0.10581716150045395,0.13317415118217468,0.00943740177899599,-0.18096238374710083,0.22074095904827118,0.03782569617033005,0.03579333797097206,-0.10840952396392822,-0.09887272864580154,-0.1455479860305786,-0.000384905724786222,0.015524645335972309,0.00963051337748766,-0.18037711083889008,-0.1962786614894867,-0.15988031029701233},{0.021917160600423813,0.21152551472187042,0.13423126935958862,0.23188208043575287,-0.0036682565696537495,-0.11023767292499542,-0.011637100949883461,0.231535866856575,0.19405372440814972,0.22146712243556976,-0.11809473484754562,-0.1973201185464859,0.0986676961183548,-0.2339828908443451,0.28135746717453003,-0.05930377170443535,-0.03536824509501457,0.01706094667315483,-0.025356654077768326,-0.1596858948469162,0.10787597298622131,0.05365046113729477,0.24149936437606812,0.04176459088921547,0.17469128966331482,0.22822007536888123,-0.039727918803691864,-0.17483726143836975,-0.16921250522136688,-0.12763981521129608,-0.13998223841190338,-0.03161121532320976,-0.17199136316776276,0.16330720484256744,-0.1676148623228073,0.20405466854572296,-0.0799381360411644,-0.05196194723248482,-0.04177674651145935,0.24404852092266083,0.03450101241469383,-0.27622857689857483,-0.011524742469191551,-0.0708792433142662,0.04168090969324112,0.14077900350093842,0.1328509896993637,-0.011289793998003006,0.08667133748531342,-0.012941213324666023,-0.1941830813884735,0.1005447506904602,-0.1016647219657898,-0.0730733647942543,0.08025894314050674,-0.11770503222942352,-0.026736648753285408,-0.07954089343547821,-0.04166141897439957,-0.15248733758926392},{-0.1691843718290329,-0.24031275510787964,-0.03939545527100563,0.18911339342594147,-0.2152755707502365,-0.07383701950311661,0.18799516558647156,-0.241620272397995,0.01359056867659092,-0.15625974535942078,0.16909635066986084,0.02395087108016014,0.02388613298535347,0.046391744166612625,0.08726809918880463,0.15136069059371948,-0.15253834426403046,-0.13566651940345764,0.23806427419185638,-0.10586364567279816,-0.08827505260705948,-0.0068410951644182205,-0.034408219158649445,0.19815613329410553,0.02443724311888218,0.20921489596366882,0.11230585724115372,0.30244433879852295,-0.027615269646048546,0.033205706626176834,-0.05043463408946991,0.0031119941268116236,-0.009657532908022404,0.22490201890468597,-0.004388023633509874,0.1269063651561737,-0.14873450994491577,0.121701180934906,-0.16566996276378632,-0.1676478236913681,0.11599123477935791,-0.1551215648651123,0.024059390649199486,-0.0643957331776619,-0.1167818233370781,-0.14643533527851105,-0.030183108523488045,0.17681826651096344,0.008090831339359283,-0.17215342819690704,0.10796582698822021,0.15656165778636932,-0.1661064326763153,0.07481184601783752,0.15902765095233917,0.17716431617736816,-0.12959669530391693,-0.15430590510368347,0.06811367720365524,0.10152146220207214},{0.11565626412630081,-0.12468164414167404,-0.04722895845770836,0.17174330353736877,-0.039197538048028946,0.07876507937908173,-0.030628271400928497,0.173373281955719,0.025206122547388077,0.24069644510746002,-0.10017673671245575,0.03986624628305435,0.20602081716060638,0.0080085638910532,-0.055914413183927536,0.07721709460020065,0.1817576289176941,-0.04545437544584274,-0.03712162747979164,-0.17108607292175293,-0.24890343844890594,-0.15801803767681122,0.21903373301029205,0.09596272557973862,0.07135184854269028,0.2577361762523651,0.06776084750890732,-0.008015393279492855,-0.07005124539136887,-0.12850967049598694,0.05911470577120781,0.22928696870803833,-0.10181111097335815,0.15496979653835297,-0.15732496976852417,0.06191249191761017,-0.11802465468645096,0.13364748656749725,0.051574885845184326,-0.15634280443191528,0.07709069550037384,-0.2169264405965805,-0.1069106012582779,-0.04486263543367386,-0.1989172101020813,-0.07035038620233536,-0.2202972173690796,0.2884378135204315,0.16896457970142365,0.12361511588096619,-0.026752976700663567,-0.0052068899385631084,0.13281786441802979,0.011124380864202976,-0.0700388252735138,0.16897036135196686,0.010544557124376297,0.11809279024600983,-0.22881993651390076,-0.08456499874591827},{0.10570028424263,0.14669859409332275,0.0071890102699398994,0.12174618244171143,0.011914343573153019,-0.12308873981237411,-0.062457259744405746,-0.2047288566827774,-0.12944966554641724,-0.19789499044418335,-0.1471402645111084,-0.15664656460285187,-0.16369186341762543,0.1298750936985016,0.06318601220846176,-0.14381027221679688,-0.12719053030014038,-0.1347423493862152,0.12221972644329071,0.03428790718317032,-0.13735228776931763,-0.1207277849316597,0.16802000999450684,0.2122870832681656,0.20014367997646332,-0.06284905225038528,0.06065955013036728,0.10307391732931137,0.03311196714639664,0.09915319830179214,0.0021886215545237064,-0.12655502557754517,-0.042388323694467545,-0.023823978379368782,-0.16085946559906006,0.22175706923007965,0.29624393582344055,0.16286203265190125,-0.10882370173931122,-0.17753851413726807,-0.10593824833631516,0.018782567232847214,-0.035138268023729324,-0.15064390003681183,0.08910082280635834,-0.19872216880321503,0.17914825677871704,-0.04906566068530083,0.027681289240717888,-0.22670647501945496,0.2848052382469177,0.014825536869466305,-0.2836315631866455,-0.07902560383081436,0.2712017893791199,0.24312801659107208,0.15701504051685333,-0.10454211384057999,0.22735777497291565,0.12887895107269287},{-0.07679928839206696,0.28743141889572144,0.08151863515377045,-0.2154703587293625,0.16960228979587555,0.15796388685703278,0.15213517844676971,-0.042833395302295685,-0.01417213398963213,-0.10236815363168716,0.002897190861403942,0.025940464809536934,0.2355348914861679,-0.20110516250133514,0.16962052881717682,0.05719829350709915,0.07244528830051422,-0.015017134137451649,-0.20598483085632324,-0.10942813754081726,-0.20212918519973755,0.17000135779380798,0.16711220145225525,0.10937720537185669,-0.14789634943008423,0.1281549483537674,0.050646279007196426,0.0838305726647377,0.07565972208976746,0.1892700344324112,-0.08972027152776718,0.15387603640556335,0.1127326637506485,0.1653936803340912,0.2425956428050995,-0.013416034169495106,-0.09922298789024353,-0.08567917346954346,-0.1552646905183792,-0.07822597771883011,0.04586005210876465,0.21505026519298553,-0.06883057206869125,0.22350341081619263,-0.13715916872024536,-0.18560883402824402,-0.03708022087812424,-0.1326717883348465,0.18575561046600342,0.23523950576782227,0.18553045392036438,-0.016910109668970108,0.31142958998680115,-0.06339038908481598,0.20356057584285736,0.1693938821554184,-0.20942488312721252,-0.19574657082557678,-0.10891974717378616,0.2290915995836258},{0.22738388180732727,0.09142835438251495,-0.01654604822397232,-0.1377890408039093,0.19981500506401062,0.29515987634658813,0.04169463738799095,0.18840175867080688,-0.12172715365886688,-0.03782765939831734,-0.02966930717229843,0.0547230988740921,-0.09347577393054962,0.15638642013072968,-0.23751242458820343,0.07645616680383682,-0.09855379909276962,0.25664249062538147,0.004720553755760193,0.11849056929349899,-0.04637189581990242,0.11461466550827026,0.05107594653964043,0.1192501038312912,-0.13326247036457062,-0.07174520939588547,-0.23686395585536957,0.11047837138175964,0.04080949351191521,0.26353126764297485,0.08517327159643173,-0.15347300469875336,0.2359844297170639,-0.062269143760204315,-0.2595486044883728,-0.053839825093746185,-0.034567732363939285,-0.25256142020225525,0.04682788997888565,0.09274222701787949,0.08615618199110031,0.04203266650438309,-0.1274634152650833,-0.25679489970207214,0.2542358338832855,0.08181066811084747,0.16353097558021545,-0.1661912351846695,0.017024874687194824,-0.2299518883228302,0.20735840499401093,-0.18803372979164124,-0.08858020603656769,-0.03995862230658531,0.10699130594730377,-0.07454599440097809,0.06910578161478043,0.054090842604637146,-0.03973245620727539,0.09305278956890106},{-0.18742962181568146,-0.12727893888950348,-0.1311688870191574,0.05293382704257965,-0.1158498153090477,0.0946221798658371,-0.014227261766791344,-0.1728588193655014,0.2421179562807083,0.2364504635334015,0.01165888924151659,-0.15077480673789978,-0.13586312532424927,0.15752433240413666,-0.14197683334350586,0.19082462787628174,0.1300441175699234,0.1098635196685791,0.19389209151268005,-0.1495058536529541,-0.20857268571853638,0.008089515380561352,-0.1781984567642212,0.08093150705099106,-0.0072556063532829285,0.036963365972042084,-0.17059428989887238,-0.07496745139360428,0.23407617211341858,0.08470544964075089,-0.16214494407176971,0.03909217193722725,0.1283692866563797,0.16748502850532532,-0.23326238989830017,-0.011738943867385387,0.21147213876247406,-0.07851498574018478,0.044527240097522736,-0.11377070099115372,-0.22537532448768616,-0.06435561925172806,-0.05880133807659149,-0.04349137097597122,0.12570878863334656,-0.02515975572168827,-0.18547290563583374,-0.09405037760734558,-0.2058129757642746,-0.13419504463672638,-0.16011478006839752,0.008840982802212238,-0.17895080149173737,-0.19182470440864563,0.20597289502620697,0.19795887172222137,-0.002936580451205373,0.113741435110569,-0.08768510818481445,0.05867453292012215},{-0.08748770505189896,0.27493444085121155,0.24259570240974426,-0.19429923593997955,0.2436986118555069,-0.05700121074914932,0.2829064428806305,-0.1709051877260208,-0.2341974675655365,0.03948153927922249,0.0889667272567749,0.0681975930929184,0.13101264834403992,-0.05171460658311844,-0.19941779971122742,0.05652758106589317,0.018639380112290382,-0.0816909447312355,0.13350923359394073,-0.0441116988658905,-0.1696407049894333,0.21054381132125854,-0.10202538222074509,0.12034688144922256,0.05249284207820892,0.18278950452804565,-0.04513466730713844,0.09796547144651413,0.12614881992340088,0.017339477315545082,-0.26842349767684937,0.2994028925895691,-0.2036350965499878,0.06188121438026428,0.21994931995868683,0.008310515433549881,-0.33144283294677734,0.17247846722602844,-0.05933818966150284,-0.05119993910193443,0.1276940405368805,0.10355880856513977,-0.004044102970510721,-0.0277244932949543,0.12105350941419601,0.12285923212766647,0.19301429390907288,-0.24948759377002716,0.1805076152086258,0.04502633213996887,0.053477976471185684,0.0996280163526535,0.16657821834087372,0.25723037123680115,0.12203051149845123,0.09940148144960403,-0.16573841869831085,-0.15930363535881042,0.14595046639442444,0.11335358023643494},{0.13797445595264435,-0.054260607808828354,-0.11443755775690079,-0.06770454347133636,0.007338531315326691,-0.17374010384082794,-0.18893560767173767,0.03156883269548416,-0.011071708053350449,-0.16572105884552002,-0.22072234749794006,-0.2386242151260376,-0.04044165462255478,-0.29191774129867554,-0.12439319491386414,0.11287742108106613,-0.1072036549448967,0.13608761131763458,-0.061527568846940994,0.2074754685163498,0.015570636838674545,-0.15237197279930115,-0.0395476259291172,0.2658166289329529,-0.12737613916397095,0.06849309056997299,-0.12033719569444656,0.06779859215021133,0.04580304026603699,-0.06028994545340538,0.07946764677762985,0.01663474179804325,0.20979993045330048,-0.20912820100784302,-0.2343045026063919,-0.2492232471704483,0.005809922702610493,-0.07201638072729111,-0.27455389499664307,-0.01199354324489832,0.04703729599714279,0.05415068194270134,0.2733859121799469,-0.10946514457464218,0.09966190159320831,-0.04056518152356148,0.08688557893037796,-0.11098510771989822,-0.21360474824905396,0.13255666196346283,-0.15443581342697144,0.13292990624904633,0.19249103963375092,-0.2481689751148224,-0.07245950400829315,-0.16353295743465424,-0.18571621179580688,0.3159887492656708,-0.1981409192085266,-0.13995081186294556},{-0.2149071842432022,-0.06031254306435585,0.1731627732515335,0.05200997740030289,-0.17204062640666962,-0.13317833840847015,0.09104190021753311,0.2152128964662552,0.1590133160352707,0.18176192045211792,-0.2420792281627655,0.10493774712085724,0.020677750930190086,-0.007538254838436842,0.26777246594429016,0.0676790103316307,-0.11384304612874985,0.25346651673316956,-0.0918164849281311,-0.1610650271177292,-0.01578918844461441,-0.10362838953733444,0.2637406885623932,0.0783870741724968,-0.15460413694381714,0.08011732250452042,-0.15443174540996552,0.09663820266723633,-0.09870810061693192,0.10640617460012436,0.21123440563678741,-0.1903270035982132,-0.02378133311867714,-0.1199345588684082,0.10895499587059021,-0.21076762676239014,-0.023432163521647453,-0.06915611773729324,0.07999540865421295,0.07669650763273239,-0.05890090391039848,-0.1306062638759613,-0.04636574536561966,-0.15884286165237427,0.10611767321825027,-0.07472246140241623,-0.16061291098594666,0.10706043988466263,0.021418653428554535,-0.20886380970478058,-0.09956664592027664,-0.015485500916838646,-0.08178383857011795,-0.11003945767879486,0.0763336569070816,0.142655149102211,0.03974193334579468,0.06480932980775833,-0.16696381568908691,0.2594895362854004},{0.09096771478652954,0.09789544343948364,-0.19509583711624146,-0.013681698590517044,0.05652826279401779,-0.17300547659397125,0.08732452243566513,-0.07388933002948761,-0.18237599730491638,0.050355203449726105,0.19274938106536865,-0.10749900341033936,0.12346099317073822,-0.04392465949058533,0.05560871586203575,0.1468018740415573,-0.19354122877120972,0.26310494542121887,-0.04261099547147751,-0.1712748259305954,0.05248738080263138,0.08741990476846695,0.011517902836203575,-0.2379031926393509,-0.14653410017490387,-0.06651026755571365,-0.11937426775693893,-0.16109967231750488,-0.2354237288236618,-0.35650739073753357,0.029710445553064346,0.058278173208236694,0.004283872898668051,0.2202501893043518,-0.07647982239723206,-0.08251740783452988,-0.29871630668640137,-0.0877305269241333,-0.0256380345672369,0.008727415464818478,-0.09843426942825317,0.06570054590702057,-0.2139291614294052,0.03302744776010513,-0.16889940202236176,-0.06837551295757294,-0.1284526288509369,-0.10512708872556686,0.02603067085146904,0.05526528134942055,0.10470308363437653,0.2639870345592499,0.252734512090683,0.017175069078803062,-0.13491633534431458,-0.12801843881607056,-0.07796938717365265,0.16674698889255524,-0.17655113339424133,0.17295637726783752},{-0.09566770493984222,-0.035158202052116394,-0.11448314040899277,0.0663786455988884,0.2803376019001007,0.09178720414638519,-0.025730116292834282,-0.23931731283664703,0.030416423454880714,-0.22702503204345703,0.16392801702022552,0.1760358065366745,-0.023432834073901176,-0.12731295824050903,-0.05558745190501213,-0.1327219009399414,0.05650011822581291,-0.1566901057958603,-0.22683435678482056,0.028384365141391754,0.0999479666352272,-0.17059226334095,-0.1617971807718277,0.08220073580741882,0.00787291582673788,-0.17470882833003998,0.15981891751289368,-0.042934659868478775,-0.00595893943682313,-0.09884942322969437,0.15410947799682617,-0.07253340631723404,-0.25569313764572144,-0.05896870791912079,-0.16623373329639435,-0.05820026621222496,-0.11300850659608841,0.1183607205748558,-0.05468124896287918,-0.164997860789299,-0.047583118081092834,0.037605032324790955,0.03033302165567875,0.04681318253278732,0.18865758180618286,0.059074923396110535,-0.006360973231494427,-0.3179720342159271,0.03256458416581154,0.018981410190463066,-0.349015474319458,0.08431599289178848,-0.08238083124160767,-0.011343701742589474,-0.1341475248336792,0.11720849573612213,0.03094024583697319,-0.08263085782527924,0.09449287503957748,-0.35280007123947144},{-0.1759498566389084,-0.01801789551973343,-0.1040007695555687,0.004512508399784565,0.14186270534992218,0.2550349533557892,0.09907259047031403,0.09948121756315231,0.0525541827082634,0.25270918011665344,-0.04845961183309555,0.1637619137763977,-0.015278109349310398,-0.08799388259649277,-0.13104698061943054,-0.07739736139774323,0.17940033972263336,0.11769997328519821,0.126316100358963,-0.21567781269550323,0.05164569616317749,0.22574517130851746,-0.18462568521499634,0.22820676863193512,0.19856296479701996,0.21405893564224243,0.170303612947464,0.24995025992393494,0.1127830520272255,-0.026481889188289642,0.15687410533428192,0.16461651027202606,0.1980004757642746,-0.24469411373138428,-0.11040183901786804,0.1713547259569168,0.09636666625738144,0.24132762849330902,0.18122145533561707,-0.10973593592643738,0.03413524851202965,0.06427669525146484,0.23300744593143463,0.17164063453674316,-0.11127004027366638,0.10732092708349228,0.028279343619942665,0.01024906150996685,-0.08446334302425385,-0.13459870219230652,-0.0750657245516777,0.09075253456830978,-0.17288772761821747,-0.039656344801187515,0.09104058146476746,-0.15383867919445038,-0.22515641152858734,-0.2287866622209549,-0.07720005512237549,0.1373266875743866},{-0.00352216768078506,0.025280645117163658,0.13190124928951263,-0.08600475639104843,-0.21134242415428162,-0.13212549686431885,0.013895770534873009,0.23605430126190186,0.2159380316734314,0.2359500229358673,0.1509498804807663,0.15997207164764404,0.10212360322475433,-0.058953218162059784,0.05984705686569214,-0.050655994564294815,0.08645494282245636,0.11402645707130432,0.2964407205581665,-0.04907078295946121,0.15769177675247192,0.17266516387462616,-0.2517523765563965,0.1904803216457367,0.011730823665857315,-0.21187295019626617,0.058116037398576736,-0.07871811836957932,0.1988883912563324,0.054331112653017044,0.2214476317167282,0.13092827796936035,-0.13256022334098816,0.24026274681091309,-0.12445870041847229,-0.06994354724884033,0.1757992058992386,-0.2116943746805191,-0.09866976737976074,-0.06656770408153534,-0.20864827930927277,0.05622272193431854,-0.2238764613866806,0.03524141386151314,0.17225371301174164,0.034848518669605255,-0.10417105257511139,0.23978692293167114,-0.16237686574459076,-0.07942608743906021,0.11772916465997696,-0.26135215163230896,0.16647279262542725,-0.15738007426261902,-0.13571865856647491,0.13756245374679565,0.20271161198616028,-0.09265562146902084,0.04847963899374008,0.17713673412799835},{0.10965835303068161,0.24405202269554138,0.07438887655735016,0.04565398767590523,-0.12991568446159363,-0.11891594529151917,-0.16104213893413544,-0.11650953441858292,0.009983442723751068,0.05187905579805374,-0.07988080382347107,-0.17183321714401245,0.2789148986339569,-0.04879603907465935,0.0941896066069603,0.15664660930633545,0.06258571892976761,0.053977373987436295,-0.04146478325128555,-0.21645744144916534,-0.05976632609963417,0.038428373634815216,-0.16357269883155823,0.13034869730472565,0.2634674310684204,0.051261257380247116,-0.154672309756279,-0.1513107419013977,-0.16556476056575775,0.1369619220495224,0.053186915814876556,-0.059229642152786255,0.19867835938930511,0.06555470824241638,0.08882448077201843,-0.16271783411502838,0.3009876012802124,-0.10606365650892258,0.14771980047225952,0.19344425201416016,0.06260073184967041,-0.05580747872591019,0.1985355168581009,0.1860913634300232,0.23128487169742584,0.07965581864118576,-0.08976093679666519,0.09732862561941147,-0.21930959820747375,0.18869353830814362,-0.030562805011868477,-0.07438118010759354,0.2382391095161438,-0.09034532308578491,0.22484813630580902,-0.10096368938684464,0.23719537258148193,-0.23633399605751038,0.13957642018795013,0.14378471672534943},{-0.07622268795967102,0.19981826841831207,0.046987343579530716,0.009737510234117508,0.22498519718647003,0.14367157220840454,-0.18953609466552734,-0.16418515145778656,-0.14201125502586365,-0.0565032958984375,0.11904546618461609,0.14289452135562897,-0.13196606934070587,-0.06545297801494598,0.02186538279056549,-0.1655978560447693,-0.16028185188770294,0.09493283182382584,-0.17486976087093353,-0.20166057348251343,-0.013469564728438854,-0.1194465383887291,-0.07824606448411942,-0.04910340905189514,-0.17359070479869843,-0.05431103706359863,-0.11726225167512894,-0.22472819685935974,-0.1472844034433365,-0.10503005981445312,-0.0801011472940445,0.17518936097621918,0.16468852758407593,0.08277194947004318,0.15665407478809357,-0.27091705799102783,0.061237260699272156,0.1433577984571457,-0.06510363519191742,-0.1941235214471817,-0.10417771339416504,-0.09225190430879593,0.1608235239982605,-0.13428078591823578,0.024055009707808495,-0.09901460260152817,-0.09316782653331757,0.030040588229894638,0.07859346270561218,-0.1555389016866684,0.14583581686019897,-0.08603077381849289,-0.2113146036863327,-0.1510855257511139,-0.11147532612085342,0.03783351555466652,-0.05077216774225235,0.19968464970588684,-0.09225467592477798,0.12456918507814407},{-0.031033799052238464,-0.2239667773246765,0.0008674836135469377,-0.15234558284282684,0.04844558984041214,-0.1631375551223755,-0.0919199287891388,0.10935407131910324,-0.22654636204242706,0.14170226454734802,-0.22569167613983154,0.034396424889564514,0.006067924201488495,-0.13291950523853302,-0.24246561527252197,0.03144698590040207,-0.025647727772593498,0.01379415113478899,0.2698047161102295,0.05513347312808037,-0.19017359614372253,0.15113970637321472,-0.22264406085014343,0.18465273082256317,0.30553683638572693,-0.011641431599855423,0.1741826981306076,-0.09827673435211182,-0.1273077428340912,0.0902084931731224,-0.17858536541461945,0.17778567969799042,0.03478987514972687,-0.11354561895132065,-0.26645463705062866,0.06687287986278534,-0.009855521842837334,0.08014360815286636,-0.01837393268942833,-0.29603272676467896,-0.018109971657395363,0.1531456708908081,0.07637089490890503,0.17681154608726501,-0.15656109154224396,0.06513506919145584,-0.13412989675998688,-0.1566901057958603,-0.007348650135099888,-0.1725599467754364,0.2526482045650482,-0.04675014689564705,-0.1859980672597885,0.20678019523620605,-0.10640640556812286,-0.03235131874680519,-0.0964391902089119,0.12189096957445145,0.30410152673721313,0.23916994035243988},{0.04159236699342728,-0.0374380424618721,-0.004099123179912567,0.2643113434314728,-0.1398290991783142,-0.016420170664787292,0.19779174029827118,0.05030525475740433,0.09916596859693527,0.015839405357837677,-0.18616752326488495,-0.17201125621795654,-0.022513166069984436,0.11797533929347992,0.2278524786233902,0.20917674899101257,0.08444265276193619,-0.1257045716047287,-0.06405700743198395,0.1297496110200882,-0.18427185714244843,-0.09505023807287216,0.12522020936012268,0.004849431570619345,-0.06890939176082611,-0.24002990126609802,-0.03225894644856453,0.10931883752346039,0.10628459602594376,-0.21026556193828583,0.07023721188306808,0.14157509803771973,0.18022073805332184,0.23231035470962524,-0.1665065884590149,-0.11282062530517578,-0.11872432380914688,0.12979662418365479,-0.07873809337615967,0.06678261607885361,-0.03171589970588684,0.11556041240692139,0.11146926879882812,-0.08610890805721283,0.015596401877701283,-0.10832826048135757,-0.102109394967556,-0.19636854529380798,-0.1346852332353592,0.015692168846726418,-0.12507864832878113,-0.19581185281276703,-0.15528737008571625,-0.06531207263469696,-0.049707695841789246,0.1602567583322525,-0.2106257975101471,-0.13616466522216797,0.13792921602725983,-0.025441309437155724},{0.16107501089572906,-0.06824212521314621,-0.18807947635650635,0.23963654041290283,-0.03080366924405098,-0.19368262588977814,0.16499681770801544,-0.15032587945461273,0.15440785884857178,-0.031043361872434616,0.09376581758260727,0.18605990707874298,0.06542470306158066,-0.0928945541381836,0.043640799820423126,0.12999124825000763,0.018663756549358368,0.1364663690328598,0.006091940216720104,-0.04361536353826523,-0.1992460936307907,-0.09137002378702164,-0.12584850192070007,-0.12341270595788956,0.2143212854862213,-0.15151651203632355,0.011721729300916195,-0.057452309876680374,0.17235784232616425,0.17036210000514984,-0.0073049115017056465,0.09024632722139359,0.2003181129693985,0.1997116357088089,-0.10118461400270462,-0.036770328879356384,0.03294636681675911,-0.16271355748176575,0.22132578492164612,0.0828482061624527,-0.1519319713115692,0.15401028096675873,-0.1669250875711441,-0.02512107789516449,-0.07805389910936356,0.2078811377286911,-0.13287819921970367,-0.1472475379705429,0.14757530391216278,-0.24398870766162872,0.09418865293264389,-0.13640640676021576,-0.07898420095443726,-0.14618957042694092,0.09953370690345764,0.02989351935684681,0.14500094950199127,-0.2557950019836426,-0.17384499311447144,0.07308370620012283},{0.1305689811706543,0.08968940377235413,-0.043445754796266556,-0.18257182836532593,0.15168817341327667,-0.20287904143333435,0.01910729892551899,-0.04393971338868141,-0.1237136647105217,0.16994953155517578,0.06031149625778198,0.22930718958377838,0.16944199800491333,-0.17517700791358948,-0.18229585886001587,0.25115343928337097,-0.20646896958351135,0.034157466143369675,-0.18532808125019073,-0.23027729988098145,0.08695133030414581,0.21632571518421173,0.2449466735124588,-0.022673966363072395,0.0018856980605050921,-0.12792177498340607,-0.1060321107506752,0.2695876657962799,-0.007971758022904396,-0.2374071478843689,0.015604925341904163,-0.142530620098114,-0.0799078568816185,-0.17397542297840118,-0.0038229983765631914,-0.15822547674179077,-0.2575337886810303,0.08422776311635971,0.022032571956515312,-0.04416872188448906,-0.09431064128875732,0.1875416785478592,-0.21418067812919617,0.10588020086288452,-0.24355967342853546,-0.023269016295671463,-0.008803579956293106,-0.07560646533966064,0.19581159949302673,0.050974562764167786,-0.2252834588289261,0.18521425127983093,-0.04889081045985222,-0.17197902500629425,-0.12524563074111938,0.08388480544090271,0.02200249396264553,0.21227368712425232,-0.26783427596092224,-0.12797905504703522},{-0.017536519095301628,0.01971147209405899,-0.012729890644550323,-0.05842239782214165,0.20375719666481018,-0.15802527964115143,0.142537459731102,0.03995261341333389,-0.2513129711151123,0.2563339173793793,-0.06548289209604263,0.079103484749794,0.17325709760189056,0.023547399789094925,0.14762994647026062,-0.11984062194824219,-0.18505635857582092,-0.08109891414642334,0.16772449016571045,-0.1964060366153717,0.18265213072299957,-0.06270765513181686,-0.04390081390738487,0.1469283401966095,0.20234934985637665,0.07282421737909317,-0.1242014616727829,0.08004044741392136,-0.2231132686138153,-0.09066379815340042,0.17097842693328857,-0.22232452034950256,0.02159695327281952,0.042615897953510284,0.2715839147567749,0.11951332539319992,-0.2819369435310364,-0.0651266947388649,0.03608906641602516,-0.17267823219299316,-0.11429409682750702,0.1051429808139801,0.2712239623069763,-0.047753095626831055,0.1559799760580063,0.18621744215488434,0.27512624859809875,0.015562936663627625,0.04442339390516281,0.10437776148319244,0.12915949523448944,0.06323143094778061,0.3415113389492035,-0.20882293581962585,-0.02399989776313305,-0.0986175462603569,0.26015493273735046,0.15034206211566925,-0.1733357310295105,-0.1708664745092392},{-0.1298471838235855,0.08034554868936539,-0.17718376219272614,-0.06424027681350708,0.0838397741317749,0.28660309314727783,0.053770359605550766,-0.01640300266444683,-0.154374897480011,-0.07128773629665375,0.017113538458943367,-0.24959254264831543,-0.026992348954081535,-0.03224910423159599,0.0169846024364233,0.017190635204315186,-0.24190789461135864,0.1366361379623413,0.002793799387291074,-0.04992806166410446,0.08038055896759033,0.22100825607776642,-0.18313829600811005,-0.13608220219612122,0.24746404588222504,0.07926579564809799,0.09955878555774689,-0.23785731196403503,0.10624703764915466,0.06070207431912422,-0.1277642697095871,0.15019941329956055,-0.027632061392068863,0.1795945018529892,0.2224559485912323,-0.07640224695205688,-0.0906268060207367,-0.08829294145107269,-0.21790507435798645,-0.02873716875910759,-0.13727428019046783,-0.18003395199775696,0.19852659106254578,-0.09893306344747543,-0.1133163720369339,-0.12006264179944992,0.10533668100833893,-0.06112634390592575,0.0161316879093647,0.10161984711885452,-0.059251319617033005,0.162440687417984,-0.034209243953228,-0.038073644042015076,0.19521798193454742,0.14599888026714325,-0.09555760025978088,0.1627977341413498,-0.17881415784358978,0.11502585560083389},{-0.0018400890985503793,-0.12828119099140167,0.200114443898201,-0.02555951662361622,0.06254462152719498,0.0928976908326149,0.23225513100624084,0.19019442796707153,-0.22038552165031433,0.156096950173378,0.10492413491010666,-0.07724225521087646,-0.17502182722091675,-0.23235566914081573,-0.12669377028942108,0.21104328334331512,0.054758187383413315,-0.03367387875914574,-0.24389873445034027,0.15378089249134064,0.11164981126785278,0.002543908078223467,-0.0725034773349762,-0.04050925374031067,-0.12199905514717102,-0.2075709104537964,0.0019936966709792614,-0.02712656930088997,-0.19430500268936157,-0.0662868320941925,-0.2386164516210556,0.0872473269701004,-0.05905645713210106,-0.17716778814792633,-0.12188456952571869,-0.16155432164669037,0.10274219512939453,-0.08322858065366745,0.16728909313678741,0.22052590548992157,-0.03854713216423988,0.008306629955768585,-0.12433987855911255,0.08204980194568634,0.17699965834617615,0.1673537939786911,0.14050394296646118,0.10906712710857391,-0.015017174184322357,0.11265678703784943,0.0010247506434097886,0.07571814209222794,-0.1143612414598465,-0.10385386645793915,-0.22873753309249878,0.12835060060024261,0.13467763364315033,0.0754060223698616,-0.07153241336345673,0.026271212846040726},{0.12824276089668274,0.004173583816736937,-0.03360704332590103,-0.052508432418107986,-0.10554717481136322,0.02804926037788391,0.08586619049310684,0.09238635003566742,0.05381007120013237,-0.06605669856071472,0.123282790184021,0.008578372187912464,0.0871826559305191,0.23186439275741577,-0.18215049803256989,-0.12565743923187256,0.09473047405481339,0.2215913087129593,0.2134874016046524,-0.10156815499067307,-0.048830170184373856,-0.14223353564739227,-0.12525907158851624,0.16178180277347565,-0.0016518542543053627,-0.04006218910217285,0.015422633849084377,0.2356930822134018,0.20439621806144714,0.11550207436084747,0.2069355696439743,-0.1542917788028717,-0.15719053149223328,0.04069215804338455,0.16668683290481567,0.12815068662166595,0.14781148731708527,-0.2021392434835434,0.002609883202239871,0.18072646856307983,-0.07086937874555588,0.11332947760820389,-0.1827298104763031,0.1841503530740738,-0.14956551790237427,0.12758475542068481,0.1676574945449829,0.17688629031181335,0.18893909454345703,0.1983785331249237,0.0006358587415888906,0.11589870601892471,-0.014766570180654526,-0.15709473192691803,0.2467205673456192,-0.028530556708574295,-0.10491450130939484,0.08902741223573685,-0.11283156275749207,-0.025721758604049683},{0.16463686525821686,0.028869036585092545,-0.06685493886470795,0.014477099291980267,-0.2454494833946228,0.25852957367897034,0.1320781111717224,-0.02242184989154339,0.14997974038124084,-0.25947728753089905,0.16334168612957,0.1906757354736328,-0.098459392786026,-0.1380297988653183,-0.002352840034291148,-0.007700399961322546,0.07308588176965714,-0.1802777200937271,0.11224246025085449,0.03899072855710983,-0.13442763686180115,-0.12010311335325241,-0.14463357627391815,-0.07603973895311356,-0.007082625757902861,-0.24046935141086578,-0.14608341455459595,0.2142772525548935,-0.14958393573760986,0.2066057175397873,0.038136646151542664,0.17831291258335114,0.13867802917957306,-0.1355762779712677,0.08869434148073196,-0.01956907846033573,0.3001202642917633,0.09042687714099884,0.1249280795454979,0.039248399436473846,0.15760068595409393,-0.05675496533513069,0.07802890241146088,-0.10425008833408356,0.08519963920116425,-0.13217924535274506,-0.06752366572618484,-0.06391479074954987,-0.2571648061275482,0.041809093207120895,0.2128085494041443,-0.1217765286564827,-0.20909784734249115,-0.10664499551057816,0.19232891499996185,-0.0687250941991806,-0.15685072541236877,-0.017486292868852615,-0.18590566515922546,0.1563010811805725},{-0.07175891846418381,-0.18508495390415192,-0.14086076617240906,0.05299383029341698,0.25566694140434265,0.09665537625551224,-0.04505240172147751,0.18891625106334686,-0.22261269390583038,0.031889431178569794,-0.0847005546092987,-0.2201329469680786,-0.26315373182296753,0.16303807497024536,-0.12782657146453857,-0.1313887983560562,0.16092458367347717,-0.11114198714494705,0.09731293469667435,0.08395171910524368,0.1700299084186554,-0.18878163397312164,-0.20834334194660187,-0.06786269694566727,0.00010710670176194981,0.1708705574274063,-0.1709328442811966,-0.13514818251132965,0.00948366429656744,0.03552721068263054,-0.1949114203453064,0.025064928457140923,-0.2529534101486206,0.1750452220439911,-0.17081907391548157,0.13933153450489044,0.1011454164981842,0.17448930442333221,0.1394866406917572,0.2827785015106201,0.018385639414191246,0.17464546859264374,0.1785958707332611,0.09782281517982483,-0.023339124396443367,-0.1109771579504013,0.10464315861463547,-0.2109472155570984,-0.13961292803287506,0.23499846458435059,-0.022434009239077568,0.09122665971517563,0.07563575357198715,0.18401235342025757,0.04771862179040909,0.050226710736751556,0.021850157529115677,0.28016164898872375,0.08866303414106369,-0.22736886143684387},{0.1472768634557724,-0.02040979266166687,0.09004810452461243,0.0497354120016098,0.17495666444301605,-0.02418369986116886,0.031120777130126953,-0.22120042145252228,-0.06204308196902275,-0.021430235356092453,-0.04562615230679512,-0.20754697918891907,-0.08287275582551956,0.03800814971327782,-0.19239094853401184,0.14341989159584045,-0.20684681832790375,0.14736594259738922,0.22525206208229065,0.21649768948554993,-0.019300570711493492,0.11585839092731476,0.02216467261314392,-0.04737251251935959,-0.13381391763687134,-0.2030838429927826,-0.20273669064044952,-0.21970035135746002,-0.024619972333312035,-0.043107569217681885,-0.01773720234632492,-0.2332623302936554,0.028699418529868126,0.11750984936952591,0.10533355921506882,0.025497954338788986,0.1579209417104721,-0.08403430879116058,0.05728946998715401,0.2725275456905365,0.1290537267923355,-0.12949839234352112,0.2685462534427643,0.11474782228469849,-0.04771269112825394,0.19489434361457825,-0.10921124368906021,-0.06281781196594238,0.14394252002239227,-0.04682757705450058,-0.21205787360668182,-0.22059577703475952,0.05479668453335762,-0.24613122642040253,0.005671336315572262,-0.17440538108348846,-0.0031132830772548914,0.024751992896199226,0.1047263965010643,-0.06717332452535629},{-0.16663941740989685,-0.18359537422657013,0.2365659475326538,0.15856996178627014,-0.02384316176176071,0.09241821616888046,-0.15236206352710724,-0.005775070283561945,0.09779846668243408,0.05855076014995575,-0.0897611677646637,0.12894856929779053,-0.14300979673862457,-0.1312279850244522,0.10739222168922424,0.08915778249502182,0.039468277245759964,-0.1195887103676796,0.01820615492761135,0.04189479723572731,-0.02286781370639801,0.06121659651398659,-0.18369759619235992,0.04025791585445404,0.00974333006888628,-0.025987979024648666,-0.24393562972545624,0.12020839005708694,0.15606622397899628,0.290264368057251,0.02585887908935547,-0.08639498054981232,-0.05847516283392906,0.09657769650220871,0.20153860747814178,0.1051468551158905,0.09897807985544205,0.07571206986904144,0.17673563957214355,-0.0518052764236927,-0.061391472816467285,-0.23373426496982574,0.020967617630958557,0.15337099134922028,0.11804192513227463,0.11015578359365463,0.057514846324920654,0.20125669240951538,0.17877352237701416,0.03833118453621864,-0.18589602410793304,-0.18015915155410767,-0.2458803951740265,-0.032909441739320755,0.19235682487487793,-0.047919660806655884,0.1111895740032196,0.08452319353818893,-0.015986379235982895,-0.1202685534954071},{0.09494224190711975,0.03415173292160034,0.15248200297355652,0.025229571387171745,-0.020814085379242897,-0.02606101520359516,-0.19078423082828522,-0.04452381283044815,0.05458458885550499,-0.20330078899860382,-0.09475772827863693,0.04246586933732033,-0.14258238673210144,-0.1558607965707779,0.06851452589035034,-0.18785102665424347,0.22541244328022003,-0.01586698554456234,-0.17280910909175873,-0.0315256342291832,-0.176399365067482,-0.00741714658215642,-0.04114988446235657,-0.17555585503578186,-0.12042082846164703,0.014860453084111214,0.2605809271335602,0.12987786531448364,-0.06683109700679779,0.3100947141647339,0.03780378773808479,-0.21066467463970184,0.10259827971458435,-0.12131655961275101,-0.058980487287044525,0.10465244948863983,0.18094635009765625,-0.17732909321784973,-0.12051521986722946,-0.14536595344543457,-0.19242209196090698,0.20564481616020203,0.17275643348693848,0.10666848719120026,-0.26096561551094055,0.17618794739246368,0.034456003457307816,-0.13066914677619934,-0.014438762329518795,-0.11868621408939362,-0.03486035391688347,-0.2752722501754761,0.24376097321510315,0.19097237288951874,0.002158735878765583,0.15259785950183868,-0.11913300305604935,-0.22791455686092377,0.09228741377592087,0.04410143196582794},{-0.23353998363018036,-0.019439948722720146,-0.20653827488422394,0.07656126469373703,-0.11382361501455307,0.15028201043605804,-0.07251019775867462,-0.18099834024906158,0.14198116958141327,-0.19710217416286469,-0.049934808164834976,-0.07355506718158722,0.1293238252401352,-0.06934133172035217,-0.14028623700141907,0.2238120585680008,-0.10999886691570282,-0.06560672074556351,-0.12021470814943314,-0.17575420439243317,0.14887578785419464,-0.2403744012117386,-0.0511336512863636,0.022677810862660408,0.1760469526052475,-0.13187074661254883,0.047063715755939484,0.008237381465733051,0.15188437700271606,-0.08161050826311111,0.23410643637180328,-0.08755334466695786,-0.014547882601618767,0.1779744178056717,0.2035212218761444,-0.13548001646995544,0.1618187427520752,0.11174079030752182,0.10686701536178589,-0.1524701714515686,-0.05582277104258537,0.1653338372707367,0.07830365002155304,0.17391842603683472,0.18840718269348145,-0.016056908294558525,-0.025180021300911903,-0.08855503052473068,-0.0764152854681015,-0.21713127195835114,0.02385896071791649,0.14102056622505188,0.0513434000313282,0.1527942270040512,0.0669913962483406,0.10330870002508163,0.13834306597709656,-0.06075325980782509,-0.06807626038789749,0.18429064750671387},{0.2126295119524002,0.12945058941841125,-0.021886635571718216,-0.019890235736966133,-0.20888382196426392,0.0846455842256546,-0.21958962082862854,-0.0456295907497406,-0.04042378067970276,-0.005367662291973829,-0.04821231961250305,-0.1867595613002777,0.0855630412697792,0.24605052173137665,0.007136974483728409,0.20454806089401245,-0.2460654377937317,0.18580985069274902,0.1252157837152481,-0.04282861948013306,0.16887274384498596,0.049937937408685684,-0.15305782854557037,0.0423426479101181,0.22806745767593384,0.17476095259189606,0.035936325788497925,-0.18198761343955994,0.03892499580979347,0.24548952281475067,-0.09609022736549377,-0.05044376105070114,-0.10088889300823212,-0.062300145626068115,0.23060233891010284,0.21841414272785187,-0.11658647656440735,-0.03200557082891464,0.11260155588388443,-0.1019371896982193,0.09837468713521957,0.2111579328775406,0.06633954495191574,0.23044061660766602,-0.028764355927705765,-0.07398135215044022,-0.19505062699317932,0.11131445318460464,0.09374275803565979,0.011501705273985863,0.006465996615588665,0.05303503945469856,-0.2778654098510742,0.07101257145404816,0.19775447249412537,0.0017612383235245943,-0.16358472406864166,-0.013675374910235405,0.03880506753921509,0.19720429182052612},{0.12117817997932434,-0.1345655769109726,-0.08595885336399078,-0.08912009000778198,0.11808309704065323,0.10111347585916519,0.033512238413095474,-0.06541944295167923,-0.09930755943059921,0.08547506481409073,0.13492965698242188,-0.05105075612664223,0.16548269987106323,0.23081114888191223,-0.18281994760036469,-0.002916778204962611,-0.07957194745540619,-0.21332871913909912,-0.1557048112154007,0.14599944651126862,-0.13256531953811646,0.098244309425354,-0.0017695995047688484,0.07918071001768112,0.04764438048005104,0.10324527323246002,0.18585088849067688,0.27204111218452454,0.07204186916351318,0.21585847437381744,-0.13568708300590515,-0.05893975496292114,-0.05600060150027275,0.12737730145454407,0.05767644941806793,0.04372390732169151,-0.09769007563591003,0.02874027192592621,0.11079660058021545,-0.19606035947799683,-0.1954512894153595,0.16130422055721283,-0.09795276820659637,0.17734824120998383,0.11430609971284866,0.19864341616630554,-0.0066847060807049274,-0.03549766167998314,0.12834803760051727,-0.003362206043675542,0.012231363914906979,-0.15289059281349182,-0.20219646394252777,0.08503754436969757,-0.08432288467884064,-0.11916697025299072,0.07434863597154617,0.19505800306797028,-0.0760612040758133,0.24688993394374847},{0.16098305583000183,-0.10603237897157669,-0.06907369941473007,0.10321392118930817,-0.0034289814066141844,-0.268014132976532,0.1768227368593216,-0.208900585770607,-0.1512630432844162,-0.2101982682943344,-0.12320221960544586,0.13641948997974396,0.02321014739573002,0.09303048998117447,0.18036244809627533,0.19045619666576385,-0.09205261617898941,-0.1713034063577652,0.16639946401119232,0.11932941526174545,0.21366851031780243,0.2318228781223297,-0.1761157214641571,0.009703798219561577,-0.04814297705888748,0.13108329474925995,0.12123773247003555,0.06391256302595139,-0.18614701926708221,-0.04835564270615578,-0.048032455146312714,-0.018930848687887192,-0.24366378784179688,0.1169205904006958,0.016544625163078308,-0.04012523964047432,0.12144999206066132,-0.17379924654960632,-0.08584986627101898,0.2719578444957733,0.19593246281147003,-0.21070657670497894,-0.15640659630298615,-0.028924670070409775,-0.145681232213974,-0.11308635026216507,0.08514847606420517,0.23051199316978455,-0.08007790148258209,-0.10942242294549942,-0.17343053221702576,0.02529003471136093,0.27017831802368164,-0.08596208691596985,-0.015482315793633461,0.06114300340414047,0.15996608138084412,0.1661275029182434,0.11880708485841751,0.21418416500091553},{-0.030194520950317383,0.17118987441062927,-0.15398840606212616,0.2072272002696991,-0.1435997039079666,-0.027179798111319542,0.0668293684720993,0.027968842536211014,-0.17905212938785553,-0.1411755084991455,0.21332743763923645,0.24303138256072998,0.028761526569724083,0.237650066614151,-0.28458482027053833,-0.2204994559288025,0.18405288457870483,-0.17384514212608337,-0.14614807069301605,-0.17826487123966217,0.1344335973262787,-0.09492838382720947,-0.11268491297960281,0.0965089499950409,-0.16958026587963104,0.1792452335357666,-0.03216301649808884,-0.20116758346557617,0.2422327697277069,0.13730092346668243,0.16021610796451569,0.0023391360882669687,-0.11367104202508926,-0.19306741654872894,0.21554286777973175,0.05611289292573929,0.22060765326023102,0.045545414090156555,0.13160832226276398,-0.034452252089977264,-0.03977026045322418,0.06821972876787186,0.20194686949253082,-0.14368227124214172,-0.14404572546482086,0.22570064663887024,0.1171376034617424,-0.0888272374868393,0.14014501869678497,-0.0721321627497673,0.05486035346984863,0.2279328852891922,-0.12495002150535583,-0.14102640748023987,0.17277927696704865,0.17736214399337769,-0.08519498258829117,0.1721186637878418,0.15801051259040833,-0.17157648503780365},{0.11057811975479126,0.19231407344341278,0.22386489808559418,-0.04563944786787033,-0.02172916568815708,0.09821300208568573,-0.19931961596012115,0.21039152145385742,-0.01569632813334465,-0.13394534587860107,0.16194359958171844,-0.02736983448266983,0.15128980576992035,0.14037419855594635,-0.09373294562101364,0.05877481773495674,0.1931942105293274,-0.0366293303668499,0.10782478004693985,0.16047079861164093,0.010366478934884071,0.07482893019914627,0.2655787467956543,-0.002941104117780924,-0.23681706190109253,-0.10074837505817413,0.18750669062137604,0.04152151197195053,0.01890946365892887,0.01435167621821165,0.18826144933700562,0.23571866750717163,0.1868886798620224,-0.1749722808599472,0.18044227361679077,0.18005725741386414,-0.023974584415555,0.08322109282016754,0.1915571093559265,-0.23117157816886902,0.2307756096124649,0.21114252507686615,0.059372056275606155,0.0548894889652729,-0.042429566383361816,0.13071392476558685,-0.06590060144662857,0.1834763139486313,0.1270669400691986,-0.12833258509635925,0.12798289954662323,-0.15181635320186615,-0.21363845467567444,-0.17210204899311066,0.08015739172697067,0.06039039045572281,-0.2561911642551422,0.03823620080947876,0.00906865019351244,0.06044052541255951},{-0.02198716253042221,0.21238583326339722,0.1782366931438446,-0.14732961356639862,-0.01842791587114334,0.11477481573820114,0.1258234977722168,-0.2497217357158661,0.12272173911333084,-0.12776462733745575,0.23222969472408295,-0.13097403943538666,0.16856376826763153,0.10807663947343826,-0.06697117537260056,0.06383702903985977,0.18648773431777954,0.008859225548803806,-0.021960590034723282,0.09388647973537445,-0.049120690673589706,0.08557039499282837,0.20502686500549316,0.16549676656723022,-0.1440780758857727,0.12443220615386963,-0.008547510020434856,-0.003561260411515832,-0.16067582368850708,-0.0633298009634018,-0.14854994416236877,0.19389405846595764,0.15926797688007355,-0.03527383506298065,0.17311102151870728,0.18346595764160156,-0.14693006873130798,-0.079752117395401,-0.11238166689872742,-0.08018310368061066,-0.06549522280693054,-0.1539606899023056,-0.21854150295257568,-0.10141818225383759,-0.07406331598758698,0.22549760341644287,0.152484729886055,0.1138199046254158,0.009459455497562885,0.05192018672823906,-0.13935667276382446,-0.13749942183494568,-0.04273510351777077,-0.14559851586818695,-0.1824536919593811,0.007225309032946825,0.11831904202699661,-0.10943473875522614,0.20827317237854004,-0.11890096217393875},{0.11378408968448639,0.020354030653834343,-0.2027941793203354,0.14705468714237213,-0.36704421043395996,0.0006526696961373091,0.2673620581626892,-0.0504721961915493,0.024078041315078735,0.18638388812541962,0.06279316544532776,0.09316787123680115,-0.1985827386379242,0.26827478408813477,-0.20745441317558289,0.04127680882811546,0.14697273075580597,-0.05921553820371628,0.12992583215236664,-0.18933139741420746,-0.15850266814231873,-0.0825444832444191,0.0009276041528210044,0.0841115340590477,-0.08951220661401749,0.2611764073371887,-0.20480622351169586,0.18969696760177612,0.01934906840324402,0.06648626178503036,-0.10600090771913528,-0.17380616068840027,-0.12986233830451965,-0.23856079578399658,-0.1372479796409607,0.27914947271347046,-0.18757474422454834,-0.11511670798063278,0.06318649649620056,-0.1344088762998581,-0.25158798694610596,-0.024363016709685326,-0.09087245911359787,0.23710782825946808,-0.12779410183429718,0.12131664901971817,-0.08781377226114273,-0.1493651419878006,-0.09166260063648224,0.17165376245975494,0.02028195746243,-0.2747362554073334,-0.09269566833972931,0.14524951577186584,0.10462673008441925,0.0015209113480523229,-0.1874808669090271,-0.008587449789047241,0.10179083049297333,-0.061874810606241226},{0.11832093447446823,-0.0006295156781561673,0.13879626989364624,-0.18141670525074005,-0.21836109459400177,-0.03294910863041878,0.026609547436237335,-0.09016810357570648,0.17490945756435394,0.1270228773355484,0.07248672842979431,0.17321616411209106,0.241642028093338,0.15186133980751038,-0.18355491757392883,0.13015049695968628,0.0023681276943534613,-0.1777903437614441,-0.09350032359361649,0.03176712244749069,0.026626743376255035,-0.013345158658921719,0.05303336679935455,-0.1593768149614334,-0.1894461214542389,-0.09005708992481232,0.15558171272277832,0.11400910466909409,-0.10852499306201935,-0.12476856261491776,0.021520672366023064,0.03795831277966499,-0.03940141201019287,-0.04459822550415993,0.06474007666110992,-0.1571410447359085,-0.1429712325334549,0.21062926948070526,-0.024249490350484848,-0.16243091225624084,-0.12536336481571198,0.0912608876824379,0.01233980804681778,-0.05687715485692024,0.17224612832069397,-0.044270213693380356,0.12945136427879333,0.19037561118602753,0.016522781923413277,-0.18190385401248932,-0.05383242294192314,-0.01770981028676033,0.06086473912000656,-0.028080252930521965,-0.07075221091508865,0.05689213052392006,-0.10966326296329498,-0.07210085541009903,-0.03559840843081474,0.17927256226539612}};
static const float action_parameterization_distribution_linear_weight[60][4] = {{-0.03844456002116203,0.04667600244283676,0.01660093665122986,-0.07340385764837265},{0.034858375787734985,0.17241887748241425,0.08149081468582153,-0.043771892786026},{0.0027976410929113626,-0.008856058120727539,0.032305266708135605,-0.00852558109909296},{-0.08748013526201248,-0.05694732442498207,0.04118799790740013,-0.09807008504867554},{0.29711952805519104,-0.15343467891216278,-0.14827263355255127,0.061237264424562454},{0.16150012612342834,-0.2134878784418106,0.07478462904691696,0.09093934297561646},{-0.24915656447410583,0.17905932664871216,0.12065522372722626,-0.19686634838581085},{0.03890150412917137,0.0162741057574749,-0.2000666707754135,-0.10812054574489594},{0.12501825392246246,-0.008086705580353737,0.24337473511695862,-0.1483866572380066},{-0.05601320415735245,0.13070893287658691,-0.15770503878593445,-0.10496566444635391},{0.018121562898159027,0.01851138100028038,-0.013478804379701614,0.018811669200658798},{0.0004509257269091904,-0.02420607954263687,0.01249072514474392,-0.05574408546090126},{0.14571553468704224,-0.1530918926000595,-0.03640567511320114,0.19996730983257294},{-0.17041482031345367,-0.11598943173885345,0.15713781118392944,0.06541605293750763},{0.05236013978719711,0.07308322191238403,-0.046502258628606796,0.08431985974311829},{0.21192488074302673,0.07292438298463821,0.21256938576698303,0.07653103768825531},{0.08137116581201553,0.0737764835357666,-0.07372622936964035,-0.08503523468971252},{-0.14136186242103577,-0.08499404788017273,-0.04846101999282837,0.00777563638985157},{0.12128434330224991,-0.2855231463909149,-0.25842419266700745,-0.22650931775569916},{0.023621734231710434,-0.05487137287855148,-0.14613908529281616,-0.10219351947307587},{-0.06451967358589172,-0.20935681462287903,0.20611976087093353,0.0920272171497345},{0.07340265810489655,0.06993738561868668,-0.13546593487262726,-0.18484947085380554},{0.13704530894756317,0.08401135355234146,0.1050868108868599,0.1618266999721527},{0.07540441304445267,0.07957092672586441,-0.08929086476564407,0.07506613433361053},{-0.22842690348625183,-0.2339736819267273,0.16703052818775177,0.014487262815237045},{-0.1615229696035385,0.12829114496707916,-0.044592682272195816,0.024029338732361794},{0.020188193768262863,0.04256342723965645,-0.014397124759852886,-0.0005915806978009641},{0.22364972531795502,-0.06818977743387222,0.28931528329849243,0.04034503549337387},{-0.10063842684030533,0.26863008737564087,-0.03973834216594696,0.09245216101408005},{0.17152638733386993,0.17455169558525085,0.2048504799604416,-0.09272196888923645},{0.014486098662018776,-0.15555553138256073,0.03241811320185661,-0.08707023411989212},{-0.05500340834259987,0.032128557562828064,0.10511425137519836,-0.06124764308333397},{-0.1338992565870285,0.2182348668575287,-0.08954742550849915,-0.06486094743013382},{0.07247026264667511,-0.053093161433935165,-0.04037439823150635,-0.08648964017629623},{0.12446668744087219,0.12912343442440033,-0.11045105755329132,-0.14284555613994598},{-0.2267303615808487,0.04615478590130806,-0.12442120164632797,-0.07112110406160355},{0.2214890867471695,0.0974285751581192,-0.2929011583328247,0.23348601162433624},{-0.04293789714574814,-0.020780516788363457,-0.0009700762457214296,0.08056685328483582},{-0.24654482305049896,-0.19508731365203857,0.2690502405166626,-0.09228412061929703},{0.052638132125139236,0.048190321773290634,0.021119847893714905,0.2479049265384674},{0.15232108533382416,0.07346966862678528,0.10266699641942978,-0.0928204283118248},{0.1727829873561859,-0.06226656213402748,-0.05326296389102936,-0.013746224343776703},{-0.11730627715587616,0.08773359656333923,-0.039376672357320786,0.23548416793346405},{0.007731277029961348,0.010176248848438263,0.19569967687129974,0.01615137793123722},{0.09513738006353378,-0.09751977026462555,-0.1547665297985077,-0.09745680540800095},{0.06862557679414749,-0.10289568454027176,0.0047034588642418385,0.033532675355672836},{-0.15553192794322968,-0.09426386654376984,-0.19255158305168152,-0.20720212161540985},{-0.19401493668556213,0.16049312055110931,-0.1637595146894455,0.109883151948452},{-0.14912720024585724,0.06209806352853775,0.14301316440105438,-0.11114274710416794},{-0.046223197132349014,0.16442632675170898,0.1830153614282608,0.19742920994758606},{-0.15606056153774261,0.07174967229366302,-0.2300679236650467,-0.08473410457372665},{0.1851135492324829,-0.11003465950489044,0.10374801605939865,-0.015525410883128643},{-0.321856826543808,0.03633957728743553,0.1705993413925171,-0.07223176956176758},{0.12273352593183517,-0.004618067294359207,-0.12413299828767776,-0.19501718878746033},{-0.06708674877882004,0.1158556342124939,0.11844936013221741,0.2656618058681488},{0.16257528960704803,-0.19598466157913208,-0.17127422988414764,0.09653276205062866},{-0.18415521085262299,-0.08725259453058243,-0.06867954879999161,0.16238243877887726},{-0.0009294552728533745,0.1386214792728424,0.0002600639418233186,0.25611937046051025},{-0.1733696013689041,-0.2292957305908203,-0.026447804644703865,0.2143784612417221},{-0.31936901807785034,0.017870133742690086,-0.19702711701393127,0.25832515954971313}};
static const float actor_encoder_self_encoder_0_bias[30] = {0.04866606742143631,-0.12725475430488586,-0.016078347340226173,-0.0628540888428688,0.029219448566436768,0.06840849667787552,0.05904961749911308,-0.013883580453693867,-0.04411835968494415,-0.11063353717327118,-0.0069943987764418125,0.06273527443408966,-0.01100554596632719,-0.06746728718280792,-0.044958192855119705,-0.03958465903997421,-0.037590403109788895,0.06612159311771393,-0.07230755686759949,-0.08646123111248016,-0.09371187537908554,0.0048598600551486015,0.02263580448925495,0.08966512233018875,-0.042983945459127426,-0.08183243125677109,-0.05959325283765793,0.057059258222579956,-0.0827915221452713,-0.0012726191198453307};
static const float actor_encoder_self_encoder_2_bias[30] = {-0.07997915148735046,0.05733092874288559,-0.010149159468710423,0.06108091399073601,-0.012051930651068687,-0.027772869914770126,0.012489366345107555,0.010054570622742176,-0.028690477833151817,-0.005839225370436907,0.016892792657017708,-0.008261539041996002,0.05537183955311775,-0.017855888232588768,-0.0073846569284796715,-0.01673649437725544,-0.006385124754160643,0.014120745472609997,0.01683778129518032,-0.01778031513094902,-0.002230440266430378,-0.010033705271780491,0.03388781473040581,0.017575008794665337,-0.038783151656389236,0.002139162039384246,0.021390069276094437,0.028086934238672256,-0.11303377151489258,-0.1447249948978424};
static const float actor_encoder_feed_forward_0_bias[60] = {-0.01649167388677597,0.033502284437417984,0.005399707239121199,-0.009600982069969177,-0.014949058182537556,0.04157602787017822,-0.0315890833735466,-0.045226335525512695,0.0404948890209198,-0.029898786917328835,0.0011780101340264082,-0.015500901266932487,0.04343388229608536,0.02708498202264309,0.022376636043190956,0.0622488334774971,-0.019752150401473045,-0.021380318328738213,-0.037685345858335495,-0.0663355141878128,0.00016850739484652877,-0.04232105240225792,0.029022855684161186,-0.0009900289587676525,0.03365083038806915,-0.01041104830801487,0.005380896385759115,0.07582162320613861,0.04362969845533371,0.07655853033065796,0.010491902008652687,-0.0047380356118083,0.01927587389945984,-0.02283344231545925,-0.01726922020316124,-0.016281092539429665,0.08030891418457031,-0.010628865100443363,0.006039298605173826,-0.01015869528055191,0.0009045974584296346,0.012937439605593681,-0.004374913405627012,0.05953807756304741,-0.020309805870056152,0.04179621860384941,-0.09669962525367737,-0.009121015667915344,-0.014051980338990688,0.024450883269309998,0.029000863432884216,0.008548972196877003,-0.07034247368574142,-0.009466759860515594,0.05938533693552017,-0.015399431809782982,-0.01303805597126484,-0.00862997118383646,0.0026611126959323883,0.029066041111946106};
static const float action_parameterization_distribution_linear_bias[4] = {0.005530720576643944,0.00154359161388129,0.024698372930288315,0.021980658173561096};
static const float actor_encoder_obstacle_encoder_0_weight[16][16] = {{0.2694966793060303,-0.061797790229320526,-0.1808207482099533,0.11417481303215027,-0.45194539427757263,-0.36589521169662476,0.3416571319103241,0.3270760476589203,-0.1891794353723526,0.21481534838676453,0.41537123918533325,-0.3580470383167267,0.4438709616661072,-0.2578355669975281,-0.11882295459508896,-0.2825525999069214},{-0.021624263375997543,0.2107856422662735,-0.2375520020723343,0.17491739988327026,-0.4388388693332672,0.041627101600170135,-0.27982643246650696,-0.12294886261224747,0.3473052680492401,-0.4034122824668884,0.05575854331254959,-0.13389647006988525,-0.22036658227443695,-0.014601376838982105,-0.30787432193756104,-0.2907102108001709},{-0.08282367885112762,0.29801520705223083,-0.4157009720802307,0.38799646496772766,-0.11664522439241409,-0.16589012742042542,-0.0611286498606205,-0.2357345074415207,-0.1467195600271225,-0.19494487345218658,-0.017904283478856087,-0.14998428523540497,-0.04699726402759552,-0.2423032522201538,0.4752195477485657,0.08966155350208282},{0.006199071183800697,-0.007912659086287022,-0.10160710662603378,0.01241185050457716,-0.27967074513435364,0.10455125570297241,-0.2826903760433197,0.10360787808895111,0.3189689517021179,0.324907511472702,-0.11945413053035736,-0.4802883565425873,0.33338502049446106,-0.21489101648330688,-0.39755186438560486,-0.0036654046270996332},{-0.37285444140434265,0.14010141789913177,0.15201489627361298,0.26468876004219055,0.33437174558639526,0.10209445655345917,0.07054667919874191,0.22463373839855194,0.4493578374385834,0.10255748778581619,0.3021467626094818,-0.44376927614212036,-0.3353782892227173,-0.2438153475522995,-0.40404582023620605,0.0956227257847786},{0.07564839720726013,-0.04594239220023155,-0.3577507436275482,0.38896822929382324,0.3089698553085327,-0.008047657087445259,0.3362616300582886,0.1958608329296112,0.3157712519168854,0.428323358297348,0.22499504685401917,0.31929078698158264,0.1409134566783905,0.3567795157432556,0.1397678405046463,-0.33849987387657166},{-0.17536768317222595,-0.12316794693470001,0.21519321203231812,-0.15324106812477112,0.30389344692230225,0.48503637313842773,-0.2736148536205292,0.2259560078382492,0.3373646140098572,0.41309884190559387,-0.37076911330223083,0.255137175321579,0.2388678938150406,0.356710821390152,0.26946502923965454,-0.2852438688278198},{0.36070236563682556,0.4825363755226135,-0.2959699034690857,-0.10766254365444183,0.4049859941005707,-0.33646175265312195,-0.32355797290802,-0.09679103642702103,0.032986972481012344,-0.11757572740316391,0.08537056297063828,-0.16843613982200623,-0.005505566950887442,-0.2723116874694824,-0.19213539361953735,-0.571692943572998},{0.33310461044311523,-0.09731729328632355,0.3952121436595917,0.27719733119010925,0.3260526657104492,-0.3247264325618744,0.19009467959403992,0.10642800480127335,-0.33241522312164307,0.06344109028577805,-0.13854488730430603,0.12485571950674057,-0.38247647881507874,0.28512391448020935,0.24734462797641754,0.1796884685754776},{0.10400784760713577,-0.10079718381166458,-0.3199493885040283,-0.03846370801329613,0.3079371750354767,0.13152174651622772,-0.23390845954418182,0.2686031758785248,0.3283040523529053,-0.2870034873485565,0.36057618260383606,-0.10397056490182877,-0.38412851095199585,0.41606172919273376,-0.010910030454397202,-0.4272744357585907},{-0.10348084568977356,0.359760582447052,0.38990041613578796,0.20888468623161316,-0.036372940987348557,-0.19167831540107727,0.21273934841156006,-0.3345693051815033,0.024016395211219788,-0.10192988067865372,-0.2530789077281952,0.08070745319128036,0.0870334655046463,-0.16013562679290771,-0.27363908290863037,0.01922951266169548},{-0.06747216731309891,0.37676841020584106,-0.07282063364982605,0.262626051902771,0.30961233377456665,-0.18666604161262512,0.3296716809272766,-0.1092301681637764,-0.1948370486497879,0.16522939503192902,-0.3372102379798889,-0.012918448075652122,-0.5513949990272522,0.17230504751205444,0.22147466242313385,0.2683364152908325},{0.3787381649017334,-0.06901565194129944,0.2187519371509552,-0.045036956667900085,0.14529576897621155,-0.1813126802444458,0.37915539741516113,0.24263091385364532,-0.04459163546562195,-0.20658668875694275,0.14554554224014282,0.13542912900447845,-0.26118752360343933,-0.44571706652641296,0.28245896100997925,0.11295086145401001},{0.0009759899112395942,-0.0964510515332222,-0.06910400092601776,-0.1250586062669754,0.2170805037021637,0.4137526750564575,0.08173758536577225,-0.05046427249908447,-0.23863600194454193,0.2698419690132141,-0.2657826244831085,-0.269868940114975,0.31031596660614014,0.27764126658439636,-0.3284775912761688,0.20600946247577667},{0.294490247964859,-0.25343671441078186,-0.2817375957965851,0.4307712912559509,-0.23582078516483307,-0.21142901480197906,0.4132983982563019,0.4267384707927704,0.2162371575832367,0.16447392106056213,0.44057804346084595,0.32138606905937195,-0.07715171575546265,-0.31273478269577026,-0.3164074718952179,0.3190878927707672},{-0.2085190862417221,0.25432780385017395,-0.13577575981616974,0.15434333682060242,0.14878897368907928,-0.36337363719940186,-0.08556534349918365,0.29333531856536865,-0.39745187759399414,0.1933058649301529,0.5195553302764893,-0.13958866894245148,-0.3635927438735962,-0.47546666860580444,0.024264346808195114,-0.03948841243982315}};
