
#include "network_evaluate_tof.h"
#include <string.h>



float linear(float num) {
	return num;
}



float sigmoid(float num) {
	return 1 / (1 + exp(-num));
}



float relu(float num) {
	if (num > 0) {
		return num;
	} else {
		return 0;
	}
}

static const int structure [4][2] = {{18, 16},{16, 16},{16, 16},{16, 4}};
static float output_0[16];
static float output_1[16];
static float output_2[16];
static float output_3[16];
static float output_4[16];
static float output_5[16];
static float output_6[1];
static float output_7[4];
static const float actor_encoder_self_encoder_0_weight[18][16] = {{-0.10356227308511734,0.09398528188467026,-0.33431822061538696,0.05894554406404495,-0.1298079937696457,-0.4223335087299347,-0.11337732523679733,0.03569120913743973,-0.0716278925538063,0.19759029150009155,0.15289856493473053,-0.2809687852859497,0.40503546595573425,0.27199286222457886,0.015002632513642311,-0.10858907550573349},{-0.19559246301651,0.350039541721344,0.21556249260902405,-0.032322898507118225,0.0646490529179573,-0.47025543451309204,-0.1965939998626709,0.10498875379562378,-0.31991466879844666,0.00129106140229851,-0.2639465034008026,-0.09595731645822525,-0.389251708984375,0.014954814687371254,0.040153998881578445,-0.09160903841257095},{-0.047039903700351715,0.5086087584495544,-0.20400403439998627,-0.5534675121307373,0.3668559491634369,0.1049242690205574,0.31137794256210327,0.18473567068576813,0.2663365602493286,0.26563337445259094,0.7141478657722473,-0.1918221414089203,-0.13641317188739777,-0.026512131094932556,0.11394701898097992,0.26017463207244873},{0.1368846297264099,0.308623731136322,-0.19327960908412933,-0.04094155877828598,-0.049069784581661224,-0.12209561467170715,0.40455466508865356,0.04561090096831322,-0.1423010677099228,0.20169736444950104,-0.2825540602207184,-0.31018534302711487,-0.05756382271647453,-0.10117529332637787,0.3014354407787323,-0.24706704914569855},{-0.14961907267570496,-0.16117626428604126,-0.12877337634563446,-0.035303790122270584,0.24317969381809235,-0.1730497032403946,-0.0259904395788908,-0.3205927908420563,-0.12621089816093445,0.18846677243709564,-0.13941849768161774,0.13973215222358704,-0.17707695066928864,-0.040933337062597275,0.23757551610469818,-0.1590511053800583},{0.07314859330654144,0.028645463287830353,0.11344245821237564,-0.4443603754043579,0.20043008029460907,0.1733022779226303,-0.18107697367668152,-0.26280587911605835,0.04467406123876572,-0.1814640909433365,0.19905228912830353,-0.17910730838775635,-0.03374641761183739,0.09977763146162033,0.0403200201690197,0.043851859867572784},{0.09331702440977097,0.16162502765655518,0.29883402585983276,0.182712122797966,0.14813534915447235,0.1146000474691391,0.23588372766971588,-0.24294979870319366,0.3988243043422699,0.40974780917167664,0.19800911843776703,-0.21450234949588776,0.33612391352653503,-0.3854888081550598,-0.03187793865799904,0.22490030527114868},{0.5562966465950012,0.07924364507198334,0.36042749881744385,-0.06872185319662094,-0.4263399541378021,-0.2803231477737427,0.010126638226211071,-0.05803583934903145,0.03171288222074509,-0.08785892277956009,0.09554846584796906,0.3264811038970947,-0.6321645975112915,-0.4694773256778717,0.5339359045028687,0.47762373089790344},{0.18914103507995605,-0.030006948858499527,-0.439312607049942,-0.4285261332988739,-0.05386664345860481,0.26189717650413513,-0.43713676929473877,0.14745983481407166,-0.13217027485370636,-0.1635884791612625,-0.527499794960022,-0.40034034848213196,0.6961700320243835,-0.5608148574829102,0.21447156369686127,-0.15460503101348877},{-0.254804402589798,0.09796682000160217,-0.4324750006198883,0.3714412450790405,0.051758576184511185,0.6880642771720886,-0.49246904253959656,0.3854660093784332,0.18410535156726837,-0.48707783222198486,0.3143708407878876,0.014110948890447617,0.6918897032737732,0.35814961791038513,-0.12521836161613464,0.07946028560400009},{0.2153392732143402,-0.2977258265018463,-0.19436553120613098,-0.3300383687019348,-0.33354073762893677,-0.3113200068473816,-0.3048184812068939,-0.05993801727890968,0.28226277232170105,-0.11848717927932739,-0.0267318245023489,0.30928292870521545,-0.13497570157051086,-0.5448645353317261,-0.016518529504537582,-0.36597418785095215},{-0.3527667224407196,-0.12125205248594284,-0.11928701400756836,0.09032677859067917,0.1863854080438614,-0.3074590563774109,-0.3356405198574066,-0.12005262821912766,-0.0879804864525795,0.10087747126817703,-0.17138074338436127,-0.28685107827186584,0.06568127125501633,-0.45147421956062317,0.02405909076333046,-0.21623554825782776},{0.36083829402923584,0.036903563886880875,-0.37787947058677673,0.3207032084465027,0.11370839923620224,-0.04117490351200104,-0.4106537997722626,-0.383474737405777,-0.2535667419433594,-0.0991702750325203,-0.22648221254348755,-0.13820675015449524,0.12926273047924042,-0.3648034334182739,0.29445889592170715,-0.213060200214386},{0.12169530987739563,0.3775242567062378,0.1328231543302536,-0.06043291836977005,0.6779233813285828,0.1899222731590271,-0.43395161628723145,-0.02552497759461403,-0.25491490960121155,0.010556638240814209,0.32562175393104553,0.2354075163602829,0.16573360562324524,-0.045634400099515915,-0.11096858978271484,-0.5062345266342163},{0.5182555913925171,-0.2613551914691925,0.18353450298309326,0.10936858505010605,-0.08917978405952454,-0.3176927864551544,-0.0750136449933052,0.22690589725971222,0.10456158965826035,0.09920168668031693,0.39100563526153564,0.22419637441635132,-0.272419273853302,0.22646424174308777,0.034619588404893875,0.06402330100536346},{-0.08533233404159546,-0.2124083787202835,0.028994053602218628,0.035700004547834396,0.12372153252363205,-0.13785801827907562,0.1706026792526245,-0.39291226863861084,-0.15977555513381958,0.15716920793056488,0.0904102474451065,0.05434200540184975,-0.07649527490139008,-0.12895414233207703,-0.2244366854429245,-0.16131584346294403},{-0.1366782784461975,-0.28110575675964355,0.0862644612789154,0.18420371413230896,0.14339129626750946,-0.12995538115501404,-0.264329195022583,-0.19835573434829712,0.19629916548728943,-0.14896711707115173,0.0985962525010109,0.04611389338970184,-0.13889078795909882,0.2695322632789612,-0.1421385556459427,0.11915932595729828},{-0.1298975795507431,0.05588407441973686,-0.04280494898557663,-0.1134076714515686,-0.2333105355501175,0.057402104139328,0.15650518238544464,0.16982725262641907,-0.3538476824760437,-0.14796583354473114,0.24247059226036072,0.1775732785463333,-0.2614350914955139,-0.49214690923690796,0.2647123336791992,0.27244824171066284}};
static const float actor_encoder_self_encoder_2_weight[16][16] = {{-0.35527709126472473,-0.005337792914360762,0.17390502989292145,0.45129305124282837,-0.2673090994358063,-0.1608719527721405,-0.18424706161022186,-0.27986210584640503,-0.34442058205604553,0.051665522158145905,0.16630983352661133,0.2821146249771118,0.12585508823394775,0.33800792694091797,-0.08698362857103348,-0.39885830879211426},{0.31089097261428833,-0.009946639649569988,-0.26524612307548523,0.03844429552555084,0.34800365567207336,-0.23529858887195587,-0.4067752957344055,0.08635742217302322,0.12207095324993134,-0.03500324860215187,0.24466104805469513,0.07061757892370224,0.050763193517923355,-0.012686940841376781,0.21805182099342346,0.3812335729598999},{0.1834498941898346,-0.27846023440361023,-0.18024136126041412,0.13178369402885437,0.25658291578292847,-0.14604902267456055,0.2574822008609772,0.42171841859817505,0.2282467484474182,0.09932611137628555,-0.46788081526756287,-0.3339005410671234,-0.015290949493646622,-0.08298928290605545,-0.4289860725402832,0.1676483154296875},{-0.3602660596370697,0.26638078689575195,0.4890838861465454,0.09897761046886444,-0.3609811067581177,0.42549997568130493,0.5149884819984436,0.2683292627334595,-0.10538136959075928,0.15964460372924805,-0.22464002668857574,0.16097505390644073,-0.19581596553325653,0.3864169716835022,-0.21056771278381348,0.39031505584716797},{0.45099565386772156,-0.3896208703517914,-0.011791426688432693,-0.1601840853691101,0.328834593296051,-0.31513234972953796,0.1039736345410347,0.2822378873825073,-0.20658192038536072,-0.54515141248703,-0.18593862652778625,-0.12397723644971848,-0.5041248798370361,-0.3110852539539337,0.15298092365264893,0.14302757382392883},{-0.4607689082622528,-0.15568119287490845,-0.03051796369254589,-0.14492590725421906,-0.3627409338951111,-0.16207121312618256,0.45636460185050964,-0.014805824495851994,0.3699089288711548,-0.42163994908332825,-0.2418096959590912,-0.12725719809532166,-0.09089607000350952,-0.0029771472327411175,-0.2964473068714142,-0.19423624873161316},{-0.2534576654434204,-0.13990730047225952,0.13509057462215424,0.13696135580539703,-0.0002334539603907615,-0.06221066415309906,0.06100556254386902,0.018614385277032852,0.13837000727653503,0.21443124115467072,0.2760867178440094,-0.19451607763767242,0.18612949550151825,0.14345310628414154,0.008866088464856148,-0.1812509447336197},{-0.16300347447395325,0.18673166632652283,0.19947724044322968,0.002040788996964693,-0.25524023175239563,0.017961082980036736,-0.09868882596492767,0.2300286889076233,0.1334749460220337,-0.16466718912124634,-0.332364022731781,-0.27941933274269104,-0.12623631954193115,0.10597921907901764,0.33434832096099854,0.19872263073921204},{-0.1549721211194992,0.07132837176322937,-0.02903304062783718,-0.12115318328142166,-0.2932378053665161,-0.46350833773612976,-0.2968209385871887,-0.13194167613983154,0.27939316630363464,-0.16529980301856995,-0.41754627227783203,0.5465764999389648,0.3787643611431122,-0.3882785141468048,-0.05935610830783844,-0.13888613879680634},{0.06306970864534378,-0.1998356580734253,-0.16947895288467407,-0.023955615237355232,0.10223611444234848,0.38600924611091614,-0.36539188027381897,-0.1473061889410019,-0.07000107318162918,0.0968838781118393,0.20572248101234436,0.2536602020263672,-0.023474358022212982,0.07572965323925018,-0.36846864223480225,0.08677482604980469},{0.0390779934823513,0.09033679217100143,-0.21236471831798553,0.11458174884319305,-0.20418113470077515,-0.435223251581192,-0.444629430770874,0.28203463554382324,0.1441688984632492,-0.034713905304670334,-0.0268603153526783,-0.10714045912027359,-0.27199822664260864,-0.09557505697011948,-0.008351202122867107,-0.5127096772193909},{-0.658102810382843,-0.300934374332428,0.23815587162971497,-0.008563604205846786,0.4733782708644867,0.4332403838634491,-0.0701754242181778,0.027335047721862793,-0.07101476937532425,0.3457474112510681,0.2697654962539673,-0.36955422163009644,0.1594417244195938,0.2034609615802765,0.32717859745025635,-0.3031114339828491},{-0.13414402306079865,-0.05434296280145645,0.09611360728740692,-0.35958096385002136,-0.4082028567790985,-0.24008584022521973,0.4182159900665283,-0.22770573198795319,-0.18787768483161926,-0.12295418977737427,-0.06783908605575562,0.21643823385238647,-0.3002866506576538,0.11707090586423874,-0.27818191051483154,0.20655710995197296},{0.26368823647499084,0.22430777549743652,0.33175143599510193,0.010492170229554176,0.3106915056705475,-0.22477394342422485,-0.07782173901796341,0.42999717593193054,0.2843434810638428,0.0539608858525753,0.09818167239427567,0.18851236999034882,-0.13543899357318878,0.16775137186050415,-0.24492409825325012,-0.0484180711209774},{0.3472977578639984,-0.15637362003326416,-0.34412646293640137,-0.1924895942211151,0.24417278170585632,0.0034673232585191727,0.013817638158798218,0.09190108627080917,0.1119215115904808,0.12164460122585297,0.30288779735565186,0.19012710452079773,0.3625427484512329,0.21618792414665222,0.12762387096881866,-0.08879190683364868},{0.27113765478134155,-0.023054081946611404,-0.2408459186553955,0.3791888356208801,0.342668354511261,0.05851038172841072,-0.040532197803258896,0.19984950125217438,0.24363113939762115,0.09348287433385849,-0.3449175953865051,0.11209407448768616,0.002073652343824506,-0.11013997346162796,0.046552859246730804,-0.4253677725791931}};
static const float actor_encoder_feed_forward_0_weight[16][16] = {{0.1917562335729599,0.04745624586939812,-0.052566032856702805,0.09793565422296524,-0.01690758392214775,-0.12185300141572952,-0.025024106726050377,-0.23155523836612701,0.05336546152830124,0.2381765991449356,-0.054917316883802414,-0.3346935510635376,0.2794899344444275,-0.16764435172080994,-0.5181508660316467,0.037523671984672546},{-0.00924734678119421,-0.3133653402328491,-0.2671400308609009,-0.01508914865553379,0.36083024740219116,0.3376997411251068,-0.3861888349056244,0.045182958245277405,-0.24885767698287964,-0.0354575552046299,0.5070595145225525,0.13227225840091705,0.4556291401386261,-0.26750585436820984,0.3211810886859894,-0.11514748632907867},{-0.47292560338974,0.4589497148990631,-0.27839574217796326,-0.26909974217414856,0.02889942191541195,-0.1923159658908844,0.15325811505317688,0.3169236481189728,-0.2518550157546997,-0.3487057089805603,0.28782254457473755,-0.11266577988862991,0.3285088837146759,-0.4281812906265259,0.3688108026981354,0.36366909742355347},{0.603920578956604,-0.12767325341701508,0.09829612076282501,-0.188677117228508,0.13484786450862885,0.23116721212863922,0.17522835731506348,-0.5434397459030151,0.1928393840789795,-0.16082440316677094,-0.3912274241447449,0.49845555424690247,-0.36110904812812805,-0.12965884804725647,-0.28074929118156433,-0.028912749141454697},{0.1264207363128662,-0.19009098410606384,0.018806278705596924,0.3498850166797638,0.06847868114709854,-0.33063364028930664,0.40008223056793213,0.15916596353054047,-0.5427300930023193,-0.2505773603916168,-0.2096608281135559,0.30921345949172974,0.16173045337200165,0.09301649034023285,0.09365709125995636,0.4833456873893738},{-0.3654963970184326,0.10595786571502686,-0.023736093193292618,-0.059665001928806305,0.19189825654029846,-0.5816034078598022,-0.4158128499984741,-0.1899229735136032,0.3220778703689575,-0.3997204005718231,-0.016474246978759766,0.13062581419944763,0.1068388968706131,0.04737284407019615,0.33826208114624023,0.007368274498730898},{-0.4692935347557068,-0.3723834455013275,0.009352171793580055,-0.08019129186868668,-0.2890946567058563,0.20312830805778503,-0.04125691205263138,0.12345399707555771,-0.2664277255535126,-0.4008488059043884,-0.15976698696613312,-0.11851535737514496,0.08827817440032959,-0.32716959714889526,0.27395719289779663,-0.22524094581604004},{0.4175649881362915,-0.19662883877754211,-0.016629761084914207,-0.25526702404022217,0.32969608902931213,-0.30506768822669983,0.2615283727645874,0.22672176361083984,-0.10536179691553116,-0.1648661196231842,-0.3721693456172943,-0.35763049125671387,-0.3785877525806427,-0.06687220931053162,-0.11923608183860779,-0.014161760918796062},{0.06775517761707306,0.11541163176298141,0.34225326776504517,-0.24615709483623505,0.22044682502746582,0.0015855890233069658,0.46010398864746094,0.149121955037117,0.059756338596343994,-0.30851542949676514,-0.31039944291114807,0.27303197979927063,-0.1963350772857666,-0.37517186999320984,-0.39652466773986816,0.029675981029868126},{-0.39498817920684814,-0.43348801136016846,0.303860604763031,0.08737725019454956,0.024472281336784363,-0.3863571882247925,-0.3493015766143799,-0.48301929235458374,0.18172234296798706,-0.05708843469619751,0.18604257702827454,0.2937853932380676,-0.5921054482460022,-0.3415534794330597,0.46470949053764343,0.06645021587610245},{0.22770708799362183,0.1306377500295639,0.3268309533596039,0.1719556599855423,0.10776479542255402,-0.06173040717840195,0.1570936143398285,-0.10197824239730835,-0.23934131860733032,0.14417895674705505,-0.12040650844573975,-0.07705381512641907,0.19588477909564972,0.0677994042634964,-0.27710220217704773,-0.08860442787408829},{-0.1188778430223465,0.10152764618396759,0.4938293695449829,-0.28844016790390015,-0.31944283843040466,-0.244575634598732,0.22562943398952484,0.24208515882492065,0.16133107244968414,-0.3195776343345642,0.034245628863573074,-0.5147773027420044,0.5866928696632385,-0.44408389925956726,-0.08072906732559204,0.08046665042638779},{0.05330146476626396,-0.45498040318489075,-0.06211363896727562,-0.1840936541557312,0.334673136472702,-0.4211764335632324,0.2580561935901642,-0.35413211584091187,0.31543782353401184,-0.042289022356271744,0.17872506380081177,0.43445467948913574,0.17470748722553253,0.05856585502624512,0.11079901456832886,0.39024922251701355},{-0.17757782340049744,-0.48216092586517334,-0.12224764376878738,0.40362128615379333,0.1636703461408615,0.12761510908603668,-0.31368494033813477,0.004291225224733353,0.48868513107299805,-0.13219007849693298,-0.19161880016326904,-0.057500287890434265,0.023697499185800552,-0.4783828556537628,-0.07179225236177444,0.01864735409617424},{-0.28690433502197266,0.1581690013408661,0.08508379012346268,-0.18542058765888214,-0.2978874742984772,-0.059772226959466934,0.32106322050094604,-0.2532777786254883,-0.3761824071407318,0.31531599164009094,0.060995835810899734,0.16145075857639313,-0.004953471012413502,-0.2740122973918915,-0.2119399607181549,0.1397608518600464},{-0.48576125502586365,0.25358936190605164,0.020913898944854736,-0.39457762241363525,-0.39937523007392883,-0.3097953796386719,-0.16879461705684662,-0.036806438118219376,-0.23860332369804382,-0.3835861086845398,0.15816976130008698,-0.21006643772125244,0.37037089467048645,-0.010140648111701012,-0.25887244939804077,0.27524086833000183}};
static const float action_parameterization_distribution_linear_weight[16][4] = {{-0.31203803420066833,-0.30463266372680664,0.2863810658454895,-0.48944956064224243},{-0.248908132314682,0.1861000955104828,-0.45797809958457947,-0.20391955971717834},{-0.25764623284339905,-0.4766504168510437,-0.11074893176555634,0.03358415514230728},{-0.04012316092848778,0.45343247056007385,0.2821052074432373,-0.4484955668449402},{0.21569253504276276,-0.6442863941192627,0.11057653278112411,0.05270900949835777},{-0.5777163505554199,-0.4842374324798584,-0.08425302803516388,0.2718546986579895},{-0.05545536428689957,-0.5875884294509888,-0.3761301338672638,0.01435975544154644},{-0.1769285947084427,-0.47797563672065735,-0.5642486214637756,0.5625098347663879},{-0.29018282890319824,0.08086857199668884,0.41893553733825684,0.2661973834037781},{-0.22381709516048431,-0.15969668328762054,-0.09774399548768997,-0.45590606331825256},{-0.3721618354320526,0.24975666403770447,0.3151039183139801,-0.012568455189466476},{0.14622032642364502,-0.181344136595726,0.29938676953315735,-0.20246689021587372},{-0.5089294910430908,0.01948016881942749,-0.007064653094857931,0.3256053924560547},{0.14570432901382446,-0.20781895518302917,-0.6306519508361816,-0.12343262881040573},{0.49487143754959106,-0.2624104917049408,0.062355268746614456,0.5126006007194519},{0.4872589707374573,-0.5220788717269897,-0.11375272274017334,0.13010799884796143}};
static const float actor_encoder_self_encoder_0_bias[16] = {0.11752426624298096,0.1314963698387146,-0.0375073067843914,-0.03617293760180473,-0.07642743736505508,-0.16793565452098846,0.030868548899888992,-0.18769100308418274,-0.05634697899222374,0.07861392199993134,0.004336660262197256,0.04385888949036598,-0.07802119851112366,0.07479192316532135,0.10938028246164322,-0.03766626492142677};
static const float actor_encoder_self_encoder_2_bias[16] = {0.008046215400099754,-0.0315057635307312,-0.06138195842504501,0.04403401538729668,0.03533092141151428,-0.03073950670659542,-0.0939609631896019,-0.05215217173099518,-0.05650235339999199,0.014742895029485226,0.07898194342851639,-0.017648320645093918,0.01269399281591177,-0.00606926903128624,0.03562729060649872,-0.01065379474312067};
static const float actor_encoder_feed_forward_0_bias[16] = {0.09695865213871002,0.044386278837919235,0.02966129407286644,0.0741400420665741,-0.09190665930509567,-0.05611905828118324,0.028504960238933563,-0.05501275137066841,0.030209818854928017,0.04921572655439377,0.00835394486784935,-0.049120496958494186,-0.08764197677373886,-0.03740493953227997,-0.051361631602048874,-0.03041103109717369};
static const float critic_encoder_self_encoder_0_bias[16] = {-0.4485219717025757,-0.10603716969490051,0.49329763650894165,-0.44235342741012573,-0.4334409534931183,0.27833274006843567,0.31159713864326477,-0.18379423022270203,-0.4704529345035553,0.2304181456565857,0.032821688801050186,0.037980783730745316,0.43669426441192627,-0.36011210083961487,0.012633799575269222,0.3311155438423157};
static const float critic_encoder_self_encoder_2_bias[16] = {-0.010145996697247028,0.21849139034748077,-0.06845302134752274,0.08782576024532318,-0.012755470350384712,0.1036999374628067,0.03370056673884392,0.15868322551250458,0.07201065868139267,0.11179623752832413,0.29174280166625977,0.3232554793357849,0.1674986183643341,0.3269898593425751,0.14572986960411072,-0.22403718531131744};
static const float critic_encoder_feed_forward_0_bias[16] = {-0.1761341094970703,0.18232373893260956,0.13867135345935822,0.06399934738874435,-0.2504102885723114,-0.21316282451152802,-0.08661770820617676,0.052747830748558044,0.01626119762659073,0.05979399383068085,0.07280076295137405,0.10791583359241486,-0.0836922898888588,0.055896732956171036,0.07761333137750626,0.07947354018688202};
static const float critic_linear_bias[1] = {-0.09631979465484619};
static const float action_parameterization_distribution_linear_bias[4] = {-0.03881760686635971,0.012932353653013706,0.004868925083428621,-0.04279850795865059};
void networkEvaluate(struct control_t_n *control_n, const float *state_array) {
        for (int i = 0; i < structure[0][1]; i++) {
            output_0[i] = 0;
            for (int j = 0; j < structure[0][0]; j++) {
                output_0[i] += state_array[j] * actor_encoder_self_encoder_0_weight[j][i];
            }
            output_0[i] += actor_encoder_self_encoder_0_bias[i];
            output_0[i] = tanhf(output_0[i]);
        }
    
        for (int i = 0; i < structure[1][1]; i++) {
            output_1[i] = 0;
            for (int j = 0; j < structure[1][0]; j++) {
                output_1[i] += output_0[j] * actor_encoder_self_encoder_2_weight[j][i];
            }
            output_1[i] += actor_encoder_self_encoder_2_bias[i];
            output_1[i] = tanhf(output_1[i]);
        }
        
        for (int i = 0; i < structure[2][1]; i++) {
            output_2[i] = 0;
            for (int j = 0; j < structure[2][0]; j++) {
                output_2[i] += output_1[j] * actor_encoder_feed_forward_0_weight[j][i];
            }
            output_2[i] += actor_encoder_feed_forward_0_bias[i];
            output_2[i] = tanhf(output_2[i]);
        }
        
                for (int i = 0; i < structure[3][1]; i++) {
                    output_3[i] = 0;
                    for (int j = 0; j < structure[3][0]; j++) {
                        output_3[i] += output_2[j] * action_parameterization_distribution_linear_weight[j][i];
                    }
                    output_3[i] += critic_encoder_self_encoder_0_bias[i];
                }
    
            control_n->thrust_0 = output_3[0];
            control_n->thrust_1 = output_3[1];
            control_n->thrust_2 = output_3[2];
            control_n->thrust_3 = output_3[3];	
    }