
#include "network_evaluate_tof.h"
#include <string.h>


#define EPS 0.000001 // 1e-6

static float obstacle_embeds[16];
static float output_embeds[46];

float base;
float exponent;
static const int self_structure [4][2] = {{18, 30},{30, 30},{46, 60},{60, 4}};
static const int obst_structure [2][2] = {{16, 16},{16, 16}};
static float output_0[30];
static float output_1[30];
static float obst_output_0[16];
static float obst_output_1[16];
static float output_2[60];
static float output_3[4];
static const float actor_encoder_self_encoder_0_weight[18][30] = {{0.27951088547706604,0.26230093836784363,-0.048114217817783356,-0.1049623116850853,0.1757003366947174,0.08593804389238358,-0.14428110420703888,-0.20429325103759766,0.19149582087993622,0.3334595263004303,-0.14853718876838684,-0.021122926846146584,-0.14587989449501038,-0.15055160224437714,-0.16283097863197327,0.04729590564966202,0.3502406179904938,-0.10412400960922241,-0.10439801216125488,0.016225703060626984,-0.1824452430009842,0.030282037332654,-0.045652154833078384,-0.14572088420391083,0.1529601365327835,-0.055700983852148056,0.16434068977832794,0.19838185608386993,0.2689249813556671,0.13169601559638977},{-0.19572614133358002,0.12044047564268112,0.1590438187122345,0.27343904972076416,-0.046217042952775955,0.3003886938095093,0.09262189269065857,-0.15584750473499298,-0.1976747363805771,0.1460867077112198,0.001710257725790143,-0.08153156191110611,0.001970218261703849,-0.24340222775936127,0.06938187777996063,0.133943110704422,0.3725590407848358,-0.16085653007030487,-0.27336445450782776,-0.18293136358261108,-0.25264444947242737,-0.029659228399395943,0.052731916308403015,-0.057403724640607834,-0.058383699506521225,-0.030725078657269478,0.009019223041832447,0.12447402626276016,0.15149106085300446,-0.03305616229772568},{0.4616459310054779,-0.10209087282419205,-0.1887466460466385,0.13814641535282135,-0.2680695950984955,-0.23237888514995575,-0.09539765119552612,-0.2267000377178192,0.1954522728919983,0.29015102982521057,0.4435868263244629,0.30765655636787415,0.23902633786201477,0.05903938412666321,-0.021057816222310066,-0.1539822667837143,-0.23556716740131378,0.2972872257232666,-0.3809666633605957,0.13524377346038818,-0.4302816092967987,-0.3246983587741852,0.10570795834064484,-0.3583582937717438,-0.1268864870071411,-0.10316300392150879,-0.3965688943862915,0.22810453176498413,-0.33930504322052,-0.15495814383029938},{-0.29270657896995544,-0.2526637315750122,-0.08204301446676254,0.3373018205165863,0.21455591917037964,0.21202601492404938,0.13911129534244537,-0.13440069556236267,0.10924481600522995,0.25360846519470215,-0.1447208970785141,0.1901916265487671,-0.11383205652236938,0.3812612295150757,-0.12123611569404602,0.021951762959361076,-0.02710604853928089,0.301028311252594,0.02583790197968483,-0.18150503933429718,0.008366573601961136,-0.1140119805932045,0.26662492752075195,-0.09560057520866394,-0.2641008496284485,0.2920777201652527,-0.12415066361427307,0.2123384326696396,-0.12636971473693848,0.3413864076137543},{-0.20107735693454742,-0.20274552702903748,0.06062348559498787,-0.21524401009082794,-0.17567265033721924,0.25151702761650085,0.10741222649812698,-0.10215946286916733,-0.3238566815853119,-0.06627894937992096,-0.40369588136672974,0.2527909278869629,0.276202529668808,0.4902171492576599,0.015424970537424088,-0.05258147418498993,-0.16069260239601135,0.17999310791492462,-0.2848798930644989,0.28362271189689636,0.029742609709501266,-0.22736115753650665,0.07818043977022171,-0.3523150682449341,0.2714749574661255,-0.24699950218200684,0.16462057828903198,0.058483075350522995,0.2648971378803253,-0.10729975253343582},{0.058275118470191956,0.2615795135498047,-0.2803635001182556,-0.1884424090385437,-0.3017036020755768,-0.14076542854309082,0.26343926787376404,-0.2643607258796692,0.3824273645877838,-0.13442471623420715,-0.07878363877534866,0.2192087024450302,0.23197178542613983,-0.3183901011943817,-0.2102036327123642,-0.25655490159988403,0.08522593975067139,0.2546798586845398,-0.39449557662010193,-0.09186091274023056,-0.40157550573349,-0.2548695504665375,0.14920258522033691,0.12272829562425613,0.10695645958185196,0.2501518726348877,-0.2811508774757385,-0.13514168560504913,0.062403105199337006,-0.021413831040263176},{0.09119153767824173,-0.21701517701148987,-0.11798231303691864,-0.30907174944877625,-0.07574307918548584,-0.017010914161801338,0.08755625039339066,-0.3622005581855774,0.03634335845708847,-0.1216639056801796,-0.07264463603496552,-0.22383391857147217,-0.10524997860193253,0.2574959099292755,0.26671624183654785,0.402936726808548,0.12705382704734802,0.2722136378288269,0.30506229400634766,-0.13041245937347412,0.23554454743862152,0.34176546335220337,0.31409624218940735,-0.014850516803562641,0.2734135091304779,-0.15615540742874146,0.30074411630630493,-0.009440921247005463,-0.001635239110328257,0.03786600008606911},{-0.18615491688251495,-0.32820001244544983,0.09455906599760056,-0.1954956352710724,0.06453725695610046,0.1746581345796585,0.11354892700910568,-0.006829748395830393,-0.1961338371038437,0.18026506900787354,0.005184739828109741,-0.0010586600983515382,-0.24304044246673584,-0.10982300341129303,0.025172585621476173,-0.19378313422203064,-0.029441334307193756,-0.25613850355148315,-0.1370846927165985,0.1721351444721222,0.06776809692382812,-0.2433496117591858,0.07604453712701797,0.290878027677536,-0.29035046696662903,0.1777966171503067,-0.2754248380661011,-0.1975114494562149,-0.21284274756908417,0.22312693297863007},{-0.24025267362594604,-0.061428193002939224,-0.5277172327041626,0.3141215145587921,0.03122410736978054,0.6496986150741577,0.36401131749153137,0.4742860794067383,0.07295204699039459,0.08956678211688995,0.057236045598983765,-0.18641768395900726,-0.21069365739822388,0.07591983675956726,0.18862327933311462,-0.3036033809185028,0.11609625071287155,0.2509493827819824,0.4608301520347595,-0.1248481273651123,0.17800866067409515,0.3151061534881592,-0.3379630148410797,-0.15694713592529297,-0.10408405214548111,0.533117949962616,0.1855269968509674,0.5726333260536194,-0.23333340883255005,0.4300512969493866},{-0.44818341732025146,-0.010046320967376232,-0.03836129978299141,0.30214622616767883,-0.15907418727874756,-0.07631964981555939,0.2503769099712372,-0.16776025295257568,-0.08680103719234467,0.260165810585022,-0.06821247935295105,-0.1791897565126419,0.3945419490337372,0.20910221338272095,-0.4549255967140198,0.3014177680015564,-0.11543261259794235,-0.07469509541988373,-0.10540484637022018,0.14890055358409882,-0.3114721477031708,0.256346732378006,0.19789616763591766,0.028462935239076614,-0.22440890967845917,-0.2800641655921936,0.11474883556365967,0.1740431934595108,-0.057956621050834656,-0.4039860665798187},{-0.2389771193265915,0.23984357714653015,-0.03854506090283394,0.12954367697238922,0.2566657066345215,0.25753793120384216,-0.02446681447327137,-0.2729411721229553,-0.07518193125724792,-0.20781326293945312,0.04250781983137131,-0.18465498089790344,-0.3993106484413147,-0.3333148956298828,0.3258030414581299,-0.19558696448802948,-0.4370429217815399,0.011688414961099625,-0.0031864612828940153,0.15603947639465332,-0.30320948362350464,0.2368495613336563,-0.17289873957633972,-0.06078629568219185,-0.17953354120254517,-0.22568070888519287,-0.1877174824476242,0.014121795073151588,-0.203447163105011,-0.18697571754455566},{-0.0859510526061058,0.2626376152038574,0.2736884653568268,-0.07655643671751022,-0.04542076215147972,-0.3385448157787323,0.33410200476646423,-0.126435324549675,-0.46777966618537903,0.23141440749168396,-0.29112330079078674,0.07948806881904602,0.05249306559562683,-0.09190791100263596,0.3990315794944763,-0.039103224873542786,0.5104995369911194,-0.024621980264782906,0.4015483558177948,0.35296836495399475,-0.36696547269821167,0.3451520502567291,0.31195390224456787,-0.4661106765270233,0.5835082530975342,0.20174360275268555,0.18772880733013153,-0.3947724401950836,-0.2083820402622223,-0.1090392917394638},{0.30537307262420654,0.447843074798584,-0.49914631247520447,0.10818708688020706,0.2828982472419739,0.2552027106285095,0.00609539495781064,-0.21281524002552032,0.14492465555667877,0.4175918698310852,-0.009990908205509186,-0.49652573466300964,0.2503182291984558,0.28560566902160645,0.3631182312965393,0.36534151434898376,0.27836206555366516,0.29259979724884033,-0.05426784232258797,-0.4728543758392334,0.01849045418202877,0.5323808789253235,-0.13182604312896729,-0.13756029307842255,-0.01502303034067154,0.11798691004514694,-0.05473586171865463,0.15985776484012604,0.19354844093322754,0.49046289920806885},{0.062066227197647095,-0.06929638236761093,-0.10811982303857803,-0.14063096046447754,0.28749576210975647,-0.10560533404350281,0.29021087288856506,0.0694924145936966,-0.27034294605255127,0.32814541459083557,-0.09391292184591293,-0.03322591632604599,0.4413127601146698,-0.10564032196998596,0.5916372537612915,-0.4908179044723511,0.5049890875816345,-0.21423077583312988,0.22863030433654785,0.0871015265583992,-0.49386969208717346,0.1897464394569397,0.0304728914052248,-0.5551322102546692,0.5656179785728455,0.38588690757751465,-0.34340736269950867,-0.4335724115371704,0.1216241642832756,-0.2642499506473541},{0.013211007229983807,-0.02168579213321209,-0.11956324428319931,0.04845494404435158,0.07954580336809158,0.08213870227336884,0.028878435492515564,0.29685670137405396,0.1301228106021881,0.18748833239078522,-0.17495130002498627,0.24069538712501526,0.3431774079799652,0.15405315160751343,-0.3076854646205902,-0.39453232288360596,-0.1824607253074646,-0.03867574781179428,0.12833154201507568,0.24164779484272003,0.15893274545669556,-0.011463413015007973,-0.10871847718954086,-0.040706951171159744,0.11797477304935455,0.17744217813014984,-0.12695957720279694,0.2443419247865677,0.18198931217193604,0.11976359784603119},{-0.1411696821451187,-0.11802398413419724,-0.0453496016561985,-0.23606711626052856,0.37339016795158386,-0.15577447414398193,0.1379106193780899,-0.35271021723747253,-0.23171626031398773,-0.14431990683078766,-0.1638404279947281,-0.24174046516418457,0.2509898841381073,0.1716817319393158,0.1835584044456482,-0.23939092457294464,0.03135334700345993,-0.06569133698940277,0.2997185289859772,-0.09577535092830658,-0.029997708275914192,-0.09173902869224548,0.10172317177057266,-0.03817377984523773,-0.07555101066827774,0.05982231721282005,-0.23212265968322754,0.18608637154102325,-0.25724074244499207,0.03923420235514641},{0.08184913545846939,-0.2730461657047272,0.09401818364858627,-0.24794188141822815,0.09621408581733704,0.11246839910745621,-0.25529104471206665,0.18682961165905,0.023401686921715736,0.20745065808296204,0.12089259177446365,-0.05411696434020996,0.3169330060482025,0.20999637246131897,-0.02215263620018959,-0.019210653379559517,-0.12658199667930603,-0.1115463599562645,-0.2796598970890045,-0.27598950266838074,-0.09211334586143494,-0.22282491624355316,0.3004111647605896,0.13608194887638092,0.16049490869045258,0.1783730536699295,0.18761484324932098,-0.2127334028482437,0.06188974156975746,-0.22294937074184418},{0.20198749005794525,-0.13404861092567444,-0.003755568992346525,-0.2325863540172577,-0.37676021456718445,0.2109668254852295,0.11989998817443848,0.22568465769290924,0.007450172211974859,-0.3926936388015747,-0.10768905282020569,0.14358271658420563,0.05630872771143913,-0.018925046548247337,0.14827179908752441,-0.04357273876667023,0.13722366094589233,-0.1317037045955658,-0.048808492720127106,0.3048340380191803,0.3312140107154846,0.18806815147399902,0.04871450364589691,0.07517589628696442,-0.19830217957496643,-0.03595332056283951,-0.15254651010036469,-0.2000904381275177,0.2848612070083618,0.21586266160011292}};
static const float actor_encoder_self_encoder_2_weight[30][30] = {{0.1599392145872116,0.24391420185565948,-0.4144372045993805,-0.05229660123586655,-0.15167324244976044,0.07328864932060242,0.05962061509490013,-0.11765611171722412,-0.02497674524784088,0.16432321071624756,0.2199350744485855,0.2240777462720871,-0.2295234501361847,0.11278753727674484,-0.2368336170911789,0.048976052552461624,0.007139427587389946,0.1250932514667511,0.1737142950296402,0.31722506880760193,0.24632512032985687,0.20205159485340118,-0.20896726846694946,-0.11182399094104767,0.1405109167098999,-0.15709030628204346,-0.25446000695228577,0.020557815209031105,-0.2305288165807724,0.10048514604568481},{0.07174469530582428,-0.20953580737113953,-0.2108689695596695,-0.19784675538539886,0.09374398738145828,0.29479411244392395,-0.1026085615158081,-0.260666161775589,0.24186988174915314,-0.1911681443452835,0.2800558805465698,-0.0024957789573818445,0.10553622990846634,-0.04401664808392525,0.08596815913915634,-0.04753847420215607,0.003033608430996537,-0.08744166791439056,0.2210593968629837,0.014684370718896389,-0.005131580866873264,-0.011568735353648663,-0.1452418565750122,0.04143555089831352,-0.20550061762332916,0.10259797424077988,-0.09621886909008026,0.08849549293518066,-0.21904900670051575,-0.11584162712097168},{-0.2100154459476471,0.14924101531505585,0.26040539145469666,0.21583043038845062,0.07906993478536606,-0.10811607539653778,0.4179595410823822,0.030598904937505722,0.15532605350017548,-0.10713799297809601,-0.30272334814071655,0.13847936689853668,-0.1551821231842041,-0.10019643604755402,0.15746290981769562,-0.20641542971134186,0.13596948981285095,-0.3297834098339081,-0.23104609549045563,0.34544727206230164,-0.271101176738739,-0.017398690804839134,-0.02095917984843254,0.05847250297665596,-0.057762615382671356,0.26981812715530396,0.1924559473991394,0.15090253949165344,0.08397998660802841,0.2944853603839874},{0.09956212341785431,-0.17754727602005005,0.13870689272880554,0.09317944198846817,-0.2506782114505768,0.06804598122835159,0.32644030451774597,0.11701638251543045,0.12303561717271805,-0.010554922744631767,0.13649992644786835,0.3483838438987732,-0.28707149624824524,0.006457052659243345,0.04973993077874184,0.09428547322750092,-0.25212395191192627,0.27244091033935547,0.0071736653335392475,-0.2943286895751953,-0.012503781355917454,-0.004148851148784161,-0.1698775440454483,-0.25890249013900757,0.023639939725399017,-0.0296676866710186,0.11377955973148346,-0.2761742174625397,0.1670445054769516,0.028034625574946404},{0.13529257476329803,-0.3195561468601227,-0.33974024653434753,0.09823643416166306,0.0629187673330307,0.09970198571681976,0.31191331148147583,-0.2420363873243332,0.014556366950273514,-0.21647830307483673,0.29284077882766724,0.00742916576564312,0.2604697644710541,0.10223806649446487,-0.15299561619758606,0.04036734253168106,0.05050996318459511,-0.21675676107406616,-0.047733109444379807,-0.029215332120656967,-0.15468622744083405,-0.30140045285224915,-0.2064904421567917,0.020950745791196823,-0.03722060099244118,-0.04455849528312683,0.01855991594493389,0.03826619312167168,-0.30468568205833435,0.015161880291998386},{-0.11182335019111633,0.24747982621192932,0.23231349885463715,0.17474018037319183,-0.05484595149755478,0.18702833354473114,0.3940689265727997,-0.15588316321372986,0.171949565410614,0.22184281051158905,0.16421706974506378,-0.30145132541656494,0.2694634795188904,-0.27072325348854065,-0.2268090546131134,0.24748845398426056,-0.3116416037082672,0.16163568198680878,0.2055608481168747,0.09107271581888199,0.09429241716861725,-0.09271571785211563,0.012302743270993233,-0.25673431158065796,-0.1852339506149292,0.010141873732209206,-0.2842692732810974,-0.013739699497818947,-0.02305765077471733,0.22273871302604675},{-0.137558713555336,0.1573081761598587,-0.03159061446785927,-0.2547580897808075,-0.13522186875343323,-0.3821430504322052,0.2769935727119446,0.16847346723079681,-0.15728610754013062,0.1441088318824768,0.13635817170143127,-0.28985875844955444,0.023779556155204773,0.036620285362005234,0.02099057286977768,0.18988770246505737,-0.033592015504837036,0.0285659097135067,-0.056020040065050125,-0.1355338841676712,0.2519671320915222,0.14281214773654938,-0.16027656197547913,0.12502096593379974,-0.32606592774391174,-0.1890753209590912,0.17417070269584656,-0.21830928325653076,-0.375005841255188,-0.13090169429779053},{-0.003234459552913904,-0.21625065803527832,-0.08244582265615463,-0.0719800516963005,-0.15980911254882812,-0.1694198101758957,-0.36474114656448364,0.3176689147949219,-0.19291169941425323,0.016146846115589142,0.10014211386442184,0.18981647491455078,0.16857634484767914,0.08925806730985641,-0.32176876068115234,-0.2570268213748932,0.1584479659795761,-0.011677904985845089,-0.12737871706485748,-0.2829701602458954,0.3157958984375,0.1451583355665207,0.03306550160050392,-0.11345070600509644,-0.2916858196258545,0.2052113264799118,-0.05651979148387909,0.27615055441856384,-0.29720404744148254,0.13261030614376068},{-0.2763713598251343,0.18385626375675201,0.039013102650642395,-0.2760765850543976,0.1980731189250946,-0.20480658113956451,-0.30402085185050964,-0.16607260704040527,0.037262286990880966,0.2228405624628067,0.19866353273391724,-0.09805534034967422,-0.18572881817817688,-0.19644968211650848,0.06586362421512604,-0.08239442110061646,-0.16013780236244202,-0.19582615792751312,0.1634514033794403,-0.04645167663693428,0.23635230958461761,-0.23734410107135773,0.0738118588924408,0.05929679423570633,0.2746713161468506,-0.23710761964321136,-0.017955360934138298,0.019153432920575142,0.18122117221355438,-0.12845326960086823},{0.21287469565868378,-0.19631238281726837,-0.2679968476295471,-0.11641127616167068,0.0754169151186943,-0.23574483394622803,-0.1925252228975296,0.20503996312618256,0.12426626682281494,0.1527647078037262,-0.00508553721010685,0.29933691024780273,0.07443975657224655,0.25345951318740845,0.07506618648767471,-0.24303719401359558,-0.10213509947061539,0.2451854795217514,-0.04149491339921951,-0.09170432388782501,0.12256843596696854,0.17592580616474152,-0.08024267107248306,-0.25158795714378357,0.18931841850280762,-0.17993737757205963,0.3026152551174164,-0.1393347531557083,-0.22468528151512146,-0.28528425097465515},{0.05258017033338547,0.2907631993293762,0.34024477005004883,-0.23289653658866882,0.2295610010623932,-0.13351497054100037,0.21065989136695862,-0.26089125871658325,-0.055174168199300766,0.20721103250980377,0.3080196976661682,0.014361487701535225,-0.36964675784111023,0.012033103033900261,0.062030427157878876,0.3202511668205261,0.2649926245212555,0.3020128309726715,0.21906022727489471,0.08554711937904358,0.35098618268966675,0.3050168454647064,-0.21932999789714813,0.16994187235832214,-0.08397014439105988,-0.28544333577156067,0.22317518293857574,0.03327452763915062,0.03036985546350479,-0.13284353911876678},{-0.18431052565574646,0.03743257746100426,0.13966384530067444,0.018415290862321854,0.25467920303344727,0.03872966021299362,-0.20460495352745056,-0.1294306069612503,0.2534409165382385,0.15743780136108398,-0.08686009049415588,-0.23192186653614044,-0.13017989695072174,0.17063625156879425,0.007048593834042549,0.04885214567184448,0.04297294095158577,-0.21839697659015656,-0.20877882838249207,0.0934748649597168,-0.06550353765487671,-0.14826048910617828,-0.18348002433776855,0.18620674312114716,0.1841370314359665,0.04820852354168892,0.11738332360982895,0.22405458986759186,-0.18007975816726685,-0.020647354423999786},{0.0553760752081871,-0.13487766683101654,0.1332237273454666,-0.14626531302928925,0.033123962581157684,0.208546981215477,0.16983599960803986,0.256845086812973,0.31995320320129395,-0.05548112094402313,0.17511755228042603,0.21514664590358734,-0.08298218250274658,0.1468873918056488,0.20739956200122833,-0.21863137185573578,-0.06532756239175797,-0.038338206708431244,-0.32712990045547485,-0.34964439272880554,0.024073464795947075,0.001745638670399785,-0.053530044853687286,0.10761284828186035,-0.024813178926706314,-0.1732422560453415,0.07063952833414078,-0.15367038547992706,-0.2719350755214691,0.21355056762695312},{-0.14651137590408325,-0.018710119649767876,-0.1872611939907074,0.165243998169899,-0.054544370621442795,-0.033786918967962265,0.04600345715880394,0.00018137221923097968,0.13489151000976562,-0.20228898525238037,0.2341882288455963,0.20611993968486786,0.059193696826696396,-0.01281515322625637,-0.09708396345376968,0.26899614930152893,-0.013317911885678768,-0.15901890397071838,0.01114501804113388,0.044051967561244965,-0.23237337172031403,-0.12934018671512604,0.05000802129507065,0.07591716200113297,-0.027640363201498985,0.010045718401670456,0.01679360866546631,-0.1861196756362915,-0.2794850468635559,0.026005664840340614},{-0.05896452069282532,-0.10775554180145264,0.016583282500505447,-0.26618441939353943,0.15521875023841858,0.006144310813397169,0.2953207194805145,0.15118661522865295,0.17474907636642456,0.1366371065378189,0.047051139175891876,-0.1734890341758728,0.20965765416622162,0.13183587789535522,-0.2757377028465271,0.273258239030838,-0.1372421234846115,-0.15484760701656342,0.29085102677345276,0.18968680500984192,0.14321960508823395,-0.0728600025177002,-0.2284444272518158,-0.20731012523174286,-0.19870217144489288,-0.13129451870918274,0.04608657583594322,-0.10744770616292953,0.16692858934402466,-0.1383698582649231},{-0.237901970744133,-0.09610054641962051,-0.038833145052194595,-0.22973604500293732,-0.10519732534885406,0.056608736515045166,-0.002567014656960964,-0.22148564457893372,0.028110552579164505,-0.1777220517396927,0.2100842148065567,-0.044113531708717346,0.11963966488838196,-0.2287519872188568,-0.11565538495779037,-0.08811717480421066,0.11657733470201492,-0.024009818211197853,0.3013673424720764,0.11941985040903091,0.0475960299372673,-0.12748007476329803,0.23689919710159302,0.343087762594223,-0.20000362396240234,0.09986817836761475,-0.15895187854766846,-0.11816072463989258,0.1259954422712326,-0.2613890469074249},{0.007688932586461306,-0.26930591464042664,-0.22251597046852112,0.23645304143428802,0.23825059831142426,-0.3020201325416565,0.2643011510372162,0.11001407355070114,0.02379077672958374,0.09174622595310211,0.18282796442508698,-0.17894034087657928,-0.04614187404513359,0.2770797312259674,0.09079615026712418,0.19249111413955688,0.3066604733467102,0.22591616213321686,-0.13143737614154816,-0.1620156168937683,0.09888884425163269,0.27493971586227417,0.06635123491287231,0.05087224394083023,0.21305882930755615,-0.22019924223423004,0.13285420835018158,0.07994326204061508,-0.14573591947555542,-0.14653991162776947},{0.15088289976119995,0.10765033960342407,0.1984308511018753,0.21746031939983368,0.343364953994751,0.2891467809677124,-0.267209529876709,-0.11610356718301773,-0.05279097706079483,-0.18808679282665253,0.06516764312982559,-0.09136698395013809,0.2233823984861374,-0.05845195800065994,-0.2101554572582245,-0.010717270895838737,0.09842776507139206,-0.029770391061902046,0.2621701657772064,-0.34264424443244934,0.17199112474918365,0.2315739244222641,-0.01812584325671196,-0.23358815908432007,0.27670159935951233,-0.30043843388557434,0.14231561124324799,-0.06719329953193665,0.3186652660369873,-0.22368915379047394},{-0.08766337484121323,-0.2556281089782715,-0.27953705191612244,0.13035406172275543,0.40414705872535706,0.13025082647800446,-0.27690964937210083,0.00836242362856865,0.19205406308174133,0.03818272054195404,-0.14442944526672363,0.1297473907470703,0.25024276971817017,0.005751956719905138,0.05858248099684715,-0.01600831374526024,0.35448789596557617,0.3378804922103882,-0.16902518272399902,-0.00858151726424694,0.21807000041007996,-0.12138331681489944,0.04662829637527466,-0.025427572429180145,-0.28883281350135803,-0.17592191696166992,0.1426284909248352,0.12978243827819824,-0.2155219316482544,0.027937162667512894},{0.11131998151540756,0.049917418509721756,-0.2348298579454422,-0.11828232556581497,0.2438674122095108,-0.28784874081611633,-0.36699211597442627,0.0832422748208046,-0.16876332461833954,0.20295393466949463,-0.29613634943962097,0.0022951997816562653,-0.15730594098567963,-0.12327016890048981,0.17794816195964813,0.13436709344387054,0.12652796506881714,-0.3618599772453308,0.21940815448760986,0.06833213567733765,-0.3171476721763611,-0.25776344537734985,-0.09940322488546371,0.007871476002037525,0.030434919521212578,0.2784149646759033,-0.184132918715477,-0.25066694617271423,-0.05893063172698021,0.07899899035692215},{0.2046813815832138,-0.17896486818790436,-0.21745949983596802,-0.16408851742744446,-0.008474232628941536,0.05208710581064224,0.10848147422075272,0.07471910864114761,0.13455644249916077,0.06724675744771957,0.14956098794937134,-0.2368665486574173,0.043284084647893906,-0.2769473195075989,0.11332394182682037,-0.05733319744467735,-0.008655073121190071,-0.0038779783062636852,0.026799052953720093,0.11897166073322296,-0.11417251080274582,-0.22401568293571472,0.14740467071533203,0.0876593217253685,0.030353792011737823,0.20397648215293884,0.02998843602836132,0.11212890595197678,-0.2495289295911789,-0.25347843766212463},{-0.24630358815193176,-0.15087559819221497,-0.16334031522274017,0.19983865320682526,-0.09350212663412094,0.2390223890542984,-0.03672186657786369,0.20587025582790375,0.12462805956602097,-0.29261839389801025,0.1831362545490265,-0.08623627573251724,0.30527833104133606,-0.1716666966676712,-0.013280000537633896,-0.09524916112422943,-0.052795566618442535,0.08161243051290512,-0.1426316350698471,-0.3617382049560547,-0.27141159772872925,-0.12796342372894287,0.2684028148651123,0.010336711071431637,-0.2041914314031601,-0.18385331332683563,0.010493531823158264,0.2136562168598175,0.27725812792778015,-0.015486960299313068},{-0.21190910041332245,-0.12518545985221863,0.1433318853378296,0.03433346003293991,-0.08620044589042664,0.1324382871389389,0.05527667701244354,0.014451663009822369,0.32206952571868896,0.10053189098834991,-0.26551535725593567,0.0350874662399292,-0.030765751376748085,0.18259738385677338,-0.028960896655917168,0.13763836026191711,0.16333845257759094,-0.11170178651809692,0.07902386784553528,0.15739627182483673,0.23386718332767487,0.1451043039560318,-0.08313468843698502,0.23241843283176422,-0.08117981255054474,-0.14954394102096558,-0.12978512048721313,-0.12248038500547409,0.08363214135169983,-0.1199188083410263},{0.0559428334236145,0.05181723088026047,0.21969860792160034,0.032912783324718475,-0.16876645386219025,0.27455419301986694,0.21854785084724426,-0.05950191617012024,-0.04953796789050102,0.3101750910282135,0.09917161613702774,0.029630912467837334,-0.31801483035087585,-0.13644272089004517,-0.02701452746987343,-0.10207308083772659,0.11337936669588089,0.11613082885742188,0.3988680839538574,0.2901400625705719,-0.02572030760347843,-0.21873272955417633,0.21228784322738647,-0.0821719840168953,-0.2426101714372635,0.2793514132499695,0.1378697156906128,0.32546859979629517,0.04481664299964905,-0.15174315869808197},{-0.2657386064529419,-0.2694055438041687,0.028555747121572495,-0.05780598521232605,0.24285826086997986,0.26819929480552673,0.1418098509311676,0.24860896170139313,-0.11074744164943695,-0.0824514701962471,-0.07552293688058853,0.08652250468730927,0.19125297665596008,0.2695770561695099,0.016071923077106476,0.168899804353714,0.09079147130250931,-0.07209824025630951,0.12169290333986282,0.06158539652824402,-0.29683420062065125,-0.15134784579277039,0.18745286762714386,-0.020888885483145714,0.10244783759117126,0.12254239618778229,0.07141083478927612,0.12736719846725464,-0.1251036375761032,-0.20662851631641388},{0.24097874760627747,0.06438837200403214,-0.003950891550630331,-0.009533122181892395,-0.14158198237419128,0.21085724234580994,0.04435225576162338,0.038233790546655655,0.3117844760417938,0.020574256777763367,0.01217291783541441,-0.2195192575454712,0.14375868439674377,-0.10950803756713867,0.301114559173584,0.2780619263648987,-0.27730026841163635,0.3321673274040222,-0.11607499420642853,0.01473875530064106,0.1605282425880432,-0.06819766014814377,0.17592361569404602,-0.06800157576799393,0.2742946445941925,0.3119061589241028,0.11246742308139801,-0.24624484777450562,-0.3058100938796997,0.10807802528142929},{0.1481827348470688,0.0540863461792469,-0.005861722398549318,0.23969820141792297,0.05887825787067413,-0.03601595014333725,-0.055366430431604385,-0.19845348596572876,-0.15963666141033173,0.07640325278043747,0.14350640773773193,-0.1516938954591751,0.23460321128368378,-0.3487517535686493,0.11540256440639496,-0.21934881806373596,0.14802581071853638,0.010663294233381748,0.09904343634843826,0.025463560596108437,-0.3093724846839905,-0.26808640360832214,0.03229954093694687,0.20786581933498383,0.08082563430070877,-0.004259925335645676,-0.19421640038490295,-0.1354503184556961,0.21972522139549255,-0.09231646358966827},{-0.11468751728534698,-0.12164371460676193,0.09306949377059937,-0.270713210105896,-0.16689297556877136,0.128563791513443,0.21986332535743713,-0.24407052993774414,-0.10783501714468002,0.19748035073280334,0.21052375435829163,0.18414990603923798,0.0013261106796562672,-0.14536955952644348,0.18218007683753967,-0.01091794390231371,0.007836532779037952,-0.08148103952407837,0.09212120622396469,-0.18420371413230896,0.010498433373868465,0.07283350825309753,0.09193124622106552,-0.19196857511997223,-0.04353464022278786,-0.054079990833997726,0.20636999607086182,0.1788432002067566,0.06013871356844902,-0.02646913006901741},{-0.018478553742170334,0.11919406801462173,-0.19362325966358185,-0.02768746204674244,-0.003245011903345585,0.09975846111774445,0.3463838994503021,0.2203386127948761,-0.1775108426809311,0.04669073969125748,-0.13318882882595062,0.19870485365390778,-0.07217182964086533,-0.04231691733002663,0.019174618646502495,-0.022181201726198196,-0.28403058648109436,0.16875500977039337,-0.11440827697515488,-0.20838358998298645,0.15320084989070892,-0.2989254891872406,0.048732321709394455,0.22878049314022064,0.040677860379219055,0.24054443836212158,-0.2152365893125534,0.03046354092657566,-0.11805146187543869,0.015689749270677567},{0.03174462541937828,-0.12976673245429993,-0.4940888285636902,0.2748813033103943,-0.2911602556705475,-0.32377153635025024,-0.30117568373680115,0.1267479658126831,0.27382782101631165,0.06356415152549744,0.19120924174785614,0.053095024079084396,0.015512971207499504,-0.19008219242095947,0.11533913761377335,0.1634240597486496,0.018070628866553307,-0.06324372440576553,0.031186500564217567,0.29037392139434814,0.22159841656684875,-0.060715653002262115,0.17354488372802734,-0.2452864944934845,-0.2660079002380371,0.03677913919091225,0.24610237777233124,0.3070905804634094,-0.037073347717523575,0.19661323726177216}};
static const float actor_encoder_feed_forward_0_weight[46][60] = {{-0.2073586881160736,0.20949572324752808,-0.10354267805814743,-0.10762344300746918,0.09688370674848557,-0.007894384674727917,0.15800918638706207,-0.17852844297885895,-0.10199756920337677,0.15429610013961792,0.27152737975120544,-0.21612922847270966,-0.10353600978851318,0.10480009764432907,0.0496508814394474,-0.13442541658878326,0.06013009697198868,-0.15969973802566528,0.09265045076608658,0.030806604772806168,0.11254709959030151,0.08984700590372086,0.19832779467105865,0.2822270095348358,-0.022622646763920784,0.11850011348724365,-0.04797999560832977,-0.1056978851556778,0.02188955433666706,0.2702406048774719,0.06706520915031433,-0.17516867816448212,-0.17481958866119385,0.0020653640385717154,-0.040088407695293427,0.09400302916765213,-0.12917500734329224,-0.08848337084054947,0.15218237042427063,0.1604589968919754,-0.05064089968800545,0.035790588706731796,-0.18172240257263184,0.07899326086044312,-0.047410640865564346,0.01447155512869358,0.13806354999542236,0.021355727687478065,-0.17050066590309143,-0.01676476188004017,0.17644411325454712,0.23614230751991272,0.20023885369300842,-0.16146856546401978,-0.1696147322654724,-0.14639249444007874,-0.08121050894260406,-0.12747226655483246,0.07964951545000076,0.1990092694759369},{-0.08248291909694672,0.01225754152983427,0.1188962385058403,0.22365210950374603,0.17450042068958282,-0.18661122024059296,-0.014980360865592957,0.0035867744591087103,0.05612614005804062,0.07186064124107361,0.2097642570734024,0.17580154538154602,0.06814343482255936,0.183864027261734,0.08453558385372162,-0.16886155307292938,0.21775437891483307,0.030702900141477585,-0.16740357875823975,0.16800162196159363,0.10609152168035507,-0.14381149411201477,0.02452736906707287,0.22704556584358215,0.17721526324748993,-0.1360439509153366,0.007335180416703224,-0.22155629098415375,-0.09107166528701782,0.11134891211986542,0.12881788611412048,-0.05831339210271835,-0.05166655778884888,-0.13439513742923737,0.22833281755447388,-0.14596037566661835,0.053445156663656235,-0.009179961867630482,-0.13397803902626038,-0.02511014975607395,-0.19656257331371307,-0.17214050889015198,0.026196394115686417,-0.19587929546833038,0.07865122705698013,-0.060816459357738495,-0.17215123772621155,-0.15071474015712738,0.1442498415708542,0.05186227709054947,-0.18555691838264465,-0.013465180061757565,0.07054160535335541,0.19396427273750305,-0.1446382850408554,0.01777583733201027,-0.1613476574420929,-0.17089766263961792,0.0915827825665474,0.10020821541547775},{-0.07649476081132889,0.04418696090579033,0.16927629709243774,0.0049854847602546215,-0.16438323259353638,0.13201627135276794,-0.06257147341966629,0.25139930844306946,-0.2828924357891083,-0.10476939380168915,0.10670552402734756,-0.2275496870279312,0.16248367726802826,0.17026802897453308,0.007935689762234688,0.020819170400500298,-0.15825025737285614,0.002309796866029501,-0.13478344678878784,0.1034393161535263,0.0019808481447398663,0.15615563094615936,-0.08872655779123306,-0.11083654314279556,-0.015242393128573895,0.13235460221767426,-0.2878261208534241,-0.11306065320968628,-0.24071738123893738,-0.05633131414651871,0.18889202177524567,0.10959756374359131,-0.13733330368995667,0.030738545581698418,0.035365279763936996,0.041494254022836685,-0.055556755512952805,0.04108564183115959,0.10143539309501648,0.04641009122133255,-0.14985041320323944,0.21095670759677887,0.09802918136119843,0.1725718379020691,0.12005624175071716,0.08538469672203064,0.2768925726413727,0.11481427401304245,-0.19235725700855255,-0.2119486778974533,-0.22119171917438507,-0.06064407527446747,0.06651147454977036,0.06864239275455475,-0.03140738978981972,0.07056552916765213,-0.06261572986841202,0.21773990988731384,-0.0520021989941597,0.11790193617343903},{0.11329099535942078,-0.11948979645967484,0.11740613728761673,0.11259384453296661,-0.05933541804552078,-0.27811309695243835,-0.08273310214281082,-0.10608220845460892,0.21702127158641815,0.17357730865478516,-0.18648697435855865,0.030672241002321243,-0.07916496694087982,-0.11356884986162186,-0.0670820102095604,0.11761101335287094,0.06851819157600403,-0.13958041369915009,-0.05940050631761551,0.037479910999536514,-0.03752713277935982,0.16167202591896057,0.09141715615987778,0.08376094698905945,-0.10840918868780136,0.21681880950927734,0.006791858468204737,-6.792726344428957e-05,0.12041731923818588,0.2077537626028061,-0.2062174677848816,0.20334848761558533,-0.07129873335361481,-0.04356159269809723,-0.037286169826984406,-0.1010056883096695,-0.06284373253583908,0.07030750811100006,-0.11711320281028748,-0.12085661292076111,-0.20803816616535187,0.20584027469158173,0.0013555815676227212,-0.257604718208313,-0.19399645924568176,0.23769675195217133,0.024522647261619568,-0.18189482390880585,-0.08584088832139969,0.0782243087887764,0.2841304838657379,0.09755748510360718,0.03453398495912552,-0.11524014174938202,0.1470208466053009,0.18431252241134644,-0.08575315773487091,-0.1669316291809082,0.10490076243877411,0.07002320885658264},{-0.2408718466758728,0.035001132637262344,0.12342855334281921,-0.01423915196210146,0.3071141541004181,-0.08565454930067062,-0.02588467113673687,-0.10334694385528564,-0.2488430291414261,0.12312207370996475,-0.2892443835735321,0.2795425057411194,-0.2265830934047699,-0.01544206216931343,0.02683270163834095,-0.2334577441215515,0.10857950896024704,-0.09861239045858383,-0.16238266229629517,-0.0850340723991394,0.17986783385276794,0.02970176748931408,-0.0651145651936531,-0.0974617600440979,0.016617899760603905,0.018631983548402786,-0.02452649176120758,0.1514316201210022,0.06550392508506775,-0.10247139632701874,-0.08166147768497467,0.15733702480793,-0.12050451338291168,0.07001419365406036,-0.17123092710971832,-0.12188182026147842,0.19457824528217316,0.02407435141503811,-0.24015115201473236,0.009841028600931168,-0.0030248381663113832,-0.06575198471546173,-0.1966431885957718,0.041241493076086044,-0.0871162936091423,-0.26111331582069397,-0.0354808047413826,-0.19308845698833466,0.12572941184043884,0.13395173847675323,0.1571652889251709,0.03310822322964668,-0.08264638483524323,0.19032490253448486,-0.03610872104763985,0.024572331458330154,-0.1073286384344101,0.10653890669345856,0.04014990106225014,0.18170401453971863},{-0.21070709824562073,-0.007219970226287842,-0.12909425795078278,-0.07584116607904434,0.09332218021154404,-0.17076952755451202,-0.16753050684928894,0.18351879715919495,-0.06647465378046036,-0.04946952313184738,-0.18119962513446808,0.06251359730958939,-0.1202552542090416,0.026721356436610222,0.10178837180137634,0.09520457684993744,-0.16045600175857544,0.19030892848968506,-0.05306896194815636,-0.10930190980434418,-0.0404854416847229,-0.19851380586624146,-0.06667394191026688,-0.1343994438648224,-0.06790744513273239,0.05709690600633621,-0.16120201349258423,-0.2701917886734009,-0.027131322771310806,0.05917942151427269,-0.02968977764248848,-0.04806702211499214,-0.23734980821609497,-0.11179660260677338,0.10807671397924423,0.22764885425567627,-0.09680734574794769,0.03495197370648384,-0.03018667921423912,0.1187470555305481,-0.15392330288887024,0.17558343708515167,0.08887219429016113,-0.1309501826763153,0.07820895314216614,-0.00168283109087497,0.08511785417795181,0.1902858316898346,-0.056804534047842026,-0.14570081233978271,-0.12783414125442505,0.11125214397907257,-0.11364301294088364,-0.029554294422268867,0.0207713320851326,-0.18461711704730988,0.21262681484222412,-0.13183683156967163,-0.20071227848529816,-0.14360252022743225},{0.08309365808963776,-0.027429785579442978,-0.1042526513338089,-0.20533590018749237,0.19464413821697235,-0.05465539172291756,0.17286236584186554,0.18405623733997345,-0.17814499139785767,-0.20713569223880768,-0.16281181573867798,0.023308636620640755,-0.20392248034477234,-0.21329094469547272,0.14749278128147125,-0.09014558047056198,-0.09611339122056961,-0.2621135711669922,0.04170365259051323,0.12115643173456192,-0.10039659589529037,-0.2033175528049469,-0.013535545207560062,0.24620631337165833,-0.08537160605192184,0.1366506963968277,0.14538905024528503,-0.238838791847229,0.15614254772663116,0.04418294131755829,0.11347842961549759,-0.15121851861476898,-0.14151674509048462,-0.19803908467292786,0.017057931050658226,-0.23394149541854858,-0.18244391679763794,0.1963045448064804,-0.1425108164548874,0.04762066900730133,0.10197339206933975,0.11073297262191772,-0.20716619491577148,-0.16412311792373657,-0.1617846041917801,0.0564735010266304,0.12193536758422852,-0.17619936168193817,-0.19952642917633057,0.171203151345253,-0.16367566585540771,-0.06187483295798302,0.2926175892353058,-0.1271677017211914,-0.04566069692373276,0.28221315145492554,-0.2172556221485138,0.19305650889873505,0.0021411986090242863,-0.08340990543365479},{-0.00962546095252037,-0.17637355625629425,0.004647464957088232,-0.1435818076133728,-0.10628043860197067,-0.21801558136940002,0.013057086616754532,-0.07065514475107193,-0.1441369503736496,-0.2398388683795929,0.22851911187171936,-0.10918115079402924,0.0061280084773898125,-0.1135455071926117,0.1339796632528305,0.1891389787197113,-0.18548718094825745,-0.07123225182294846,0.14504317939281464,0.171169713139534,0.1777380257844925,0.19145897030830383,0.11556529998779297,0.15083763003349304,0.07856466621160507,-0.2672000229358673,-0.21003714203834534,-0.14977936446666718,0.10469351708889008,0.06770343333482742,-0.048411689698696136,0.18566663563251495,-0.034873027354478836,0.005641159601509571,0.134425088763237,-0.22950036823749542,0.08290114998817444,0.03049381636083126,-0.09814133495092392,0.217667356133461,0.07760988920927048,-0.01956862583756447,0.03060036711394787,0.1217733845114708,0.10327314585447311,0.15412107110023499,0.00954127125442028,-0.2071121484041214,0.18923744559288025,0.06940075755119324,-0.051803119480609894,-0.06514658033847809,-0.1997252106666565,-0.159536212682724,-0.02467762492597103,-0.00921655260026455,-0.018926875665783882,-0.07455769926309586,-0.17296269536018372,-0.21064791083335876},{0.022577129304409027,0.21533134579658508,0.1223880872130394,0.21177895367145538,-0.08696845918893814,-0.13354574143886566,0.04611453413963318,0.25652918219566345,0.19683225452899933,0.2582414448261261,-0.15407682955265045,-0.1830999255180359,0.11538200080394745,-0.2872788608074188,0.27631676197052,-0.043417006731033325,-0.0254655908793211,-0.00758534949272871,0.0035394933074712753,-0.11736394464969635,0.08242284506559372,0.06349688023328781,0.24268677830696106,0.05822320282459259,0.1268206238746643,0.25505927205085754,-0.05525701865553856,-0.19087180495262146,-0.1390760838985443,-0.07533470541238785,-0.15240226686000824,-0.06033194437623024,-0.1557871699333191,0.17665664851665497,-0.1730867177248001,0.1979065239429474,-0.07833153009414673,-0.061885736882686615,-0.0635240450501442,0.19748204946517944,0.011424768716096878,-0.23215745389461517,-0.003377436427399516,-0.0737059935927391,0.04643604904413223,0.17377649247646332,0.18270058929920197,-0.06073208153247833,0.0428757518529892,-0.02570597641170025,-0.16840212047100067,0.0940350741147995,-0.06978244334459305,-0.0824253037571907,0.14239193499088287,-0.10466159135103226,-0.03955893963575363,-0.06990835070610046,-0.05495234951376915,-0.15304291248321533},{-0.18617086112499237,-0.22775110602378845,-0.033381134271621704,0.1976010799407959,-0.19911301136016846,-0.1281251460313797,0.17377546429634094,-0.19922907650470734,-0.003537071868777275,-0.16763457655906677,0.1931176483631134,0.003976537846028805,0.0039050006307661533,0.07288052141666412,0.08849679678678513,0.13301001489162445,-0.13721200823783875,-0.14732655882835388,0.21641811728477478,-0.10860514640808105,-0.07404575496912003,-0.03569118306040764,-0.055934492498636246,0.21330022811889648,0.0159822478890419,0.22210349142551422,0.14868827164173126,0.27850767970085144,-0.007880952209234238,0.03405911475419998,-0.0631534680724144,-0.010577075183391571,0.05247816443443298,0.2052365392446518,-0.0063059525564312935,0.10773155093193054,-0.12141455709934235,0.11666278541088104,-0.15673330426216125,-0.14111126959323883,0.16003672778606415,-0.15551099181175232,0.035780683159828186,-0.07554281502962112,-0.12207375466823578,-0.12711192667484283,-0.05790812522172928,0.18425673246383667,0.003634363180026412,-0.12151692062616348,0.14138902723789215,0.15434002876281738,-0.08829671144485474,0.09025654196739197,0.09282323718070984,0.19162993133068085,-0.12413439899682999,-0.1799677312374115,0.08258231729269028,0.11878068745136261},{0.11950039863586426,-0.11441761255264282,-0.04811950773000717,0.20641830563545227,-0.1911284476518631,0.11184930056333542,-0.06663815677165985,0.1603245884180069,0.13189974427223206,0.23000989854335785,-0.03597289323806763,0.059280358254909515,0.1695377081632614,0.05151331424713135,-0.05508521571755409,0.05762853845953941,0.17000119388103485,-0.018463192507624626,-0.04818866774439812,-0.13609430193901062,-0.22252348065376282,-0.14118629693984985,0.19847948849201202,0.0501144677400589,0.12103647738695145,0.21776430308818817,0.05986274778842926,0.05209410563111305,-0.051016196608543396,-0.039208583533763885,0.018381303176283836,0.22829009592533112,-0.1240941658616066,0.1708889901638031,-0.1643899828195572,0.07722729444503784,-0.18491509556770325,0.1182740330696106,0.14305993914604187,-0.13933447003364563,0.11614125967025757,-0.1777273267507553,-0.12870939075946808,-0.02886616811156273,-0.18733975291252136,-0.0858755111694336,-0.2476365566253662,0.28931888937950134,0.19677750766277313,0.14308655261993408,-0.04078644514083862,0.019977251067757607,0.18385852873325348,0.009248180314898491,-0.039016421884298325,0.18898704648017883,0.0012408321490511298,0.060314927250146866,-0.24970205128192902,-0.07954017072916031},{0.1312568485736847,0.15638451278209686,0.044610947370529175,0.17119747400283813,0.010103403590619564,-0.17313750088214874,-0.03440955653786659,-0.22836840152740479,-0.08809097856283188,-0.18122358620166779,-0.12435987591743469,-0.12868094444274902,-0.1649262011051178,0.17707222700119019,0.044175371527671814,-0.12666402757167816,-0.12102221697568893,-0.14789162576198578,0.11151092499494553,0.005499774124473333,-0.08808134496212006,-0.10818962752819061,0.20799583196640015,0.15983788669109344,0.19986341893672943,-0.12081683427095413,0.08150830119848251,0.14448226988315582,-0.053737740963697433,0.11922183632850647,0.021739525720477104,-0.058947909623384476,-0.1089569479227066,-0.010720470920205116,-0.10049766302108765,0.1968173086643219,0.21375609934329987,0.14559972286224365,-0.029247459024190903,-0.18632081151008606,-0.063676618039608,-0.009802032262086868,-0.07208668440580368,-0.09590759873390198,0.08532142639160156,-0.20552024245262146,0.1722089648246765,-0.06751735508441925,0.06877012550830841,-0.22068706154823303,0.21536822617053986,0.06100727617740631,-0.23456773161888123,-0.08235504478216171,0.23449726402759552,0.19430428743362427,0.13649947941303253,-0.017334505915641785,0.18362702429294586,0.03765098750591278},{-0.06641323864459991,0.2553633749485016,0.07252762466669083,-0.2800517678260803,0.2577609419822693,0.22582119703292847,0.12430449575185776,-0.10938809812068939,-0.07737220078706741,-0.14197930693626404,0.024807149544358253,-0.017651326954364777,0.23841944336891174,-0.20805536210536957,0.19313748180866241,0.05283330753445625,0.07057660818099976,0.0030271774157881737,-0.17191527783870697,-0.10452636331319809,-0.22306835651397705,0.17469438910484314,0.17875546216964722,0.15063804388046265,-0.17500272393226624,0.1493748426437378,0.014368574135005474,0.03642634302377701,0.08308872580528259,0.12430296093225479,-0.12537239491939545,0.1687508374452591,0.13480348885059357,0.14703452587127686,0.07101590186357498,0.0047634257934987545,-0.08101945370435715,-0.03063962049782276,-0.22512777149677277,-0.008950856514275074,0.03843638300895691,0.1794845163822174,-0.02724853716790676,0.18737158179283142,-0.12035012990236282,-0.2148008942604065,-0.024524837732315063,-0.1381252259016037,0.18482892215251923,0.17398585379123688,0.18136264383792877,-0.04274836182594299,0.20006008446216583,-0.08950146287679672,0.17632652819156647,0.1964307278394699,-0.16935132443904877,-0.1785351037979126,-0.09621638804674149,0.2183474749326706},{0.20211796462535858,0.09890419989824295,-0.019244905561208725,-0.14337532222270966,0.21512798964977264,0.24382153153419495,0.053454890847206116,0.23380064964294434,-0.1341405212879181,-0.029685670509934425,-0.04955192282795906,0.0521528422832489,-0.07810075581073761,0.1986539661884308,-0.21087464690208435,0.09532034397125244,-0.09053836762905121,0.2453937828540802,0.001986603019759059,0.09890325367450714,-0.03380268067121506,0.11835002899169922,0.07721319049596786,0.11949094384908676,-0.1552879959344864,-0.0832798108458519,-0.22594448924064636,0.08878941833972931,0.004635162185877562,0.1922920197248459,0.08935260772705078,-0.15226823091506958,0.20741981267929077,-0.08170082420110703,-0.2494116574525833,-0.07072672992944717,-0.04020475596189499,-0.23198029398918152,0.08074330538511276,0.08153783529996872,0.11312395334243774,0.04558756202459335,-0.10396452993154526,-0.2538180947303772,0.2530887722969055,0.07930754870176315,0.1749522089958191,-0.15022636950016022,-0.015063079074025154,-0.24165137112140656,0.18402943015098572,-0.1758996546268463,-0.02642197534441948,-0.062138304114341736,0.07094517350196838,-0.07653666287660599,0.0796237587928772,0.10874947160482407,-0.03876728564500809,0.12423146516084671},{-0.20981848239898682,-0.147597536444664,-0.11838969588279724,0.08048582077026367,-0.1399572640657425,0.0562191866338253,-0.024603167548775673,-0.1854333132505417,0.26647520065307617,0.21274465322494507,0.008850587531924248,-0.14084604382514954,-0.16651509702205658,0.18886388838291168,-0.16393312811851501,0.16044755280017853,0.11641081422567368,0.12132524698972702,0.16716767847537994,-0.13326117396354675,-0.16552497446537018,-0.013232416473329067,-0.20101898908615112,0.04489746317267418,-0.0020716406870633364,0.009616886265575886,-0.16993017494678497,-0.058037251234054565,0.15073248744010925,0.07447044551372528,-0.18070568144321442,0.03172777593135834,0.09851120412349701,0.14750033617019653,-0.1579446792602539,-0.039601486176252365,0.1545846313238144,-0.04299139976501465,0.11326372623443604,-0.10615509748458862,-0.19142895936965942,-0.05913574621081352,-0.07332594692707062,-0.01969914138317108,0.126173198223114,-0.04444066807627678,-0.1547723114490509,-0.11581814289093018,-0.17115801572799683,-0.11246103048324585,-0.22363869845867157,0.03444087132811546,-0.11934324353933334,-0.18648478388786316,0.1448410600423813,0.1842234879732132,0.011433660984039307,0.15913675725460052,-0.07874583452939987,-0.0032008211128413677},{-0.09757790714502335,0.26944804191589355,0.24834094941616058,-0.20432057976722717,0.20210519433021545,-0.04118955880403519,0.29069992899894714,-0.15122367441654205,-0.22954729199409485,0.06049878150224686,0.06686334311962128,0.08290666341781616,0.14877572655677795,-0.06259430199861526,-0.16770687699317932,0.09182751923799515,0.026059186086058617,-0.07624049484729767,0.1654425412416458,-0.04103422164916992,-0.20209769904613495,0.20122703909873962,-0.12487027049064636,0.1170903742313385,0.05488331988453865,0.22258228063583374,-0.05040114000439644,0.09855793416500092,0.19103164970874786,0.03839847818017006,-0.22609134018421173,0.26797229051589966,-0.14702486991882324,0.08099904656410217,0.18921703100204468,0.03094593435525894,-0.27174192667007446,0.13405649363994598,-0.09037936478853226,-0.0964382216334343,0.10907460749149323,0.1382950246334076,-0.016892127692699432,-0.03518136218190193,0.12184399366378784,0.12901385128498077,0.17587810754776,-0.26296573877334595,0.15298104286193848,0.026252733543515205,0.11511563509702682,0.07186419516801834,0.18521906435489655,0.25268080830574036,0.14364421367645264,0.1316693127155304,-0.17988283932209015,-0.2716113328933716,0.1619744747877121,0.17561310529708862},{0.1520116627216339,-0.056101325899362564,-0.1259128302335739,-0.024526046589016914,-0.07827295362949371,-0.1819721907377243,-0.17902296781539917,0.10029646754264832,-0.05539531260728836,-0.13324587047100067,-0.26115983724594116,-0.2050633579492569,-0.07904566824436188,-0.28345203399658203,-0.14279629290103912,0.08561153709888458,-0.14791855216026306,0.1721361130475998,-0.0030475733801722527,0.21989615261554718,0.03924031928181648,-0.14959773421287537,-0.09530974179506302,0.2128760814666748,-0.033819831907749176,0.09053225815296173,-0.18290837109088898,0.03660199046134949,0.06116049364209175,-0.13397885859012604,0.13495393097400665,0.014984078705310822,0.22165559232234955,-0.1806238740682602,-0.2072058767080307,-0.1859895884990692,-0.00024056583060882986,-0.09147515147924423,-0.23184561729431152,-0.10145746916532516,-0.008600800298154354,0.0804852545261383,0.2356073260307312,-0.11461902409791946,0.1184430867433548,-0.08358332514762878,0.12935025990009308,-0.08627508580684662,-0.1835443079471588,0.14016123116016388,-0.11511773616075516,0.09968973696231842,0.20028874278068542,-0.1935482621192932,-0.06976538151502609,-0.19104748964309692,-0.17836949229240417,0.1707703322172165,-0.16120696067810059,-0.08127861469984055},{-0.18567359447479248,-0.05360567942261696,0.1794360727071762,0.08030859380960464,-0.2500654458999634,-0.11597488820552826,0.13555492460727692,0.22249829769134521,0.2244444638490677,0.17136691510677338,-0.19646389782428741,0.12032362818717957,0.009125621989369392,-0.015502981841564178,0.24480749666690826,0.05677502229809761,-0.10117530822753906,0.21105386316776276,-0.11872335523366928,-0.11106760799884796,-0.03558145835995674,-0.1010429859161377,0.2512481212615967,0.09661827236413956,-0.10857502371072769,0.10781481862068176,-0.1831435114145279,0.11518541723489761,-0.09727603197097778,0.1886606216430664,0.2017589807510376,-0.16704726219177246,-0.05369626730680466,-0.11222121119499207,0.027402730658650398,-0.22469274699687958,-0.17016194760799408,-0.07162091881036758,0.1323477327823639,0.09189233928918839,-0.040766723453998566,-0.15537171065807343,-0.05478047579526901,-0.1299658566713333,0.07980996370315552,-0.004582375753670931,-0.15704184770584106,0.06758208572864532,0.056059617549180984,-0.1970975548028946,-0.12888433039188385,0.03415372222661972,0.00037749874172732234,-0.06563403457403183,0.07335703819990158,0.15874417126178741,0.007889539003372192,-0.018636362627148628,-0.2095649391412735,0.25765785574913025},{0.08559991419315338,0.12537816166877747,-0.23034077882766724,-0.04799525439739227,0.03272277116775513,-0.16341373324394226,0.07913440465927124,-0.05148828774690628,-0.18757057189941406,0.06497280299663544,0.1784796118736267,-0.13096684217453003,0.10547295957803726,-0.06072089076042175,0.09315474331378937,0.14723508059978485,-0.1781453788280487,0.2684529721736908,-0.057911649346351624,-0.18002833425998688,0.01490810140967369,0.06866540759801865,0.005154060199856758,-0.1999272257089615,-0.1288451850414276,-0.014069314114749432,-0.11431519687175751,-0.1743403673171997,-0.13865967094898224,-0.3397822976112366,0.01369377039372921,0.06039195507764816,0.0728151872754097,0.20247586071491241,-0.10842642933130264,-0.051069967448711395,-0.24414227902889252,-0.0946216732263565,-0.07782743126153946,0.03447750210762024,-0.09967837482690811,0.030636144801974297,-0.19777435064315796,0.01812668703496456,-0.1778074949979782,-0.08234113454818726,-0.1855967938899994,-0.04490131884813309,0.02171725407242775,0.06640783697366714,0.17400777339935303,0.22269560396671295,0.23513999581336975,0.03162169083952904,-0.10296681523323059,-0.115637868642807,-0.06841490417718887,0.08362803608179092,-0.176402747631073,0.2529739737510681},{-0.10157684981822968,-0.016910746693611145,-0.15783818066120148,0.06498749554157257,0.2309722602367401,0.06481319665908813,0.014882596209645271,-0.19487997889518738,-0.014087134040892124,-0.19561612606048584,0.10873062163591385,0.16897329688072205,-0.027089715003967285,-0.1135818287730217,-0.04256705194711685,-0.1258254498243332,0.05331965163350105,-0.12752048671245575,-0.21779504418373108,0.002202841453254223,0.0797581672668457,-0.20160189270973206,-0.16550086438655853,0.09345680475234985,0.04655623435974121,-0.09196510910987854,0.1616843193769455,-0.08322171866893768,0.08621162176132202,-0.10440734773874283,0.16604121029376984,-0.07865211367607117,-0.17973411083221436,-0.08709616959095001,-0.23229676485061646,0.00047385276411660016,-0.07745373994112015,0.116904616355896,-0.06518173217773438,-0.18905557692050934,-0.10652976483106613,0.008498485200107098,0.05334937945008278,0.05025601014494896,0.1637503057718277,0.04529072344303131,-0.020001601427793503,-0.25291797518730164,0.02195127308368683,0.041174352169036865,-0.24884472787380219,0.01580028235912323,-0.06980594247579575,-0.012275848537683487,-0.0672367662191391,0.10690104961395264,0.060337383300065994,-0.14894172549247742,0.11698734015226364,-0.24735027551651},{-0.2047424465417862,-0.01013417262583971,-0.09100668132305145,0.02527647092938423,0.08914512395858765,0.23666223883628845,0.11812932044267654,0.14499057829380035,0.09906955808401108,0.21985210478305817,-0.0238967165350914,0.17774981260299683,0.011820854619145393,-0.07216629385948181,-0.13752087950706482,-0.08300090581178665,0.17226622998714447,0.09646517038345337,0.09901506453752518,-0.21587936580181122,0.09545144438743591,0.18095436692237854,-0.1874542087316513,0.22888274490833282,0.1856357306241989,0.2585514187812805,0.14645451307296753,0.2557428479194641,0.10577359795570374,0.04868712276220322,0.16927537322044373,0.14509838819503784,0.20620550215244293,-0.2631906569004059,-0.1452111154794693,0.13538099825382233,0.022487452253699303,0.2339312583208084,0.20143680274486542,-0.0813203975558281,0.044733885675668716,0.0802411213517189,0.254582017660141,0.178689107298851,-0.12277809530496597,0.18738223612308502,0.010341049171984196,-0.03224628418684006,-0.12182453274726868,-0.08558987826108932,-0.11389568448066711,0.17038831114768982,-0.04918382316827774,-0.07673937827348709,0.06223205104470253,-0.13272573053836823,-0.22562019526958466,-0.2750110328197479,-0.04444226622581482,0.13754190504550934},{0.021845431998372078,0.062061797827482224,0.13237297534942627,-0.06763286888599396,-0.22115209698677063,-0.12905770540237427,0.07816559076309204,0.19459375739097595,0.2337111085653305,0.24323174357414246,0.12360679358243942,0.15066945552825928,0.09777544438838959,-0.04631154611706734,0.09408001601696014,-0.015918094664812088,0.08465506136417389,0.07175411283969879,0.23050738871097565,-0.06449628621339798,0.14944985508918762,0.12679672241210938,-0.2227625697851181,0.1864689439535141,-0.011761844158172607,-0.1694875806570053,0.044395241886377335,-0.053443845361471176,0.2128676027059555,0.12089300900697708,0.20452192425727844,0.16324199736118317,-0.14927932620048523,0.2204100340604782,-0.15363189578056335,-0.10610245913267136,0.10626673698425293,-0.18642640113830566,-0.09898659586906433,-0.04075566306710243,-0.18754951655864716,0.009012634865939617,-0.2168135643005371,0.0758795514702797,0.12715449929237366,0.04689953848719597,-0.12322607636451721,0.23996756970882416,-0.17196890711784363,-0.06221494823694229,0.08289516717195511,-0.21504290401935577,0.23232382535934448,-0.18259645998477936,-0.15115295350551605,0.13456733524799347,0.19090190529823303,-0.12476879358291626,0.036816101521253586,0.13558202981948853},{0.16159291565418243,0.23205064237117767,0.0920228585600853,0.05425409600138664,-0.07050243020057678,-0.11201310157775879,-0.15049386024475098,-0.15373606979846954,0.038614775985479355,0.008247609250247478,-0.059284236282110214,-0.14196467399597168,0.21100464463233948,-0.08985036611557007,0.019624488428235054,0.11863886564970016,0.0724368691444397,0.052345264703035355,-0.0211138054728508,-0.17315438389778137,-0.04594404250383377,0.0818556398153305,-0.18576602637767792,0.14190448820590973,0.2292727530002594,0.039851728826761246,-0.14670726656913757,-0.17063017189502716,-0.20085731148719788,0.15712185204029083,0.03434691205620766,-0.03635988384485245,0.1860751360654831,0.08777204155921936,0.08198343962430954,-0.1692734807729721,0.2451178878545761,-0.12829449772834778,0.12093011289834976,0.19172403216362,0.07750073075294495,-0.07172174006700516,0.1679486334323883,0.14674627780914307,0.24835260212421417,0.08891411870718002,-0.061320558190345764,0.04227907955646515,-0.1704406887292862,0.18311110138893127,-0.08689802139997482,-0.04285537824034691,0.23133255541324615,-0.08055563271045685,0.18412387371063232,-0.14108462631702423,0.22923921048641205,-0.1685934215784073,0.11016044020652771,0.05867104232311249},{-0.09325816482305527,0.24115027487277985,0.05890100449323654,0.03314527869224548,0.21229839324951172,0.08329438418149948,-0.17040985822677612,-0.10802404582500458,-0.14337050914764404,-0.04350053891539574,0.10230721533298492,0.12632933259010315,-0.13593444228172302,-0.05972176045179367,0.011361313052475452,-0.15679612755775452,-0.1513717621564865,0.10132788866758347,-0.1639406830072403,-0.22466441988945007,-0.027137059718370438,-0.14018970727920532,-0.075554259121418,-0.07633056491613388,-0.13525576889514923,-0.06403131783008575,-0.08615079522132874,-0.18405091762542725,-0.19643108546733856,-0.15360382199287415,-0.04265875741839409,0.19498296082019806,0.19025751948356628,0.09230636805295944,0.2334764152765274,-0.2559095323085785,0.11870891600847244,0.1055295467376709,-0.004851208999752998,-0.2548080384731293,-0.1030784621834755,-0.08735585957765579,0.15301929414272308,-0.1252811700105667,0.024906713515520096,-0.08921734988689423,-0.10845989733934402,0.07227428257465363,0.10788390785455704,-0.14106887578964233,0.16708427667617798,-0.1276034563779831,-0.231928750872612,-0.1287611871957779,-0.1225341409444809,-0.012467053718864918,-0.0361371673643589,0.2716559171676636,-0.08250810950994492,0.1228725016117096},{-0.011647889390587807,-0.19616270065307617,0.033595822751522064,-0.14544016122817993,0.07259976118803024,-0.22129376232624054,-0.08862952888011932,0.14617380499839783,-0.14883190393447876,0.15720531344413757,-0.24226869642734528,0.037724629044532776,-0.033593133091926575,-0.09886955469846725,-0.22888757288455963,0.052765995264053345,0.007584155537188053,-0.007039998658001423,0.25357967615127563,0.0351443849503994,-0.15545985102653503,0.19158300757408142,-0.1921960562467575,0.17826668918132782,0.2801200747489929,-0.04403619468212128,0.2330186665058136,-0.06715748459100723,-0.19307713210582733,0.04904695600271225,-0.1777760088443756,0.21410290896892548,0.014720309525728226,-0.10005342960357666,-0.14558379352092743,0.04187827557325363,-0.015320152044296265,0.03680780529975891,0.0029763616621494293,-0.2901647090911865,0.03196629509329796,0.13764265179634094,0.058383259922266006,0.18950985372066498,-0.15353405475616455,0.0490276962518692,-0.17467358708381653,-0.14454498887062073,0.023313166573643684,-0.17658250033855438,0.21784108877182007,-0.0062442077323794365,-0.13362537324428558,0.1784513294696808,-0.15978729724884033,-0.06169392541050911,-0.11358105391263962,0.20135395228862762,0.26183584332466125,0.22831647098064423},{0.04882698878645897,-0.019810521975159645,-0.024936098605394363,0.24878545105457306,-0.03146727755665779,-0.04973930865526199,0.2460612654685974,0.012670565396547318,0.047924451529979706,-0.007560020312666893,-0.12092509865760803,-0.2091577798128128,-0.03092218190431595,0.08215060085058212,0.20208609104156494,0.18948276340961456,0.08249454200267792,-0.13993145525455475,-0.11147516220808029,0.09092281013727188,-0.18067996203899384,-0.09571992605924606,0.14629971981048584,0.03736639395356178,-0.0898202657699585,-0.22668185830116272,-0.002669587964192033,0.08722303062677383,0.055631328374147415,-0.22162868082523346,0.048313383013010025,0.1608649492263794,0.17454752326011658,0.1904766708612442,-0.15827862918376923,-0.1256546974182129,-0.1373690813779831,0.1351611316204071,-0.11903031170368195,0.10164841264486313,-0.04836022108793259,0.06773031502962112,0.13283805549144745,-0.07453345507383347,-0.0205095112323761,-0.05072314292192459,-0.1064075380563736,-0.19810904562473297,-0.10518445819616318,0.016421839594841003,-0.17787712812423706,-0.1754651516675949,-0.18292810022830963,-0.05250261351466179,-0.050327859818935394,0.11437521874904633,-0.20833036303520203,-0.03583593666553497,0.14491266012191772,-0.0514376200735569},{0.18889282643795013,-0.05636948347091675,-0.19794851541519165,0.2113378793001175,-0.0613056905567646,-0.18056020140647888,0.1746388077735901,-0.17634092271327972,0.18017560243606567,-0.00979660265147686,0.08668260276317596,0.1794106513261795,0.05470040440559387,-0.14153918623924255,0.06606468558311462,0.14391179382801056,0.008525347337126732,0.08954131603240967,-0.03133805841207504,-0.053678322583436966,-0.18703635036945343,-0.06390408426523209,-0.08501588553190231,-0.09360024333000183,0.15409570932388306,-0.14899484813213348,-0.001442603999748826,-0.056729771196842194,0.20490895211696625,0.17647884786128998,-0.0687154084444046,0.09161961078643799,0.1360279619693756,0.18392221629619598,-0.07140509784221649,-0.06381714344024658,-0.0025416419375687838,-0.1457010805606842,0.17062482237815857,0.11266031861305237,-0.16098575294017792,0.17373216152191162,-0.14974500238895416,-0.030139582231640816,-0.11884887516498566,0.18823163211345673,-0.11880897730588913,-0.17371833324432373,0.11777133494615555,-0.21061068773269653,0.02396533638238907,-0.10064104944467545,-0.07703082263469696,-0.18342730402946472,0.15919338166713715,0.029943922534585,0.11620797216892242,-0.231289803981781,-0.21687625348567963,0.0704335868358612},{0.09290183335542679,0.07195769995450974,-0.05728074163198471,-0.1686578094959259,0.14044593274593353,-0.1922854483127594,-0.021849609911441803,-0.05846506729722023,-0.17637914419174194,0.0758734866976738,0.04915816709399223,0.22446975111961365,0.12093039602041245,-0.13997289538383484,-0.21665748953819275,0.2000601887702942,-0.25194332003593445,0.08011151105165482,-0.17149820923805237,-0.21797901391983032,0.13043896853923798,0.179098442196846,0.19241400063037872,-0.03293059021234512,0.055130064487457275,-0.09381873160600662,-0.1393599659204483,0.19975066184997559,0.029259448871016502,-0.2262648344039917,-0.005255246069282293,-0.17628711462020874,0.003974084742367268,-0.20281942188739777,-0.12329041957855225,-0.12441437691450119,-0.3263936936855316,0.14670971035957336,0.05798991769552231,-0.0129557428881526,-0.09389478713274002,0.1602448970079422,-0.17299087345600128,0.10684226453304291,-0.2257077693939209,-0.025465844199061394,0.0070161595940589905,-0.05443384125828743,0.2284030318260193,0.09465309232473373,-0.186167374253273,0.17392943799495697,0.054288316518068314,-0.14192472398281097,-0.15012076497077942,0.09960096329450607,0.0825582891702652,0.08621987700462341,-0.20012694597244263,-0.09072975069284439},{-0.021424196660518646,0.03861400857567787,-0.022067930549383163,-0.08364036679267883,0.18187497556209564,-0.10594122856855392,0.13018231093883514,0.0434955395758152,-0.22854790091514587,0.26034629344940186,-0.0514632947742939,0.055128104984760284,0.18718193471431732,-0.013580637983977795,0.20159997045993805,-0.09975697100162506,-0.1728699505329132,-0.10422584414482117,0.16116863489151,-0.1953369379043579,0.12890948355197906,-0.08773656189441681,-0.023232819512486458,0.18294328451156616,0.2086023986339569,0.08656500279903412,-0.1341518610715866,0.11902876943349838,-0.15220801532268524,-0.06641734391450882,0.18482272326946259,-0.2186928540468216,0.029151763767004013,0.051093827933073044,0.24229730665683746,0.11200445890426636,-0.22529484331607819,-0.06740857660770416,0.0014840681105852127,-0.15568791329860687,-0.11063551157712936,0.09881125390529633,0.26325851678848267,-0.053028348833322525,0.15044738352298737,0.21223150193691254,0.2220284640789032,0.028574876487255096,0.012209362350404263,0.12010961771011353,0.14099189639091492,0.04682238772511482,0.2711431384086609,-0.20245200395584106,0.02740074135363102,-0.062048912048339844,0.24632371962070465,0.10278193652629852,-0.18663708865642548,-0.1389044225215912},{-0.1421424001455307,0.07343868911266327,-0.12325756996870041,-0.022650152444839478,0.09077182412147522,0.22187118232250214,0.10198263823986053,-0.018391095101833344,-0.18053138256072998,-0.07252970337867737,0.03296975791454315,-0.19892260432243347,-0.001154876546934247,-0.014719737693667412,-0.022658387199044228,0.04580571874976158,-0.22564953565597534,0.11052350699901581,0.026929546147584915,-0.04037223011255264,0.06092886999249458,0.22541430592536926,-0.17330050468444824,-0.17564323544502258,0.21124011278152466,0.04788122698664665,0.11720730364322662,-0.21148152649402618,0.033733002841472626,0.14588041603565216,-0.07925233244895935,0.14736370742321014,-0.011133055202662945,0.20284563302993774,0.16587698459625244,-0.10290026664733887,-0.12862366437911987,-0.11757268011569977,-0.14431893825531006,-0.0764295682311058,-0.11753004044294357,-0.1533128023147583,0.14879301190376282,-0.042562682181596756,-0.09276003390550613,-0.07906893640756607,0.12257310003042221,-0.12812559306621552,0.031045814976096153,0.08055809140205383,-0.09573032706975937,0.18330349028110504,-0.03849198296666145,-0.03619099780917168,0.15819212794303894,0.12867820262908936,-0.13066329061985016,0.212388813495636,-0.15737691521644592,-0.010029135271906853},{0.0015386834274977446,-0.1484730988740921,0.22357943654060364,0.03418345004320145,0.022692561149597168,0.06649582833051682,0.2106185406446457,0.22701796889305115,-0.185556560754776,0.16443093121051788,0.10080505162477493,-0.04482240602374077,-0.1531335711479187,-0.18009135127067566,-0.16848455369472504,0.187289759516716,0.029386214911937714,0.008496317081153393,-0.23706865310668945,0.13317756354808807,0.14643064141273499,-0.04107778146862984,-0.10592582821846008,-0.0919756069779396,-0.0666758343577385,-0.18261045217514038,-0.031617261469364166,-0.03427327796816826,-0.22235703468322754,-0.035072725266218185,-0.1923624724149704,0.08564475178718567,-0.019369294866919518,-0.182821586728096,-0.14134865999221802,-0.14118941128253937,0.14252181351184845,-0.10037419945001602,0.2459568828344345,0.15614263713359833,-0.06743331253528595,-0.005258372984826565,-0.14042618870735168,0.08905903249979019,0.17352335155010223,0.14689858257770538,0.15816642343997955,0.11270613223314285,-0.019351901486516,0.0978466272354126,0.06888129562139511,0.08137458562850952,-0.14360587298870087,-0.13885879516601562,-0.2139168232679367,0.09526213258504868,0.15831971168518066,0.005554904229938984,-0.029363613575696945,0.09507187455892563},{0.13677863776683807,-0.0023180809803307056,-0.045351188629865646,-0.020952904596924782,-0.17938031256198883,0.032555170357227325,0.09784750640392303,0.09512478858232498,0.05029048025608063,-0.0667593702673912,0.165122851729393,0.007095681969076395,0.12627153098583221,0.21466369926929474,-0.1649889051914215,-0.15414446592330933,0.09800036251544952,0.2293345183134079,0.19783495366573334,-0.11080218106508255,-0.06824738532304764,-0.1331762969493866,-0.12367145717144012,0.1818193793296814,0.0036361925303936005,-0.07268068939447403,-0.0022904411889612675,0.23927971720695496,0.18342538177967072,0.11846952140331268,0.22354882955551147,-0.15551608800888062,-0.1980600357055664,0.059505607932806015,0.1579580456018448,0.10401912778615952,0.1296195089817047,-0.20587828755378723,0.06147187948226929,0.17687812447547913,-0.04726327210664749,0.11379165947437286,-0.19031333923339844,0.20514130592346191,-0.15274006128311157,0.17766401171684265,0.19914382696151733,0.17002081871032715,0.19259698688983917,0.204888716340065,-0.0865551084280014,0.14022988080978394,0.0028007682412862778,-0.18639594316482544,0.2489708811044693,-0.0005401645903475583,-0.09631854295730591,0.15921443700790405,-0.10813199728727341,-0.09687134623527527},{0.158445343375206,-0.01992020010948181,-0.08637835085391998,0.005946075078099966,-0.28697147965431213,0.22295759618282318,0.09151773899793625,-0.005305033177137375,0.109743632376194,-0.24370907247066498,0.1552935242652893,0.1924700289964676,-0.11968665570020676,-0.1667335331439972,-0.01146127749234438,-0.07856228947639465,0.08603975176811218,-0.1671544462442398,0.13542328774929047,0.08617008477449417,-0.14553163945674896,-0.06776837259531021,-0.16490259766578674,-0.06651968508958817,-0.04730185121297836,-0.2670944929122925,-0.1442127823829651,0.14223483204841614,-0.18588191270828247,0.16864745318889618,-0.0034396990668028593,0.162196084856987,0.1353461891412735,-0.13089756667613983,0.08711948245763779,-0.00537203811109066,0.3357924818992615,0.10686255246400833,0.1304825097322464,0.06602778285741806,0.1376991719007492,-0.05536874756217003,0.08833928406238556,-0.15441402792930603,0.12219882756471634,-0.16226117312908173,-0.005499250255525112,-0.05747108533978462,-0.2734367251396179,0.035220663994550705,0.19568957388401031,-0.13303112983703613,-0.2328881472349167,-0.13024404644966125,0.17225773632526398,-0.075701504945755,-0.13600939512252808,0.050374291837215424,-0.1941555291414261,0.1348486840724945},{-0.055295974016189575,-0.13986775279045105,-0.11805205047130585,0.054770637303590775,0.23461894690990448,0.1106022521853447,-0.03518650308251381,0.2159074991941452,-0.19438131153583527,0.03367968648672104,-0.1318054348230362,-0.21000869572162628,-0.28481611609458923,0.18525250256061554,-0.11039038747549057,-0.07865968346595764,0.16981856524944305,-0.12169729173183441,0.08789317309856415,0.0708874762058258,0.16630499064922333,-0.2203279584646225,-0.2099328637123108,-0.10076560825109482,0.03131826967000961,0.20432054996490479,-0.15964314341545105,-0.107757568359375,0.029494358226656914,0.10985402017831802,-0.1788300722837448,0.03242231160402298,-0.20432355999946594,0.17350026965141296,-0.18339650332927704,0.15503908693790436,0.12925130128860474,0.1505468189716339,0.1410171389579773,0.2367715984582901,0.04469459503889084,0.16484732925891876,0.17837896943092346,0.12310034781694412,-0.03861534222960472,-0.1582288146018982,0.07131415605545044,-0.2101094275712967,-0.12940748035907745,0.22979775071144104,0.038894038647413254,0.07949405908584595,0.05159693583846092,0.20803149044513702,0.04931475967168808,0.021129336208105087,-0.003840679069980979,0.18401029706001282,0.09859780967235565,-0.21339981257915497},{0.1338668316602707,-0.014968840405344963,0.08958127349615097,0.013829726725816727,0.12394808977842331,0.01711498573422432,0.0068117170594632626,-0.24332687258720398,-0.06223120167851448,0.00873494055122137,-0.10324309021234512,-0.171253502368927,-0.06857942044734955,0.054743822664022446,-0.15607430040836334,0.16751191020011902,-0.17634297907352448,0.12107374519109726,0.26000091433525085,0.23472048342227936,-0.042876675724983215,0.1330810934305191,0.015031356364488602,-0.04436355456709862,-0.11470292508602142,-0.21437424421310425,-0.19571925699710846,-0.19943779706954956,-0.03938651084899902,0.02266126684844494,-0.0031675640493631363,-0.28758156299591064,0.09052252024412155,0.13442498445510864,0.14666061103343964,0.025624362751841545,0.17600059509277344,-0.09388372302055359,0.04712431877851486,0.24737747013568878,0.18345344066619873,-0.09630922973155975,0.25628331303596497,0.11052411049604416,0.009425276890397072,0.17352217435836792,-0.09598755836486816,-0.053385138511657715,0.14462606608867645,-0.1546907126903534,-0.155061274766922,-0.24324898421764374,0.05676267296075821,-0.2274944931268692,-0.012154385447502136,-0.14966507256031036,-0.013238351792097092,0.028960363939404488,0.1329984962940216,-0.11129728704690933},{-0.1294209063053131,-0.18907780945301056,0.2369917780160904,0.18205860257148743,-0.08269597589969635,0.04200856387615204,-0.1434674859046936,-0.021260136738419533,0.10575427860021591,0.08798275887966156,-0.07665140181779861,0.139522522687912,-0.1638530194759369,-0.15526296198368073,0.10178756713867188,0.04488176107406616,0.0682428851723671,-0.11266251653432846,0.01974988728761673,0.05275919288396835,-0.045132193714380264,0.11102665960788727,-0.19650506973266602,0.053400155156850815,-0.02214990183711052,-0.03943168371915817,-0.22077853977680206,0.08931215852499008,0.14561554789543152,0.2883661687374115,-0.004051979631185532,-0.05354742705821991,-0.06706767529249191,0.10848323255777359,0.23355068266391754,0.12052320688962936,0.10807976126670837,0.06440982967615128,0.20678755640983582,-0.041791897267103195,-0.051091622561216354,-0.2530268728733063,0.011279979720711708,0.1468431055545807,0.1210101768374443,0.08764562755823135,0.10933184623718262,0.21429985761642456,0.19879427552223206,0.033083174377679825,-0.22847363352775574,-0.17877718806266785,-0.24299700558185577,-0.05393359065055847,0.18475130200386047,-0.07524826377630234,0.11881571263074875,0.17541977763175964,-0.0476151667535305,-0.17572146654129028},{0.11427392065525055,-0.00267806276679039,0.15377037227153778,0.08580847829580307,-0.0877142921090126,-0.0741163045167923,-0.20734916627407074,-0.11221415549516678,0.06649171561002731,-0.2400403767824173,-0.13031573593616486,0.030407657846808434,-0.12650352716445923,-0.15443257987499237,0.056663285940885544,-0.21752993762493134,0.17762848734855652,0.032787613570690155,-0.19711796939373016,-0.04374272748827934,-0.1518571823835373,-0.02326800674200058,-0.04791605472564697,-0.1630427986383438,-0.12036925554275513,0.012880375608801842,0.22095951437950134,0.11139312386512756,-0.08126676827669144,0.2856913208961487,0.02004390023648739,-0.15430381894111633,0.026920223608613014,-0.14141589403152466,-0.09020189940929413,0.10503100603818893,0.2168862223625183,-0.14769567549228668,-0.07142464071512222,-0.13112613558769226,-0.23231127858161926,0.18428799510002136,0.20302674174308777,0.12412683665752411,-0.3141840100288391,0.16102056205272675,0.05712152272462845,-0.12831896543502808,-0.028041094541549683,-0.061244893819093704,-0.09098941087722778,-0.2899409830570221,0.27617377042770386,0.16357845067977905,0.012265621684491634,0.13398945331573486,-0.071407750248909,-0.1285388320684433,0.08899082243442535,0.04823174700140953},{-0.19645048677921295,-0.04103032872080803,-0.20181772112846375,0.09793777763843536,-0.18207159638404846,0.09310130029916763,-0.06160079687833786,-0.20721136033535004,0.14271292090415955,-0.15685948729515076,-0.06510145217180252,-0.0656677708029747,0.10140876471996307,-0.07511767745018005,-0.14826570451259613,0.17801611125469208,-0.08544788509607315,-0.05499725416302681,-0.10922521352767944,-0.15735268592834473,0.15080247819423676,-0.19929173588752747,-0.07327551394701004,0.033498022705316544,0.15290088951587677,-0.13527299463748932,0.06316854059696198,-0.029161769896745682,0.13854451477527618,-0.08988024294376373,0.19855962693691254,-0.056163158267736435,-0.014798893593251705,0.18481415510177612,0.2491312175989151,-0.11346235126256943,0.1599370688199997,0.11000956594944,0.13547615706920624,-0.14028868079185486,-0.03710468113422394,0.13232839107513428,0.07372690737247467,0.15522003173828125,0.2009374499320984,-0.06840947270393372,0.0373726487159729,-0.07017137110233307,-0.05086096376180649,-0.2399982064962387,-0.0038181624840945005,0.1308264136314392,0.09122993797063828,0.12481936067342758,0.03793847933411598,0.07862842828035355,0.15892188251018524,0.05084637179970741,-0.08198543637990952,0.12910394370555878},{0.21941730380058289,0.08718641102313995,-0.018120884895324707,-0.0005220147431828082,-0.27048754692077637,0.06439066678285599,-0.27793335914611816,-0.008592037484049797,-0.02173447236418724,0.002956121927127242,-0.056522902101278305,-0.16180919110774994,0.11130595207214355,0.21073219180107117,0.02728307619690895,0.17214758694171906,-0.21004712581634521,0.1906147003173828,0.18422283232212067,0.011216627433896065,0.17823514342308044,0.10376798361539841,-0.178690567612648,0.08353686332702637,0.18248024582862854,0.1530570685863495,0.04518723487854004,-0.2310754954814911,-0.06000608205795288,0.2866741716861725,-0.14279860258102417,-0.06220915541052818,-0.13967165350914001,-0.03768536075949669,0.18670685589313507,0.20863105356693268,-0.01311149075627327,-0.035132210701704025,0.13325980305671692,-0.1035006120800972,0.1475076973438263,0.2364620864391327,0.0751071348786354,0.1741834133863449,-0.0024384765420109034,-0.10409290343523026,-0.11843317747116089,0.10737926512956619,0.034577131271362305,-0.01204720325767994,-0.014608105644583702,0.09613875299692154,-0.2923133969306946,0.08879221975803375,0.12483905255794525,0.02979942038655281,-0.15934593975543976,0.08081598579883575,0.05155019834637642,0.11400136351585388},{0.14952242374420166,-0.13425606489181519,-0.06729323416948318,-0.07664969563484192,0.1863926202058792,0.09666186571121216,0.07451929152011871,-0.10370317846536636,-0.08224279433488846,0.08604397624731064,0.13240821659564972,-0.04342200607061386,0.12806683778762817,0.21392963826656342,-0.2236560881137848,-0.026496270671486855,-0.05813641473650932,-0.22293506562709808,-0.14453871548175812,0.1711643487215042,-0.13092732429504395,0.13668084144592285,-0.014091388322412968,0.090177521109581,0.012360324151813984,0.09111151099205017,0.20177501440048218,0.24129542708396912,0.06678511202335358,0.17936763167381287,-0.16852737963199615,-0.03320515528321266,-0.07251055538654327,0.1439799666404724,0.06957485526800156,0.045113421976566315,-0.14713697135448456,0.015151728875935078,0.08701162040233612,-0.1797237992286682,-0.15626709163188934,0.15438775718212128,-0.11659646034240723,0.16702115535736084,0.12587705254554749,0.1889057159423828,0.03130234405398369,-0.0638914406299591,0.15332426130771637,-0.03399471193552017,-0.023650534451007843,-0.15611538290977478,-0.12335416674613953,0.08287546783685684,-0.09698791801929474,-0.11492516100406647,0.06448902934789658,0.2561662197113037,-0.12977157533168793,0.18034960329532623},{0.1710348129272461,-0.040253642946481705,-0.04364077374339104,0.0843263491988182,0.09703165292739868,-0.2486698031425476,0.2294633984565735,-0.22832949459552765,-0.1234075054526329,-0.19884136319160461,-0.16529323160648346,0.13928602635860443,0.005031796637922525,0.10796761512756348,0.2021722048521042,0.2755878269672394,-0.08128562569618225,-0.20241031050682068,0.13942572474479675,0.08292531967163086,0.18761368095874786,0.185808926820755,-0.15165738761425018,0.02083129808306694,-0.03561198711395264,0.16555149853229523,0.13289828598499298,0.12043305486440659,-0.15818297863006592,0.008168220520019531,-0.04448370635509491,-0.022159334272146225,-0.21678107976913452,0.11343581229448318,0.02587781846523285,-0.04887239634990692,0.07864215970039368,-0.18803012371063232,-0.09938091039657593,0.242119699716568,0.2432790994644165,-0.22223466634750366,-0.14378425478935242,0.016176404431462288,-0.17543818056583405,-0.13827770948410034,0.037871405482292175,0.2258107215166092,-0.0525447353720665,-0.12946607172489166,-0.13006992638111115,0.021040165796875954,0.30836939811706543,-0.060700032860040665,0.00062743661692366,0.08409549295902252,0.12475895881652832,0.10533939301967621,0.1287393718957901,0.20308637619018555},{-0.07651669532060623,0.14851528406143188,-0.1986922323703766,0.17989172041416168,-0.23940685391426086,-0.022762054577469826,0.011921102181077003,-0.016085781157016754,-0.19679667055606842,-0.17294365167617798,0.20566818118095398,0.21690888702869415,0.06302870064973831,0.21295307576656342,-0.21869757771492004,-0.20942364633083344,0.19669197499752045,-0.21793508529663086,-0.12303020805120468,-0.16753064095973969,0.1385791152715683,-0.07108103483915329,-0.08064620196819305,0.13848848640918732,-0.19092398881912231,0.12287016212940216,-0.014730035327374935,-0.20687679946422577,0.2249164581298828,0.11406680196523666,0.12096168845891953,-0.026423247531056404,-0.1331857144832611,-0.1790287345647812,0.22936849296092987,0.02345282770693302,0.22065423429012299,0.06645409017801285,0.13478998839855194,0.001224126317538321,-0.003612163942307234,0.09627600014209747,0.20394787192344666,-0.1522904932498932,-0.09291154891252518,0.24502143263816833,0.11784295737743378,-0.09010415524244308,0.11232464760541916,-0.13629330694675446,0.004189217463135719,0.22373969852924347,-0.05752888321876526,-0.1817985326051712,0.17492817342281342,0.2119596302509308,-0.08796948194503784,0.2861276865005493,0.160103902220726,-0.22189396619796753},{0.15732985734939575,0.21552774310112,0.26201221346855164,-0.04051684960722923,0.04385052248835564,0.07040915638208389,-0.08816209435462952,0.17687954008579254,-0.003593530971556902,-0.08227764815092087,0.22258499264717102,-0.03358085826039314,0.10966537147760391,0.14345964789390564,-0.14378094673156738,0.06713330000638962,0.21283996105194092,-0.022459344938397408,0.11677515506744385,0.12960900366306305,0.028644511476159096,0.10256727784872055,0.2580549418926239,0.012326641008257866,-0.23478686809539795,-0.09195438772439957,0.18530963361263275,0.061666544526815414,0.07656535506248474,-0.07779982686042786,0.20987343788146973,0.2738589942455292,0.16523702442646027,-0.16203096508979797,0.2969549298286438,0.20666548609733582,-0.21731556951999664,0.05692150071263313,0.1616673320531845,-0.21951085329055786,0.2122011035680771,0.15090641379356384,0.011011805385351181,0.057109758257865906,-0.04192105308175087,0.15832871198654175,-0.0720115453004837,0.1848875880241394,0.2150118052959442,-0.15216802060604095,0.07484102249145508,-0.17253579199314117,-0.09858597069978714,-0.19876912236213684,0.08299770951271057,0.06905949860811234,-0.2625897526741028,0.02770889550447464,-0.020633336156606674,0.06625112146139145},{-0.029537754133343697,0.22586187720298767,0.18565733730793,-0.1451379358768463,-0.01584906503558159,0.10151919722557068,0.14190150797367096,-0.23844224214553833,0.09051857143640518,-0.14054834842681885,0.2230401188135147,-0.1341732293367386,0.19182607531547546,0.05748026818037033,-0.04062969237565994,0.051589660346508026,0.20816978812217712,-0.007262761238962412,-0.05358227342367172,0.09188000857830048,-0.12133627384901047,0.08789440989494324,0.2340053915977478,0.25051775574684143,-0.16769056022167206,0.1347355991601944,-0.012371738441288471,-0.018623298034071922,-0.13539113104343414,-0.07221948355436325,-0.13428618013858795,0.1830885261297226,0.15212208032608032,-0.033358726650476456,0.21924704313278198,0.1557820737361908,-0.16719482839107513,-0.07888336479663849,-0.10995738208293915,-0.13632531464099884,-0.0661991611123085,-0.13563407957553864,-0.20375670492649078,-0.09652378410100937,-0.10177908837795258,0.2936329245567322,0.17207027971744537,0.11136786639690399,0.028460053727030754,0.05036403611302376,-0.12878836691379547,-0.1341393142938614,-0.013993115164339542,-0.0886164978146553,-0.1469125896692276,0.0727471187710762,0.08577168732881546,-0.04443511739373207,0.18362106382846832,-0.12887327373027802},{0.12530405819416046,0.024707723408937454,-0.18237604200839996,0.11225061863660812,-0.2355707287788391,0.015347005799412727,0.2842647433280945,-0.11974124610424042,0.030200926586985588,0.17154143750667572,0.163755401968956,0.0718817487359047,-0.18471042811870575,0.23354096710681915,-0.2013317495584488,0.05337640270590782,0.16095393896102905,-0.08457549661397934,0.14228536188602448,-0.1961628943681717,-0.1731020212173462,-0.05343734100461006,0.025827372446656227,0.15285886824131012,-0.1462094932794571,0.24800527095794678,-0.23696830868721008,0.23032879829406738,-0.02962048351764679,0.06495415419340134,-0.12567086517810822,-0.16070696711540222,-0.22099624574184418,-0.24247397482395172,-0.16037556529045105,0.22088271379470825,-0.24289235472679138,-0.096962109208107,-0.00471275020390749,-0.08889244496822357,-0.211870014667511,-0.02799287810921669,-0.06362629681825638,0.24709828197956085,-0.1402556151151657,0.22303378582000732,-0.07116205990314484,-0.17899711430072784,-0.10126888751983643,0.19328461587429047,-0.061870984733104706,-0.20608285069465637,-0.09466090053319931,0.169154092669487,0.06747168302536011,0.04576340317726135,-0.1988055258989334,0.029062926769256592,0.10515579581260681,-0.16674385964870453},{0.12127898633480072,-0.03977064788341522,0.1374596804380417,-0.15725380182266235,-0.22382469475269318,-0.03479265421628952,-0.0448412261903286,-0.04101590812206268,0.2270801067352295,0.12359434366226196,0.09835605323314667,0.1676492542028427,0.3165901303291321,0.143906369805336,-0.20111648738384247,0.132264643907547,0.00905726570636034,-0.16554799675941467,-0.11259417980909348,0.03126540780067444,0.04029379412531853,0.006236030254513025,0.06380767375230789,-0.14964598417282104,-0.20294351875782013,-0.0958859920501709,0.19854415953159332,0.11755383014678955,-0.11635029315948486,-0.008397051133215427,0.005160934291779995,0.012667041271924973,-0.12456482648849487,-0.03693949803709984,0.1409052014350891,-0.1512308418750763,-0.09190642833709717,0.18373627960681915,-0.010997981764376163,-0.17026659846305847,-0.1588675081729889,0.13620735704898834,-0.002842477522790432,-0.07679425925016403,0.13535811007022858,-0.10153337568044662,0.13590924441814423,0.20441174507141113,-0.03438182175159454,-0.1317875236272812,-0.06990905106067657,-0.02484128437936306,0.05967673286795616,0.03888651356101036,-0.08639204502105713,0.06882498413324356,-0.1085476353764534,0.038918063044548035,-0.07715782523155212,0.19286392629146576}};
static const float action_parameterization_distribution_linear_weight[60][4] = {{-0.009870661422610283,0.04505358263850212,0.05027300864458084,-0.04756680130958557},{0.045267123728990555,0.17156966030597687,0.06085634231567383,-0.031136078760027885},{0.037857670336961746,-0.05159640684723854,0.07596220076084137,-0.052656106650829315},{-0.10144420713186264,-0.053014788776636124,0.07768044620752335,-0.14852823317050934},{0.28689074516296387,-0.16625630855560303,-0.14295759797096252,0.08245618641376495},{0.12688778340816498,-0.1833048015832901,0.05771562084555626,0.0835857167840004},{-0.25622743368148804,0.18474756181240082,0.13614057004451752,-0.1964268982410431},{0.052114807069301605,0.014800851233303547,-0.202818363904953,-0.1040288582444191},{0.11005203425884247,0.01985572651028633,0.21639366447925568,-0.12356007844209671},{-0.045542120933532715,0.09673767536878586,-0.14180797338485718,-0.10229689627885818},{0.03226799517869949,0.014652707614004612,-0.019208498299121857,0.0452909953892231},{0.006867745891213417,-0.030269281938672066,-0.02296038530766964,-0.0476488322019577},{0.12836843729019165,-0.1796664595603943,-0.030299030244350433,0.22999200224876404},{-0.16341717541217804,-0.12945154309272766,0.24205408990383148,0.08161505311727524},{0.049983859062194824,0.10967299342155457,-0.02571040205657482,0.12903033196926117},{0.14626066386699677,0.05782314017415047,0.15092527866363525,0.04973648488521576},{0.09579713642597198,0.12358252704143524,-0.08105377852916718,-0.07215531915426254},{-0.19868020713329315,-0.12774570286273956,-0.038206327706575394,-0.02359713427722454},{0.115129254758358,-0.2428540587425232,-0.20307831466197968,-0.20304442942142487},{-0.01619657687842846,-0.04361823946237564,-0.07844776660203934,-0.07284604758024216},{-0.04977424442768097,-0.16386064887046814,0.18017542362213135,0.050257693976163864},{0.07313461601734161,0.009917975403368473,-0.08112236112356186,-0.08878963440656662},{0.147182896733284,0.06353916972875595,0.08953192830085754,0.18040259182453156},{0.12064605206251144,0.07684696465730667,-0.10246740281581879,0.09907234460115433},{-0.15267424285411835,-0.12338864058256149,0.10432382673025131,0.0067607443779706955},{-0.1648993045091629,0.13165788352489471,-0.03754166141152382,0.012488162145018578},{0.03520449250936508,0.11785830557346344,-0.035212449729442596,-0.03275176137685776},{0.1752907782793045,-0.04640436917543411,0.23215870559215546,0.0787162110209465},{-0.10048610717058182,0.23611778020858765,-0.023885071277618408,0.10104285925626755},{0.16462786495685577,0.15986353158950806,0.23234149813652039,-0.09899501502513885},{-0.007693455088883638,-0.14624305069446564,0.03611297160387039,-0.07076030224561691},{-0.022518901154398918,0.027840498834848404,0.09969218820333481,-0.03223709017038345},{-0.1216832771897316,0.14180852472782135,-0.05710383132100105,-0.05402350425720215},{0.0884394720196724,-0.03914046660065651,-0.00856403261423111,-0.0890401229262352},{0.13240903615951538,0.1213473230600357,-0.10129754990339279,-0.19150376319885254},{-0.13125944137573242,0.07257258892059326,-0.08397869020700455,-0.022159012034535408},{0.20344874262809753,0.08314163982868195,-0.30931541323661804,0.20050887763500214},{-0.054919611662626266,-0.02170966938138008,-0.016903316602110863,0.06954111903905869},{-0.2403818666934967,-0.1793382316827774,0.30066919326782227,-0.1260806769132614},{0.01787886768579483,0.009755653329193592,0.033564675599336624,0.1983504742383957},{0.19792166352272034,0.10862355679273605,0.07191989570856094,-0.11474968492984772},{0.14040020108222961,-0.07177002727985382,-0.03907182812690735,0.007781048305332661},{-0.12419383227825165,0.11903033405542374,-0.03544923663139343,0.22194616496562958},{-0.0025929370895028114,0.025283407419919968,0.11885052919387817,0.02594859153032303},{0.08839374780654907,-0.13023978471755981,-0.20258240401744843,-0.13006547093391418},{0.0965852364897728,-0.12507787346839905,0.0002618560683913529,0.04925577715039253},{-0.155491441488266,-0.10810568183660507,-0.16826491057872772,-0.19449591636657715},{-0.20014093816280365,0.17667226493358612,-0.13306787610054016,0.07039764523506165},{-0.13727445900440216,0.06554409116506577,0.17267444729804993,-0.17694354057312012},{-0.048927031457424164,0.13702727854251862,0.15474943816661835,0.18954674899578094},{-0.1137789711356163,0.060159746557474136,-0.14674849808216095,-0.09017357230186462},{0.1558259129524231,-0.11461266875267029,0.0738818421959877,-0.03554936498403549},{-0.2961132824420929,0.02219245955348015,0.160495325922966,-0.04966925457119942},{0.13186846673488617,-0.011330779641866684,-0.1485157459974289,-0.2672998309135437},{-0.06252630800008774,0.11152492463588715,0.11910568177700043,0.2337181121110916},{0.21460804343223572,-0.22607727348804474,-0.17319683730602264,0.134385883808136},{-0.20568983256816864,-0.07000081241130829,-0.03482109680771828,0.1055777296423912},{-0.055148106068372726,0.12609730660915375,0.02408745139837265,0.2569839358329773},{-0.17965060472488403,-0.21169954538345337,0.03269044682383537,0.18791480362415314},{-0.2608102262020111,0.004439534153789282,-0.14257724583148956,0.21175824105739594}};
static const float actor_encoder_self_encoder_0_bias[30] = {0.08602793514728546,-0.11682765930891037,0.015044137835502625,-0.004797504749149084,0.004902764223515987,-0.010232989676296711,0.010049881413578987,-0.02623387984931469,-0.04172499105334282,-0.1127278059720993,0.06681441515684128,-0.018667960539460182,0.08734879642724991,-0.007098809350281954,-0.08381479978561401,-0.05620618909597397,0.11021687090396881,0.01646585389971733,-0.10597433149814606,-0.0028392274398356676,-0.024213898926973343,0.0053528170101344585,-0.042586326599121094,0.09551314264535904,-0.09347270429134369,-0.06854221224784851,0.0002480805851519108,-0.03343403711915016,0.06966886669397354,-0.02837766706943512};
static const float actor_encoder_self_encoder_2_bias[30] = {-0.011865796521306038,0.05651642009615898,0.05017724633216858,0.05597349628806114,0.008933001197874546,-0.023367989808321,0.028385257348418236,0.050033800303936005,-0.013314027339220047,-0.024989575147628784,0.0006774089415557683,-0.01916847750544548,0.00760588189586997,-0.0037494127172976732,-0.019810384139418602,-0.03720982000231743,-0.019207118079066277,0.015863357111811638,0.0080235181376338,-0.05626539885997772,0.002655984368175268,0.004099174868315458,-0.01083366572856903,0.0009209664422087371,0.013579265214502811,-0.0041700503788888454,-0.012559055350720882,0.0020106490701436996,-0.07429420948028564,-0.11127577722072601};
static const float actor_encoder_feed_forward_0_bias[60] = {-0.005124139599502087,0.0036518617998808622,0.002363108331337571,5.974615487502888e-05,-0.03320176899433136,0.007950825616717339,-0.03421863168478012,-0.06408162415027618,0.022675370797514915,-0.016437966376543045,-0.001175310229882598,-0.011450199410319328,0.020604612305760384,0.012689375318586826,0.010180637240409851,0.012175957672297955,-0.0046053784899413586,-0.016032777726650238,-0.01846071146428585,-0.03647109121084213,-0.00502408854663372,0.0029471225570887327,0.014176877215504646,0.01322680152952671,0.005043154116719961,-0.033696506172418594,0.007362063508480787,0.03283926099538803,0.01078201737254858,0.039876412600278854,-0.016973908990621567,0.004454665817320347,0.005256381817162037,-0.009531253017485142,0.00529106892645359,-0.011559116654098034,0.062077198177576065,-0.003338991431519389,0.017165102064609528,0.007759964559227228,0.0033683455549180508,0.0057656592689454556,-0.004875461105257273,0.035416048020124435,0.0015620063059031963,0.02578006312251091,-0.04359867796301842,-0.008097119629383087,-0.0016857912996783853,0.0020955668296664953,-0.004675380419939756,0.007104370277374983,-0.05218910053372383,-0.023011118173599243,0.03692634776234627,-0.013298805803060532,0.00014816720795352012,0.0737166702747345,-0.015265218913555145,-0.016380837187170982};
static const float action_parameterization_distribution_linear_bias[4] = {0.0034490106627345085,0.0071593099273741245,0.013720247894525528,0.013342597521841526};
static const float actor_encoder_obstacle_encoder_0_weight[16][16] = {{0.2588734030723572,-0.12793414294719696,-0.2261492758989334,0.05987219139933586,-0.48723679780960083,-0.4062355160713196,0.39293891191482544,0.3685853183269501,-0.2386321872472763,0.26555508375167847,0.49161455035209656,-0.2900923788547516,0.471407413482666,-0.390373557806015,-0.11895665526390076,-0.29788878560066223},{-0.005379800219088793,0.16208472847938538,-0.2573787569999695,0.13654859364032745,-0.4537200629711151,-0.011109255254268646,-0.2093096524477005,-0.11682845652103424,0.32226353883743286,-0.3695375323295593,0.05500347539782524,-0.006392262410372496,-0.20315328240394592,-0.09079612791538239,-0.33060792088508606,-0.3354508578777313},{-0.12407667189836502,0.24637140333652496,-0.39511993527412415,0.3773815631866455,-0.10699529200792313,-0.2738569378852844,-0.042221467941999435,-0.20224225521087646,-0.08947999775409698,-0.14701862633228302,-0.0166219063103199,-0.015966759994626045,-0.053095296025276184,-0.21695269644260406,0.38043734431266785,-0.03984972462058067},{-0.03425696864724159,-0.0370817705988884,-0.15279991924762726,0.009302071295678616,-0.2785164713859558,-0.05385807156562805,-0.2730427086353302,0.1344679594039917,0.37383294105529785,0.3308185636997223,-0.11324971914291382,-0.33906668424606323,0.306785523891449,-0.21580907702445984,-0.4943009912967682,-0.07465396076440811},{-0.4087100923061371,0.014215713366866112,0.17284628748893738,0.22872890532016754,0.21697746217250824,-0.038994260132312775,0.006748528685420752,0.21252797544002533,0.47516095638275146,-0.021309010684490204,0.2559031844139099,-0.36275455355644226,-0.3291572332382202,-0.1970592439174652,-0.5199729204177856,0.07214333862066269},{0.0473116971552372,-0.12741421163082123,-0.312465637922287,0.28864023089408875,0.16099560260772705,-0.1413736194372177,0.29837146401405334,0.1491149663925171,0.2798446714878082,0.3639122545719147,0.1830689162015915,0.3856046199798584,0.11251098662614822,0.3526560366153717,0.03264647722244263,-0.284070760011673},{-0.18398548662662506,-0.21231593191623688,0.2659805119037628,-0.21252000331878662,0.2090013474225998,0.3463295102119446,-0.2820412814617157,0.21184079349040985,0.30502477288246155,0.38302692770957947,-0.3683936297893524,0.3182985484600067,0.18437403440475464,0.3293541967868805,0.19445306062698364,-0.2221343219280243},{0.3160324990749359,0.40834787487983704,-0.18923015892505646,-0.1819716989994049,0.39231231808662415,-0.4651537239551544,-0.35015588998794556,-0.07433252781629562,0.004994780756533146,-0.07450602948665619,0.03513060137629509,-0.13289059698581696,-0.04927772656083107,-0.23910017311573029,-0.2843785881996155,-0.5543729662895203},{0.3488203287124634,-0.2136669158935547,0.4115888476371765,0.19823384284973145,0.44028231501579285,-0.46574968099594116,0.10996037721633911,0.12969112396240234,-0.2734626829624176,0.14698456227779388,-0.171036034822464,0.08697076886892319,-0.2545531094074249,0.29939720034599304,0.13874831795692444,0.08293808251619339},{0.14295628666877747,-0.11839427798986435,-0.2895408272743225,-0.15802332758903503,0.4080807566642761,-0.05231205374002457,-0.2686957120895386,0.2814706861972809,0.3518160879611969,-0.26438939571380615,0.3155501186847687,-0.09090235084295273,-0.31289786100387573,0.3811168372631073,-0.11924672871828079,-0.4790809750556946},{-0.08760347217321396,0.3595983684062958,0.3948749601840973,0.04802379012107849,0.022026879712939262,-0.356671541929245,0.18639510869979858,-0.3111824691295624,0.02869356796145439,-0.1265229433774948,-0.2540530562400818,0.10021046549081802,0.12220308184623718,-0.2421436756849289,-0.37546372413635254,0.03240636736154556},{0.00545268040150404,0.4202161729335785,-0.03448742255568504,0.08412338048219681,0.30476823449134827,-0.30169910192489624,0.39110395312309265,-0.09904937446117401,-0.2186715304851532,0.11294862627983093,-0.31469473242759705,0.07201909273862839,-0.5953804850578308,0.06652994453907013,0.20548643171787262,0.3054748773574829},{0.421671986579895,-0.11054321378469467,0.2713482975959778,-0.15536542236804962,0.15995880961418152,-0.3215288817882538,0.36629611253738403,0.18105311691761017,-0.07107939571142197,-0.19257426261901855,0.11517781019210815,0.2770756781101227,-0.3513551354408264,-0.5040217041969299,0.23368239402770996,0.11781682819128036},{-0.046020038425922394,-0.12815257906913757,-0.052681244909763336,-0.22426824271678925,0.18342100083827972,0.27559617161750793,0.16795875132083893,-0.08034046739339828,-0.24331612884998322,0.24706527590751648,-0.2637251913547516,-0.16112251579761505,0.2314634919166565,0.25218871235847473,-0.2878359258174896,0.21557429432868958},{0.18988655507564545,-0.310834139585495,-0.21787166595458984,0.3266463875770569,-0.24487294256687164,-0.41094961762428284,0.41557466983795166,0.3364473283290863,0.22173309326171875,0.1759820431470871,0.3667353391647339,0.39493897557258606,-0.16415122151374817,-0.23675350844860077,-0.3224595785140991,0.3133385181427002},{-0.29740163683891296,0.22685131430625916,-0.1913500726222992,0.08602289110422134,0.060109760612249374,-0.48708197474479675,0.06665986776351929,0.2344493567943573,-0.4172229468822479,0.21941928565502167,0.5654074549674988,-0.09167085587978363,-0.44508156180381775,-0.46254587173461914,0.036394912749528885,-0.008078290149569511}};
