
#include "network_evaluate_tof.h"
#include <string.h>


#define EPS 0.000001 // 1e-6

static float obstacle_embeds[4];
static float output_embeds[20];

float base;
float exponent;
static const int self_structure [4][2] = {{18, 16},{16, 16},{20, 20},{20, 4}};
static const int obst_structure [2][2] = {{16, 4},{4, 4}};
static float output_0[16];
static float output_1[16];
static float obst_output_0[4];
static float obst_output_1[4];
static float output_2[20];
static float output_3[4];
static const float actor_encoder_self_encoder_0_weight[18][16] = {{0.2707800567150116,-0.3231220841407776,0.2484091967344284,0.22559978067874908,-0.10888238996267319,-0.1972246617078781,0.08955645561218262,0.22794856131076813,-0.12740199267864227,-0.09736315906047821,-0.19434329867362976,-0.11792959272861481,0.23382750153541565,-0.08403997123241425,0.023243075236678123,0.2008572369813919},{-0.09429967403411865,0.3135278820991516,-0.18384581804275513,0.5311315655708313,0.1259702444076538,-0.33180156350135803,-0.24993279576301575,-0.14959757030010223,0.3094901442527771,-0.07139833271503448,0.16840095818042755,-0.28206688165664673,0.11384018510580063,-0.029083816334605217,-0.017882896587252617,0.1376446932554245},{0.0004596840590238571,0.19570191204547882,0.632837176322937,0.14356914162635803,-0.048077166080474854,-0.11046247184276581,0.2384730875492096,0.11445078253746033,0.02385583519935608,-0.5992405414581299,-0.17589890956878662,0.5918740034103394,0.08883903175592422,-0.4916149377822876,0.2469164878129959,-0.5762690901756287},{-0.009564198553562164,-0.3360156714916229,0.15287122130393982,0.09670969098806381,-0.205638587474823,0.27204629778862,0.03533424064517021,-0.20955227315425873,-0.12169672548770905,-0.1972915679216385,-0.000799797591753304,0.10928624868392944,0.4157010614871979,0.3706209659576416,-0.11462924629449844,0.23587501049041748},{-0.11122355610132217,0.18596844375133514,0.03302165865898132,0.0029937964864075184,0.29182717204093933,-0.3361820876598358,0.24957698583602905,0.17290352284908295,0.10856557637453079,0.07875721156597137,0.4478660523891449,0.40748101472854614,0.22144336998462677,0.34450826048851013,0.20050880312919617,-0.12908221781253815},{-0.0195620059967041,-0.05618436634540558,-0.19508087635040283,0.32149866223335266,0.38462233543395996,0.23565754294395447,-0.27424854040145874,0.17403492331504822,0.30036604404449463,-0.3553248345851898,-0.1255629062652588,-0.01710238680243492,-0.04350040480494499,-0.21208789944648743,0.1184755265712738,-0.3899724781513214},{-0.588176965713501,-0.004848146345466375,0.10416644811630249,0.1581287533044815,0.18659305572509766,-0.1663942188024521,0.12348143756389618,0.0805332362651825,-0.480225145816803,0.13618013262748718,0.17432433366775513,0.029849033802747726,-0.5267224907875061,0.21345849335193634,-0.06201304495334625,-0.2483670562505722},{0.20360806584358215,0.14382824301719666,0.1777806431055069,0.0038803748320788145,-0.21334296464920044,-0.14500893652439117,0.4261971414089203,-0.5479714274406433,0.6120985746383667,0.0053581553511321545,0.009771640412509441,0.3506737947463989,-0.46793076395988464,0.3291366398334503,-0.3941273093223572,0.31485629081726074},{-0.1590215563774109,-0.7233003973960876,0.10225380212068558,-0.006739982403814793,0.032468557357788086,0.39696943759918213,0.15585991740226746,-0.5214672088623047,-0.04784885048866272,-0.3348032236099243,-0.26551803946495056,0.5331325531005859,0.12354165315628052,0.4399908781051636,-0.14027875661849976,0.5690407752990723},{-0.42335939407348633,-0.6513446569442749,-0.3690725862979889,-0.35846200585365295,0.5231644511222839,-0.4565260410308838,-0.5277158617973328,0.27869683504104614,-0.1838603913784027,-0.328014612197876,0.3661102056503296,-0.06177319586277008,0.43602097034454346,-0.11959794163703918,0.2861129343509674,-0.4191608428955078},{-0.3615172803401947,-0.042524393647909164,-0.27060481905937195,0.4030603766441345,-0.09248600155115128,-0.051062338054180145,0.36757394671440125,-0.3761439919471741,-0.5183989405632019,0.14203889667987823,0.12963315844535828,0.04581376165151596,-0.4612131118774414,-0.27867722511291504,0.051503125578165054,0.12782004475593567},{-0.11986476927995682,-0.07518883794546127,0.21724587678909302,0.33568352460861206,0.8585147261619568,-0.5902677178382874,0.6407397389411926,0.11624359339475632,0.049057457596063614,0.24904651939868927,0.8201220631599426,0.8846384286880493,0.10765384882688522,0.4935142695903778,-0.2994239330291748,-0.05019257590174675},{0.714942991733551,0.7429250478744507,-0.14715832471847534,-0.34434419870376587,0.031268924474716187,-0.0028693017084151506,0.3791339695453644,0.1464659869670868,0.31790071725845337,0.7834099531173706,0.40885186195373535,-0.2151961326599121,-0.42921754717826843,-0.6903765201568604,0.49016860127449036,-0.09666857123374939},{-0.37881311774253845,-0.2740249037742615,-0.076296366751194,-0.5628486275672913,-0.47936850786209106,0.06880772858858109,-0.8025427460670471,-0.10330809652805328,-0.2065363973379135,-0.2762672007083893,-0.4010355472564697,-0.9681424498558044,-0.4492460787296295,-0.1510191261768341,0.4726351499557495,0.48761874437332153},{-0.514025092124939,-0.24513177573680878,0.04478190466761589,-0.1427578330039978,-0.04510880261659622,-0.19231829047203064,0.39379236102104187,0.054023876786231995,-0.4746076464653015,-0.05542140081524849,0.17454776167869568,-0.2434413731098175,-0.06952527910470963,0.09129061549901962,0.433819055557251,0.35842323303222656},{0.2540336549282074,0.0968613550066948,0.23966601490974426,0.10253748297691345,-0.22821487486362457,0.2474077194929123,-0.2149716317653656,-0.19982852041721344,-0.11157723516225815,-0.052795469760894775,-0.16114838421344757,-0.10491063445806503,-0.2468874603509903,-0.1433955878019333,0.14813371002674103,-0.034526173025369644},{0.0006474927649833262,-0.15093395113945007,0.2165481001138687,0.0937948003411293,0.10616859793663025,-0.09013188630342484,-0.10168448090553284,-0.19818837940692902,-0.32086053490638733,-0.13751164078712463,-0.13421472907066345,0.06298929452896118,0.0981767326593399,-0.020116468891501427,-0.03642160817980766,0.07874451577663422},{-0.23885862529277802,-0.28215545415878296,0.31905707716941833,-0.2419123649597168,0.1823161542415619,-0.2660945653915405,-0.03849274665117264,0.2541159987449646,-0.2659227252006531,-0.056326523423194885,0.21962295472621918,0.3487003743648529,-0.17401528358459473,-0.32932859659194946,0.08384163677692413,0.07434318959712982}};
static const float actor_encoder_self_encoder_2_weight[16][16] = {{-0.03192892298102379,-0.04381176829338074,0.1482134312391281,-0.35955461859703064,-0.05994546040892601,0.2311331033706665,-0.10339593142271042,0.1856682300567627,0.2628217935562134,0.37474820017814636,-0.21612460911273956,-0.10968761146068573,0.14731979370117188,-0.12991923093795776,0.3214981257915497,-0.02460670843720436},{0.029742438346147537,-0.33336758613586426,0.25805702805519104,-0.17222927510738373,-0.2864384651184082,-0.0664677619934082,0.28576019406318665,-0.18863576650619507,0.3332342207431793,-0.15875336527824402,-0.07437142729759216,-0.18039178848266602,0.06782855838537216,0.326043039560318,0.1327393501996994,-0.12329723685979843},{-0.12111636996269226,-0.023063821718096733,-0.195210799574852,-0.2091708928346634,-0.21715277433395386,0.008235444314777851,0.2970947325229645,0.15148591995239258,-0.040539007633924484,-0.05776830390095711,-0.016512207686901093,0.2384396195411682,0.08310382813215256,-0.39848726987838745,0.4009370803833008,-0.20900674164295197},{0.1048927903175354,0.035666778683662415,-0.30672723054885864,-0.259892076253891,-0.5326729416847229,0.029568089172244072,0.06614826619625092,-0.0028694849461317062,-0.048047762364149094,-0.4493120610713959,0.297382116317749,0.10433094948530197,0.014813914895057678,-0.18796475231647491,0.10203362256288528,0.3759821951389313},{0.07070227712392807,-0.1327943056821823,-0.05856502056121826,0.4282897114753723,-0.33875563740730286,-0.033587999641895294,-0.03487297520041466,-0.17324592173099518,-0.25811174511909485,-0.06095482036471367,0.3822582960128784,-0.3983618915081024,-0.11534247547388077,0.04701841622591019,-0.35558977723121643,-0.36155635118484497},{-0.3992650508880615,0.29297196865081787,0.1416681855916977,-0.10604973137378693,0.3503987193107605,-0.2733195722103119,-0.1669759601354599,-0.3804571330547333,-0.00833976361900568,-0.07113989442586899,0.3085010349750519,-0.10131614655256271,0.34457650780677795,0.29289281368255615,0.35728347301483154,0.33128052949905396},{0.19380567967891693,-0.10806788504123688,0.19905750453472137,0.2689363658428192,0.23126575350761414,0.5733588337898254,0.21913181245326996,0.4943791627883911,-0.043070923537015915,-0.08970408886671066,0.21771475672721863,0.07169464230537415,-0.4701242744922638,-0.036930929869413376,0.13789018988609314,0.30326351523399353},{0.14701275527477264,-0.22108404338359833,0.15227244794368744,-0.07568005472421646,-0.06087643280625343,-0.043973591178655624,-0.14239390194416046,-0.105335533618927,0.01217254251241684,-0.07290829718112946,0.07372799515724182,-0.3710957467556,-0.10308761894702911,-0.09644424170255661,0.3098248839378357,-0.3505628705024719},{-0.06474466621875763,0.14259855449199677,0.2933081388473511,-0.10296737402677536,-0.3491988182067871,0.1453879326581955,0.17766162753105164,-0.06044469028711319,0.20341269671916962,0.3649129271507263,0.15098801255226135,0.05218119919300079,0.03574593365192413,0.3637106716632843,0.06747946888208389,0.2798808813095093},{0.008065569214522839,0.24997319281101227,-0.3445422351360321,0.10536458343267441,-0.07201199978590012,-0.07362262159585953,-0.2904885411262512,0.331274151802063,0.18629276752471924,-0.1864379495382309,-0.13176462054252625,-0.05813056603074074,-0.2559281885623932,0.052896928042173386,0.21701805293560028,-0.3265742063522339},{0.3225093483924866,0.09292861819267273,-0.4246326684951782,-0.33317527174949646,-0.4030928909778595,0.07093723118305206,0.31089553236961365,0.046030063182115555,-0.1707245409488678,0.28897523880004883,-0.07059933245182037,-0.0001383279450237751,-0.28676819801330566,0.3006170094013214,0.17339405417442322,-0.13019227981567383},{-0.32335785031318665,0.40905094146728516,-0.280000776052475,-0.39028987288475037,0.27080005407333374,0.2242971807718277,0.2967333495616913,-0.23637911677360535,0.1070960983633995,0.4379713237285614,0.2627369463443756,0.040212132036685944,-0.33209311962127686,0.307711660861969,0.027013719081878662,0.22950150072574615},{-0.21354232728481293,-0.34061428904533386,0.2146821767091751,0.15498854219913483,-0.12280618399381638,-0.3780401647090912,0.3195745050907135,-0.3557075560092926,0.1976911425590515,0.10376015305519104,-0.24476023018360138,-0.36690855026245117,0.11154713481664658,-0.5262767672538757,-0.1647689789533615,-0.14042381942272186},{-0.1393098682165146,0.1984294205904007,-0.5946839451789856,-0.0985834002494812,-0.032130662351846695,0.3184630572795868,0.04635212942957878,-0.2709304690361023,-0.14204464852809906,-0.1503138542175293,-0.43576908111572266,0.058107562363147736,-0.14966759085655212,0.11793850362300873,-0.1537695825099945,0.43257126212120056},{0.3532540202140808,0.18810434639453888,-0.37201547622680664,-0.44339635968208313,-0.3035273849964142,-0.3285919427871704,0.3268800973892212,0.2588736414909363,0.012530123814940453,-0.12153598666191101,0.1123940497636795,0.37619608640670776,-0.4153231382369995,0.13537710905075073,-0.1145673394203186,-0.19652581214904785},{-0.36046481132507324,0.38735800981521606,-0.31127896904945374,0.4127803146839142,0.27657550573349,-0.08545783907175064,-0.47731316089630127,-0.3501383662223816,-0.18083591759204865,-0.09059377014636993,-0.4126688838005066,0.09556464105844498,0.12214813381433487,0.05268797650933266,-0.007540273014456034,-0.1380673199892044}};
static const float actor_encoder_feed_forward_0_weight[20][20] = {{-0.38004714250564575,-0.20168514549732208,-0.20981860160827637,0.29967978596687317,0.27591392397880554,-0.2553199827671051,-0.1411295086145401,-0.4239181876182556,0.055679064244031906,0.23316612839698792,-0.11284538358449936,-0.21221445500850677,-0.2670418322086334,0.15638551115989685,-0.40300145745277405,0.22660432755947113,-0.00991029292345047,0.07914233207702637,0.022855635732412338,0.15465135872364044},{0.004058819729834795,0.3394668698310852,0.32151320576667786,0.22221992909908295,0.048326849937438965,-0.13234469294548035,0.17491376399993896,-0.2119297981262207,0.1611146479845047,-0.10811792314052582,0.031016064807772636,0.049373239278793335,-0.25881633162498474,-0.32474464178085327,0.09886524081230164,-0.2270153909921646,0.3338991701602936,-0.06867369264364243,-0.10013413429260254,0.1839776188135147},{0.09653355181217194,-0.2993950843811035,0.030157770961523056,-0.18832382559776306,-0.015360203571617603,0.20552749931812286,-0.18203064799308777,0.5459492206573486,-0.2840132713317871,0.002382526872679591,-0.4314471483230591,0.12537617981433868,0.28814664483070374,-0.2987005114555359,-0.17532022297382355,0.011592126451432705,-0.2826229929924011,0.3244359493255615,-0.18177640438079834,0.007077961228787899},{0.2768053114414215,0.17046977579593658,-0.1226002499461174,0.20845860242843628,-0.30435633659362793,0.09884277731180191,0.4398215115070343,-0.5480795502662659,-0.2857603430747986,-0.11536052823066711,0.03976426646113396,0.43029075860977173,-0.023326190188527107,-0.22142113745212555,0.17588211596012115,0.43367278575897217,-0.22732950747013092,-0.24807845056056976,0.016167210415005684,0.23145465552806854},{-0.08264772593975067,-0.15927769243717194,-0.29436787962913513,0.08349855989217758,0.32064372301101685,0.40349334478378296,0.0997946634888649,-0.3314662575721741,0.20374661684036255,-0.09683585911989212,0.2690241038799286,0.18357639014720917,0.30284106731414795,0.012715348973870277,-0.24462655186653137,0.20354080200195312,-0.09733539819717407,0.02579203061759472,-0.13764680922031403,0.26909318566322327},{0.1950281411409378,0.2750685214996338,-0.010205131024122238,0.1457950621843338,-0.11158876866102219,-0.3067915141582489,-0.25435319542884827,-0.1199781596660614,-0.19449947774410248,0.18489395081996918,0.22112305462360382,0.12029677629470825,0.2649010121822357,-0.13319949805736542,0.3392612934112549,-0.07775840163230896,0.2228875458240509,-0.0655452311038971,0.28033220767974854,-0.26384732127189636},{-0.02141747437417507,-0.06757040321826935,0.26294389367103577,0.06605798751115799,0.3319579064846039,-0.5856292247772217,0.030771465972065926,0.12709583342075348,-0.14789442718029022,-0.3900211453437805,0.11571472883224487,-0.10687845200300217,-0.0344204343855381,-0.06833900511264801,0.3537406027317047,0.3119264245033264,0.1120644211769104,0.1436164379119873,-0.2076234668493271,-0.28801795840263367},{-0.07025110721588135,0.1269076019525528,-0.255330353975296,0.3998570740222931,0.27147284150123596,-0.09126453846693039,0.10719408094882965,-0.3617551028728485,-0.08500161021947861,0.2181057333946228,-0.2781754434108734,0.2100583016872406,-0.19383332133293152,-0.15920326113700867,-0.06770680099725723,-0.05146623030304909,0.20204989612102509,-0.1995355635881424,-0.20582932233810425,-0.35353177785873413},{0.24151307344436646,-0.22669750452041626,0.09626839309930801,0.28952503204345703,0.06046782806515694,0.08761013299226761,-0.39129212498664856,-0.03589861840009689,-0.3282616138458252,0.22473707795143127,-0.09381798654794693,-0.1249641552567482,-0.40201160311698914,-0.4088485538959503,0.13199572265148163,0.24479788541793823,-0.4034673571586609,0.23118087649345398,-0.30626824498176575,0.15329232811927795},{-0.35357993841171265,-0.24179109930992126,0.4141750633716583,-0.4012357294559479,-0.33319082856178284,0.06161772087216377,0.024657290428876877,0.11685159802436829,0.25685662031173706,0.23408429324626923,-0.2090679556131363,0.21520212292671204,0.1367366462945938,-0.35224393010139465,0.46304723620414734,-0.03791843727231026,-0.5050942301750183,0.16897700726985931,0.11460818350315094,0.20720535516738892},{0.366851806640625,0.0606868714094162,0.11526598036289215,-0.26718565821647644,0.074247345328331,-0.5064331889152527,0.3575594425201416,-0.10096852481365204,-0.3889943063259125,0.2313467115163803,-0.08581266552209854,-0.2168211042881012,0.24771608412265778,-0.4010152518749237,0.005410380661487579,-0.31556329131126404,-0.16780462861061096,0.13701000809669495,0.02812410145998001,-0.1806199848651886},{0.354937344789505,-0.24178446829319,0.007885768078267574,0.24300549924373627,-0.08859199285507202,-0.03261236101388931,0.19988895952701569,0.13984917104244232,0.08819036185741425,-0.165461003780365,0.030745217576622963,-0.06325684487819672,0.04164651036262512,-0.17695899307727814,-0.3994504511356354,-0.1295563131570816,0.22615483403205872,-0.1319674551486969,-0.007051232736557722,0.06620477885007858},{-0.07368343323469162,-0.41449055075645447,0.23414790630340576,-0.32086360454559326,0.02353275753557682,0.06180952116847038,-0.05648783594369888,0.2851419150829315,0.01947229541838169,-0.07081596553325653,0.22566457092761993,0.2251126617193222,-0.3618178963661194,0.007099122274667025,-0.165770024061203,0.1003129705786705,-0.23443233966827393,0.14564114809036255,0.20605909824371338,0.2725072205066681},{0.08687649667263031,0.1307167112827301,-0.2969745397567749,0.24283945560455322,0.10536162555217743,0.2329540252685547,-0.024647092446684837,-0.2951977849006653,0.07920309156179428,0.15088647603988647,0.08576952666044235,0.19653937220573425,-0.2638259828090668,-0.18536292016506195,-0.3079586625099182,0.2940816283226013,0.050798919051885605,-0.011819235049188137,0.043665580451488495,-0.02593216300010681},{0.4057454764842987,-0.22728872299194336,0.033918969333171844,-0.16009780764579773,0.32829347252845764,-0.023964237421751022,0.07021127641201019,-0.21088305115699768,-0.3073546290397644,-0.10750222951173782,0.17130199074745178,-0.122502401471138,-0.08212391287088394,-0.0004149259184487164,0.5851889252662659,-0.42408666014671326,-0.22602565586566925,0.07431569695472717,0.13688695430755615,0.18522632122039795},{0.08156809955835342,-0.1999504268169403,0.24558702111244202,-0.001026012236252427,-0.1621594876050949,0.3011571764945984,-0.13251197338104248,0.21933788061141968,-0.041928187012672424,-0.088161900639534,-0.3467594385147095,-0.13670848309993744,0.16282044351100922,-0.12968291342258453,-0.2646210789680481,0.4151918590068817,0.27864870429039,-0.28253448009490967,0.18192283809185028,0.041946891695261},{0.14713965356349945,-0.05581533536314964,-0.2682335376739502,0.2319466918706894,-0.006266758311539888,-0.33672672510147095,0.4403690695762634,-0.31007492542266846,0.06440676748752594,-0.11601962149143219,0.13981185853481293,-0.2835743725299835,-0.09904000163078308,0.3342108726501465,-0.19444938004016876,-0.3251669108867645,-0.07825075834989548,-0.32932719588279724,0.36823052167892456,-0.4518016576766968},{0.24699144065380096,0.06970737129449844,-0.11909690499305725,0.3353201448917389,0.12012998759746552,-0.10362652689218521,0.14421436190605164,-0.30622610449790955,-0.23820792138576508,-0.005252405069768429,0.30514833331108093,0.20073610544204712,-0.37321770191192627,-0.2167368233203888,-0.16859237849712372,0.25327280163764954,-0.23101182281970978,-0.3746528923511505,0.3050067722797394,-0.25583750009536743},{-0.1397234946489334,-0.16188234090805054,-0.12289100885391235,0.23753564059734344,-0.002930532908067107,-0.2884528934955597,0.09625931084156036,0.31551653146743774,0.13803265988826752,-0.3487796187400818,0.09434588998556137,0.27789199352264404,-0.30039793252944946,0.33460021018981934,-0.07621220499277115,0.32868099212646484,-0.41454240679740906,-0.2056383341550827,0.03371920809149742,-0.3443412184715271},{0.04718178138136864,-0.1901175081729889,-0.2820066213607788,-0.04541214182972908,0.2558499574661255,0.3164224922657013,-0.031471144407987595,-0.13342320919036865,0.011406030505895615,-0.36666935682296753,-0.3186677396297455,0.18576937913894653,0.4567378759384155,-0.2432674914598465,-0.15801697969436646,0.028965797275304794,-0.1814124882221222,-0.18304012715816498,-0.2720497250556946,0.1199360117316246}};
static const float action_parameterization_distribution_linear_weight[20][4] = {{-0.33102166652679443,0.3194373548030853,-0.2872028350830078,0.032336872071027756},{0.14442437887191772,0.10133036971092224,0.3659706711769104,0.4184798002243042},{0.02888018637895584,-0.39315515756607056,-0.16901086270809174,0.45527178049087524},{0.05104125291109085,0.1343836635351181,0.3819125294685364,-0.08323000371456146},{-0.15717752277851105,-0.12338712066411972,0.24995146691799164,-0.41359812021255493},{0.1995934545993805,0.36129671335220337,0.1587648093700409,0.43508243560791016},{0.3882506489753723,-0.49876856803894043,0.16203783452510834,-0.054586611688137054},{0.09136588126420975,0.08128801733255386,-0.42197057604789734,-0.23388522863388062},{0.15719863772392273,0.05300115793943405,0.26116806268692017,0.2509264647960663},{-0.2992510199546814,0.0857609286904335,0.15915945172309875,0.0953521654009819},{0.1222476214170456,0.24539466202259064,0.01799730211496353,0.10470659285783768},{0.20220568776130676,0.13890065252780914,0.19367726147174835,0.019441086798906326},{0.1421964019536972,-0.48480525612831116,-0.0028990088030695915,0.0825849249958992},{0.1844661980867386,-0.21145139634609222,0.2652393579483032,0.47176414728164673},{-0.20776784420013428,-0.2568501830101013,0.26993557810783386,0.4576641917228699},{-0.07067006826400757,0.11528231203556061,0.3240809738636017,0.1901962012052536},{0.48026636242866516,0.1156683936715126,-0.4521433115005493,0.3909531533718109},{0.38738566637039185,-0.1600063592195511,0.3647671937942505,-0.31315019726753235},{-0.2461647391319275,-0.19595222175121307,0.18100431561470032,0.023413898423314095},{0.43891996145248413,0.25957247614860535,0.24538007378578186,-0.22189296782016754}};
static const float actor_encoder_self_encoder_0_bias[16] = {-0.04163331538438797,-0.09179171174764633,0.004986748099327087,0.05517685413360596,-0.09442058205604553,0.17419610917568207,0.060585614293813705,-0.05680954456329346,-0.2006644308567047,0.027103248983621597,0.15904724597930908,-0.08142583072185516,-0.07438389211893082,0.03894542157649994,0.24144171178340912,0.003437576349824667};
static const float actor_encoder_self_encoder_2_bias[16] = {0.178205668926239,0.05987675487995148,-0.1484270840883255,-0.003791672643274069,-0.0016253680223599076,-0.03837845101952553,-0.0193166583776474,0.045531563460826874,-0.041411418467760086,-0.12806323170661926,-0.08753246814012527,-0.005101330112665892,-0.03804909065365791,0.097979336977005,0.027450231835246086,0.005134573206305504};
static const float actor_encoder_feed_forward_0_bias[20] = {-0.017596157267689705,0.0466747023165226,-0.053583111613988876,0.0795089527964592,0.037871748208999634,0.05227275192737579,0.06933335959911346,-0.19037657976150513,-0.006004570052027702,0.007963759824633598,0.017832694575190544,0.03409552574157715,-0.012098853476345539,0.027881773188710213,-0.12027714401483536,0.06633243709802628,0.10252700001001358,-0.02679549902677536,-0.013576813042163849,0.00851503200829029};
static const float action_parameterization_distribution_linear_bias[4] = {0.012879044748842716,0.00012764325947500765,0.012841129675507545,0.02192874625325203};
static const float actor_encoder_obstacle_encoder_0_weight[16][4] = {{-0.3473946154117584,0.5224317312240601,-0.310359925031662,0.18053017556667328},{-0.3961171507835388,0.2004101276397705,0.03964991122484207,0.06778426468372345},{0.12505121529102325,0.16289030015468597,-0.4089152216911316,0.004741520620882511},{-0.13291402161121368,-0.08608125895261765,0.18013040721416473,0.6360098123550415},{-0.19367270171642303,-0.41556718945503235,-0.07383254170417786,0.4633501470088959},{-0.06000363081693649,0.20754626393318176,0.3962520956993103,0.2061821073293686},{-0.44360029697418213,-0.07949067652225494,-0.22289396822452545,0.18068568408489227},{0.365909218788147,-0.41386738419532776,0.4730777442455292,0.27834680676460266},{0.14181649684906006,-0.12311975657939911,0.3974049985408783,0.20071516931056976},{0.09221384674310684,-0.15449653565883636,0.3541955053806305,-0.08038617670536041},{-0.008487196639180183,-0.08912455290555954,0.046645667403936386,-0.328661173582077},{0.932548999786377,0.27885007858276367,0.21049939095973969,-0.38038450479507446},{0.653384268283844,-0.20471377670764923,-0.06175161525607109,-0.020270338281989098},{0.39525964856147766,0.5097413063049316,0.18064479529857635,-0.05970100313425064},{0.03334399312734604,0.4092600643634796,0.22066056728363037,-0.33691200613975525},{-0.19013795256614685,0.19950814545154572,-0.5079487562179565,0.22000396251678467}};
static const float actor_encoder_obstacle_encoder_2_weight[4][4] = {{0.761665403842926,-0.43484580516815186,-0.4320801794528961,-0.11111437529325485},{0.6520727276802063,0.6045984625816345,-0.20356599986553192,-0.38940927386283875},{-0.13381387293338776,-0.6009871363639832,-0.5341696739196777,0.5479101538658142},{-0.07332209497690201,0.6878541111946106,-0.3091316223144531,0.5701285600662231}};
static const float actor_encoder_obstacle_encoder_0_bias[4] = {0.05946905165910721,-0.03910118713974953,0.03090861067175865,-0.15061254799365997};
static const float actor_encoder_obstacle_encoder_2_bias[4] = {-0.10212958604097366,0.027704035863280296,-0.04397223889827728,-0.04151957854628563};
void networkEvaluate(struct control_t_n *control_n, const float *state_array) {
        for (int i = 0; i < self_structure[0][1]; i++) {
            output_0[i] = 0;
            for (int j = 0; j < self_structure[0][0]; j++) {
                output_0[i] += state_array[j] * actor_encoder_self_encoder_0_weight[j][i];
            }
            output_0[i] += actor_encoder_self_encoder_0_bias[i];
            output_0[i] = tanhf(output_0[i]);
        }
        
        for (int i = 0; i < self_structure[1][1]; i++) {
            output_1[i] = 0;
            for (int j = 0; j < self_structure[1][0]; j++) {
                output_1[i] += output_0[j] * actor_encoder_self_encoder_2_weight[j][i];
            }
            output_1[i] += actor_encoder_self_encoder_2_bias[i];
            output_1[i] = tanhf(output_1[i]);
        }
            
        // Concat self_embed, neighbor_embed and obst_embed
        for (int i = 0; i < self_structure[1][1]; i++) {
            output_embeds[i] = output_1[i];
        }
        for (int i = 0; i < obst_structure[1][1]; i++) {
            output_embeds[i + self_structure[1][1]] = obstacle_embeds[i];
        }
    
        // Feedforward layer
        for (int i = 0; i < self_structure[2][1]; i++) {
            output_2[i] = 0;
            for (int j = 0; j < self_structure[2][0]; j++) {
                output_2[i] += output_embeds[j] * actor_encoder_feed_forward_0_weight[j][i];
                }
            output_2[i] += actor_encoder_feed_forward_0_bias[i];
            output_2[i] = tanhf(output_2[i]);
        }
    
        for (int i = 0; i < self_structure[3][1]; i++) {
            output_3[i] = 0;
            for (int j = 0; j < self_structure[3][0]; j++) {
                output_3[i] += output_2[j] * action_parameterization_distribution_linear_weight[j][i];
            }
            output_3[i] += action_parameterization_distribution_linear_bias[i];
        }
        
        control_n->thrust_0 = output_3[0];
        control_n->thrust_1 = output_3[1];
        control_n->thrust_2 = output_3[2];
        control_n->thrust_3 = output_3[3];	
    }
    
    void obstacleEmbedder(float obstacle_inputs[OBST_DIM]) {
        //reset embeddings accumulator to zero
        memset(obstacle_embeds, 0, sizeof(obstacle_embeds));

    
        for (int i = 0; i < obst_structure[0][1]; i++) {
            obst_output_0[i] = 0;
            for (int j = 0; j < obst_structure[0][0]; j++) {
                obst_output_0[i] += obstacle_inputs[j] * actor_encoder_obstacle_encoder_0_weight[j][i];
            }
            obst_output_0[i] += actor_encoder_obstacle_encoder_0_bias[i];
            obst_output_0[i] = tanhf(obst_output_0[i]);
        }
    
        for (int i = 0; i < obst_structure[1][1]; i++) {
            obst_output_1[i] = 0;
            for (int j = 0; j < obst_structure[1][0]; j++) {
                obst_output_1[i] += obst_output_0[j] * actor_encoder_obstacle_encoder_2_weight[j][i];
            }
            obst_output_1[i] += actor_encoder_obstacle_encoder_2_bias[i];
            obstacle_embeds[i] = tanhf(obst_output_1[i]);
        }
        }

