
#include "network_evaluate_tof.h"
#include <string.h>


#define EPS 0.000001 // 1e-6

static float obstacle_embeds[16];
static float output_embeds[46];

float base;
float exponent;
static const int self_structure [4][2] = {{18, 30},{30, 30},{46, 60},{60, 4}};
static const int obst_structure [2][2] = {{16, 16},{16, 16}};
static float output_0[30];
static float output_1[30];
static float obst_output_0[16];
static float obst_output_1[16];
static float output_2[60];
static float output_3[4];
static const float actor_encoder_self_encoder_0_weight[18][30] = {{0.24497167766094208,0.4265103042125702,0.007359047885984182,-0.1207461878657341,0.15001757442951202,0.1894199401140213,-0.17126864194869995,-0.27100807428359985,0.28676989674568176,0.30576857924461365,-0.09414660185575485,-0.044167857617139816,-0.06596510857343674,-0.18277154862880707,-0.04544719681143761,0.026843711733818054,0.23619042336940765,-0.04672321677207947,-0.16723515093326569,0.041500117629766464,-0.14816245436668396,-0.013029636815190315,-0.07073800265789032,-0.12014418095350266,0.16362261772155762,-0.2528326213359833,0.12997817993164062,0.23423254489898682,0.22917653620243073,0.11112483590841293},{-0.3914037346839905,0.12747591733932495,0.15404967963695526,0.2539694607257843,-0.051060814410448074,0.322919636964798,0.056236930191516876,-0.10640101134777069,-0.301418662071228,0.19661517441272736,-0.012359533458948135,-0.1168467178940773,-0.13453780114650726,-0.28416144847869873,0.014981077052652836,0.08372016996145248,0.6671996116638184,-0.05866553261876106,-0.33921515941619873,-0.28180059790611267,-0.24936941266059875,-0.04239719733595848,0.06215377897024155,-0.07898606359958649,-0.08027028292417526,-0.025861399248242378,0.04107016324996948,0.13730955123901367,0.2050483226776123,-0.0461018830537796},{0.32555919885635376,-0.02391718327999115,-0.20216158032417297,0.18984946608543396,-0.291939377784729,-0.13835181295871735,-0.07188380509614944,-0.10136009007692337,0.10296458005905151,0.21980352699756622,0.5633736848831177,0.1865871250629425,0.2627071738243103,0.0779704749584198,0.014587368816137314,-0.1955929547548294,-0.1719946563243866,0.3359958231449127,-0.3583187758922577,0.011366920545697212,-0.47174501419067383,-0.3604327142238617,0.10419236123561859,-0.31300047039985657,-0.09918713569641113,-0.1701320856809616,-0.31705641746520996,0.19253621995449066,-0.3107212781906128,-0.21190661191940308},{-0.23201118409633636,-0.18598619103431702,-0.10554058849811554,0.20179741084575653,0.181939035654068,0.24043148756027222,-0.00046967456000857055,-0.1250980943441391,0.30016911029815674,0.11177899688482285,-0.03424924984574318,0.35131773352622986,-0.2849859595298767,0.2938372492790222,-0.27714118361473083,0.11095878481864929,0.05239782854914665,0.38923096656799316,0.050185009837150574,-0.10705750435590744,0.08940239250659943,-0.02593606524169445,0.15194441378116608,-0.019630827009677887,-0.35685276985168457,0.28622326254844666,-0.04099074751138687,0.11226733028888702,-0.06305506825447083,0.3638073205947876},{-0.10143452882766724,-0.22122514247894287,-0.026605883613228798,-0.179280623793602,-0.1584450751543045,0.2946898937225342,0.12481114268302917,-0.22475655376911163,-0.2921049892902374,0.09529711306095123,-0.3733712434768677,0.22548151016235352,0.32331812381744385,0.47097232937812805,0.26678287982940674,-0.10984650254249573,-0.13151812553405762,0.3064675033092499,-0.13831385970115662,0.1822538524866104,0.03084423765540123,-0.2125319540500641,-0.013595091179013252,-0.3722181022167206,0.24816305935382843,-0.28991779685020447,0.11875679343938828,0.1354457139968872,0.13930806517601013,0.005043064709752798},{-0.011784115806221962,0.2617611289024353,-0.23694410920143127,-0.2158864587545395,-0.19297100603580475,-0.11084944009780884,0.24993835389614105,-0.2928737998008728,0.24671342968940735,-0.1300823837518692,-0.13338690996170044,0.07523465901613235,0.30562612414360046,-0.2638424336910248,-0.09025012701749802,-0.2211436927318573,0.055855389684438705,0.2923073172569275,-0.24532756209373474,-0.1759994924068451,-0.3990464508533478,-0.2895134687423706,0.3218301236629486,0.029436247423291206,0.09968587011098862,0.16561360657215118,-0.16633135080337524,-0.17099857330322266,-0.010294537991285324,-0.11817596852779388},{0.2856193482875824,-0.363444447517395,-0.11370609700679779,-0.40033411979675293,-0.1863200068473816,0.09043992310762405,0.13187065720558167,-0.33006536960601807,0.0550321489572525,-0.18664443492889404,0.06821431964635849,-0.17546452581882477,-0.14572089910507202,0.22685308754444122,0.43455156683921814,0.33247557282447815,0.24863553047180176,0.20919260382652283,0.2931191623210907,-0.1368943601846695,0.24731327593326569,0.30671870708465576,0.3228219449520111,0.09761054813861847,0.13577386736869812,-0.12912656366825104,0.32363614439964294,-0.1309293508529663,-0.14012211561203003,0.09897388517856598},{-0.1544874608516693,-0.45347917079925537,0.06337865442037582,-0.20091259479522705,0.03206118196249008,0.13954176008701324,0.13283862173557281,-0.16245384514331818,-0.22308704257011414,0.07499390840530396,0.11422800272703171,0.15838080644607544,-0.24464933574199677,-0.056946270167827606,-0.09700200706720352,-0.3996049165725708,0.1566644310951233,-0.25240081548690796,-0.25170058012008667,0.13344806432724,0.03437124937772751,-0.26960447430610657,0.09808667004108429,0.3580421507358551,-0.2693392038345337,-0.07278120517730713,-0.33936774730682373,-0.09611478447914124,-0.2005837857723236,0.2818998098373413},{-0.23915822803974152,-0.14366818964481354,-0.5116726756095886,0.3841452896595001,-0.028982341289520264,0.4240512251853943,0.30771639943122864,0.38733339309692383,0.04866356775164604,-0.02850973606109619,0.20897176861763,-0.03269730508327484,-0.45163533091545105,0.057107891887426376,-0.06385709345340729,-0.051528964191675186,0.06730418652296066,0.31602755188941956,0.3799353837966919,-0.18699949979782104,0.19171050190925598,0.3172214925289154,-0.13391856849193573,-0.025256825610995293,-0.2578047811985016,0.3394961655139923,0.39334025979042053,0.5480481386184692,-0.08240275830030441,0.37240225076675415},{-0.4895276129245758,0.09561901539564133,-0.008724641054868698,0.31652453541755676,-0.14013837277889252,-0.03375942260026932,0.25935664772987366,-0.024446852505207062,-0.042623378336429596,0.3585481643676758,-0.17219175398349762,-0.3377643823623657,0.3716871738433838,0.1796717494726181,-0.312457799911499,0.49043697118759155,-0.27273544669151306,-0.06735861301422119,0.026738230139017105,0.19227327406406403,-0.29975515604019165,0.2748580574989319,0.17814210057258606,-0.0797492042183876,-0.2503303587436676,-0.05422656238079071,0.16883862018585205,0.07125981152057648,-0.07587144523859024,-0.4486754238605499},{-0.0357959121465683,0.11732342839241028,-0.01717398874461651,0.04744503274559975,0.1442386507987976,0.33995112776756287,0.007083074655383825,-0.233882337808609,-0.03853064402937889,-0.26863914728164673,0.18166591227054596,-0.10821061581373215,-0.4245801568031311,-0.35853347182273865,0.48540201783180237,-0.23391523957252502,-0.31978070735931396,-0.05913602560758591,0.020203836262226105,0.17697572708129883,-0.2725156545639038,0.1863616555929184,-0.16908331215381622,0.06510807573795319,-0.32728734612464905,-0.19453978538513184,-0.1450289934873581,-0.10119950771331787,-0.3164007365703583,-0.09996592998504639},{-0.00916127860546112,0.17406585812568665,0.022740548476576805,0.20938025414943695,-0.042858853936195374,-0.3536907136440277,0.4001639187335968,-0.022400299087166786,-0.39905408024787903,0.3512682318687439,-0.25144514441490173,-0.1133023351430893,-0.06241292133927345,-0.08734917640686035,0.4828569293022156,-0.24146303534507751,0.21662230789661407,0.029901104047894478,0.3497929871082306,0.35106489062309265,-0.2969622313976288,0.4473661482334137,0.1915556937456131,-0.3374955356121063,0.43993526697158813,0.3854236602783203,0.0790780782699585,-0.3304036557674408,-0.3352653384208679,0.06345739215612411},{0.17423561215400696,0.43317854404449463,-0.4061196744441986,-0.050136420875787735,0.3339589834213257,-0.12066981196403503,-0.06845061480998993,-0.0709225982427597,-0.06852760910987854,0.43469515442848206,-0.13193807005882263,-0.380588173866272,0.22699867188930511,0.35829511284828186,0.31614959239959717,0.3170907199382782,-0.007364966906607151,0.3658164143562317,-0.06147020682692528,-0.4064159095287323,-0.013344247825443745,0.5735507011413574,0.06936415284872055,-0.14378082752227783,0.15057556331157684,0.028962666168808937,-0.007495299447327852,-0.0048024035058915615,0.1817435473203659,0.4645475149154663},{0.23466375470161438,0.10440953820943832,0.0020107515156269073,-0.14931052923202515,0.3655719757080078,-0.27145400643348694,0.05816255137324333,-0.0642823651432991,-0.030322616919875145,0.2394251823425293,-0.07888238877058029,-0.13789847493171692,0.21342185139656067,-0.18315446376800537,0.46117517352104187,-0.4763602912425995,0.17104968428611755,-0.37165144085884094,0.192966029047966,0.28628087043762207,-0.33859512209892273,0.20892851054668427,-0.02792336419224739,-0.3343595564365387,0.6056709885597229,0.05788455531001091,-0.2500608265399933,-0.4051898717880249,-0.06658671051263809,-0.45927685499191284},{-0.0747566670179367,0.014284848235547543,-0.1709734946489334,0.09168078005313873,0.132473886013031,0.05359767749905586,0.008629444055259228,0.23059481382369995,0.17025260627269745,0.2848162353038788,-0.2596389949321747,0.29622945189476013,0.24204036593437195,0.2840806245803833,-0.3278103470802307,-0.35709232091903687,-0.2536950409412384,0.010412602685391903,0.13965877890586853,0.24079015851020813,0.09769231826066971,0.035067614167928696,-0.10975934565067291,-0.18385180830955505,0.19143563508987427,0.24997366964817047,-0.20701757073402405,0.3139340579509735,0.2782551646232605,0.15995313227176666},{-0.12190772593021393,-0.07373841851949692,-0.04360780864953995,-0.316127747297287,0.1673876941204071,-0.15465615689754486,0.19013789296150208,-0.3294565677642822,-0.21183300018310547,-0.15566036105155945,-0.14398416876792908,-0.2767096161842346,0.19442160427570343,0.1775263547897339,0.1678449511528015,-0.13952797651290894,0.046837735921144485,-0.08272513747215271,0.22600321471691132,-0.11245059221982956,-0.056505851447582245,-0.1022333949804306,0.0414300374686718,0.0027696348261088133,-0.08682966232299805,-0.028383241966366768,-0.3167612850666046,0.18536972999572754,-0.1814335584640503,-0.050924152135849},{0.06809134036302567,-0.1111014187335968,0.11006857454776764,-0.28703364729881287,0.08536642789840698,-0.011771253310143948,-0.23086407780647278,0.2306167185306549,0.04451848194003105,0.17927230894565582,0.06671000272035599,0.001985326409339905,0.2899596393108368,0.2958230674266815,-0.015030639246106148,-0.0014553414657711983,-0.15689188241958618,-0.06918193399906158,-0.31246471405029297,-0.2919684648513794,-0.042689863592386246,-0.1950853168964386,0.23561124503612518,0.1251874715089798,0.0769580602645874,0.31884878873825073,0.2067583203315735,-0.3545774519443512,0.1169985979795456,-0.08312652260065079},{0.26655158400535583,-0.16922077536582947,0.03755830228328705,-0.17979536950588226,-0.29878583550453186,0.1882665604352951,0.27405646443367004,0.24811169505119324,0.07897770404815674,-0.2870890200138092,-0.09821531921625137,0.08503881096839905,0.15608073770999908,-0.02238723263144493,0.3185758888721466,-0.014786593616008759,0.06262658536434174,-0.10263501107692719,-0.10992517322301865,0.3288531005382538,0.23242594301700592,0.16922375559806824,0.030592672526836395,0.10915128141641617,-0.24737362563610077,-0.18849502503871918,-0.20127388834953308,-0.13387149572372437,0.2383754551410675,0.20980122685432434}};
static const float actor_encoder_self_encoder_2_weight[30][30] = {{0.1870652735233307,0.24940501153469086,-0.2432987540960312,-0.07632530480623245,0.11368495225906372,0.03807872161269188,0.04293610155582428,-0.11703506857156754,-0.07647552341222763,0.18995048105716705,0.20444871485233307,0.27390456199645996,-0.2320113331079483,0.14388343691825867,-0.16120512783527374,0.06383778154850006,0.0804508775472641,0.22999317944049835,0.16597521305084229,0.3171287178993225,0.2361653745174408,0.12769198417663574,-0.22183091938495636,-0.04238017275929451,0.14748568832874298,-0.1615181565284729,-0.25703999400138855,0.03209519758820534,-0.3095177710056305,0.16778923571109772},{0.14463402330875397,-0.25755947828292847,-0.06293600052595139,-0.171603724360466,0.3199704587459564,0.3379601240158081,-0.0787213072180748,-0.2876049280166626,0.17358511686325073,-0.2003372460603714,0.25442683696746826,0.010509615764021873,0.10885503888130188,-0.03159062936902046,0.10108235478401184,-0.017239565029740334,0.013625649735331535,-0.09532715380191803,0.24990791082382202,-0.04970457777380943,-0.010312641970813274,0.01902957819402218,-0.12516359984874725,0.11701896786689758,-0.24304483830928802,0.12905678153038025,-0.0921364575624466,0.07882798463106155,-0.20433220267295837,-0.05064500868320465},{-0.19683009386062622,0.09461874514818192,0.17127545177936554,0.19448858499526978,0.11500850319862366,-0.15189947187900543,0.34795722365379333,-0.017320159822702408,0.1888132244348526,-0.0834827572107315,-0.3443121016025543,0.1620941162109375,-0.17938457429409027,-0.10296747833490372,0.23045115172863007,-0.20125818252563477,0.09958421438932419,-0.39143088459968567,-0.23221531510353088,0.25099414587020874,-0.29841968417167664,0.08771360665559769,-0.0265848059207201,0.031634412705898285,-0.03636966645717621,0.25591447949409485,0.17841802537441254,0.1067863330245018,0.1213674321770668,0.272463858127594},{0.08030359447002411,-0.20709842443466187,0.02197136916220188,0.03391875699162483,-0.33858516812324524,0.19505232572555542,0.3278670310974121,0.018117379397153854,0.05834183841943741,-0.10114333778619766,0.10688421130180359,0.3590955138206482,-0.31600505113601685,0.011686159297823906,-0.0029639857821166515,0.05548863485455513,-0.2595435678958893,0.17556704580783844,0.046926580369472504,-0.3024446368217468,-0.019086254760622978,0.056779488921165466,-0.14029493927955627,-0.21454305946826935,-0.01025944110006094,-0.03505357354879379,0.053398896008729935,-0.32440733909606934,0.26876911520957947,0.07100401073694229},{0.09123817086219788,-0.20321793854236603,-0.18485024571418762,0.07120352238416672,0.07599533349275589,0.01015140675008297,0.22283969819545746,-0.22747384011745453,-0.05990436300635338,-0.1874120980501175,0.2333618551492691,-0.03762581944465637,0.18647131323814392,0.07515603303909302,-0.22621360421180725,0.016204174607992172,0.08578746020793915,-0.21550925076007843,-0.17143423855304718,-0.0345577597618103,-0.14025479555130005,-0.38387519121170044,-0.19206969439983368,0.07343409210443497,0.022583261132240295,0.04601593688130379,-0.07523565739393234,0.098515585064888,-0.30675071477890015,-0.011106052435934544},{-0.09602675586938858,0.294092059135437,0.1471899002790451,0.1479743868112564,0.043771374970674515,0.23939228057861328,0.29252487421035767,-0.19311964511871338,0.2510974705219269,0.2892886996269226,0.14746804535388947,-0.3103727400302887,0.19802793860435486,-0.3090304136276245,-0.259711891412735,0.2704867422580719,-0.34422600269317627,0.16246502101421356,0.2058822065591812,0.10792935639619827,0.12791642546653748,-0.03739017993211746,0.0005499706021510065,-0.2710869014263153,-0.17405647039413452,-0.018241193145513535,-0.2866502106189728,0.022271253168582916,-0.0039752088487148285,0.1475791037082672},{-0.07644468545913696,0.13520845770835876,-0.09313703328371048,-0.2585446536540985,-0.23509299755096436,-0.2869645655155182,0.2980227768421173,0.11694090068340302,-0.13196368515491486,0.14178189635276794,0.1665869951248169,-0.25356319546699524,0.016106970608234406,0.015563637018203735,0.0024268704000860453,0.1294686198234558,-0.012045028619468212,0.06214938312768936,0.09740737080574036,-0.14166876673698425,0.2250281572341919,0.1853036731481552,-0.11212524026632309,0.178846076130867,-0.3079901933670044,-0.2511221468448639,0.1837993711233139,-0.24975016713142395,-0.2629612684249878,-0.19883619248867035},{-0.050639472901821136,-0.31454479694366455,-0.2520633041858673,-0.18834461271762848,-0.2742103338241577,-0.11696381866931915,-0.3615644872188568,0.2253146767616272,-0.23263119161128998,-0.049423206597566605,0.08917881548404694,0.2410000115633011,0.16538256406784058,0.10272042453289032,-0.26467305421829224,-0.2714967131614685,0.1376272737979889,-0.09184751659631729,-0.08933637291193008,-0.31003648042678833,0.3008650839328766,0.1971096396446228,0.015084829181432724,-0.10721950978040695,-0.2630198299884796,0.11062868684530258,-0.014548584818840027,0.2206581085920334,-0.2315003126859665,0.09353803098201752},{-0.3377557396888733,0.14398682117462158,0.1758192777633667,-0.3102031350135803,0.39997339248657227,-0.1364533007144928,-0.201538547873497,-0.18162500858306885,-0.06992360949516296,0.19562344253063202,0.14060620963573456,-0.1464463174343109,-0.09485722333192825,-0.1640336811542511,0.05422503501176834,-0.05278372764587402,-0.09756074100732803,-0.19687460362911224,0.07449231296777725,-0.01320559997111559,0.21365877985954285,-0.32039767503738403,0.04585010185837746,0.12157803773880005,0.23353593051433563,-0.23369796574115753,-0.062254030257463455,0.002462317468598485,0.16351085901260376,0.020019352436065674},{0.2165452390909195,-0.22457687556743622,-0.26933062076568604,-0.14941586554050446,0.18501640856266022,-0.17187242209911346,-0.2339194118976593,0.17291951179504395,0.019503852352499962,0.1327018439769745,-0.03981323540210724,0.2886148691177368,0.06063300371170044,0.21129316091537476,0.029545651748776436,-0.28081992268562317,0.02530563436448574,0.22104789316654205,-0.04334175959229469,-0.11366814374923706,0.10730178654193878,0.10323401540517807,-0.013000343926250935,-0.19763098657131195,0.15966051816940308,-0.11575344949960709,0.2553926706314087,-0.10310304909944534,-0.22935724258422852,-0.3306824564933777},{0.07670208066701889,0.34649914503097534,0.34687021374702454,-0.30491703748703003,0.17833758890628815,-0.15966692566871643,0.21857069432735443,-0.3146864175796509,-0.14192475378513336,0.13941286504268646,0.2237909436225891,0.0702567845582962,-0.46182915568351746,0.04916303977370262,-0.017276637256145477,0.263427734375,0.2236199975013733,0.21561039984226227,0.13031671941280365,0.11856857687234879,0.39051517844200134,0.37286582589149475,-0.2800256311893463,0.14578241109848022,-0.14942966401576996,-0.36075177788734436,0.09290917962789536,0.029007423669099808,0.007376279216259718,-0.09016453474760056},{-0.19329102337360382,0.02773173153400421,0.0008700645994395018,-0.007203041575849056,0.20101159811019897,0.08767655491828918,-0.203139528632164,-0.18406794965267181,0.1857948899269104,0.12704452872276306,-0.04995836317539215,-0.2573342025279999,-0.13350406289100647,0.20113761723041534,-0.010271372273564339,0.08390773087739944,0.06851593405008316,-0.18519806861877441,-0.20505337417125702,0.11848340183496475,-0.03542480245232582,-0.17864550650119781,-0.1520419865846634,0.1436247080564499,0.1750614196062088,0.021929997950792313,0.22503532469272614,0.2254832684993744,-0.07305669784545898,-0.21229621767997742},{0.05290349945425987,-0.16709250211715698,0.055516719818115234,-0.1351744830608368,-0.004425120539963245,0.23289337754249573,0.18835918605327606,0.2595404088497162,0.3226981461048126,-0.10637224465608597,0.23091836273670197,0.23636724054813385,-0.032018471509218216,0.12295164167881012,0.2508604824542999,-0.2237226814031601,-0.0012740808306261897,-0.023845868185162544,-0.2679162919521332,-0.24253244698047638,-0.001960418187081814,-0.03459035977721214,-0.031192868947982788,0.05604703724384308,-0.05502989888191223,-0.2096441239118576,0.1599472016096115,-0.17172542214393616,-0.20894992351531982,0.20364275574684143},{-0.13044936954975128,-0.012551010586321354,-0.2669466733932495,0.06580349802970886,-0.22848330438137054,0.046818431466817856,0.004932268988341093,-0.0639091432094574,0.11878897249698639,-0.25952956080436707,0.30928879976272583,0.20356805622577667,0.05069268122315407,-0.022167915478348732,-0.16972379386425018,0.21571920812129974,0.019014032557606697,-0.10137481987476349,0.06435397267341614,0.11176813393831253,-0.18858644366264343,-0.2176399976015091,0.11760402470827103,0.06952465325593948,0.009396486915647984,-0.058240219950675964,0.06798089295625687,-0.2164148986339569,-0.19595344364643097,-0.10363195836544037},{-0.02025066874921322,-0.009587596170604229,0.10929202288389206,-0.2198370397090912,0.1778222769498825,-0.08057431876659393,0.27454450726509094,0.19230377674102783,0.29019883275032043,0.17673392593860626,0.04992447420954704,-0.13590805232524872,0.1618974357843399,0.22121667861938477,-0.3293965458869934,0.33580178022384644,-0.23165588080883026,-0.18390609323978424,0.30107513070106506,0.2136901468038559,0.1525842696428299,0.038050830364227295,-0.34325507283210754,-0.25267550349235535,-0.14846399426460266,-0.2560671269893646,0.02141517587006092,-0.12914755940437317,0.15739022195339203,-0.1483643501996994},{-0.17659032344818115,-0.06812939792871475,-0.06338650733232498,-0.21859173476696014,-0.16068491339683533,0.11203846335411072,-0.0646350160241127,-0.20485083758831024,-0.0346187986433506,-0.19195808470249176,0.1589333862066269,-0.0253136083483696,0.07521063834428787,-0.25894057750701904,-0.11811384558677673,-0.11808454245328903,0.11133726686239243,-0.04330753535032272,0.26173439621925354,0.17897267639636993,0.03447651118040085,-0.12509624660015106,0.2850451171398163,0.3406851291656494,-0.24724645912647247,0.07150518149137497,-0.2208324819803238,-0.11454059928655624,0.14899252355098724,-0.17604905366897583},{0.05333591625094414,-0.20662297308444977,-0.20039962232112885,0.3027803301811218,0.40652549266815186,-0.3563266694545746,0.1534230262041092,0.12154349684715271,0.11738686263561249,0.14368604123592377,0.22479282319545746,-0.1883508265018463,-0.08534594625234604,0.24178244173526764,0.10300588607788086,0.23082473874092102,0.20876407623291016,0.20240998268127441,-0.09736800193786621,-0.20446248352527618,0.13769380748271942,0.3341943621635437,0.07616191357374191,0.08373178541660309,0.16795621812343597,-0.19583237171173096,0.10460813343524933,0.1406201720237732,-0.10012128949165344,-0.11934948712587357},{0.23355267941951752,0.17014335095882416,0.07197916507720947,0.14190638065338135,0.14752089977264404,0.4158923029899597,-0.3471924066543579,-0.20586469769477844,-0.0872417464852333,-0.1954973191022873,0.10890872776508331,-0.1400252878665924,0.19356116652488708,-0.05160633847117424,-0.3807668089866638,0.02896185964345932,0.10023552179336548,0.04605843126773834,0.3036399483680725,-0.2511955201625824,0.24948598444461823,0.18701021373271942,0.01693735644221306,-0.30838754773139954,0.22903481125831604,-0.43567049503326416,0.21505413949489594,-0.07375308871269226,0.4027612507343292,-0.3077147901058197},{-0.10407470911741257,-0.23857709765434265,-0.22495420277118683,0.0736745223402977,0.2324846237897873,0.11708023399114609,-0.20159190893173218,0.024230489507317543,0.17982134222984314,0.0034716296941041946,-0.15249262750148773,0.13773876428604126,0.22687126696109772,0.02784297615289688,0.07986210286617279,-0.06575373560190201,0.346731036901474,0.35252246260643005,-0.16812317073345184,0.00013424463395494968,0.20250679552555084,-0.14744506776332855,0.05499830096960068,0.034800928086042404,-0.2921554744243622,-0.21402058005332947,0.10339666157960892,0.153657466173172,-0.2135792225599289,0.08140402287244797},{0.1092529147863388,-0.0013585928827524185,-0.19499091804027557,-0.09774328023195267,0.28638651967048645,-0.24062106013298035,-0.2727222144603729,0.061586134135723114,-0.20877225697040558,0.21751920878887177,-0.25837641954421997,0.013984871096909046,-0.13928619027137756,-0.04663525149226189,0.20585455000400543,0.17506255209445953,0.12252557277679443,-0.2810409963130951,0.2553751468658447,0.08666946738958359,-0.3140357434749603,-0.2589729428291321,-0.10656861215829849,0.003121777903288603,0.04811342433094978,0.22877688705921173,-0.08863882720470428,-0.24970398843288422,-0.03960125893354416,0.08944308012723923},{0.1299722045660019,-0.18438301980495453,-0.23118479549884796,-0.2236887812614441,-0.12719810009002686,0.04023164138197899,0.14241638779640198,0.04710688069462776,0.221040278673172,0.0874880775809288,0.13572624325752258,-0.194150909781456,-0.007512170821428299,-0.24383845925331116,0.17258630692958832,-0.045617323368787766,-0.11141685396432877,0.00987685564905405,-0.004494950175285339,0.15104681253433228,-0.08477120846509933,-0.21343468129634857,0.09617845714092255,0.06974059343338013,0.074321448802948,0.1283697634935379,0.09814893454313278,0.11270563304424286,-0.26488709449768066,-0.2717379927635193},{-0.22874212265014648,-0.16880787909030914,-0.09212512522935867,0.21819716691970825,-0.11354569345712662,0.25382277369499207,-0.035731468349695206,0.19257497787475586,0.11683405935764313,-0.2835628390312195,0.1652238368988037,-0.040260400623083115,0.32646724581718445,-0.17571419477462769,0.05056299269199371,-0.13106457889080048,-0.04066599905490875,0.07339514046907425,-0.05751332268118858,-0.31039106845855713,-0.3182927966117859,-0.11180997639894485,0.26425981521606445,0.09655636548995972,-0.24643364548683167,-0.19666552543640137,-0.028026608750224113,0.24797756969928741,0.2890600264072418,0.1911807358264923},{-0.17090526223182678,0.032568737864494324,0.01987486332654953,0.018166037276387215,-0.2110781967639923,0.13180658221244812,-0.06236164644360542,0.02502843365073204,0.344954252243042,0.07455865293741226,-0.16610386967658997,0.02372654713690281,-0.05767088010907173,0.06538547575473785,-0.09985961765050888,0.09131225943565369,0.1920628845691681,-0.09718494117259979,0.173586905002594,0.2153203785419464,0.22456777095794678,0.028574727475643158,0.023187996819615364,0.20093800127506256,-0.20105288922786713,-0.11220481991767883,-0.18300901353359222,-0.037447087466716766,0.09921213984489441,-0.13607197999954224},{-0.03487739339470863,0.09280623495578766,0.285895973443985,-0.005024327430874109,-0.32560089230537415,0.1741734892129898,0.2176751345396042,-0.07049762457609177,-0.027697056531906128,0.3155905306339264,0.03216280788183212,0.09385553002357483,-0.33992472290992737,-0.19234570860862732,0.0724559873342514,-0.15838463604450226,0.034663569182157516,-0.008489027619361877,0.3039822578430176,0.30936628580093384,-0.05049637332558632,-0.2011401355266571,0.1990257203578949,-0.09669782221317291,-0.22717182338237762,0.3495083153247833,0.009552284143865108,0.35622063279151917,0.029933011159300804,-0.05974612757563591},{-0.19549879431724548,-0.29864275455474854,0.06829526275396347,-0.06203581765294075,0.3379455506801605,0.24595028162002563,0.21831373870372772,0.2528132200241089,-0.18199145793914795,-0.05572767183184624,-0.052781376987695694,0.05699713155627251,0.2654350697994232,0.31424668431282043,0.026429498568177223,0.20255033671855927,0.14223109185695648,-0.005931485444307327,0.11633393168449402,0.029196854680776596,-0.27725768089294434,-0.1945524662733078,0.14867471158504486,-0.0529012605547905,0.1160094141960144,0.10192766040563583,0.1889813393354416,0.09794501215219498,-0.2249884158372879,-0.23660355806350708},{0.1800333708524704,0.05504816398024559,-0.13027295470237732,-0.08904851227998734,-0.31066209077835083,0.19664953649044037,0.028580790385603905,-0.009253102354705334,0.2538509964942932,-0.054586466401815414,-0.008191456086933613,-0.22170257568359375,0.15261276066303253,-0.12877002358436584,0.2647479772567749,0.22755445539951324,-0.2410626858472824,0.2553628385066986,-0.10872010886669159,-0.034335825592279434,0.11070792376995087,-0.08617845177650452,0.20834054052829742,-0.04054106026887894,0.2927686274051666,0.285042941570282,0.06002408638596535,-0.2780984342098236,-0.2446216493844986,0.0421161986887455},{0.256856232881546,0.08275074511766434,-0.022553853690624237,0.2124396115541458,0.04161890968680382,-0.05514783412218094,-0.10221371799707413,-0.20283757150173187,-0.15355338156223297,0.11409766227006912,0.1475755274295807,-0.18243452906608582,0.21683689951896667,-0.37152162194252014,0.13724669814109802,-0.15732337534427643,0.10061280429363251,-0.017779255285859108,0.06659329682588577,0.06586818397045135,-0.3015005886554718,-0.29118943214416504,0.05724981427192688,0.1480795443058014,-0.003944409545511007,-0.07750895619392395,-0.1422075629234314,-0.13545244932174683,0.20847421884536743,0.03375345468521118},{-0.1402372121810913,-0.13498978316783905,0.13137634098529816,-0.20299924910068512,0.010271811857819557,0.15422455966472626,0.24062292277812958,-0.19683486223220825,-0.040968894958496094,0.2285115271806717,0.22471290826797485,0.1345885992050171,-0.03233354538679123,-0.12996461987495422,0.07167491316795349,0.07437363266944885,0.026482561603188515,-0.09483359009027481,0.07200935482978821,-0.19616329669952393,0.050931572914123535,0.11148223280906677,0.07508599758148193,-0.17967678606510162,0.026063868775963783,0.035245999693870544,0.2597123980522156,0.20648452639579773,0.12060566246509552,0.06687155365943909},{-0.009164249524474144,0.0513649582862854,-0.16848157346248627,-0.05599978193640709,0.05119017884135246,0.129011332988739,0.28506436944007874,0.17721420526504517,-0.13067224621772766,0.14266221225261688,-0.10003659874200821,0.19010882079601288,-0.06366758048534393,-0.01991533488035202,0.07483658194541931,0.08008966594934464,-0.3047771751880646,0.1589147299528122,-0.11945971101522446,-0.2923455536365509,0.21832464635372162,-0.2473943680524826,-0.019376344978809357,0.21426087617874146,0.08737440407276154,0.20203104615211487,-0.1009838730096817,-0.03890388086438179,-0.08749479055404663,-0.058458469808101654},{-0.024478662759065628,-0.18976669013500214,-0.4696386158466339,0.28930845856666565,-0.2369939088821411,-0.3123766779899597,-0.3275754153728485,0.12418355792760849,0.29103049635887146,0.12308366596698761,0.2038142830133438,0.008924990892410278,-0.006118688266724348,-0.21100696921348572,0.05893419310450554,0.15877898037433624,0.02072032541036606,-0.003485356457531452,0.046027135103940964,0.1380760371685028,0.21718643605709076,-0.12689125537872314,0.19923575222492218,-0.18104563653469086,-0.23989693820476532,0.08382988721132278,0.2823275327682495,0.3332754075527191,-0.0027811338659375906,-0.04531228914856911}};
static const float actor_encoder_feed_forward_0_weight[46][60] = {{-0.2234421670436859,0.1636412888765335,-0.0864914283156395,-0.03684880584478378,0.016789430752396584,0.00585064385086298,0.1299111545085907,-0.26832887530326843,-0.053633369505405426,0.1704673022031784,0.2567182779312134,-0.19703981280326843,-0.061174359172582626,0.1235540509223938,-0.0026848807465285063,-0.13269676268100739,0.06647426635026932,-0.11392215639352798,0.1119113340973854,-0.001420954940840602,0.18253947794437408,0.03613597899675369,0.1990201473236084,0.20497480034828186,0.016546232625842094,0.05893165245652199,-0.09669853746891022,-0.00820248480886221,-0.029264314100146294,0.20910851657390594,0.13710597157478333,-0.1765623390674591,-0.18043991923332214,0.025215936824679375,0.04399807006120682,0.11254031956195831,-0.11185065656900406,-0.05128193646669388,0.2700253129005432,0.06330635398626328,-0.04731088504195213,0.056437086313962936,-0.1401045322418213,0.10388388484716415,0.006427486892789602,0.05782075598835945,0.17328481376171112,-0.0769297257065773,-0.14371900260448456,0.010316580533981323,0.13846266269683838,0.26406753063201904,0.28668251633644104,-0.12015931308269501,-0.1720772087574005,-0.07666446268558502,-0.06783890724182129,-0.12684130668640137,0.09348885715007782,0.17202343046665192},{-0.0934089720249176,-0.03784175589680672,0.1586569845676422,0.22871054708957672,0.21352072060108185,-0.1790630966424942,-0.051296647638082504,-0.010410480201244354,0.08991258591413498,0.07687744498252869,0.19812434911727905,0.17744900286197662,0.058736544102430344,0.21019813418388367,0.07157464325428009,-0.17100748419761658,0.17428931593894958,0.07044816762208939,-0.140127494931221,0.16259261965751648,0.18852077424526215,-0.12652195990085602,0.0376766212284565,0.20330998301506042,0.19459186494350433,-0.15133404731750488,-0.007617611903697252,-0.2041541188955307,-0.17606304585933685,0.09968233853578568,0.11899023503065109,-0.030481277033686638,-0.1251038759946823,-0.1414925754070282,0.22843213379383087,-0.15107300877571106,0.03670215234160423,-0.03233415260910988,-0.1311243623495102,0.003090576734393835,-0.16951660811901093,-0.19043387472629547,-0.02162935398519039,-0.17224515974521637,0.12475056201219559,-0.12163176387548447,-0.15724459290504456,-0.16744695603847504,0.1744130551815033,0.03741834685206413,-0.25192734599113464,-0.006701371632516384,0.09558716416358948,0.2001575231552124,-0.16288194060325623,-0.013266675174236298,-0.08948706090450287,-0.11254357546567917,0.08553231507539749,0.0826324000954628},{-0.04342590644955635,0.06696806102991104,0.23053203523159027,-0.009031843394041061,-0.09366578608751297,0.12273909151554108,-0.12062127888202667,0.2909414768218994,-0.3024027347564697,-0.13427294790744781,0.14398594200611115,-0.2253926396369934,0.1097661480307579,0.16173504292964935,0.0033222369384020567,0.03230060636997223,-0.14221253991127014,-0.015265488997101784,-0.09649553894996643,0.15989765524864197,0.04019459709525108,0.2371813803911209,-0.08047850430011749,-0.10463368147611618,-0.05690363794565201,0.1325593888759613,-0.23437075316905975,-0.13296562433242798,-0.26833584904670715,-0.07451898604631424,0.18969807028770447,0.14281144738197327,-0.17904672026634216,0.07675319164991379,0.03393205255270004,0.025600077584385872,-0.04092429578304291,-0.036702707409858704,0.06650100648403168,0.056282225996255875,-0.06917499005794525,0.23452632129192352,0.0734538733959198,0.15960939228534698,0.1498873084783554,-0.02951447106897831,0.2877626419067383,0.11662463843822479,-0.16037361323833466,-0.21971358358860016,-0.2111358642578125,-0.0667625144124031,0.08115199208259583,0.0883583351969719,-0.04704686999320984,0.08985334634780884,-0.06536595523357391,0.20974987745285034,-0.09801047295331955,0.06613367795944214},{0.11364570260047913,-0.06826428323984146,0.14975886046886444,0.12923669815063477,-0.056197308003902435,-0.3251664638519287,-0.09067033976316452,-0.15090082585811615,0.27782365679740906,0.15807349979877472,-0.106812484562397,-0.031375207006931305,-0.06211130693554878,-0.08521503955125809,-0.05001404508948326,0.18159745633602142,0.0895000696182251,-0.10050975531339645,-0.08059155941009521,-0.07519292086362839,-0.019194679334759712,0.13493512570858002,0.1269255429506302,0.06065896525979042,-0.07331071048974991,0.1887841820716858,0.04980876296758652,0.10808072239160538,0.11448456346988678,0.22427836060523987,-0.2265719473361969,0.25163888931274414,-0.1199662834405899,-0.04084969684481621,0.0007784655317664146,-0.13026553392410278,-0.03777925297617912,0.08025772124528885,0.010021662339568138,-0.1327318251132965,-0.14532874524593353,0.18008488416671753,0.042605191469192505,-0.17236076295375824,-0.25222793221473694,0.24013972282409668,-0.03915327414870262,-0.18874487280845642,-0.0655684620141983,0.15108275413513184,0.24579507112503052,0.10451655089855194,0.04279100522398949,-0.13661262392997742,0.2606672942638397,0.10642272979021072,-0.13200002908706665,-0.14404965937137604,0.08129279315471649,0.013407612219452858},{-0.17270511388778687,0.07167515158653259,0.11784453690052032,0.03259565308690071,0.28005123138427734,-0.11561167240142822,0.05295906960964203,-0.17035098373889923,-0.2001953125,0.13452211022377014,-0.29029569029808044,0.3360307216644287,-0.23980072140693665,0.009062837809324265,0.05269189178943634,-0.23891983926296234,0.06660903245210648,-0.10304023325443268,-0.19821131229400635,-0.06505723297595978,0.16058428585529327,0.01579880714416504,-0.035294994711875916,-0.12081171572208405,-0.01770542934536934,0.047705553472042084,-0.09232183545827866,0.13664475083351135,0.15772174298763275,-0.04704762622714043,-0.044740159064531326,0.2013818323612213,-0.11033757030963898,0.0747402086853981,-0.22286900877952576,-0.13765574991703033,0.07191300392150879,-0.053007062524557114,-0.31480711698532104,-0.0028009957168251276,-0.05314073711633682,-0.07242821156978607,-0.21755042672157288,0.07570161670446396,-0.12205006927251816,-0.2676081955432892,0.0007545461994595826,-0.14221005141735077,0.15777289867401123,0.14729194343090057,0.14124003052711487,0.02551310323178768,-0.05608513206243515,0.16800829768180847,-0.05628480762243271,0.009678276255726814,-0.10471130162477493,0.1219867467880249,0.059903182089328766,0.2647005617618561},{-0.20644953846931458,0.029165267944335938,-0.09146962314844131,-0.07595513761043549,0.06906727701425552,-0.13797101378440857,-0.19623993337154388,0.15216661989688873,-0.017341578379273415,-0.0902126282453537,-0.14495094120502472,0.03908516466617584,-0.1387583315372467,0.016772884875535965,0.10465013235807419,0.1436186581850052,-0.15963725745677948,0.14131353795528412,-0.06766779720783234,-0.09327947348356247,0.03865654394030571,-0.1783469319343567,-0.08549264073371887,-0.14506155252456665,-0.06397195160388947,0.03923114016652107,-0.19410301744937897,-0.24571865797042847,-0.14713004231452942,0.0813560038805008,-0.025566399097442627,-0.039741601794958115,-0.2588392198085785,-0.12554942071437836,0.14709602296352386,0.22837212681770325,-0.13891027867794037,0.03733013942837715,-0.06275371462106705,0.15142512321472168,-0.09390963613986969,0.20174509286880493,0.0924634337425232,-0.10354078561067581,0.07191971689462662,-0.07319912314414978,0.055149272084236145,0.19401952624320984,-0.03479393571615219,-0.11342395097017288,-0.20196062326431274,0.1485273689031601,-0.034364067018032074,-0.05798754468560219,0.005712731275707483,-0.19911301136016846,0.23482632637023926,-0.16457512974739075,-0.22540868818759918,-0.1830824315547943},{0.09813812375068665,-0.038233183324337006,-0.0779385194182396,-0.17769017815589905,0.23638522624969482,-0.06964115798473358,0.1576547920703888,0.17208638787269592,-0.18921546638011932,-0.22858838737010956,-0.14307130873203278,0.021756689995527267,-0.23888520896434784,-0.21838416159152985,0.11122076213359833,-0.0996268093585968,-0.12828345596790314,-0.2341383695602417,0.0607704296708107,0.11240004748106003,-0.021543821319937706,-0.1749638170003891,-0.0256697665899992,0.25823837518692017,-0.057711925357580185,0.1458098292350769,0.1937980204820633,-0.2279902696609497,0.1456112116575241,-0.028909843415021896,0.17553478479385376,-0.13720449805259705,-0.17812426388263702,-0.1619519144296646,0.044286180287599564,-0.24245692789554596,-0.1252674013376236,0.1709684431552887,-0.08938448131084442,0.01399032212793827,0.1053323969244957,0.11202647536993027,-0.20013770461082458,-0.16683122515678406,-0.18170489370822906,-0.0025943706277757883,0.12692715227603912,-0.1788357049226761,-0.19017644226551056,0.17472316324710846,-0.13123682141304016,-0.06683123111724854,0.2179330736398697,-0.13412949442863464,-0.0147874616086483,0.27092957496643066,-0.23554395139217377,0.19339804351329803,0.026338569819927216,-0.12225256860256195},{0.011767664924263954,-0.1292673796415329,0.009904411621391773,-0.12373394519090652,-0.18121491372585297,-0.23729552328586578,0.0558401457965374,-0.027697985991835594,-0.0949639230966568,-0.21581897139549255,0.21874286234378815,-0.11214501410722733,-0.0195603184401989,-0.07795167714357376,0.13979819416999817,0.201991468667984,-0.15291406214237213,-0.12634950876235962,0.11596257984638214,0.13299238681793213,0.1414790004491806,0.18395467102527618,0.10130925476551056,0.1960608810186386,0.10144367814064026,-0.23283308744430542,-0.16669856011867523,-0.12479490786790848,0.18844115734100342,0.06424858421087265,-0.12211049348115921,0.2324066311120987,0.031151173636317253,0.014554130844771862,0.11694231629371643,-0.19594623148441315,0.023266060277819633,0.02420695871114731,-0.05942532792687416,0.17486275732517242,0.11130286753177643,-0.022766519337892532,-0.004310227930545807,0.12728026509284973,0.040684774518013,0.1284032166004181,-0.010971298441290855,-0.20641441643238068,0.19223074615001678,0.10230358690023422,0.02652682550251484,-0.07403400540351868,-0.12911447882652283,-0.15819703042507172,-0.003224930027499795,-0.04006517305970192,-0.07125414907932281,-0.12470878660678864,-0.1901744306087494,-0.23405537009239197},{-0.0280472282320261,0.22645600140094757,0.1129273921251297,0.2207358032464981,-0.07714363932609558,-0.14032171666622162,-0.018337935209274292,0.22166064381599426,0.17414405941963196,0.24055097997188568,-0.10103718936443329,-0.23030050098896027,0.13638721406459808,-0.27990204095840454,0.24510429799556732,-0.032121431082487106,-0.004656127188354731,-0.0064714946784079075,-0.028303854167461395,-0.16521897912025452,0.11424495279788971,0.05352471396327019,0.2281804084777832,0.07732575386762619,0.1634901762008667,0.24511420726776123,0.02586452290415764,-0.14638781547546387,-0.21243628859519958,-0.1207544133067131,-0.18470489978790283,-0.05665876343846321,-0.1548883467912674,0.1556064784526825,-0.13527116179466248,0.2203117460012436,-0.060850612819194794,-0.006875809747725725,0.017057938501238823,0.2176525592803955,0.06966865807771683,-0.2581111192703247,0.010443922132253647,-0.058591000735759735,0.03040609136223793,0.16213767230510712,0.13148584961891174,-0.023835934698581696,0.0642763301730156,-0.004766308702528477,-0.1885470747947693,0.0694560706615448,-0.023052452132105827,-0.1117129847407341,0.21005378663539886,-0.16256751120090485,-0.01798832230269909,-0.011264101602137089,-0.07829146832227707,-0.17867890000343323},{-0.1535898894071579,-0.26741981506347656,-0.018599363043904305,0.2427617609500885,-0.13005578517913818,-0.12998585402965546,0.19215789437294006,-0.2286325842142105,0.03718697279691696,-0.1479095220565796,0.19063733518123627,0.01813291385769844,0.041390735656023026,0.06406986713409424,0.07852818816900253,0.13670386373996735,-0.1642092615365982,-0.1235462948679924,0.23242880403995514,-0.12832581996917725,-0.09811685979366302,-0.04359734430909157,-0.024091964587569237,0.1886787861585617,0.042973194271326065,0.19518683850765228,0.14495393633842468,0.3100234270095825,0.008139118552207947,0.03478194400668144,-0.03816821053624153,0.004214643035084009,0.026714401319622993,0.24906551837921143,-0.03764449432492256,0.103933185338974,-0.13265570998191833,0.11319554597139359,-0.13295894861221313,-0.19449414312839508,0.11365341395139694,-0.14749298989772797,0.005062231793999672,-0.04386640712618828,-0.09576179087162018,-0.08026094734668732,-0.03893722593784332,0.10018569976091385,-0.012738967314362526,-0.16244134306907654,0.1401543915271759,0.17140379548072815,-0.1556415855884552,0.13167816400527954,0.07188832759857178,0.26905709505081177,-0.15278802812099457,-0.16443932056427002,0.10010939091444016,0.08339909464120865},{0.13295812904834747,-0.1500309258699417,-0.09796716272830963,0.20051655173301697,-0.09045203030109406,0.16555026173591614,-0.03750763088464737,0.13546240329742432,0.040155719965696335,0.26201358437538147,-0.10055670887231827,0.066513292491436,0.19356684386730194,0.0005570062785409391,-0.053673163056373596,0.023039691150188446,0.1313091367483139,0.018907682970166206,-0.02149975672364235,-0.12538950145244598,-0.20805011689662933,-0.1704912930727005,0.1752188503742218,0.02912382408976555,0.11004407703876495,0.23217402398586273,0.03570777550339699,-0.02933516539633274,-0.035327497869729996,-0.08746679127216339,0.10044080764055252,0.20340891182422638,-0.15686601400375366,0.1539478302001953,-0.13922861218452454,0.08430922776460648,-0.18508468568325043,0.13252490758895874,0.036220286041498184,-0.14224445819854736,0.07922228425741196,-0.2037908136844635,-0.13482508063316345,-0.05436234176158905,-0.15513397753238678,-0.10299807041883469,-0.21019428968429565,0.325836718082428,0.1797158569097519,0.11357852816581726,-0.07125389575958252,0.006105478387326002,0.17069187760353088,0.018957095220685005,-0.10377375036478043,0.15351279079914093,0.04203573241829872,0.049068715423345566,-0.19419199228286743,-0.04184756428003311},{0.13910867273807526,0.1780368685722351,0.016474179923534393,0.14884527027606964,-0.016034740954637527,-0.13907332718372345,-0.04492875933647156,-0.22766390442848206,-0.130390927195549,-0.2184976190328598,-0.14450785517692566,-0.135017529129982,-0.17388483881950378,0.14981649816036224,0.06981503218412399,-0.11922983080148697,-0.08713709563016891,-0.18624132871627808,0.11603488028049469,0.003763602813705802,-0.08507169783115387,-0.1200096532702446,0.19141921401023865,0.19619591534137726,0.20060768723487854,-0.09496298432350159,0.019923057407140732,0.10632186383008957,0.04298177361488342,0.09123130142688751,0.03340662270784378,-0.0907965674996376,0.0004490662831813097,0.013496104627847672,-0.13736964762210846,0.20650626718997955,0.2045990377664566,0.16552908718585968,-0.07639710605144501,-0.2364029437303543,-0.06092142313718796,0.02103017270565033,-0.03245764225721359,-0.1542716920375824,0.07332703471183777,-0.19760584831237793,0.19003607332706451,-0.11221921443939209,0.02435726672410965,-0.19939517974853516,0.28048741817474365,0.09961340576410294,-0.22314795851707458,-0.04283691942691803,0.18186824023723602,0.20545847713947296,0.08109487593173981,-0.07339667528867722,0.18128399550914764,0.033627040684223175},{-0.07104374468326569,0.28662604093551636,0.09697292000055313,-0.24961479008197784,0.19309209287166595,0.252229243516922,0.13761042058467865,-0.11302673071622849,-0.023333579301834106,-0.15834711492061615,0.04801582917571068,0.017931291833519936,0.22073398530483246,-0.2624812126159668,0.17786939442157745,0.034853022545576096,0.03415054827928543,-0.022733144462108612,-0.1847246289253235,-0.08557094633579254,-0.24245019257068634,0.19746051728725433,0.15099872648715973,0.13551941514015198,-0.19285151362419128,0.12299497425556183,0.02122235856950283,0.024330969899892807,0.05660038813948631,0.2234923541545868,-0.10266345739364624,0.16368134319782257,0.1043873056769371,0.16448186337947845,0.17794185876846313,-0.02047339826822281,-0.12730559706687927,-0.07346835732460022,-0.2784615755081177,-0.02574460580945015,0.05339197441935539,0.19815166294574738,-0.08728652447462082,0.18799060583114624,-0.14692263305187225,-0.2909087836742401,-0.028007911518216133,-0.054109010845422745,0.20555639266967773,0.15894165635108948,0.14912761747837067,-0.0015246085822582245,0.1714322715997696,-0.14004077017307281,0.19718365371227264,0.058997929096221924,-0.17014724016189575,-0.2133796662092209,-0.12092866748571396,0.25272658467292786},{0.18601685762405396,0.09889036417007446,-0.032517142593860626,-0.12011069804430008,0.1567709892988205,0.2119978666305542,0.04592572897672653,0.19130074977874756,-0.1352130025625229,-0.03938916325569153,-0.05235549435019493,0.0832066535949707,-0.10224591940641403,0.13738366961479187,-0.2283276915550232,0.06938328593969345,-0.07777895033359528,0.16417349874973297,-0.019909998401999474,0.13295012712478638,-0.04491962492465973,0.1250004917383194,0.05087742581963539,0.1686195731163025,-0.1726469248533249,-0.05465888977050781,-0.23109635710716248,0.09455477446317673,0.03745173662900925,0.19108328223228455,0.09623619168996811,-0.17057906091213226,0.32723763585090637,-0.06691643595695496,-0.20782989263534546,-0.01769058220088482,-0.04431746527552605,-0.2653851807117462,0.05560809746384621,0.059026118367910385,0.09171829372644424,0.07489702105522156,-0.12412706017494202,-0.3055608570575714,0.2567550241947174,0.0588536374270916,0.20436744391918182,-0.1869092583656311,-0.02517073228955269,-0.24489007890224457,0.2582781910896301,-0.1931557059288025,0.02321699447929859,-0.04063483700156212,0.04247933626174927,-0.03525449335575104,0.03467627242207527,0.06936169415712357,-0.06361491978168488,0.15736940503120422},{-0.13627482950687408,-0.0738246962428093,-0.1341959536075592,0.04563143849372864,-0.020861271768808365,0.0349859818816185,0.020674273371696472,-0.18576151132583618,0.2586086094379425,0.19134250283241272,-0.0018222772050648928,-0.1729051172733307,-0.1748800277709961,0.15525293350219727,-0.11544295400381088,0.2020319253206253,0.1704927235841751,0.05661449208855629,0.1242661327123642,-0.1531171202659607,-0.2505324184894562,-0.0016831941902637482,-0.17666661739349365,0.0933031216263771,-0.042215343564748764,0.047196175903081894,-0.11926569044589996,-0.07285529375076294,0.29401057958602905,0.13687200844287872,-0.22486406564712524,0.057251278311014175,0.1783822923898697,0.18082626163959503,-0.1957971304655075,-0.05049491673707962,0.1600896418094635,-0.03249487280845642,0.0513087660074234,-0.08019976317882538,-0.18418465554714203,-0.044356826692819595,-0.03296361863613129,-0.032828494906425476,0.06253150850534439,-0.02120785415172577,-0.16945107281208038,-0.14208491146564484,-0.2196858674287796,-0.05243025720119476,-0.17685842514038086,0.014295452274382114,-0.12084974348545074,-0.18314172327518463,0.11863946169614792,0.2574276030063629,-0.06760570406913757,0.11417707055807114,-0.08956918865442276,-0.029060905799269676},{-0.13633598387241364,0.22758440673351288,0.22780440747737885,-0.19163547456264496,0.14488880336284637,-0.08622802793979645,0.26970306038856506,-0.1937052458524704,-0.22855250537395477,0.06307096779346466,0.08571194857358932,0.07287223637104034,0.16033510863780975,-0.07652551680803299,-0.19914504885673523,0.0489405021071434,0.01307633426040411,-0.09517359733581543,0.14377909898757935,-0.047676004469394684,-0.23507864773273468,0.16587752103805542,-0.12087924033403397,0.1486470252275467,0.04941871762275696,0.23508326709270477,0.000917568861041218,0.12646234035491943,0.13654825091362,0.012864076532423496,-0.23450015485286713,0.24819311499595642,-0.13742248713970184,0.032611601054668427,0.15520398318767548,0.07029686868190765,-0.2421445995569229,0.1466575413942337,-0.025699935853481293,-0.10513072460889816,0.06724438071250916,0.13808143138885498,0.00264275842346251,-0.03625235706567764,0.13319645822048187,0.12450998276472092,0.1675274819135666,-0.2491636723279953,0.14580602943897247,0.0024007137399166822,0.1653609573841095,0.006349404342472553,0.1302528977394104,0.20681370794773102,0.19797898828983307,0.1301792562007904,-0.15972408652305603,-0.1871427297592163,0.16493690013885498,0.24383394420146942},{0.14652225375175476,-0.05623418465256691,-0.11472920328378677,-0.04189236834645271,-0.1344037801027298,-0.15856191515922546,-0.19660750031471252,0.06022630259394646,-0.03799811005592346,-0.11440873146057129,-0.23397989571094513,-0.16664163768291473,-0.07244027405977249,-0.24429510533809662,-0.13381628692150116,0.0893583595752716,-0.18715056777000427,0.1297268271446228,-0.025970494374632835,0.22531302273273468,0.06606987863779068,-0.1255628913640976,-0.10058549791574478,0.1937631368637085,-0.05183890461921692,0.061063528060913086,-0.15274576842784882,0.05574178323149681,-0.014600244350731373,-0.036497652530670166,0.12573686242103577,0.023087862879037857,0.1753033697605133,-0.2249518632888794,-0.13928212225437164,-0.24308806657791138,-0.01693541184067726,-0.13825587928295135,-0.22673486173152924,-0.056163057684898376,0.01345886755734682,0.0674331858754158,0.22192052006721497,-0.082113116979599,0.11394138634204865,-0.06018109992146492,0.1091969758272171,-0.08240669965744019,-0.15650464594364166,0.13937130570411682,-0.168851837515831,0.11428064107894897,0.21015246212482452,-0.24094010889530182,-0.07741931825876236,-0.19269013404846191,-0.16519898176193237,0.22344855964183807,-0.16191205382347107,-0.049305062741041183},{-0.18989449739456177,-0.06600092351436615,0.170795276761055,0.06008794531226158,-0.16861656308174133,-0.12015779316425323,0.09424535930156708,0.20917509496212006,0.11553243547677994,0.18108147382736206,-0.2453266680240631,0.07447096705436707,0.02537406049668789,0.0296664796769619,0.22850461304187775,0.0642733946442604,-0.11198985576629639,0.29224392771720886,-0.1083010882139206,-0.1403629332780838,0.04368601739406586,-0.11934157460927963,0.2504054605960846,0.09248240292072296,-0.10999799519777298,0.09118033200502396,-0.15578483045101166,0.13296228647232056,-0.054314374923706055,0.10172195732593536,0.2331165075302124,-0.19338543713092804,-0.0770946815609932,-0.11901897192001343,0.08684612065553665,-0.21106159687042236,-0.08726207166910172,-0.03858369216322899,0.14301419258117676,0.09198569506406784,-0.05958276242017746,-0.1701308935880661,-0.026104649528861046,-0.10399720072746277,0.06454690545797348,-0.014939543791115284,-0.16198115050792694,0.07623738795518875,0.036215890198946,-0.18405665457248688,-0.1174146980047226,0.0016537751071155071,0.01470266468822956,-0.05268913134932518,0.08130127936601639,0.18692120909690857,0.0291464701294899,0.008954537101089954,-0.17596402764320374,0.2191256731748581},{0.10908292233943939,0.1106659397482872,-0.19014620780944824,-0.0638628825545311,0.1251974254846573,-0.1358073204755783,0.05242260545492172,-0.06717298924922943,-0.2205788791179657,0.07174009829759598,0.16775213181972504,-0.10766047984361649,0.11233644932508469,-0.060888197273015976,0.09615544229745865,0.147999107837677,-0.21092897653579712,0.2948070764541626,-0.021719809621572495,-0.14132846891880035,0.022135576233267784,0.09788821637630463,0.037324659526348114,-0.22704072296619415,-0.17350302636623383,-0.061855968087911606,-0.1266481876373291,-0.19017939269542694,-0.16068705916404724,-0.28728732466697693,0.04944700375199318,0.05283209681510925,-0.0052245305851101875,0.22772136330604553,-0.1091274544596672,-0.10333121567964554,-0.22655841708183289,-0.15586133301258087,-0.18297235667705536,0.048771101981401443,-0.09284679591655731,0.05277426540851593,-0.23496729135513306,0.034834861755371094,-0.1340232640504837,-0.11153006553649902,-0.1681208312511444,-0.0086448285728693,0.029850967228412628,0.022104883566498756,0.10812579095363617,0.23851820826530457,0.18025144934654236,0.030525822192430496,-0.13095536828041077,-0.14809313416481018,-0.0352809801697731,0.1304480880498886,-0.17407108843326569,0.2647095322608948},{-0.11411445587873459,-0.00813362654298544,-0.14946147799491882,0.02124340645968914,0.23672716319561005,0.07447679340839386,-0.054770756512880325,-0.20594342052936554,-0.0018833900103345513,-0.17798984050750732,0.13246093690395355,0.17799580097198486,-0.01729593612253666,-0.16514721512794495,-0.002895060461014509,-0.11712111532688141,0.04126833751797676,-0.20198819041252136,-0.20131893455982208,0.03582834079861641,0.05894368886947632,-0.1290406882762909,-0.15082670748233795,0.09965830296278,-0.01831902749836445,-0.1354869157075882,0.21910005807876587,-0.04978463426232338,-0.005950020160526037,-0.05317721888422966,0.12591217458248138,-0.09706325829029083,-0.21723642945289612,-0.062150586396455765,-0.11718165129423141,-0.04897565022110939,0.01838337630033493,0.0033991425298154354,-0.098268523812294,-0.16676945984363556,-0.05898216739296913,0.03914973884820938,0.028715984895825386,0.035838451236486435,0.23679637908935547,-0.007394169922918081,-0.043474458158016205,-0.27769437432289124,0.01405943650752306,0.0046531446278095245,-0.2944493889808655,0.02969779074192047,-0.1780458688735962,-0.016016889363527298,-0.08161013573408127,0.06380043923854828,0.04911371320486069,-0.060932058840990067,0.07513224333524704,-0.24477766454219818},{-0.24444761872291565,-0.07020049542188644,-0.12836915254592896,0.03389745578169823,0.12484277039766312,0.19917409121990204,0.08504339307546616,0.12969708442687988,0.020477771759033203,0.27253931760787964,-0.07826823741197586,0.18652155995368958,0.02043207921087742,-0.06963862478733063,-0.2039886713027954,-0.11408770829439163,0.1717766970396042,0.17444869875907898,0.1023978665471077,-0.2193918228149414,0.1432926058769226,0.17486165463924408,-0.20819821953773499,0.20522074401378632,0.20788466930389404,0.22913858294487,0.1741291731595993,0.2364027202129364,0.09558528661727905,-0.04794212803244591,0.17257528007030487,0.13363339006900787,0.21698012948036194,-0.29271531105041504,-0.11546356230974197,0.22669771313667297,0.07479719072580338,0.2876359522342682,0.21854239702224731,-0.0692482516169548,0.03641343116760254,0.022683173418045044,0.22425596415996552,0.1981588751077652,-0.0787690132856369,0.1893756091594696,0.023712845519185066,-0.029362574219703674,-0.09724071621894836,-0.12959708273410797,-0.09634898602962494,0.10408925265073776,0.00133408117108047,-0.05561194568872452,0.06838671118021011,-0.1285848170518875,-0.15829771757125854,-0.2170911729335785,-0.05887811630964279,0.10458342730998993},{0.0433373749256134,0.07508182525634766,0.17602187395095825,-0.06322222203016281,-0.17396436631679535,-0.15625765919685364,0.07828372716903687,0.23288889229297638,0.17186738550662994,0.22036847472190857,0.10636301338672638,0.18443630635738373,0.0356316864490509,-0.0540069043636322,0.030835261568427086,-0.03941044956445694,0.07412641495466232,0.09321676194667816,0.26153483986854553,-0.0315735824406147,0.22982855141162872,0.17407727241516113,-0.22621557116508484,0.18124240636825562,-0.022605108097195625,-0.17018583416938782,0.08729027956724167,-0.12529009580612183,0.21241448819637299,0.07532615959644318,0.25402402877807617,0.19463376700878143,-0.1719379425048828,0.25056496262550354,-0.14418113231658936,-0.09480103850364685,0.109576515853405,-0.26150986552238464,-0.10051335394382477,-0.04091658070683479,-0.1544475108385086,-0.014071658253669739,-0.28213033080101013,0.058600470423698425,0.11853133887052536,-0.026528652757406235,-0.09941504150629044,0.24430060386657715,-0.10977151989936829,-0.07100535929203033,0.10872120410203934,-0.24682925641536713,0.2632555663585663,-0.17758184671401978,-0.14867402613162994,0.0856078565120697,0.19208140671253204,-0.14880798757076263,0.030776889994740486,0.10027187317609787},{0.16120977699756622,0.26792919635772705,0.041592877358198166,0.022671805694699287,-0.04416875168681145,-0.11866632848978043,-0.13154202699661255,-0.18759217858314514,0.049620259553194046,0.0031518430914729834,-0.044124335050582886,-0.24751800298690796,0.24852322041988373,-0.07740984112024307,0.08821974694728851,0.18126817047595978,0.09928078949451447,0.08490278571844101,-0.09218437224626541,-0.2673935294151306,-0.06690705567598343,0.02296365052461624,-0.15801924467086792,0.1555163860321045,0.2550479769706726,0.050150513648986816,-0.10280627012252808,-0.12392374128103256,-0.1670890897512436,0.1661253124475479,-0.054127488285303116,-0.0214327834546566,0.15802422165870667,0.029184503480792046,0.0879506841301918,-0.16400045156478882,0.28986984491348267,0.024864284321665764,0.1713717132806778,0.25553932785987854,0.09925627708435059,-0.09796315431594849,0.26705172657966614,0.21192295849323273,0.1710779070854187,0.08840805292129517,-0.1316169947385788,0.07882171869277954,-0.20176182687282562,0.23838403820991516,-0.10411546379327774,-0.0660044401884079,0.2413972169160843,-0.11842136830091476,0.25550389289855957,-0.1626327484846115,0.24440313875675201,-0.1498696506023407,0.08897962421178818,0.026144662871956825},{-0.10234278440475464,0.2550297975540161,0.03405444696545601,0.029156535863876343,0.23422332108020782,0.09497819095849991,-0.18876612186431885,-0.1519225686788559,-0.08323989808559418,-0.058885686099529266,0.15050071477890015,0.09474026411771774,-0.10323359817266464,-0.01907505840063095,0.0829697698354721,-0.11843045800924301,-0.2152760922908783,0.10393233597278595,-0.1885165274143219,-0.22512605786323547,0.0447961688041687,-0.11237206310033798,-0.04641382396221161,-0.07018201798200607,-0.13603077828884125,-0.040103308856487274,-0.12205379456281662,-0.17630362510681152,-0.1280786395072937,-0.09572479128837585,-0.04947669431567192,0.17771485447883606,0.1509629487991333,0.09280864149332047,0.24791894853115082,-0.3058754503726959,0.08274897187948227,0.12847916781902313,-0.05893651396036148,-0.17009204626083374,-0.08251356333494186,-0.08111192286014557,0.14060887694358826,-0.08380293846130371,0.011648301966488361,-0.10474404692649841,-0.12561631202697754,0.10518675297498703,0.07283031940460205,-0.092291459441185,0.09001504629850388,-0.10656655579805374,-0.13584274053573608,-0.15871372818946838,-0.13507623970508575,0.03144002705812454,0.003256626892834902,0.2593448758125305,-0.05868006497621536,0.09313735365867615},{-0.02095378376543522,-0.19573161005973816,-0.006025477312505245,-0.1414983570575714,0.038287416100502014,-0.23095817863941193,-0.08493594825267792,0.07813221216201782,-0.12290727347135544,0.1300746649503708,-0.21104922890663147,0.0119439996778965,0.005979856010526419,-0.15432393550872803,-0.18412204086780548,0.0779799148440361,0.030573735013604164,-0.051805876195430756,0.19985368847846985,0.0001927735866047442,-0.19503667950630188,0.13367199897766113,-0.1567937433719635,0.21346573531627655,0.28284651041030884,-0.013187522068619728,0.18061958253383636,-0.02867892012000084,-0.15636135637760162,0.06072934344410896,-0.21911512315273285,0.21343016624450684,0.08412471413612366,-0.12778204679489136,-0.23327307403087616,0.07597312331199646,-0.035484880208969116,0.10833904892206192,-0.003973169717937708,-0.2902866005897522,0.011639065109193325,0.1596335768699646,0.13718962669372559,0.1814655065536499,-0.16232217848300934,0.07822591811418533,-0.1686844676733017,-0.21893304586410522,-0.01634749211370945,-0.12745775282382965,0.21414636075496674,-0.01603003777563572,-0.1056370884180069,0.184194415807724,-0.1598583608865738,0.01547202654182911,-0.13425186276435852,0.1832970678806305,0.2477981299161911,0.27958953380584717},{0.01080368272960186,-0.037502486258745193,-0.05620235204696655,0.24420322477817535,-0.04929165914654732,-0.023717954754829407,0.17058004438877106,0.005094760563224554,0.08826510608196259,-0.025514360517263412,-0.13241669535636902,-0.27093857526779175,0.009982803836464882,0.12681761384010315,0.22231219708919525,0.23692525923252106,0.09235544502735138,-0.15264001488685608,-0.11599501222372055,0.04179789125919342,-0.20520462095737457,-0.14542584121227264,0.17521190643310547,0.056100040674209595,-0.05913085862994194,-0.2581147849559784,-0.03989085555076599,0.16105259954929352,0.08554401248693466,-0.2213657945394516,-0.022314002737402916,0.13242197036743164,0.18025635182857513,0.18773673474788666,-0.1951114684343338,-0.14235562086105347,-0.07673781365156174,0.24349631369113922,-0.02073468640446663,0.10712164640426636,-0.04218217357993126,0.10219620168209076,0.21167777478694916,-0.07986249029636383,-0.025814009830355644,-0.06738626211881638,-0.13926804065704346,-0.26044580340385437,-0.17928923666477203,0.058295730501413345,-0.12671618163585663,-0.1723778247833252,-0.21501070261001587,-0.06753496825695038,-0.01760314777493477,0.20322588086128235,-0.23246383666992188,-0.013439569622278214,0.15390445291996002,-0.09185563772916794},{0.1950085610151291,-0.06077860668301582,-0.21953225135803223,0.21289964020252228,-0.10447628796100616,-0.2142835259437561,0.16100360453128815,-0.16345591843128204,0.17217107117176056,-0.005868684500455856,0.06296230852603912,0.18725472688674927,0.03178083524107933,-0.13253028690814972,0.02302597463130951,0.11324193328619003,0.08254047483205795,0.07080389559268951,-0.024145418778061867,-0.056012824177742004,-0.24375702440738678,-0.06580319255590439,-0.14575496315956116,-0.0915391743183136,0.18446364998817444,-0.15899260342121124,0.06288927048444748,-0.06318202614784241,0.15162795782089233,0.16620104014873505,-0.10399199277162552,0.08633188903331757,0.21312935650348663,0.17193500697612762,-0.052076082676649094,0.003313707187771797,0.01033854577690363,-0.1207367479801178,0.2685226500034332,0.08952925354242325,-0.14067324995994568,0.1673523485660553,-0.1282457858324051,-0.0614895224571228,-0.10968217253684998,0.23193000257015228,-0.10956204682588577,-0.20800407230854034,0.1444322019815445,-0.22641149163246155,0.11292747408151627,-0.14229092001914978,-0.048985280096530914,-0.1363447904586792,0.13351859152317047,0.034680068492889404,0.07422308623790741,-0.25935178995132446,-0.24924226105213165,0.03591547906398773},{0.12389576435089111,0.06865987181663513,-0.030117955058813095,-0.1701926589012146,0.1639050394296646,-0.17580823600292206,0.006642165128141642,-0.08251982927322388,-0.09310297667980194,0.12207172811031342,0.08040200918912888,0.238860622048378,0.17363053560256958,-0.14611852169036865,-0.21386410295963287,0.2580547034740448,-0.24027299880981445,0.026058590039610863,-0.16348972916603088,-0.22221587598323822,0.07338906079530716,0.18826138973236084,0.21479199826717377,-0.012558588758111,0.041337549686431885,-0.17098979651927948,-0.09112230688333511,0.3062441349029541,0.024974573403596878,-0.1577376276254654,0.01861957088112831,-0.17173321545124054,-0.04045884683728218,-0.16741861402988434,-0.014014128595590591,-0.1793242245912552,-0.25118717551231384,0.10751083493232727,0.08733904361724854,-0.07440324127674103,-0.10566692799329758,0.2000436782836914,-0.20649635791778564,0.1718865931034088,-0.21792207658290863,0.058833785355091095,-0.031409382820129395,-0.15860183537006378,0.18631744384765625,0.03844490274786949,-0.20876383781433105,0.21908289194107056,-0.11865811794996262,-0.1264689415693283,-0.161723792552948,0.21082907915115356,-0.02556590363383293,0.1168627068400383,-0.21026770770549774,-0.1565084457397461},{0.029738839715719223,0.07035907357931137,0.05407090485095978,-0.09233304113149643,0.2555346190929413,-0.12149405479431152,0.1314854472875595,0.038392577320337296,-0.21143898367881775,0.247602179646492,-0.04544636979699135,0.05603240802884102,0.17124848067760468,0.01403377391397953,0.20309115946292877,-0.06887920945882797,-0.17735959589481354,-0.06370923668146133,0.19384931027889252,-0.16800691187381744,0.14070647954940796,-0.0492582693696022,0.004782913252711296,0.1467275172472,0.1854860484600067,0.04065424203872681,-0.10720361024141312,0.10893605649471283,-0.16623087227344513,0.00682838587090373,0.20665313303470612,-0.18560729920864105,-0.03290173038840294,0.09612768143415451,0.2318120002746582,0.06681632995605469,-0.22300368547439575,-0.13438475131988525,-0.034755222499370575,-0.143295019865036,-0.06628876179456711,0.08441634476184845,0.2295089215040207,-0.009371268562972546,0.16497308015823364,0.18057875335216522,0.21851308643817902,0.04441934451460838,0.06292504072189331,0.08775604516267776,0.08392293006181717,0.06509802490472794,0.23457899689674377,-0.18619415163993835,0.006000629626214504,-0.12541159987449646,0.24749866127967834,0.11898569017648697,-0.1988919973373413,-0.18243035674095154},{-0.16502831876277924,0.08413483947515488,-0.14556844532489777,-0.036455072462558746,0.1363358199596405,0.2482297420501709,0.09326852858066559,0.01707722246646881,-0.20456428825855255,-0.06115465983748436,0.016256166622042656,-0.24308928847312927,-0.029156671836972237,-0.0490860752761364,0.005038620438426733,0.033143576234579086,-0.24580343067646027,0.08827075362205505,0.017860528081655502,-0.0656690001487732,0.05444556847214699,0.24455741047859192,-0.17634020745754242,-0.13805614411830902,0.21221351623535156,0.08507377654314041,0.1256607174873352,-0.23887263238430023,0.1295752376317978,0.06207546964287758,-0.10697038471698761,0.13270294666290283,0.0291985385119915,0.23654215037822723,0.21824397146701813,-0.12956371903419495,-0.11997288465499878,-0.10935064405202866,-0.1720651239156723,-0.08806902915239334,-0.12344015389680862,-0.13406360149383545,0.13803993165493011,-0.09851162135601044,-0.09304223209619522,-0.15907080471515656,0.12408360093832016,-0.07128018885850906,-0.01693315990269184,0.09295381605625153,-0.038080617785453796,0.2002672702074051,-0.0648021250963211,-0.03469308465719223,0.14327393472194672,0.19421856105327606,-0.12411782890558243,0.2087860405445099,-0.12936899065971375,-0.01642661541700363},{-0.052783239632844925,-0.16674086451530457,0.23274409770965576,0.0018443078733980656,0.1541866958141327,0.06265272945165634,0.1932898461818695,0.2593144476413727,-0.26495543122291565,0.18052713572978973,0.09659577161073685,-0.03907183185219765,-0.1531582623720169,-0.18447111546993256,-0.15741348266601562,0.18113917112350464,0.019920064136385918,0.018493859097361565,-0.21866048872470856,0.1388167440891266,0.11143609881401062,-0.04386703670024872,-0.05795365571975708,-0.12045097351074219,-0.08829165250062943,-0.20988468825817108,-0.06459743529558182,-0.06825824081897736,-0.22109609842300415,-0.1307334452867508,-0.17581848800182343,0.08704229444265366,-0.012946474365890026,-0.17717094719409943,-0.13463173806667328,-0.17323237657546997,0.12074825912714005,-0.09536883980035782,0.1726987063884735,0.1660720407962799,-0.11117061972618103,0.0018110553501173854,-0.18803702294826508,0.07851237058639526,0.18782812356948853,0.25711488723754883,0.152500182390213,0.15709052979946136,-0.005321448668837547,0.08286374062299728,0.01655466854572296,0.08499778807163239,-0.14924918115139008,-0.0840107649564743,-0.19393807649612427,0.06847071647644043,0.1843622773885727,0.03012050874531269,-0.042937181890010834,0.13332384824752808},{0.1242888793349266,0.004815289285033941,-0.01658562943339348,-0.0973971039056778,-0.09661994874477386,0.03332667052745819,0.07454372197389603,0.09639371186494827,-0.0586710162460804,-0.04519385099411011,0.1427222639322281,-0.06225944682955742,0.10167377442121506,0.24734923243522644,-0.13353978097438812,-0.13604390621185303,0.12509457767009735,0.22624512016773224,0.19162046909332275,-0.13689972460269928,-0.08918483555316925,-0.1566663533449173,-0.11529871821403503,0.19683460891246796,0.002614489756524563,-0.05128376558423042,-0.024708978831768036,0.25006726384162903,0.20325687527656555,0.12006490677595139,0.15211190283298492,-0.15602849423885345,-0.13936498761177063,0.04575159773230553,0.09585148841142654,0.10413101315498352,0.12577186524868011,-0.18791204690933228,-0.020055105909705162,0.18764668703079224,-0.06176721304655075,0.1314425766468048,-0.11334877461194992,0.1993533968925476,-0.15717552602291107,0.19011563062667847,0.1765386313199997,0.1315852701663971,0.1671094447374344,0.23915012180805206,-0.05974604934453964,0.13348357379436493,0.09872578084468842,-0.20128977298736572,0.24620464444160461,-0.018105236813426018,-0.08417405188083649,0.1329905390739441,-0.11752921342849731,-0.026962608098983765},{0.17199024558067322,-0.009146749041974545,-0.09483596682548523,0.035499438643455505,-0.27094021439552307,0.24921701848506927,0.1594557911157608,-0.015431835316121578,0.14266645908355713,-0.26977643370628357,0.13679981231689453,0.18412303924560547,-0.09681874513626099,-0.14975345134735107,-0.03151226416230202,-0.0622086226940155,0.09649618715047836,-0.17623165249824524,0.1309349238872528,0.05994875356554985,-0.1523958146572113,-0.1094529926776886,-0.20676171779632568,-0.05351255461573601,0.006343842018395662,-0.2387167513370514,-0.15338197350502014,0.192671999335289,-0.1843096762895584,0.15776894986629486,-6.926610512891784e-05,0.1815333515405655,0.15782992541790009,-0.15085624158382416,0.07367817312479019,0.0302409864962101,0.26114630699157715,0.15927264094352722,0.17039793729782104,0.02221972867846489,0.1373080164194107,-0.06181129068136215,0.1389649361371994,-0.14792731404304504,0.09442903846502304,-0.1427604705095291,-0.008136585354804993,-0.10996045172214508,-0.2844725549221039,0.018479716032743454,0.2421521693468094,-0.09973912686109543,-0.19030971825122833,-0.10127972066402435,0.13657186925411224,0.011206015013158321,-0.18352417647838593,0.01158110424876213,-0.16832591593265533,0.10403458029031754},{-0.07270940393209457,-0.1697118729352951,-0.10975967347621918,0.06819002330303192,0.2152925431728363,0.10027437657117844,-0.05359668657183647,0.19184492528438568,-0.15408316254615784,0.05865434929728508,-0.09578496962785721,-0.20096659660339355,-0.2655473053455353,0.15740828216075897,-0.1529436558485031,-0.09986367076635361,0.15745355188846588,-0.1183035671710968,0.10985367000102997,0.11782416701316833,0.2291371077299118,-0.1791018396615982,-0.199618399143219,-0.09105072915554047,0.0050394171848893166,0.17900197207927704,-0.1399996429681778,-0.1340377777814865,0.005374108906835318,0.0703364908695221,-0.11479931324720383,0.006747241131961346,-0.2622268795967102,0.21286824345588684,-0.10096422582864761,0.12583141028881073,0.13857468962669373,0.10839710384607315,0.1470508724451065,0.28380170464515686,0.05180555582046509,0.18424838781356812,0.07296775281429291,0.12814359366893768,-0.004404825158417225,-0.16458313167095184,0.08968242257833481,-0.15486498177051544,-0.12401476502418518,0.21182747185230255,-0.003566816681995988,0.050785765051841736,0.02531951293349266,0.2109462320804596,0.07469190657138824,0.07140147686004639,0.034761395305395126,0.20621515810489655,0.06371795386075974,-0.2231082022190094},{0.143843874335289,0.0034435305278748274,0.12115553021430969,0.048912376165390015,0.1130828857421875,0.011015322990715504,0.027110686525702477,-0.1950947791337967,-0.08040812611579895,0.0034921555779874325,-0.07944656908512115,-0.16082307696342468,-0.08713670819997787,0.04217904806137085,-0.1742582470178604,0.159651979804039,-0.21137166023254395,0.1409621387720108,0.2525803744792938,0.20872260630130768,0.030850687995553017,0.11899694055318832,0.03879587724804878,-0.07551400363445282,-0.11731559038162231,-0.21241024136543274,-0.17922472953796387,-0.21867398917675018,-0.030890608206391335,-0.026893824338912964,0.06931941956281662,-0.2528190314769745,-0.0001218436227645725,0.16397897899150848,0.1306850165128708,-0.052166104316711426,0.14529012143611908,-0.14953118562698364,0.03846437856554985,0.24362744390964508,0.18202441930770874,-0.11624153703451157,0.17325027287006378,0.15014131367206573,-0.02923106774687767,0.22373142838478088,-0.10890906304121017,-0.0396808385848999,0.17361368238925934,-0.11118515580892563,-0.23482288420200348,-0.2391822636127472,0.08163182437419891,-0.20593403279781342,-0.005761782638728619,-0.3000422716140747,-0.012303043156862259,-0.036993056535720825,0.07857710868120193,-0.10472305864095688},{-0.1398649662733078,-0.1997736692428589,0.20775549113750458,0.1658848226070404,-0.030932951718568802,0.047756072133779526,-0.11440674960613251,-0.005784779787063599,0.07787803560495377,0.08652237057685852,-0.0972914919257164,0.10600004345178604,-0.16009505093097687,-0.1419300138950348,0.1105182096362114,0.04524058848619461,0.08414725959300995,-0.11544576287269592,0.015608695335686207,0.03736932948231697,-0.08010325580835342,0.0820954367518425,-0.23334810137748718,0.06592667102813721,0.007877333089709282,-0.0014196508564054966,-0.22687022387981415,0.10172096639871597,0.1657109260559082,0.2503832280635834,-0.057924527674913406,-0.06805695593357086,-0.004181542433798313,0.08395693451166153,0.19725067913532257,0.16232316195964813,0.06894923001527786,0.12866352498531342,0.21195782721042633,-0.06652876734733582,-0.07588251680135727,-0.2517198622226715,0.08633289486169815,0.11785051226615906,0.1076696515083313,0.10019763559103012,0.10515350848436356,0.17371128499507904,0.15478016436100006,0.03882325440645218,-0.1386166661977768,-0.18121907114982605,-0.21261759102344513,-0.030376309528946877,0.15860410034656525,0.0006265557603910565,0.09533185511827469,0.1215939149260521,-0.01950308494269848,-0.16601188480854034},{0.10955070704221725,-0.015222114510834217,0.18146707117557526,0.06095710024237633,0.05773305147886276,-0.05489260330796242,-0.15564092993736267,-0.08294229209423065,0.09187678247690201,-0.21295300126075745,-0.1437286138534546,0.04200519621372223,-0.15064255893230438,-0.14721199870109558,-0.003602079814299941,-0.23158548772335052,0.2734096050262451,0.02660463936626911,-0.15304353833198547,0.0007524614338763058,-0.17051896452903748,0.010847171768546104,-0.11693747341632843,-0.17548558115959167,-0.11195927858352661,0.00612524664029479,0.23179040849208832,0.1333780586719513,-0.10839373618364334,0.2429773062467575,0.004990229848772287,-0.17577630281448364,0.12380754947662354,-0.10434231162071228,-0.08201389014720917,0.17639076709747314,0.14826834201812744,-0.15317519009113312,-0.09753106534481049,-0.16905245184898376,-0.2269967794418335,0.17597995698451996,0.16777431964874268,0.07975255697965622,-0.2585873007774353,0.1634604036808014,0.10558260977268219,-0.15725207328796387,-0.042269036173820496,-0.13781778514385223,0.0008813873864710331,-0.2561810314655304,0.2871251702308655,0.17736028134822845,-0.04936274141073227,0.26320192217826843,-0.10708798468112946,-0.2202720046043396,0.10151757299900055,-0.00657188193872571},{-0.2266218215227127,-0.07731250673532486,-0.23574601113796234,0.10705165565013885,-0.10475528985261917,0.11942289769649506,-0.045689038932323456,-0.17249421775341034,0.11026085168123245,-0.1713876724243164,-0.07435638457536697,-0.08141970634460449,0.1272442489862442,-0.06752616912126541,-0.16595087945461273,0.15162166953086853,-0.06877319514751434,-0.03348975256085396,-0.09073573350906372,-0.17019902169704437,0.1364896446466446,-0.2339351773262024,-0.12834294140338898,0.03550305217504501,0.20484301447868347,-0.12001302093267441,0.034097135066986084,-0.02395910955965519,0.13327822089195251,-0.1776917725801468,0.18696926534175873,-0.09562913328409195,0.019376059994101524,0.1787647008895874,0.1751585751771927,-0.082175113260746,0.12367179244756699,0.17839501798152924,0.1719425618648529,-0.1802394837141037,-0.09709461033344269,0.14453256130218506,0.11030600219964981,0.11922695487737656,0.19172334671020508,0.01640343852341175,0.05151909589767456,-0.10202430188655853,-0.11377393454313278,-0.247334823012352,0.09002286195755005,0.14837415516376495,0.09656817466020584,0.1732845902442932,0.0028681696858257055,0.14316359162330627,0.13175828754901886,-0.043723590672016144,-0.05114862322807312,0.13321180641651154},{0.20925943553447723,0.07050759345293045,-0.051075756549835205,0.009525737725198269,-0.2197507917881012,0.05957542359828949,-0.19315046072006226,-0.07260281592607498,-0.023729447275400162,0.005516531877219677,-0.07669032365083694,-0.2249392718076706,0.0972800999879837,0.27167919278144836,-0.018553441390395164,0.15080562233924866,-0.2200922816991806,0.2103249877691269,0.13151703774929047,-0.04208867996931076,0.18834275007247925,0.034417010843753815,-0.20811784267425537,0.035730667412281036,0.26606136560440063,0.20378418266773224,0.015717171132564545,-0.19365404546260834,0.00407364871352911,0.16878138482570648,-0.13380049169063568,-0.056207235902547836,-0.05731777101755142,-0.08524530380964279,0.20612849295139313,0.27204176783561707,-0.1513894945383072,0.0436452254652977,0.19307568669319153,-0.10208240896463394,0.057752057909965515,0.17503774166107178,0.10393297672271729,0.2015192210674286,-0.036081090569496155,-0.09130719304084778,-0.12562909722328186,0.10894889384508133,0.054141949862241745,-0.005192920565605164,0.04455329105257988,0.06857519596815109,-0.20766058564186096,0.06770675629377365,0.16919739544391632,0.12059582769870758,-0.15257151424884796,0.013012720271945,0.053548239171504974,0.12678436934947968},{0.15434834361076355,-0.1292889267206192,-0.10163688659667969,-0.10654552280902863,0.13916558027267456,0.09040936827659607,0.06835261732339859,0.00681327236816287,-0.1420329064130783,0.08912481367588043,0.144959956407547,-0.06569410115480423,0.14555568993091583,0.2059163600206375,-0.1541980504989624,-0.005236366298049688,-0.06756120920181274,-0.22978414595127106,-0.16876186430454254,0.08923886716365814,-0.21513886749744415,0.10942830890417099,-0.012995928525924683,0.09768106788396835,0.051785342395305634,0.11242574453353882,0.21207542717456818,0.24002547562122345,0.12222478538751602,0.1809166669845581,-0.23302611708641052,-0.039240021258592606,-0.03276827558875084,0.11247722059488297,0.008586987853050232,0.031372517347335815,-0.10521379858255386,0.12205877900123596,0.16988639533519745,-0.2648882567882538,-0.20740850269794464,0.15559948980808258,-0.012801287695765495,0.1535925418138504,0.09117801487445831,0.3175564408302307,0.0032175383530557156,-0.09750946611166,0.1063535213470459,0.01164882630109787,0.03296466916799545,-0.13979999721050262,-0.20168772339820862,0.1302972286939621,-0.09949057549238205,-0.2528265118598938,0.04198696091771126,0.25745055079460144,-0.09362431615591049,0.1928149163722992},{0.16595131158828735,-0.06376694142818451,-0.03470269590616226,0.10467156022787094,-0.03175609931349754,-0.26485466957092285,0.18387605249881744,-0.20295952260494232,-0.15957902371883392,-0.1950971782207489,-0.1515875905752182,0.17162677645683289,-0.003366712713614106,0.11640521883964539,0.1865793615579605,0.2214345484972,-0.11796547472476959,-0.1522696614265442,0.1508263200521469,0.11876796931028366,0.2340598851442337,0.21913866698741913,-0.14180299639701843,-0.03926384821534157,-0.04394998401403427,0.15428763628005981,0.12245339155197144,0.0658111497759819,-0.16557210683822632,-0.012424621731042862,0.012048812583088875,-0.006227238569408655,-0.24718442559242249,0.12451137602329254,0.0316498763859272,-0.06329374015331268,0.1338256597518921,-0.2534606158733368,-0.11800692230463028,0.2618115246295929,0.21137735247612,-0.23758955299854279,-0.20661793649196625,0.012460557743906975,-0.15170548856258392,-0.15173518657684326,0.0582038052380085,0.2814674973487854,-0.024214832112193108,-0.10984920710325241,-0.19601823389530182,-0.019260689616203308,0.2633645832538605,-0.09823908656835556,0.033826135098934174,-0.04390642046928406,0.19602297246456146,0.12631244957447052,0.11058096587657928,0.25779014825820923},{-0.07628852874040604,0.1315964311361313,-0.22442154586315155,0.2045528143644333,-0.22462579607963562,-0.01610218733549118,0.03947244584560394,0.0020138085819780827,-0.20506078004837036,-0.17517955601215363,0.19508211314678192,0.20723988115787506,0.08524048328399658,0.23083773255348206,-0.23285360634326935,-0.22478936612606049,0.21240974962711334,-0.19726955890655518,-0.12042323499917984,-0.19932949542999268,0.12786249816417694,-0.11091871559619904,-0.13610035181045532,0.14021767675876617,-0.1298413872718811,0.15661627054214478,-0.03774143382906914,-0.1950841099023819,0.2357187122106552,0.07920894771814346,0.10374996811151505,-0.043280430138111115,-0.1010521948337555,-0.19432534277439117,0.17292718589305878,0.0641183853149414,0.19251862168312073,0.12492827326059341,0.19144301116466522,-0.04510902985930443,-0.048048194497823715,0.0875290036201477,0.2415105551481247,-0.16261440515518188,-0.12512360513210297,0.3047875761985779,0.1272548884153366,-0.11269240826368332,0.07260792702436447,-0.1255614310503006,0.08515121042728424,0.23486660420894623,-0.047556862235069275,-0.14847256243228912,0.14082226157188416,0.2239534556865692,-0.11680185049772263,0.21448029577732086,0.19422534108161926,-0.22608786821365356},{0.15842609107494354,0.25598496198654175,0.2312650829553604,-0.08311386406421661,-0.04431471601128578,0.05537215992808342,-0.18177005648612976,0.3621467351913452,-0.07230611145496368,-0.09514376521110535,0.2019752413034439,-0.014332372695207596,0.09062095731496811,0.10980472713708878,-0.011915485374629498,0.0882287248969078,0.1561381220817566,-0.03853757306933403,0.11581375449895859,0.08050095289945602,-0.02865815907716751,0.11249334365129471,0.30509743094444275,0.0028732509817928076,-0.2554055154323578,-0.11294879019260406,0.22177432477474213,-0.015286623500287533,0.0907873660326004,-0.028535816818475723,0.1123550534248352,0.2759951055049896,0.17117060720920563,-0.16205349564552307,0.1601468175649643,0.13182352483272552,-0.04181355610489845,0.05578095093369484,0.16758139431476593,-0.24839629232883453,0.22028042376041412,0.2026471346616745,0.0780545249581337,0.024411585181951523,-0.06496492028236389,0.22696739435195923,-0.11574303358793259,0.14458034932613373,0.15374736487865448,-0.10062204301357269,0.0960225984454155,-0.17006559669971466,-0.24944378435611725,-0.1288977861404419,0.10106705129146576,-0.22344538569450378,-0.27493229508399963,0.11229819059371948,-0.022143922746181488,0.10634302347898483},{-0.02912026084959507,0.23992575705051422,0.21791869401931763,-0.23052731156349182,0.1197514608502388,0.08764979988336563,0.11576059460639954,-0.3676624596118927,0.08452597260475159,-0.09357838332653046,0.1995818167924881,-0.17897850275039673,0.15436246991157532,0.09054401516914368,-0.05471348017454147,0.027349453419446945,0.2833675444126129,0.012952731922268867,-0.04123040661215782,0.10441894829273224,-0.06749255210161209,0.11511295288801193,0.19779333472251892,0.27299779653549194,-0.23213933408260345,0.1258709579706192,0.0012287477729842067,-0.002010015305131674,-0.13317255675792694,-0.050364572554826736,-0.19174644351005554,0.16839084029197693,0.24007050693035126,-0.010818672366440296,0.24154388904571533,0.23572714626789093,-0.1177392527461052,-0.15570425987243652,-0.2800244688987732,-0.06367459893226624,-0.05050022155046463,-0.16879916191101074,-0.29281771183013916,-0.10908802598714828,-0.1197657361626625,0.209929957985878,0.19860981404781342,0.19960586726665497,-0.028153738006949425,0.05220891162753105,-0.060760125517845154,-0.18252980709075928,0.028836267068982124,-0.22992797195911407,-0.17488741874694824,0.1337866336107254,0.13185939192771912,-0.11474408209323883,0.18547840416431427,-0.15630003809928894},{0.14457140862941742,0.010715988464653492,-0.19171951711177826,0.12171454727649689,-0.29817506670951843,0.008790331892669201,0.2766731381416321,-0.05938076972961426,0.0814623013138771,0.18688002228736877,0.10057328641414642,0.041900716722011566,-0.18821567296981812,0.267673134803772,-0.2139030396938324,0.05657067522406578,0.17413902282714844,-0.08458063751459122,0.12650002539157867,-0.20966264605522156,-0.1907189041376114,-0.0704837441444397,-0.012575930915772915,0.09080834686756134,-0.0987970232963562,0.2633666396141052,-0.19869618117809296,0.23031042516231537,0.0159565769135952,0.07750845700502396,-0.16771118342876434,-0.15723615884780884,-0.0951528400182724,-0.23504063487052917,-0.14615143835544586,0.2739033102989197,-0.16477888822555542,-0.08804278820753098,0.07468932121992111,-0.12718787789344788,-0.23862944543361664,-0.029221484437584877,-0.04781636595726013,0.23095861077308655,-0.13982975482940674,0.13129876554012299,-0.05456480756402016,-0.21986396610736847,-0.12740394473075867,0.18827302753925323,0.04905051365494728,-0.23149415850639343,-0.14547611773014069,0.1617881953716278,0.09616744518280029,0.011510700918734074,-0.21149584650993347,0.02105650305747986,0.05861685052514076,-0.17527401447296143},{0.11653144657611847,-0.008203809149563313,0.13414107263088226,-0.21202951669692993,-0.12402932345867157,-0.12194957584142685,-0.022139251232147217,-0.04409380629658699,0.1632845550775528,0.20144988596439362,0.14466309547424316,0.15010592341423035,0.24049918353557587,0.11936002969741821,-0.1709984689950943,0.1290435791015625,0.03466203063726425,-0.17876596748828888,-0.13094593584537506,0.045523982495069504,0.024057889357209206,0.02100434899330139,0.11525559425354004,-0.16118231415748596,-0.24985440075397491,-0.0542295016348362,0.17396342754364014,0.05505119636654854,-0.10139885544776917,-0.11659133434295654,-0.03253865987062454,0.008791567757725716,-0.011915434151887894,-0.06022083759307861,0.09277121722698212,-0.11816718429327011,-0.15408341586589813,0.20655199885368347,-0.0530497282743454,-0.11194349080324173,-0.13974244892597198,0.08634830266237259,-0.0218788031488657,-0.09987808763980865,0.16393733024597168,-0.09444062411785126,0.14223341643810272,0.30150097608566284,-0.010058465413749218,-0.10820687562227249,-0.05984140932559967,-0.04552072659134865,0.1788220852613449,-0.027799377217888832,-0.035603899508714676,0.18342627584934235,-0.06225057691335678,0.0032900955993682146,-0.08910153806209564,0.2326343059539795}};
static const float action_parameterization_distribution_linear_weight[60][4] = {{-0.0036812908947467804,0.05623524636030197,0.033755578100681305,-0.05994684621691704},{0.024493180215358734,0.18526534736156464,0.0857366994023323,-0.05674184113740921},{0.07469777762889862,-0.03659455478191376,0.14259938895702362,-0.1547919660806656},{-0.12281911820173264,-0.09630843997001648,0.08282516896724701,-0.11978087574243546},{0.3012568950653076,-0.15502268075942993,-0.15386037528514862,0.05921220779418945},{0.1546468287706375,-0.2476232796907425,0.0180312879383564,0.08797340095043182},{-0.24601399898529053,0.13117945194244385,0.09332013875246048,-0.15197357535362244},{0.04045868292450905,0.04344116151332855,-0.2430156171321869,-0.11154341697692871},{0.11870574206113815,0.041856564581394196,0.22800040245056152,-0.14866958558559418},{-0.05845639482140541,0.12236130982637405,-0.14028063416481018,-0.10250282287597656},{0.023419089615345,0.0087735615670681,-0.011818768456578255,0.05233115330338478},{-0.06212236359715462,-0.05417251214385033,-0.0024910662323236465,-0.14439091086387634},{0.1446475088596344,-0.17120423913002014,-0.010568870231509209,0.2526501417160034},{-0.13030560314655304,-0.10202673077583313,0.22688674926757812,0.08198027312755585},{0.06813599914312363,0.13320642709732056,-0.006377828773111105,0.1449413150548935},{0.19553403556346893,0.09003663808107376,0.16323578357696533,0.06315337866544724},{0.07852420955896378,0.1896919161081314,-0.17539368569850922,-0.1968826800584793},{-0.2550557851791382,-0.1528337299823761,-0.05547650158405304,-0.001261537428945303},{0.10625991225242615,-0.20569272339344025,-0.19871081411838531,-0.2266305685043335},{0.010091866366565228,-0.055941078811883926,-0.16783982515335083,-0.14275482296943665},{-0.09046588093042374,-0.255337655544281,0.24690479040145874,0.09461871534585953},{0.11164694279432297,0.08968162536621094,-0.1082993745803833,-0.21654947102069855},{0.20620904862880707,0.11050453037023544,0.14484290778636932,0.24967609345912933},{0.1271490752696991,0.11346019059419632,-0.1186053603887558,0.10293442755937576},{-0.2004987746477127,-0.2161138653755188,0.18637458980083466,0.02497069537639618},{-0.12056221812963486,0.12455309927463531,-0.01986987143754959,0.009822032414376736},{-0.008232001215219498,0.07053311914205551,-0.03793172165751457,0.027029400691390038},{0.24853390455245972,-0.04904031753540039,0.28757724165916443,0.02117197774350643},{-0.11559703201055527,0.29650017619132996,-0.05122339352965355,0.09429813921451569},{0.158344566822052,0.17684058845043182,0.18729665875434875,-0.09382252395153046},{-0.0003361539856996387,-0.23742970824241638,0.03407447040081024,-0.09563054889440536},{-0.08057671040296555,0.033209845423698425,0.12518182396888733,-0.0462760254740715},{-0.13938622176647186,0.24448814988136292,-0.10917127132415771,-0.061184849590063095},{0.15355713665485382,-0.04557172209024429,-0.023540938273072243,-0.18999798595905304},{0.11575809866189957,0.09652498364448547,-0.1065099760890007,-0.1429232954978943},{-0.27317914366722107,0.10954823344945908,-0.18778857588768005,-0.09367236495018005},{0.12640716135501862,0.07569625228643417,-0.2108309268951416,0.1309710294008255},{-0.06936565041542053,-0.10350523144006729,-0.025946302339434624,0.20986732840538025},{-0.2878265678882599,-0.2444385290145874,0.28699278831481934,-0.04706374555826187},{0.04031642526388168,0.023193925619125366,0.04706816002726555,0.2724137306213379},{0.182501420378685,0.10656075924634933,0.10697348415851593,-0.14094799757003784},{0.21284927427768707,-0.08523660898208618,-0.063985176384449,-0.0348101370036602},{-0.14025931060314178,0.10735345631837845,-0.03534615412354469,0.3122192323207855},{0.016657600179314613,0.03138299658894539,0.12476707249879837,0.026446843519806862},{0.11701631546020508,-0.10923934727907181,-0.23065036535263062,-0.1140652671456337},{0.12059058248996735,-0.1548943668603897,-0.003130721626803279,0.06934534013271332},{-0.15256762504577637,-0.08752712607383728,-0.16842585802078247,-0.19493941962718964},{-0.2879941165447235,0.22574561834335327,-0.15895219147205353,0.13281436264514923},{-0.17643974721431732,0.011146338656544685,0.18337346613407135,-0.1646972894668579},{-0.02615175023674965,0.1392611265182495,0.16649594902992249,0.15222632884979248},{-0.15304386615753174,0.03036355786025524,-0.19336403906345367,-0.0894114077091217},{0.15597930550575256,-0.13066531717777252,0.09436247497797012,-0.05356529355049133},{-0.2940943241119385,0.00689723901450634,0.19406476616859436,-0.07115112245082855},{0.13153891265392303,-0.03538650646805763,-0.1753101944923401,-0.24511417746543884},{-0.0704195648431778,0.12381157279014587,0.10541625320911407,0.24464859068393707},{0.29324209690093994,-0.2695373594760895,-0.24100945889949799,0.18267127871513367},{-0.257731556892395,-0.05293535441160202,-0.07698514312505722,0.21985645592212677},{-0.020272810012102127,0.10704399645328522,0.030397262424230576,0.21491314470767975},{-0.18691323697566986,-0.23445352911949158,-0.0077599273063242435,0.23306255042552948},{-0.3059879541397095,-0.03095429390668869,-0.13578800857067108,0.28878432512283325}};
static const float actor_encoder_self_encoder_0_bias[30] = {0.028651436790823936,-0.06650852411985397,-0.051561109721660614,0.01675456017255783,0.052144650369882584,-0.034363456070423126,-0.010127951391041279,-0.06949163228273392,0.015578115358948708,-0.012406575493514538,-0.017884306609630585,0.04063005372881889,-0.014780553057789803,0.10174581408500671,-0.10733087360858917,-0.015351606532931328,0.021304911002516747,0.05855017527937889,-0.09592752158641815,-0.004725161008536816,-0.06942978501319885,0.03299630805850029,-0.05525973439216614,-0.02867949567735195,-0.04249362647533417,0.014117912389338017,-0.09163058549165726,0.031208030879497528,0.16070929169654846,0.011426858603954315};
static const float actor_encoder_self_encoder_2_bias[30] = {-0.04118729382753372,0.003038130234926939,-0.009638539515435696,0.017228076234459877,-0.06133374571800232,-0.03366420418024063,0.01682317815721035,0.026414189487695694,-0.03869565203785896,0.01514144241809845,0.006577554624527693,0.01613662764430046,0.03880571201443672,-0.013848992995917797,0.0344797745347023,-0.02400059998035431,-0.012281550094485283,-0.03183703497052193,-0.0028496584855020046,-0.01902152970433235,0.01625721901655197,-0.026645757257938385,-0.0062682246789336205,0.011373965069651604,0.04661721736192703,0.05715801194310188,0.029500646516680717,0.011152397841215134,-0.03344501927495003,-0.048661429435014725};
static const float actor_encoder_feed_forward_0_bias[60] = {-0.004898100160062313,-0.006516349967569113,-0.01450575515627861,0.005625112447887659,-0.008100444450974464,0.025900470092892647,-0.00404002470895648,-0.05084342509508133,0.024583391845226288,-0.027824869379401207,-0.008203602395951748,-0.02557913400232792,0.04728105664253235,0.022976480424404144,-0.0008598269196227193,0.006678603123873472,0.014662177301943302,-0.010352709330618382,-0.015248393639922142,-0.06572459638118744,-0.015645934268832207,-0.025538453832268715,-0.0356445349752903,0.026127764955163002,0.04387228935956955,-0.007232763338834047,-0.0013658790849149227,0.05839741602540016,0.020546210929751396,0.020988451316952705,-0.03611113503575325,-0.005595275200903416,0.03783310949802399,-0.019246196374297142,-0.029133623465895653,0.022468000650405884,0.04329164698719978,0.042563654482364655,0.03962768241763115,-0.030316242948174477,-0.019057800993323326,0.007186112459748983,0.03297662362456322,0.020584581419825554,-0.02255324274301529,0.06778912991285324,-0.03639218583703041,-0.04774877429008484,-0.045357123017311096,0.0032562497071921825,0.06910473853349686,0.021618913859128952,-0.03223501890897751,0.0019099354976788163,-0.0022773973178118467,0.02110287919640541,-0.0343577079474926,0.008041122928261757,0.011879061348736286,-0.030419692397117615};
static const float action_parameterization_distribution_linear_bias[4] = {-0.002189541468396783,-0.009019391611218452,0.001044807373546064,0.004721168894320726};
static const float actor_encoder_obstacle_encoder_0_weight[16][16] = {{0.2728698253631592,-0.10835263133049011,-0.21231679618358612,0.06295867264270782,-0.4496879279613495,-0.41314464807510376,0.31027644872665405,0.3560464382171631,-0.2365507185459137,0.1355745643377304,0.49752432107925415,-0.3364861011505127,0.43895184993743896,-0.3495026230812073,-0.17647111415863037,-0.19783160090446472},{-0.017699116840958595,0.15135620534420013,-0.27119180560112,0.11757015436887741,-0.40398913621902466,-0.055980559438467026,-0.28169676661491394,-0.023811709135770798,0.31011974811553955,-0.4414605498313904,0.1461152732372284,-0.09963168203830719,-0.20933113992214203,-0.05591661483049393,-0.2698412835597992,-0.24617961049079895},{-0.12409704923629761,0.2648952603340149,-0.38437893986701965,0.3306715786457062,-0.07388564199209213,-0.224978506565094,-0.0792212039232254,-0.11444922536611557,-0.08380213379859924,-0.22819854319095612,0.013477722182869911,-0.10647997260093689,-0.046582892537117004,-0.14029836654663086,0.40706318616867065,0.08096346259117126},{-0.019177183508872986,0.0018309568986296654,-0.05823677033185959,-0.10096481442451477,-0.27666518092155457,0.047589823603630066,-0.2605113089084625,0.24824954569339752,0.38927823305130005,0.22992916405200958,-0.1146288812160492,-0.3651677966117859,0.33020761609077454,-0.061955101788043976,-0.46340644359588623,-0.01977294497191906},{-0.40770411491394043,0.013039076700806618,0.15157608687877655,0.30375438928604126,0.17136970162391663,0.14219467341899872,-0.006093699485063553,0.2948044538497925,0.4516819417476654,0.04061310365796089,0.20988032221794128,-0.4041462242603302,-0.27143236994743347,-0.14093932509422302,-0.48998159170150757,0.08169856667518616},{0.0724223256111145,-0.15451118350028992,-0.37145110964775085,0.4307636618614197,0.1697714626789093,0.054465435445308685,0.29871073365211487,0.261910617351532,0.33151352405548096,0.3537232577800751,0.17298142611980438,0.3552102744579315,0.1553398072719574,0.4088164269924164,0.018753020092844963,-0.2983478009700775},{-0.15468280017375946,-0.20488524436950684,0.20411691069602966,-0.09865343570709229,0.2629161477088928,0.5164419412612915,-0.24542774260044098,0.28491145372390747,0.3238556385040283,0.3752075731754303,-0.36582762002944946,0.28522104024887085,0.18114954233169556,0.37048518657684326,0.11113454401493073,-0.23268555104732513},{0.397461473941803,0.41278892755508423,-0.22322578728199005,-0.023530274629592896,0.509753942489624,-0.25789040327072144,-0.3179755210876465,0.023675857111811638,0.024569639936089516,-0.08860630542039871,0.04415512830018997,-0.14165188372135162,-0.10650290548801422,-0.23705321550369263,-0.34294915199279785,-0.5273850560188293},{0.42507103085517883,-0.1030469685792923,0.41871318221092224,0.27442672848701477,0.49577733874320984,-0.296552836894989,0.04803789034485817,0.16778682172298431,-0.27819979190826416,0.0016894288128241897,-0.16078437864780426,0.058706339448690414,-0.4528040289878845,0.3051236867904663,0.1926332712173462,0.19003649055957794},{0.12265955656766891,-0.07244576513767242,-0.3289521336555481,-0.10054561495780945,0.36169782280921936,0.11398857831954956,-0.256104439496994,0.3022685945034027,0.3485459089279175,-0.37022995948791504,0.3707510232925415,-0.15620633959770203,-0.4543992280960083,0.40576162934303284,-0.06897915154695511,-0.35266774892807007},{-0.09105712920427322,0.3819523751735687,0.35582274198532104,0.09916207194328308,-0.017703233286738396,-0.18414469063282013,0.23373910784721375,-0.23049484193325043,0.02983139082789421,-0.20273470878601074,-0.18601423501968384,0.04139655828475952,0.017548818141222,-0.17193631827831268,-0.3337685763835907,0.12238392233848572},{-0.026704609394073486,0.4294549226760864,-0.13325661420822144,0.1405627280473709,0.27697065472602844,-0.20540323853492737,0.46013307571411133,0.019122164696455002,-0.1982182115316391,0.03946477547287941,-0.25581538677215576,-0.005136326886713505,-0.6684677600860596,0.1582096964120865,0.1787128448486328,0.3702540099620819},{0.4127109944820404,-0.1502373218536377,0.28294819593429565,-0.03929438069462776,0.10534396767616272,-0.17717312276363373,0.4792660176753998,0.29233318567276,-0.08095639199018478,-0.1918167620897293,0.11950361728668213,0.2597575783729553,-0.33126819133758545,-0.45234882831573486,0.194968119263649,0.1774514764547348},{-0.021900061517953873,-0.1396230161190033,-0.038618262857198715,-0.1125769391655922,0.17556440830230713,0.4330028295516968,0.16687573492527008,-0.08037297427654266,-0.24794445931911469,0.2497023642063141,-0.29075655341148376,-0.16146841645240784,0.2772732675075531,0.2678647041320801,-0.37701839208602905,0.24525023996829987},{0.22853855788707733,-0.30283260345458984,-0.2082311362028122,0.35908421874046326,-0.2719080448150635,-0.21985478699207306,0.3795359432697296,0.41822364926338196,0.22491903603076935,0.1645459681749344,0.3490598201751709,0.3661257326602936,-0.04472525045275688,-0.30874109268188477,-0.34978869557380676,0.34661737084388733},{-0.27646201848983765,0.1738165020942688,-0.15135425329208374,0.09134764969348907,0.09297183156013489,-0.4077286124229431,-0.06275573372840881,0.24124367535114288,-0.399127334356308,0.21062546968460083,0.5385192632675171,-0.16917820274829865,-0.2839359641075134,-0.5660363435745239,-0.03780888766050339,0.02395494654774666}};
