// Empty room ground take off
#include <string.h>
#include "network_evaluate_tof.h"


#define D_MODEL 32
#define NUM_TOKENS 2
#define EPS 0.000001 // 1e-6
#define OBST_DIM 8

static float obstacle_embeds[D_MODEL];
static float output_embeds[2 * D_MODEL];

float base;
float exponent;
static const int self_structure [4][2] = {{18, 32},{32, 32},{64, 64},{64, 4}};
static const int obst_structure [2][2] = {{8, 32},{32, 32}};
static float output_0[32];
static float output_1[32];
static float obst_output_0[32];
static float obst_output_1[32];
static float output_2[64];
static float output_3[4];
static const float actor_encoder_self_encoder_0_weight[18][32] = {{0.11883728206157684,-0.16028201580047607,0.037676289677619934,-0.18338197469711304,0.0422963872551918,-0.2936224639415741,0.09291880577802658,0.27304521203041077,-0.374372273683548,-0.1583351492881775,0.22940804064273834,0.3027459681034088,0.23164942860603333,-0.19666701555252075,-0.13784141838550568,0.09723366796970367,0.05623117834329605,-0.4132521450519562,-0.10042207688093185,-0.16881272196769714,-0.240605428814888,-0.13340428471565247,0.40947699546813965,0.021749813109636307,0.06878305226564407,0.10914672911167145,-0.4315883219242096,0.013637859374284744,-0.19579502940177917,-0.21182090044021606,0.3204153776168823,-0.32572928071022034},{0.07652541249990463,0.07649792730808258,-0.07129757851362228,0.20151370763778687,-0.0017993403598666191,0.2473800778388977,-0.25285542011260986,0.11846034973859787,0.037180230021476746,-0.2524668276309967,-0.04897955432534218,0.1356768012046814,-0.19397355616092682,-0.03610796481370926,0.05860234424471855,0.3180239796638489,-0.6376237273216248,0.33458399772644043,-0.07822007685899734,0.030529027804732323,-0.009086779318749905,0.10323638468980789,-0.31598395109176636,0.22749988734722137,-0.09177175909280777,-0.15671542286872864,0.05996110662817955,-0.03219268098473549,0.18016132712364197,-0.1454477608203888,0.39746540784835815,-0.22710491716861725},{-0.08658173680305481,-0.45078957080841064,0.11216460168361664,-0.27011820673942566,-0.32476967573165894,-0.3026343882083893,0.3473241925239563,0.02444804273545742,-0.46620768308639526,-0.16238869726657867,-0.22782057523727417,-0.3933183550834656,-0.09904400259256363,0.07202170044183731,0.06186315044760704,0.3027282953262329,0.10478097200393677,0.17398393154144287,0.1919715851545334,0.3119443655014038,0.4140489399433136,0.23758697509765625,-0.04511987045407295,0.17946463823318481,0.05662750080227852,-0.24606256186962128,-0.5856841802597046,0.499335378408432,0.3868308365345001,-0.16113264858722687,0.5854619741439819,0.295439213514328},{0.129909947514534,-0.06824728101491928,-0.023730389773845673,-0.12894153594970703,0.08632389456033707,-0.1796136498451233,0.10239357501268387,-0.031018562614917755,0.14730410277843475,-0.1834627240896225,0.05460471659898758,0.34322914481163025,0.36181655526161194,-0.13669462502002716,-0.030534964054822922,0.17941322922706604,-0.03197674825787544,-0.010988110676407814,-0.03848375380039215,0.11166676878929138,-0.3344824016094208,-0.10305848717689514,0.27881374955177307,-0.09341200441122055,-0.37470772862434387,0.0007998272776603699,-0.20380906760692596,0.06288616359233856,0.1609012931585312,0.07357131689786911,-0.05897517502307892,-0.2637639343738556},{0.017741447314620018,0.10480690002441406,0.06832285970449448,0.25385764241218567,0.057044535875320435,-0.13647916913032532,-0.33595946431159973,-0.10262475907802582,-0.19946503639221191,-0.040557119995355606,0.15279969573020935,0.265648752450943,-0.186536505818367,0.06166309118270874,-0.08618339151144028,0.14812731742858887,-0.09766746312379837,0.23343807458877563,-0.2134615182876587,-0.15452660620212555,0.1734444797039032,-0.07378785312175751,-0.29795601963996887,0.031072748824954033,-0.05978760868310928,-0.020084969699382782,-0.2509791851043701,0.0188438817858696,0.22903212904930115,-0.20476962625980377,0.2907794117927551,-0.06110052764415741},{-0.15244653820991516,-0.09493712335824966,0.23194345831871033,0.08160515874624252,-0.2580917179584503,0.12957218289375305,0.29450172185897827,0.241623654961586,-0.3282104730606079,-0.23584450781345367,0.13598349690437317,-0.381568044424057,0.06912632286548615,0.1649473011493683,0.27209198474884033,0.05697314813733101,-0.10038904845714569,0.024806605651974678,0.07287894189357758,0.16694186627864838,0.2728118896484375,0.13130807876586914,-0.13658617436885834,0.18123893439769745,-0.09313469380140305,-0.21464377641677856,-0.3079182505607605,-0.07400409132242203,-0.12963135540485382,-0.0680692121386528,-0.21630729734897614,0.2424526810646057},{-0.19084033370018005,0.39433762431144714,-0.04246095195412636,0.13872839510440826,0.12302007526159286,-0.422573983669281,0.05335179343819618,0.47261127829551697,-0.06319791078567505,-0.30205056071281433,0.40003812313079834,-0.12012051790952682,-0.18963629007339478,-0.2930212616920471,0.03047712706029415,-0.11865872889757156,0.0934835821390152,0.28684261441230774,-0.10500458627939224,-0.33630499243736267,0.13953423500061035,-0.24454636871814728,0.29215726256370544,-0.002892751945182681,-0.0839785784482956,0.15765827894210815,-0.18284501135349274,0.09046629071235657,0.3713224232196808,0.3170652389526367,-0.18247801065444946,0.07794966548681259},{-0.1568746268749237,0.1086471900343895,0.21474187076091766,0.22256915271282196,-0.26681360602378845,0.13217014074325562,0.2031053751707077,-0.07503295689821243,-0.16183651983737946,-0.29981327056884766,-0.23676881194114685,-0.2596951425075531,-0.16061177849769592,-0.398388534784317,-0.0768783912062645,-0.2303314357995987,0.18887551128864288,-0.2864570617675781,-0.03871121257543564,0.08429472148418427,0.19932419061660767,0.06166142597794533,-0.02814990095794201,-0.2110711634159088,-0.3663499057292938,-0.046922776848077774,-0.17731764912605286,-0.07674331963062286,-0.3452948033809662,-0.21409715712070465,-0.02181742899119854,-0.09754160791635513},{-0.25827276706695557,-0.31321293115615845,0.2965870797634125,-0.2876221537590027,-0.050142619758844376,-0.3814395070075989,-0.30808645486831665,0.009220486506819725,0.08043552190065384,-0.6089056730270386,-0.05638648942112923,-0.16947047412395477,0.08263200521469116,0.21344684064388275,0.5756536722183228,-0.1276654750108719,-0.38622763752937317,-0.1298447698354721,-0.2691759169101715,-0.3351442217826843,0.23785167932510376,0.0705270990729332,0.30363893508911133,-0.2619170546531677,-0.005624313373118639,-0.308655321598053,-0.04896152392029762,0.17552238702774048,-0.030367109924554825,0.06731530278921127,0.1504700630903244,-0.3538391888141632},{0.005172947887331247,-0.24741020798683167,-0.03742316737771034,0.3275124430656433,-0.2745504677295685,0.0922778993844986,-0.19463291764259338,0.17572814226150513,-0.2515902817249298,-0.1646629422903061,0.08568871766328812,-0.10154198855161667,0.10508635640144348,0.06455235928297043,-0.3083433508872986,0.11124908179044724,0.00873266626149416,-0.17146925628185272,0.3232741057872772,-0.01550916489213705,-0.043434083461761475,-0.31002867221832275,0.14448776841163635,0.0760369598865509,-0.10984523594379425,-0.1373528093099594,0.09133461862802505,-0.10357777029275894,0.1630810648202896,0.2720400094985962,-0.2087647020816803,-0.16206832230091095},{-0.5369816422462463,-0.26283344626426697,0.18674062192440033,0.42865756154060364,-0.013974915258586407,-0.019651036709547043,-0.24255284667015076,0.2529263198375702,-0.12608526647090912,-0.6041220426559448,0.24804170429706573,-0.3409759998321533,0.41032639145851135,-0.014448081143200397,-0.09459149092435837,0.022832592949271202,-0.35398513078689575,0.16451318562030792,0.4871363937854767,-0.38663315773010254,-0.153636172413826,0.05405285581946373,-0.14046943187713623,-0.30374568700790405,0.29576122760772705,-0.061647363007068634,-0.02380317449569702,0.23217782378196716,0.20813718438148499,0.24659575521945953,-0.3431546986103058,0.3016354441642761},{0.3859906494617462,-0.3027443587779999,0.40051260590553284,-0.32430291175842285,0.4321768879890442,-0.21965327858924866,0.07528960704803467,-0.21607249975204468,-0.0010811608517542481,0.23977917432785034,0.1298857182264328,-0.436851441860199,0.43086007237434387,0.5142008066177368,-0.3354418873786926,0.19314777851104736,-0.020376836881041527,-0.022725224494934082,-0.3830350637435913,-0.024831140413880348,-0.20275714993476868,0.14818643033504486,-0.07335621863603592,0.2532055377960205,0.17039616405963898,0.18148724734783173,0.4101177752017975,-0.16472317278385162,0.014933562837541103,0.4676252007484436,-0.3473629951477051,-0.1727181077003479},{0.10808064788579941,-0.2978423237800598,0.4135923385620117,-0.07338427752256393,0.42882540822029114,0.026233814656734467,0.2507517337799072,0.24048681557178497,0.20546892285346985,0.21836887300014496,0.18142294883728027,-0.03289785981178284,0.27103009819984436,0.12269215285778046,0.06358971446752548,0.6175758242607117,-0.25249096751213074,0.16129416227340698,-0.11980877816677094,-0.17679359018802643,0.33578500151634216,-0.4600575566291809,0.07517875730991364,0.30313190817832947,0.29480448365211487,0.09114681929349899,-0.10131768882274628,-0.37054139375686646,-0.04234544560313225,0.4407011568546295,0.04321622848510742,0.3536395728588104},{0.048626262694597244,-0.16724234819412231,-0.15282954275608063,0.4192007780075073,0.05357443913817406,-0.2597283124923706,0.3760417699813843,0.31315502524375916,-0.11207570135593414,0.03126012533903122,-0.15801212191581726,0.6201354265213013,-0.06512723863124847,-0.45558983087539673,-0.3633759319782257,-0.3571154773235321,0.002690188819542527,-0.07257445156574249,0.15213696658611298,0.08797219395637512,-0.162150576710701,0.3017418384552002,-0.06832874566316605,0.4105156362056732,0.42565682530403137,0.17309220135211945,-0.34377521276474,0.07953768223524094,0.1301444172859192,-0.28496432304382324,0.48670053482055664,0.38589781522750854},{8.349718700628728e-05,-0.3242872655391693,0.2711522579193115,0.11831797659397125,0.2923169434070587,0.2645842730998993,-0.1261412799358368,-0.2915985584259033,0.15369030833244324,0.35424745082855225,0.054015543311834335,0.21315574645996094,0.2817317545413971,-0.30608806014060974,0.0080653615295887,0.2984532117843628,-0.21161329746246338,0.35914650559425354,-0.09002672135829926,0.16264796257019043,0.025077281519770622,0.05962814763188362,0.1383567750453949,0.044473398476839066,0.23780082166194916,-0.09573183953762054,-0.1981331706047058,-0.38812652230262756,0.19137728214263916,-0.32374802231788635,0.217415452003479,-0.004120953846722841},{0.07909771054983139,0.12616272270679474,-0.11965750902891159,0.18313908576965332,-0.24001263082027435,-0.10495596379041672,0.23343665897846222,-0.03684460371732712,-0.1952478289604187,0.12817437946796417,0.04604019597172737,0.25645700097084045,-0.09891233593225479,-0.03750084713101387,-0.1424112319946289,0.10619939118623734,0.09469901770353317,-0.13633669912815094,0.26514893770217896,0.1080625057220459,-0.07485489547252655,-0.2104787826538086,-0.20899814367294312,0.1766972541809082,0.009481490589678288,-0.011458532884716988,-0.10898017883300781,0.22281770408153534,0.16565309464931488,-0.160599946975708,0.21522065997123718,0.18731436133384705},{-0.18051759898662567,0.060155272483825684,-0.09551648050546646,0.26237377524375916,0.10820107161998749,-0.26809147000312805,0.12420118600130081,-0.0038805906660854816,-0.0937357172369957,0.011250666342675686,-0.026923101395368576,-0.020080676302313805,-0.09263134002685547,-0.14893077313899994,0.1705365777015686,-0.3065086901187897,-0.1317623108625412,-0.12673185765743256,0.1543882042169571,0.1645268052816391,-0.23390841484069824,0.06439658254384995,0.04541949927806854,-0.22896036505699158,0.05077461525797844,-0.16903428733348846,0.038004398345947266,0.05951584875583649,-0.02504759095609188,-0.2872439920902252,0.2760787010192871,-0.1233145147562027},{-0.2727358937263489,0.03211773931980133,-0.21280987560749054,-0.011029064655303955,-0.19625967741012573,-0.15644054114818573,-0.2161446213722229,0.13972647488117218,0.23635797202587128,-0.0727558434009552,-0.15434013307094574,-0.2593187689781189,-0.12856125831604004,0.12882505357265472,0.0003340928815305233,0.12180904299020767,-0.07404732704162598,-0.07671789079904556,0.16939228773117065,0.02520057186484337,-0.035865556448698044,-0.012963738292455673,0.39196333289146423,0.07270946353673935,-0.03804614394903183,0.2375984936952591,0.1632038950920105,-0.32638901472091675,0.06552284210920334,0.02823750488460064,0.15925811231136322,0.1069360002875328}};
static const float actor_encoder_self_encoder_2_weight[32][32] = {{0.07770219445228577,0.08947204798460007,-0.32275626063346863,0.07484254986047745,-0.17203578352928162,0.014585532248020172,0.10905549675226212,0.04439655318856239,0.16630998253822327,-0.2494739443063736,-0.018452033400535583,0.03924595192074776,0.13051274418830872,0.1804540902376175,-0.02585182711482048,-0.16692663729190826,-0.0503605455160141,0.2835134267807007,0.06060924381017685,0.21874669194221497,-0.20718234777450562,-0.2254604995250702,0.07024063169956207,-0.20200379192829132,0.21320456266403198,0.11776194721460342,-0.14516960084438324,0.23918065428733826,0.028682703152298927,0.08493684977293015,0.027054384350776672,-0.26154524087905884},{-0.30291426181793213,-0.2506026327610016,-0.012047255411744118,0.33453550934791565,-0.224600687623024,-0.3576337397098541,-0.175007164478302,-0.2759247422218323,0.035794053226709366,0.13539597392082214,0.015294712968170643,-0.24342228472232819,-0.2067921757698059,0.07413402199745178,-0.14623279869556427,0.08001923561096191,-0.32754507660865784,-0.09972676634788513,-0.08423960208892822,0.1714964359998703,0.05430038273334503,0.0029082915280014277,-0.364665150642395,0.16932512819766998,0.18504661321640015,0.015673574060201645,-0.09775416553020477,-0.31434109807014465,-0.27302417159080505,-0.09751559048891068,0.16201114654541016,0.1667025089263916},{-0.21725212037563324,0.18611310422420502,-0.015234867110848427,-0.06907095015048981,-0.31359925866127014,0.28208667039871216,0.1419888138771057,-0.2103777974843979,-0.3079795241355896,-0.30507734417915344,0.05116055905818939,0.2875959277153015,0.36738601326942444,4.7622514102840796e-05,0.18913534283638,0.028482314199209213,-0.2010466307401657,0.26670771837234497,0.006615748163312674,-0.1798558086156845,0.29955360293388367,-0.10030750930309296,0.17357774078845978,0.17340195178985596,0.22196456789970398,0.053986456245183945,0.17666606605052948,-0.16844971477985382,0.2620214521884918,0.316320538520813,-0.06628356873989105,-0.09311995655298233},{0.2887217402458191,0.1389342099428177,-0.03807203099131584,0.22932830452919006,0.07675348222255707,-0.15003232657909393,0.22410163283348083,-0.15401902794837952,-0.20681971311569214,0.2304188758134842,0.11705458164215088,0.09704616665840149,0.19495922327041626,0.005215583369135857,0.018177490681409836,-0.1816670000553131,-0.19213701784610748,0.1964568793773651,-0.2823774218559265,-0.040049731731414795,0.21404452621936798,-0.048708535730838776,-0.20977945625782013,-0.09023173898458481,-0.36196255683898926,0.09574253857135773,0.14096730947494507,-0.23766599595546722,-0.014562330208718777,-0.2825275659561157,0.11107555776834488,0.1646062582731247},{-0.06704948097467422,0.2043323665857315,0.1600024253129959,-0.04745415970683098,-0.024655822664499283,0.16168898344039917,-0.25454336404800415,0.2223033905029297,0.035265203565359116,-0.2716701924800873,0.145881786942482,-0.1844727247953415,-0.07102058827877045,0.17450468242168427,-0.09996788203716278,-0.2917795181274414,-0.2519156336784363,8.425378473475575e-05,-0.004929795395582914,0.2359458953142166,-0.03181891515851021,0.030472319573163986,-0.227931410074234,-0.19686950743198395,0.27147531509399414,0.03727179393172264,0.26657965779304504,0.12443969398736954,0.16928157210350037,0.2782105803489685,-0.3422820568084717,-0.026524314656853676},{-0.05160263553261757,-0.13211388885974884,-0.29530224204063416,0.21754521131515503,0.11624671518802643,0.06139719486236572,-0.05615433678030968,0.15162651240825653,-0.2557380497455597,-0.24643203616142273,-0.07610883563756943,-0.16083718836307526,-0.0899776741862297,-0.12215471267700195,-0.1755990982055664,0.21954166889190674,-0.006496923975646496,-0.01972767524421215,-0.19808897376060486,0.0976850688457489,-0.20934420824050903,0.007071852218359709,-0.023720748722553253,-0.09730971604585648,0.1889721304178238,0.13110406696796417,0.2315143495798111,0.10136354714632034,-0.016963349655270576,-0.09820835292339325,0.1850445717573166,0.057327378541231155},{-0.16288059949874878,-0.04116426408290863,-0.2880111336708069,-0.3293400704860687,-0.053343746811151505,0.3179738521575928,-0.0468754805624485,0.37247127294540405,-0.12574902176856995,0.2573087215423584,0.28485754132270813,0.05518507584929466,0.15735843777656555,-0.20005296170711517,0.20259715616703033,-0.033449482172727585,0.2631196081638336,-0.3169797360897064,-0.06925766170024872,0.35311248898506165,-0.200016051530838,-0.04725828394293785,-0.13776147365570068,0.1754234880208969,-0.11824799329042435,-0.12540285289287567,0.1660379320383072,0.23000295460224152,0.14823336899280548,-0.23548191785812378,0.1575378030538559,-0.12200680375099182},{0.00661090761423111,0.17992275953292847,-0.16120372712612152,-0.11287661641836166,0.11043120175600052,0.15868298709392548,-0.13979963958263397,-0.21184319257736206,0.019662776961922646,-0.03411825746297836,-0.036120787262916565,0.10047563910484314,-0.00023120518017094582,0.2693578004837036,-0.16353259980678558,0.14073827862739563,0.16309483349323273,-0.14774249494075775,-0.14316776394844055,0.07680369913578033,-0.1656508445739746,0.35437294840812683,-0.2280929982662201,0.2573554217815399,-0.19255901873111725,0.2923821210861206,0.003653146093711257,0.36012575030326843,0.15703921020030975,-0.06148053705692291,0.016461612656712532,0.04214872792363167},{-0.14054915308952332,0.036557525396347046,0.16103112697601318,-0.17478159070014954,0.25925326347351074,0.01950652524828911,0.13713163137435913,-0.12381089478731155,-0.010082957334816456,-0.2561725378036499,-0.19107787311077118,-0.29660558700561523,0.00328162987716496,-0.009415268898010254,-0.011185751296579838,-0.32052192091941833,0.10560453683137894,0.06827579438686371,0.13645504415035248,-0.13559168577194214,-0.2422705590724945,0.07055176049470901,-0.13054141402244568,-0.2961004674434662,-0.027067756280303,0.09550468623638153,0.06228113919496536,-0.11279814690351486,-0.18889731168746948,-0.02046070247888565,0.05710507929325104,0.23602740466594696},{-0.09689828008413315,-0.16201172769069672,-0.28079745173454285,-0.10373998433351517,0.04301294684410095,0.17689110338687897,0.08445469290018082,-0.2549307942390442,0.23217730224132538,0.24502860009670258,-0.19062645733356476,-0.1346888691186905,-0.0942961573600769,-0.018055632710456848,0.25842729210853577,-0.1133672297000885,-0.016641344875097275,-0.25416645407676697,0.0377860963344574,0.3413265645503998,0.24043920636177063,0.13062748312950134,0.01299419067800045,-0.21084541082382202,0.2509375810623169,-0.0674159973859787,-0.13076244294643402,-0.12610389292240143,-0.2206612378358841,0.02987610176205635,0.12082837522029877,-0.2731216847896576},{0.19882629811763763,-0.0030658459290862083,0.04529692977666855,0.05219845846295357,0.13507789373397827,0.017362281680107117,-0.004121939651668072,-0.03803611174225807,-0.055469755083322525,-0.20712125301361084,-0.1493755280971527,-0.22771522402763367,0.2847658693790436,0.05794741213321686,0.09044451266527176,-0.2335696965456009,0.01827888749539852,-0.28963303565979004,0.15572376549243927,0.08556631207466125,-0.14610746502876282,0.1948370784521103,-0.07562308013439178,0.14641547203063965,-0.10658193379640579,0.062080271542072296,0.018016720190644264,0.32319900393486023,0.005160580854862928,0.14971227943897247,-0.11254718154668808,0.24589742720127106},{0.2865014970302582,0.09640825539827347,-0.06215202435851097,0.17279839515686035,0.2827431857585907,0.2986617684364319,-0.21627123653888702,-0.11157626658678055,-0.23869000375270844,0.08610574156045914,-0.03863334283232689,-0.359845370054245,0.17536646127700806,0.18629184365272522,-0.044639259576797485,0.06451298296451569,-0.24123452603816986,0.22164711356163025,0.2118532359600067,0.2753734588623047,0.08172382414340973,-0.01221610140055418,0.20988281071186066,-0.18996870517730713,-0.22223567962646484,-0.22162581980228424,0.25840577483177185,0.3560914993286133,0.2620009481906891,0.3378382921218872,0.2074921578168869,0.04036807641386986},{0.23443931341171265,-0.09626177698373795,0.0428444929420948,0.1960432082414627,-0.03418998792767525,0.47206681966781616,0.29564356803894043,-0.1325254738330841,0.3501189947128296,-0.12126558274030685,0.2607882618904114,0.24204881489276886,0.35863032937049866,0.034076448529958725,0.2646388113498688,0.10392706841230392,0.015609980560839176,-0.18421870470046997,0.0910017341375351,-0.1756645143032074,-0.06189233809709549,-0.007064256351441145,-0.08201407641172409,-0.13372299075126648,-0.0991654321551323,-0.10987941920757294,-0.14648984372615814,0.35993340611457825,-0.01773706078529358,0.09368044883012772,0.02322191372513771,-0.2602634131908417},{-0.0867040827870369,0.26124855875968933,0.030018674209713936,0.23121565580368042,0.15380752086639404,-0.04282825067639351,-0.14645428955554962,0.12599840760231018,0.18208394944667816,0.0036393911577761173,0.17208930850028992,-0.11252455413341522,-0.3098639249801636,-0.1967577487230301,0.30704131722450256,0.17918328940868378,0.22490966320037842,0.20064795017242432,-0.27046725153923035,-0.16141605377197266,-0.006657182704657316,-0.18703046441078186,0.25375285744667053,-0.02947358414530754,-0.09871469438076019,-0.07954797148704529,0.10863017290830612,0.22444316744804382,0.34126463532447815,0.2034154236316681,-0.11526094377040863,-0.22399801015853882},{-0.34501296281814575,0.10326090455055237,0.034305911511182785,-0.03603218495845795,-0.05368293449282646,-0.2854323387145996,-0.26926660537719727,-0.0848565474152565,0.04330578073859215,0.14840851724147797,0.1954018473625183,0.2139548808336258,-0.13757050037384033,0.2861195206642151,-0.03208558261394501,0.08126889914274216,-0.11486436426639557,-0.19311632215976715,-0.19381183385849,-0.273662269115448,-0.31885066628456116,-0.06015623360872269,0.0955205112695694,0.13808031380176544,-0.03960232436656952,0.10390594601631165,-0.2276875376701355,0.1502411663532257,0.3043031096458435,-0.256629079580307,0.009924803860485554,0.053308963775634766},{0.23934626579284668,0.2906961739063263,0.20989783108234406,-0.2698529064655304,-0.26105791330337524,0.028655484318733215,-0.22773802280426025,0.10118021816015244,-0.0024873733054846525,0.2100008875131607,0.053820542991161346,0.15490561723709106,0.010293023660779,0.002450614469125867,0.09524951875209808,-0.17680321633815765,-0.2298687845468521,-0.2715564966201782,-0.39127159118652344,0.07875707745552063,0.14880815148353577,-0.10642682015895844,0.056388504803180695,-0.2416003793478012,0.06078268587589264,0.452848345041275,0.30124491453170776,0.2920961081981659,0.3028663992881775,-0.14617234468460083,-0.196377232670784,-0.24140223860740662},{-0.07687649130821228,-0.02744981087744236,-0.017311040312051773,0.017983002588152885,-0.08761785179376602,0.29652953147888184,-0.16935865581035614,0.15091969072818756,-0.16235266625881195,-0.15235097706317902,0.11159966886043549,0.1403314471244812,-0.24663303792476654,0.3139977753162384,-0.19439901411533356,0.09753616154193878,-0.13734914362430573,-0.1278572678565979,0.07695475220680237,0.1472615748643875,0.13777481019496918,0.08765044808387756,0.2476014792919159,-0.006069541908800602,0.15868936479091644,-0.12720385193824768,-0.2848649322986603,-0.08221783488988876,-0.3331608474254608,-0.20529994368553162,-0.2579473853111267,0.3605927526950836},{-0.14047610759735107,0.12880460917949677,0.13058187067508698,-0.2508757710456848,0.1274193823337555,-0.30203279852867126,-0.23291324079036713,0.17684420943260193,-0.08599063009023666,0.06176932901144028,-0.04040384292602539,-0.19932112097740173,0.31157270073890686,0.05358688533306122,0.22028721868991852,0.14843910932540894,0.27459222078323364,-0.019703375175595284,0.07646167278289795,0.20737318694591522,-0.23107434809207916,-0.13267554342746735,0.18043290078639984,0.22498422861099243,0.018814140930771828,0.25671836733818054,-0.03554863482713699,-0.24181126058101654,-0.10387733578681946,0.0763947144150734,0.1284710317850113,-0.1483955681324005},{0.12968948483467102,-0.06939975917339325,-0.22180329263210297,-0.20231986045837402,0.12909680604934692,-0.018675146624445915,0.2699272632598877,-0.002709693508222699,0.27192771434783936,0.17874787747859955,-0.3089560866355896,0.011286103166639805,0.09840630739927292,0.3277466297149658,-0.18328990042209625,-0.04963061958551407,0.27434849739074707,-0.3107779026031494,0.21273984014987946,-0.14656376838684082,-0.032912593334913254,0.20925825834274292,-0.1505638211965561,0.2138565629720688,-0.2563483417034149,0.13604608178138733,0.2588728666305542,0.0813569575548172,-0.15543466806411743,0.28080517053604126,0.11968114227056503,0.17843595147132874},{-0.038316674530506134,-0.15476486086845398,-0.1295110583305359,-0.09779534488916397,0.1769927591085434,-0.004802023991942406,0.1532854586839676,-0.15256229043006897,-0.2643340826034546,0.06215853616595268,0.17088057100772858,0.3534890115261078,-0.32754260301589966,0.07251016795635223,0.3272203803062439,-0.1605556309223175,-0.10129638761281967,0.19624456763267517,-0.22888870537281036,0.14641492068767548,-0.03039591573178768,-0.2298104614019394,0.27012550830841064,-0.36656901240348816,0.17021071910858154,-0.10905163735151291,-0.12491711229085922,-0.06406563520431519,-0.16603925824165344,-0.34772688150405884,-0.21428021788597107,0.12916941940784454},{0.2861782908439636,-0.11991672962903976,-0.10265833884477615,-0.3640764057636261,0.004224116913974285,0.0879761278629303,-0.25284701585769653,0.28750118613243103,0.09688787162303925,-0.30525046586990356,-0.2522929310798645,0.13566280901432037,-0.08403223007917404,-0.11826124787330627,-0.13899396359920502,-0.17035557329654694,0.20248961448669434,-0.30197134613990784,-0.0849045068025589,0.2464718371629715,0.20557042956352234,-0.02645314484834671,0.2703500986099243,-0.31448349356651306,-0.020812850445508957,-0.14898866415023804,-0.21900592744350433,-0.2608368396759033,0.016125740483403206,-0.08922919631004333,0.12587273120880127,-0.14230047166347504},{0.04086032137274742,-0.182586207985878,-0.18084962666034698,-0.02017790637910366,-0.1707053780555725,-0.2563938498497009,0.27438509464263916,-0.12400487810373306,-0.22637411952018738,0.20288585126399994,0.04523918777704239,-0.06737905740737915,0.14669129252433777,0.18855349719524384,0.3149435818195343,0.261765718460083,0.05182105302810669,-0.06802627444267273,0.1800277680158615,0.27811199426651,0.07218871265649796,0.03492860123515129,0.05671980232000351,0.025284547358751297,-0.09823513776063919,-0.06186511367559433,-0.12271377444267273,0.06850536167621613,0.33503052592277527,-0.025413913652300835,-0.15260818600654602,-0.03404754400253296},{0.11512526124715805,-0.17281845211982727,-0.19087760150432587,0.10775831341743469,0.18135391175746918,0.4542469084262848,-0.340609073638916,0.18337419629096985,0.09386231005191803,0.0926581621170044,0.035865865647792816,0.1415068358182907,0.32277095317840576,0.05222580209374428,-0.1543051153421402,0.2768435478210449,0.14644089341163635,0.0872330293059349,0.23311781883239746,-0.1456165313720703,-0.08863010257482529,0.05458278954029083,0.14698292315006256,-0.05606973171234131,-0.16104336082935333,-0.078252412378788,-0.15259824693202972,0.36224743723869324,0.1135314553976059,-0.13712909817695618,0.3712311387062073,0.1681513488292694},{0.1460871547460556,-0.04210713133215904,-0.10439536720514297,-0.16709381341934204,0.018365973606705666,0.08162655681371689,0.07370607554912567,-0.10279718041419983,0.2131924033164978,-0.15505830943584442,0.3098735511302948,0.08075610548257828,0.17234274744987488,0.006713598966598511,-0.19040991365909576,-0.1474258452653885,-0.060821376740932465,0.05013984069228172,0.14709661900997162,0.031208856031298637,0.2458125203847885,-0.13615106046199799,0.07924918085336685,0.24918554723262787,0.030053207650780678,-0.0026683832984417677,-0.11047820746898651,-0.23910263180732727,0.11578821390867233,-0.2370791882276535,-0.06938271224498749,-0.18640533089637756},{0.07535944133996964,0.289592981338501,0.12541186809539795,-0.15326674282550812,0.06416293978691101,-0.09910356998443604,-0.11408597975969315,0.1820582151412964,0.051830075681209564,0.18209682404994965,-0.3257383704185486,-0.16138491034507751,-0.041244298219680786,0.29574981331825256,-0.1743474304676056,0.0424407497048378,-0.17173048853874207,-0.25886330008506775,-0.02265368588268757,0.09758266061544418,0.10364193469285965,-0.2212473303079605,0.2040710300207138,0.12304616719484329,0.1272977739572525,0.1382932960987091,0.2164926528930664,-0.23533309996128082,-0.28696009516716003,0.22865910828113556,0.1029263511300087,-0.1999499499797821},{-0.23260410130023956,0.13122044503688812,-0.015934856608510017,0.0110408840700984,0.19583454728126526,-0.06309027969837189,0.11954239755868912,-0.15595756471157074,0.014657290652394295,-0.07407967746257782,-0.04388103634119034,-0.06540656089782715,0.12793461978435516,-0.17958831787109375,-0.32349199056625366,0.07032689452171326,0.16616900265216827,-0.03845621272921562,-0.26550397276878357,0.22435830533504486,-0.15850265324115753,0.23166564106941223,-0.23830965161323547,0.2126058042049408,-0.15532012283802032,0.23930241167545319,0.1325964629650116,0.20034892857074738,-0.2990495562553406,-0.03000469133257866,-0.17320604622364044,-0.1462162286043167},{-0.10288885235786438,0.27909454703330994,-0.19732315838336945,-0.07718568295240402,-0.06421371549367905,-0.0014871445018798113,-0.12680114805698395,-0.3152802288532257,0.13350823521614075,-0.1997254490852356,0.3099132776260376,-0.21855726838111877,-0.1728198230266571,-0.12907938659191132,-0.14766785502433777,-0.03992397338151932,-0.27373313903808594,-0.281401664018631,0.12361295521259308,-0.02765546925365925,-0.2200392484664917,0.1031443327665329,-0.3034627139568329,-0.09008579701185226,-0.16718122363090515,0.03746195510029793,0.20588916540145874,-0.4216965138912201,-0.1685992330312729,-0.18698063492774963,-0.07489853352308273,0.016789020970463753},{0.06190025806427002,-0.12201602756977081,-0.22806626558303833,-0.1649388074874878,0.09411387145519257,0.2540584206581116,0.023867985233664513,0.3154991865158081,-0.05082157626748085,0.05714916065335274,-0.2706572413444519,0.13083332777023315,-0.34165897965431213,0.3511735200881958,-0.15940624475479126,-0.039163749665021896,0.164316326379776,0.08387623727321625,0.08495388180017471,-0.35373222827911377,0.09840484708547592,-0.12865182757377625,0.008292336016893387,0.08526919037103653,0.10979574918746948,0.26050040125846863,-0.27562493085861206,-0.2511788010597229,0.19987799227237701,-0.0050398739986121655,0.22877486050128937,0.20365963876247406},{-0.08149699121713638,0.019287031143903732,0.09591741859912872,-0.24011115729808807,-0.2830653488636017,0.1777876764535904,0.09075163304805756,-0.024196907877922058,0.02212277054786682,-0.22631768882274628,0.07003912329673767,0.109113909304142,0.15369151532649994,0.08980938792228699,-0.11406917124986649,0.22474800050258636,0.14003035426139832,-0.2959544360637665,0.11666816473007202,0.06376796215772629,0.20894378423690796,0.1630658656358719,0.01927262544631958,-0.12786628305912018,0.07323773205280304,0.06468071043491364,0.1446824073791504,0.1258731484413147,0.07716013491153717,-0.29334092140197754,0.18627728521823883,-0.051571886986494064},{0.3040241599082947,0.04027627408504486,0.037153460085392,-0.11620946228504181,-0.2284405380487442,0.12441541254520416,-0.10841403901576996,0.10581163316965103,0.33172881603240967,-0.13748160004615784,-0.23671843111515045,0.19165560603141785,-0.010266500525176525,0.22979196906089783,-0.0965723991394043,0.016141854226589203,-0.1536131352186203,-0.1290123462677002,-0.0978238433599472,-0.03578948229551315,0.25246185064315796,0.28122371435165405,-0.31268903613090515,-0.16173997521400452,-0.007262493949383497,-0.11441082507371902,-0.03992493823170662,-0.3425237834453583,-0.1983335018157959,0.299396276473999,-0.056836459785699844,0.11468619108200073},{0.01641744188964367,0.19210828840732574,-0.27372708916664124,-0.05142558366060257,-0.09267696738243103,0.19068972766399384,-0.08129534125328064,-0.2303684651851654,0.011796562001109123,-0.23708786070346832,-0.1225261241197586,0.12276487797498703,-0.0091286925598979,0.11094523221254349,0.20563292503356934,-0.024589432403445244,-0.05985721945762634,-0.11476631462574005,-0.23413874208927155,-0.06607765704393387,0.19389596581459045,0.09589166194200516,-0.1926845759153366,-0.16183491051197052,-0.04416806623339653,0.31818321347236633,-0.1986674964427948,0.21295128762722015,0.17222291231155396,0.032044168561697006,-0.019018501043319702,-0.004410943016409874},{0.12402784824371338,0.1797911822795868,0.0679568499326706,-0.22924652695655823,0.20938625931739807,0.13372881710529327,0.02089817263185978,0.19158002734184265,-0.26791271567344666,-0.08650347590446472,0.017765643075108528,0.032943326979875565,0.14984332025051117,-0.061038434505462646,-0.11527349799871445,0.10098950564861298,0.32036757469177246,0.19388262927532196,-0.10521923750638962,-0.012643194757401943,0.08975356817245483,-0.1711152344942093,0.21618224680423737,0.3013477921485901,-0.1329452395439148,0.27014172077178955,-0.18704009056091309,-0.2508309483528137,-0.27586156129837036,-0.07582967728376389,-0.04902627691626549,0.025055065751075745}};
static const float actor_encoder_feed_forward_0_weight[64][64] = {{0.14679262042045593,-0.05289909988641739,-0.20330289006233215,-0.15423285961151123,0.01748402789235115,0.19127634167671204,-0.16146732866764069,-0.04776664450764656,-0.2542130649089813,-0.18589690327644348,0.036731526255607605,-0.017981719225645065,0.09619757533073425,-0.05445443093776703,-0.13282349705696106,0.11547784507274628,0.039244428277015686,0.096818707883358,0.0854712650179863,-0.19583554565906525,-0.22304514050483704,0.0751829519867897,-0.04450242221355438,0.21076129376888275,0.0596197284758091,0.11722824722528458,0.09602615982294083,0.10295872390270233,-0.037597592920064926,-0.12013281136751175,0.11396286636590958,-0.03824998065829277,-0.10556947439908981,0.18281444907188416,0.214615598320961,-0.17028245329856873,-0.20871050655841827,-0.018269764259457588,-0.14538444578647614,-0.11807657778263092,0.16408227384090424,-0.02905872091650963,0.12270475924015045,0.005283089820295572,-0.22021470963954926,-0.1352384090423584,0.02565096877515316,-0.026322128251194954,0.10671373456716537,0.012638653628528118,0.006560095120221376,0.04378288611769676,0.0038380706682801247,-0.12315702438354492,-0.20925165712833405,0.06175387278199196,0.18340031802654266,-0.05471484735608101,0.06738553196191788,0.07396206259727478,0.03733544424176216,-0.17805133759975433,-0.19749818742275238,0.0609440878033638},{0.053861286491155624,0.22518375515937805,0.0686894953250885,-0.03965901583433151,0.04450760781764984,-0.0619039461016655,0.22523926198482513,0.09675494581460953,0.07836536318063736,0.016063379123806953,0.16134881973266602,-0.21888265013694763,-0.09492270648479462,0.06555381417274475,0.11847806721925735,-0.13138362765312195,-0.13522401452064514,-0.1794167309999466,0.0029651629738509655,0.06581564247608185,-0.10680334270000458,0.03172212094068527,-0.17331551015377045,0.15406103432178497,0.1240697130560875,0.0722852274775505,-0.11386696249246597,-0.2056746780872345,-0.1936841756105423,0.11471433192491531,0.08057978749275208,0.06118747219443321,-0.20245645940303802,-0.059451982378959656,0.05274396762251854,0.03404708951711655,-0.021025456488132477,0.05538760870695114,-0.07560519129037857,-0.134551003575325,0.013286442495882511,0.08923862874507904,0.10894351452589035,0.07310858368873596,0.17149357497692108,-0.17805364727973938,0.15985576808452606,-0.18336264789104462,-0.10586026310920715,0.1436682492494583,0.01024403516203165,-0.050056539475917816,0.0900486558675766,0.08027730137109756,-0.10528276860713959,0.14459362626075745,0.14931580424308777,0.07000978291034698,-0.09841571003198624,-0.010529289953410625,-0.22623418271541595,-0.17081362009048462,0.004765219986438751,-0.1444471925497055},{-0.05133602023124695,-0.13208380341529846,0.13652513921260834,0.2229616641998291,-0.2615854740142822,-0.21285971999168396,0.11862010508775711,0.05957743525505066,-0.01914273574948311,0.11085279285907745,-0.23381689190864563,0.17473162710666656,0.15236754715442657,0.16536012291908264,-0.05615503340959549,-0.24677878618240356,0.17719675600528717,-0.05681682005524635,-0.2446219027042389,0.15844008326530457,0.011018347926437855,0.09944506734609604,-0.037647467106580734,0.05036742985248566,0.07855312526226044,0.04814368858933449,0.00798757467418909,-0.059794265776872635,0.12752781808376312,0.0390324704349041,-0.06587614119052887,0.03877459466457367,0.18740256130695343,0.017071492969989777,0.05103031173348427,-0.21392394602298737,0.17408303916454315,0.15465332567691803,-0.09597620368003845,-0.049077678471803665,-0.1454804539680481,0.12282616645097733,0.11892732977867126,0.22195658087730408,0.20762638747692108,-0.05257517099380493,-0.1598595380783081,0.2235231101512909,-0.11514370143413544,-0.176412433385849,0.1475258469581604,-0.049562446773052216,0.06493254005908966,-0.07973703742027283,-0.026311511173844337,0.11321761459112167,0.10390827804803848,0.07036987692117691,-0.15230712294578552,0.20708249509334564,0.06494851410388947,0.005334464367479086,0.06915870308876038,-0.027515975758433342},{0.14935767650604248,0.13948194682598114,-0.12429676949977875,-0.1005895584821701,0.07312428206205368,0.028520256280899048,-0.14241492748260498,0.03271413967013359,0.13194113969802856,0.048584479838609695,-0.1377010941505432,-0.19831009209156036,-0.30773070454597473,0.02432984486222267,-0.0947355329990387,0.16429853439331055,-0.09304720163345337,-0.23991090059280396,0.22334662079811096,0.1340460628271103,-0.16548435389995575,0.19026589393615723,-0.12448811531066895,0.2542450428009033,-0.08001820743083954,-0.05161448195576668,0.05646403878927231,-0.15861445665359497,0.02350705675780773,-0.06637832522392273,-0.0952659398317337,-0.07927459478378296,0.03421999141573906,-0.13122005760669708,0.0757620707154274,-0.049492381513118744,0.11527861654758453,0.13481420278549194,-0.14699260890483856,-0.02682916633784771,-0.013000013306736946,0.18541133403778076,0.09465434402227402,-0.18915024399757385,0.06125573068857193,0.16355285048484802,-0.1836833506822586,0.325947642326355,0.12942327558994293,0.012260518036782742,-0.05847606435418129,-0.22290711104869843,-0.19580423831939697,-0.05118615925312042,0.2644904851913452,-0.1726556420326233,0.023564035072922707,-0.23514288663864136,-0.1664179265499115,0.010848037898540497,0.016553152352571487,0.1535537838935852,0.1394418478012085,-0.019793100655078888},{0.2877276837825775,-0.03811481222510338,0.042622800916433334,-0.008803819306194782,0.09367706626653671,0.038437314331531525,-0.21103107929229736,0.022564882412552834,-0.019776415079832077,-0.08064296096563339,-0.10682827234268188,-0.09820675104856491,-0.022302180528640747,-0.1436861902475357,-0.13664934039115906,-0.13268844783306122,-0.08813437074422836,-0.09185898303985596,0.20045985281467438,-0.19879813492298126,0.09415733814239502,0.09591181576251984,0.09088966250419617,-0.14477293193340302,0.09365031868219376,0.11277596652507782,0.20719826221466064,0.14369142055511475,-0.030157484114170074,-0.06279469281435013,0.061354756355285645,0.19948531687259674,-0.03980721905827522,-0.104679636657238,-0.09234651923179626,0.004029843024909496,-0.034540507942438126,-0.1355290412902832,-0.14359472692012787,-0.042586881667375565,-0.11305300891399384,0.10445667803287506,-0.13371580839157104,0.04112320765852928,-0.05587933957576752,-0.13124528527259827,-0.13165970146656036,0.04194056987762451,-0.02123650163412094,-0.08045555651187897,-0.06346792727708817,0.21287675201892853,0.21959583461284637,-0.1599329262971878,0.13497070968151093,-0.08045116066932678,-0.03396002575755119,-0.11063970625400543,0.07432766258716583,-0.13435091078281403,-0.23940512537956238,-0.005985428113490343,0.19775070250034332,0.0014218983706086874},{0.17983582615852356,-0.05705345794558525,0.1516401320695877,-0.14406664669513702,0.08925045281648636,0.0676983967423439,-0.1713239848613739,-0.020083406940102577,0.004380123224109411,0.08490985631942749,-0.14861977100372314,-0.19181528687477112,-0.01181326899677515,0.12856824696063995,0.04772081971168518,-0.06459400802850723,0.019546527415513992,0.05166258662939072,0.16049759089946747,0.09092812240123749,0.008994474075734615,-0.156134232878685,0.18672174215316772,0.09903598576784134,0.0371529683470726,-0.0030185505747795105,-0.11372440308332443,-0.04557017236948013,0.17881666123867035,0.07125657796859741,0.029914721846580505,0.20401322841644287,0.07406474649906158,0.21327193081378937,0.03863422945141792,0.17615476250648499,-0.16767758131027222,-0.04195881262421608,-0.08792131394147873,0.20557014644145966,0.0462920218706131,-0.06255102157592773,0.08758782595396042,-0.16918034851551056,-0.1587735414505005,0.012267130427062511,0.11058538407087326,0.033124543726444244,-0.16004329919815063,-0.0018606537487357855,-0.08821539580821991,0.056046221405267715,0.030608417466282845,0.15937107801437378,0.12134387344121933,0.03237538039684296,-0.043384455144405365,0.14790339767932892,-0.017159419134259224,-0.20168757438659668,-0.13899941742420197,-0.06882499158382416,0.026904206722974777,-0.11940183490514755},{-0.11040530353784561,0.02853194996714592,0.1724778413772583,-0.10491321235895157,-0.1085306778550148,0.1521596610546112,0.12770769000053406,0.18223246932029724,-0.16170614957809448,-0.20857739448547363,0.12283588200807571,-0.08295925706624985,0.12431838363409042,-0.053228557109832764,0.04292445257306099,-0.1450028121471405,-0.11990001052618027,0.13000035285949707,0.03177309036254883,-0.025869356468319893,0.08232133090496063,-0.06596148014068604,0.0056307208724319935,-0.11108960956335068,0.029320545494556427,-0.07733509689569473,0.13477154076099396,0.1301378458738327,0.12230126559734344,0.12354061007499695,0.07048901170492172,-0.20554830133914948,0.002136591821908951,-0.023868480697274208,-0.17198039591312408,-0.22873251140117645,-0.0859518051147461,0.09797901660203934,-0.12382002919912338,0.1076321080327034,-0.0595746710896492,-0.1467701494693756,-0.04246797040104866,0.1646714210510254,0.004112947732210159,-0.12124130874872208,0.1130884513258934,-0.10866245627403259,0.029485952109098434,0.05954168364405632,0.07642025500535965,0.1840578317642212,0.0490541011095047,0.17505759000778198,0.24350795149803162,-0.10254684835672379,-0.11535467952489853,0.003726092865690589,-0.09030672907829285,-0.0898512750864029,-0.17566242814064026,-0.15116038918495178,0.14632239937782288,-0.014470716938376427},{-0.09019176661968231,-0.18368078768253326,0.13923096656799316,-0.15887443721294403,-0.08500762283802032,0.13272204995155334,-0.20835956931114197,0.15650548040866852,-0.0929926186800003,0.12486756592988968,0.07514078170061111,-0.002309717470780015,0.21614646911621094,-0.08708049356937408,-0.04159459471702576,0.07744362205266953,0.0775509625673294,-0.039126116782426834,0.05061747133731842,-0.237692728638649,0.16026286780834198,0.12411156296730042,-0.10919971764087677,0.21584594249725342,-0.13673672080039978,-0.06633999198675156,0.12036259472370148,0.08892778307199478,0.043516241014003754,0.17224475741386414,-0.169500932097435,0.08177755028009415,-0.1311737298965454,0.19449792802333832,-0.10652858018875122,0.07479962706565857,-0.03340429440140724,0.040967460721731186,-0.17007684707641602,0.12237577885389328,-0.14197634160518646,-0.10040383040904999,-0.028414826840162277,0.07368551939725876,-0.00048163707833737135,0.21590767800807953,-0.21909208595752716,-0.17187559604644775,-0.2347772866487503,0.04925791546702385,-0.06943826377391815,-0.13357597589492798,-0.17346633970737457,0.18663811683654785,-0.22157350182533264,0.1826361119747162,0.18756932020187378,0.19636651873588562,0.0888603925704956,-0.17462556064128876,-0.16179503500461578,0.08726329356431961,-0.08760511130094528,0.12168154865503311},{-0.10284896939992905,0.14743122458457947,-0.049709491431713104,-0.14102430641651154,0.0875907614827156,-0.06526216864585876,0.14845921099185944,-0.05375422164797783,-0.03557882085442543,0.035078875720500946,-0.18443530797958374,-0.20845796167850494,-0.23969115316867828,-0.08862277865409851,0.10062026232481003,0.12025735527276993,0.043572209775447845,0.12572164833545685,0.02884451486170292,0.12412238866090775,-0.1499842405319214,0.24293731153011322,-0.00018751740572042763,0.11331832408905029,-0.057438064366579056,0.07030647993087769,0.010910967364907265,-0.13972169160842896,-0.1310202032327652,0.0706334337592125,-0.07626129686832428,0.11425234377384186,-0.16565285623073578,-0.18671976029872894,0.14170466363430023,0.15171895921230316,-0.19231906533241272,0.19135603308677673,-0.25074344873428345,0.15210919082164764,0.05906107649207115,-0.19818776845932007,-0.16751740872859955,-0.08036347478628159,-0.09577992558479309,-0.22477443516254425,0.041477978229522705,0.16962996125221252,-0.22911788523197174,-0.17902612686157227,0.18013055622577667,0.029464537277817726,-0.1352246254682541,0.18741033971309662,-0.1652056723833084,-0.046897973865270615,-0.12770257890224457,-0.0960855484008789,-0.14032398164272308,-0.04000895470380783,-0.1593094915151596,0.16726253926753998,0.13090449571609497,0.031598612666130066},{0.22981694340705872,-0.0860399454832077,-0.03368926793336868,-0.09143181145191193,0.05974859371781349,0.1584811508655548,0.1874350756406784,-0.22590327262878418,-0.1407560259103775,0.23622512817382812,-0.1796516329050064,-0.02251330576837063,0.16796867549419403,0.09368141740560532,0.10422749072313309,-0.03863093629479408,0.0190369114279747,0.03523222357034683,-0.03961552679538727,0.14462552964687347,0.1143743246793747,-0.14600186049938202,0.058010876178741455,0.16670605540275574,0.05561197176575661,-0.14355666935443878,-0.16155996918678284,0.0026764273643493652,-0.05725020170211792,0.07233380526304245,-0.07799550145864487,-0.07453104853630066,-0.04275403916835785,-0.07845421135425568,-0.16796502470970154,0.06345173716545105,-0.04372536018490791,-0.1741628795862198,0.17323347926139832,0.14224836230278015,-0.07079511880874634,-0.1732785552740097,0.05733175203204155,-0.0721668154001236,0.2424885630607605,-0.02373283915221691,0.12933985888957977,0.07906752824783325,-0.08632951974868774,-0.14579276740550995,0.04006464034318924,-0.11962510645389557,-0.13055644929409027,-0.054410360753536224,0.1295597404241562,-0.17886848747730255,-0.04704805091023445,0.1780591756105423,-0.07871711254119873,-0.017816487699747086,0.19551430642604828,-0.03006211295723915,-0.10257920622825623,0.17404548823833466},{0.07666804641485214,-0.143224835395813,-0.08645938336849213,-0.08684628456830978,0.22624921798706055,-0.1748160719871521,-0.2541681230068207,0.10210724920034409,0.060535527765750885,0.17219072580337524,-0.03130113705992699,-0.19439738988876343,0.0186922587454319,0.1167091578245163,-0.08749164640903473,0.06794613599777222,0.13033027946949005,0.019062912091612816,0.07997828722000122,-0.037130206823349,0.12821519374847412,-0.16092878580093384,-0.008214245550334454,-0.22535142302513123,-0.11614565551280975,0.0324319526553154,0.09208817780017853,-0.21226364374160767,-0.1316206157207489,-0.14361406862735748,-0.20379453897476196,0.053349725902080536,0.060177501291036606,-0.24745531380176544,0.15938568115234375,-0.039175745099782944,0.11205945909023285,-0.08553509414196014,0.046540766954422,-0.14414189755916595,-0.17643015086650848,0.08495012670755386,0.007216691505163908,0.009538751095533371,-0.09075793623924255,0.19752876460552216,0.029359476640820503,0.036256615072488785,-0.16336578130722046,-0.17509989440441132,-0.16145993769168854,-0.13263143599033356,0.09177344292402267,-0.07851759344339371,0.1487351655960083,0.15765629708766937,-0.04288205876946449,0.13886351883411407,0.011960769072175026,-0.12462705373764038,-0.08239547908306122,0.04889804497361183,-0.12098176032304764,0.09825653582811356},{-0.06586021929979324,-0.07817638665437698,0.1089225485920906,-0.20106644928455353,-0.1810145527124405,0.07475060969591141,-0.07421126961708069,0.04370570927858353,0.21693262457847595,0.15158870816230774,0.16942551732063293,-0.04684249684214592,0.2783312201499939,0.09203456342220306,0.03065907023847103,0.03606220707297325,0.18532617390155792,0.2526094317436218,0.011687814258038998,0.10231594741344452,0.1704138219356537,-0.14214016497135162,0.029441222548484802,0.17435818910598755,0.021719451993703842,-0.1124265119433403,0.14644993841648102,-0.1094161719083786,0.15467624366283417,0.11854341626167297,-0.1124788224697113,-0.007318060379475355,0.09129340946674347,-0.039655812084674835,0.12147682905197144,0.034420523792505264,-0.18959194421768188,-0.039468470960855484,0.2604016959667206,0.04614405706524849,0.15140998363494873,-0.18439894914627075,0.1122947558760643,-0.026839012280106544,-0.11278295516967773,0.1755264699459076,0.24951797723770142,-0.05055287480354309,-0.0037691527977585793,0.011512481607496738,0.05742023512721062,-0.04840812087059021,-0.12957316637039185,-0.049957990646362305,-0.054614823311567307,-0.14606314897537231,0.015126361511647701,0.1333724707365036,0.1776418834924698,0.13368816673755646,0.0076937139965593815,-0.22371579706668854,0.16278529167175293,-0.08095867931842804},{-0.02152922935783863,0.08174403011798859,0.07031865417957306,0.009729685261845589,0.09622710943222046,0.08370496332645416,0.15680302679538727,0.11125990003347397,-0.15391720831394196,-0.17917530238628387,-0.10355757921934128,0.15168632566928864,0.17820017039775848,0.03543491289019585,-0.23761014640331268,-0.12870481610298157,0.2274511158466339,-0.058828260749578476,-0.204077810049057,-0.19476522505283356,-0.193282812833786,0.22259485721588135,-0.3127058148384094,0.1216471791267395,0.04337437450885773,-0.14395366609096527,-0.1522318720817566,-0.010055623017251492,-0.28027835488319397,-0.08392259478569031,0.021757828071713448,0.04545559361577034,0.03145628795027733,0.1959901750087738,-0.003832824295386672,0.015056730248034,-0.04778211563825607,0.10060422867536545,0.041027359664440155,-0.23441918194293976,0.01877390220761299,-0.0946895182132721,-0.052788760513067245,-0.17242230474948883,0.06886961311101913,-0.016999097540974617,-0.09416849911212921,-0.052223239094018936,0.06498071551322937,-0.17451143264770508,0.07110647857189178,0.15210694074630737,0.19291076064109802,0.021834565326571465,0.06942765414714813,0.27531754970550537,0.0878143161535263,0.21994994580745697,-0.27912667393684387,-0.1990484595298767,0.26111143827438354,-0.09115440398454666,0.12382558733224869,0.05554762855172157},{0.1436365842819214,0.15381981432437897,-0.12249782681465149,0.1257762610912323,0.026462649926543236,0.12003752589225769,-0.015757689252495766,-0.22693338990211487,0.19535256922245026,-0.11254487186670303,0.17547112703323364,0.06336456537246704,-0.19138573110103607,-0.144506573677063,-0.13754601776599884,0.17372103035449982,-0.19401703774929047,0.04577986150979996,0.2979934513568878,0.13187067210674286,0.15519826114177704,-0.10046340525150299,0.1919078677892685,0.33767029643058777,-0.12571029365062714,0.10049059987068176,0.21368348598480225,0.2089606523513794,-0.10704408586025238,0.10860094428062439,-0.27709245681762695,-0.21378394961357117,-0.14537696540355682,-0.11329679191112518,0.015960287302732468,0.15195012092590332,0.12826476991176605,0.021436113864183426,-0.07855089008808136,-0.12129373848438263,-0.18698281049728394,0.08153825253248215,-0.022838221862912178,-0.11230328679084778,0.03205246478319168,-0.16444700956344604,0.12212637811899185,0.11482875794172287,0.10212990641593933,-0.047586649656295776,0.04712015390396118,0.0745864287018776,-0.009839333593845367,-0.09632346779108047,-0.1415981650352478,0.16164971888065338,0.09443526715040207,-0.1289801299571991,0.06833154708147049,-0.1610037386417389,-0.14987054467201233,-0.20747749507427216,0.04627719894051552,0.17800019681453705},{0.1777249574661255,0.12533040344715118,-0.047288812696933746,-0.15738485753536224,-0.00013686728198081255,-0.19957596063613892,0.051035210490226746,0.05697000026702881,0.07190419733524323,0.018004942685365677,0.10564304888248444,0.11999193578958511,0.07170841842889786,0.20794686675071716,0.10043924301862717,0.09264229983091354,-0.02870498038828373,-0.11728105694055557,0.2192685455083847,-0.06935305893421173,-0.12858422100543976,0.1537267118692398,-0.14942149817943573,-0.1837599128484726,0.1472398191690445,-0.2038954794406891,-0.04288238286972046,-0.2275034785270691,-0.23043303191661835,-0.1379794329404831,0.12227288633584976,-0.0005032385233789682,-0.21468007564544678,0.12269508838653564,-0.09434199333190918,0.12009332329034805,0.10584648698568344,-0.12204163521528244,0.004136530216783285,0.056759852916002274,0.0835612416267395,0.1499927043914795,0.10473572462797165,0.10636067390441895,0.1472652405500412,-0.03228984773159027,-0.06591814756393433,-0.21296873688697815,-0.07988029718399048,0.1664166897535324,0.021819783374667168,-0.13801398873329163,0.001541812322102487,-0.24936620891094208,0.16193686425685883,-0.02033318392932415,-0.1288028210401535,0.05647401884198189,-0.09397538006305695,0.13703002035617828,0.161803737282753,0.023103244602680206,0.044722702354192734,0.06594738364219666},{0.013461642898619175,-0.05974907800555229,0.005448852200061083,0.21924856305122375,-0.030777860432863235,0.1728668361902237,-0.02892507053911686,0.18539531528949738,-0.1788957118988037,0.16120705008506775,-0.197034552693367,-0.1970635950565338,0.011574809439480305,0.14628483355045319,0.024640657007694244,-0.060480061918497086,-0.00581453088670969,-0.06928983330726624,-0.21815650165081024,0.01810644567012787,0.14995108544826508,-0.043282702565193176,0.2189992368221283,-0.22194069623947144,0.026244737207889557,-0.16112998127937317,-0.1628236323595047,0.07344838976860046,-0.03199390694499016,0.09465733170509338,0.17680786550045013,0.14535623788833618,-0.03414430841803551,-0.10922928154468536,0.040820591151714325,0.0055300407111644745,-0.007791465613991022,0.2566737234592438,-0.18645355105400085,0.16658134758472443,0.18143977224826813,0.06292212754487991,-0.008833479136228561,0.007515629753470421,0.13782982528209686,0.14670568704605103,0.14517346024513245,-0.1878669708967209,-0.09174399822950363,-0.0988205149769783,0.1226910799741745,-0.10793711990118027,0.11554387956857681,-0.07456961274147034,0.09046649187803268,-0.033570513129234314,-0.20213496685028076,0.13410474359989166,-0.05351532995700836,0.097040094435215,0.005748924799263477,-0.14383606612682343,0.14468881487846375,0.17046155035495758},{-0.12015080451965332,0.008664588443934917,0.06444943696260452,-0.09759644418954849,-0.2514921724796295,-0.027323387563228607,-0.1256026178598404,0.012336524203419685,-0.042608220130205154,-0.060101982206106186,-0.19535861909389496,-0.12516379356384277,0.14817818999290466,0.10504408180713654,-0.16628709435462952,-0.13726651668548584,-0.014601637609302998,0.08251550048589706,-0.18966084718704224,0.2030576765537262,0.2651931643486023,0.1501931995153427,-0.0006276372005231678,-0.05860743299126625,-0.00790936965495348,0.08266328275203705,0.007731689140200615,0.21901626884937286,0.20546074211597443,-0.010340182110667229,0.05009413883090019,0.15154403448104858,-0.21050898730754852,0.18299643695354462,0.13141365349292755,-0.1155073419213295,0.14060597121715546,0.08117008209228516,0.2317132204771042,0.1114829033613205,-0.09049106389284134,-0.0712641030550003,-0.02126084454357624,0.03246322646737099,0.0038316661957651377,-0.02281368337571621,0.14723508059978485,-0.12432333827018738,0.09488043189048767,-0.11304057389497757,-0.04989742860198021,0.21412742137908936,-0.20814484357833862,0.17380917072296143,-0.1479720175266266,0.1981857568025589,0.059635791927576065,0.0437314510345459,0.04201693832874298,0.11398417502641678,0.0003466373891569674,-0.10979606211185455,0.11915071308612823,0.21289433538913727},{-0.11886174231767654,0.1478380709886551,-0.02895495295524597,0.02814924158155918,0.16350817680358887,0.027794871479272842,0.07475962489843369,-0.11036116629838943,0.18003453314304352,0.16476380825042725,0.08093854784965515,0.09888052195310593,-0.12995485961437225,0.0829353854060173,-0.10246309638023376,-0.1091713160276413,-0.22637401521205902,-0.23573501408100128,0.18412703275680542,-0.14879751205444336,-0.024263733997941017,-0.026709452271461487,-0.02591683715581894,0.1330629587173462,0.032443732023239136,0.15767802298069,0.07407064735889435,-0.054217178374528885,0.11256701499223709,0.15017978847026825,-0.010922915302217007,-0.22089309990406036,0.04455411061644554,-0.05286894366145134,-0.056408368051052094,0.0850762352347374,-0.14213205873966217,-0.27200159430503845,0.1542389988899231,-0.003973754588514566,-0.16297778487205505,-0.07930640131235123,-0.11975385993719101,-0.20282386243343353,-0.12618130445480347,0.19142930209636688,-0.05439941957592964,0.04867233708500862,0.060742057859897614,0.00030059408163651824,-0.00216286419890821,0.10487747192382812,0.0686454325914383,0.06711644679307938,-0.11008621752262115,0.1268046796321869,0.01045518834143877,-0.19282904267311096,-0.18317842483520508,0.010014268569648266,0.19534920156002045,0.09077277779579163,0.09464789181947708,-0.13422495126724243},{0.17074055969715118,0.14374540746212006,0.04850572347640991,-0.0737423449754715,0.057966046035289764,-0.005491052288562059,0.016251996159553528,-0.08724819123744965,-0.21605095267295837,-0.04972270503640175,0.11086947470903397,0.023677987977862358,0.0045605371706187725,0.0020245187915861607,0.16367372870445251,-0.07107850164175034,0.12181761115789413,0.16230593621730804,-0.20192810893058777,0.17145295441150665,0.04697629064321518,-0.0187351293861866,0.06669356673955917,0.2841550409793854,-0.1144900768995285,0.20223119854927063,0.057434603571891785,-0.0760389044880867,0.056893788278102875,0.03772611543536186,-0.0980878695845604,0.0984921008348465,0.06567136198282242,-0.08208104223012924,-0.1489495486021042,0.038580626249313354,0.022916492074728012,-0.18681824207305908,-0.11228515207767487,-0.09249944239854813,-0.0020047668367624283,0.12360599637031555,-0.13081668317317963,-0.15784576535224915,0.07256662100553513,0.20752862095832825,0.06469101458787918,0.23567909002304077,0.08567289263010025,0.18291230499744415,0.10650108754634857,-0.0446029007434845,-0.2127750664949417,0.13883616030216217,0.17971506714820862,0.2329457551240921,0.1327105462551117,-0.0742138996720314,-0.011665632016956806,-0.19227199256420135,-0.23118995130062103,-0.1159992665052414,0.04606740176677704,-0.1349218785762787},{0.06604982167482376,0.19755229353904724,-0.16223709285259247,-0.13732706010341644,-0.15675164759159088,-0.04853888228535652,-0.03544798493385315,0.04625415802001953,-0.00970721710473299,0.04178628697991371,-0.024366505444049835,0.15291540324687958,-0.1493947058916092,0.09717964380979538,-0.198134645819664,0.16695649921894073,0.028012368828058243,0.12871494889259338,0.14357289671897888,0.05494566634297371,-0.16346149146556854,0.1419524997472763,-0.1319330632686615,-0.037613797932863235,-0.03868691995739937,0.3095181882381439,-0.1703542321920395,-0.11841826140880585,0.07056122273206711,0.1069803386926651,-0.04629373177886009,0.027928637340664864,0.05652529373764992,0.14089003205299377,-0.05108335241675377,0.1430680751800537,0.20459601283073425,0.07737284898757935,0.05201488733291626,-0.16080152988433838,0.2904793322086334,-0.108528733253479,0.11523502320051193,0.09078855067491531,-0.10705935209989548,0.11798974871635437,-0.1818343698978424,-0.08707942068576813,-0.22740711271762848,-0.05335525423288345,0.06785718351602554,0.2453627735376358,-0.1234106793999672,0.130873903632164,-0.08391878008842468,-0.1789533793926239,0.2111213505268097,-0.11808740347623825,-0.21258340775966644,0.03093618154525757,0.10692381858825684,0.1358649730682373,-0.21524126827716827,0.23641741275787354},{0.10043983906507492,0.050043877214193344,-0.11827674508094788,-0.09284369647502899,-0.018917113542556763,-0.09004831314086914,0.0499875433743,0.10597601532936096,0.16421042382717133,-0.09115825593471527,-0.17443226277828217,-0.07912132889032364,-0.03465644642710686,-0.11541931331157684,-0.09883854538202286,-0.0627959817647934,0.1743544191122055,-0.10815438628196716,0.12430278211832047,-0.08469603955745697,0.11682087182998657,0.2114935964345932,0.04061980918049812,0.04564575478434563,-0.0382239893078804,-0.07573563605546951,-0.08430793881416321,-0.06698121130466461,-0.08695587515830994,-0.17731481790542603,0.1682404726743698,-0.07008465379476547,-0.13438022136688232,0.006319329142570496,-0.06888794153928757,0.20166367292404175,0.045912664383649826,0.06132940575480461,0.16513213515281677,0.030132798478007317,0.1897386610507965,0.12392878532409668,-0.022419119253754616,0.05660538002848625,0.15954190492630005,-0.14710092544555664,0.16555486619472504,-0.16373790800571442,0.11927274614572525,0.03463657945394516,0.027596179395914078,-0.10071080178022385,0.16068264842033386,0.01896398328244686,-0.17494405806064606,0.06990653276443481,-0.03708963468670845,-0.15972216427326202,0.06372126936912537,-0.18196041882038116,0.1477857232093811,0.12898492813110352,0.021347276866436005,-0.20259185135364532},{0.17170703411102295,-0.10918507725000381,0.11341644078493118,-0.16540788114070892,0.015193258412182331,0.19725096225738525,-0.1660061925649643,-0.1481168419122696,-0.1284952312707901,0.033363234251737595,0.08972395211458206,-0.1456695795059204,-0.1702558845281601,-0.26038938760757446,0.16327743232250214,0.023487495258450508,0.17075225710868835,-0.15787717700004578,-0.055174898356199265,-0.146959587931633,-0.009023009799420834,-0.08239302039146423,-0.07649650424718857,0.04274236783385277,-0.059641145169734955,-0.12630479037761688,0.15457622706890106,0.2077343910932541,-0.0341893807053566,0.07980362325906754,-0.16780993342399597,0.16161851584911346,0.052055634558200836,0.15685956180095673,-0.1819545328617096,0.1328972727060318,-0.19349898397922516,-0.08364466577768326,-0.18249103426933289,-0.15622945129871368,0.06851163506507874,0.19422760605812073,0.08894383162260056,-0.15432888269424438,0.09735044091939926,-0.08348642289638519,-0.1067531555891037,-0.07970667630434036,-0.09993992745876312,0.08006821572780609,0.1391192376613617,0.0013112721499055624,-0.04630300775170326,0.12001867592334747,-0.04125092178583145,0.26036137342453003,-0.1780310869216919,-0.11952607333660126,-0.15960559248924255,-0.21010561287403107,-0.15162014961242676,0.09378045797348022,0.0414755642414093,0.14413760602474213},{-0.0870078057050705,0.012283421121537685,0.06677395105361938,-0.10518743842840195,0.11896266788244247,0.04459625482559204,-0.07240178436040878,0.199168398976326,0.1647823452949524,0.16715140640735626,-0.049378834664821625,-0.20543283224105835,0.12463881820440292,-0.011327117681503296,-0.19169552624225616,0.176649808883667,0.13860639929771423,-0.07630493491888046,0.056652288883924484,-0.17142587900161743,0.10295061767101288,0.15332017838954926,-0.14789724349975586,-0.07077458500862122,-0.0464656837284565,-0.07658404111862183,0.07480282336473465,-0.1180579662322998,0.24326598644256592,-0.21616065502166748,-0.09194803982973099,0.18137365579605103,0.12191185355186462,0.04126889631152153,-0.11188763380050659,0.09144134819507599,-0.14351530373096466,0.10083404183387756,-0.06154757738113403,0.17808222770690918,-0.05118921026587486,-0.12999089062213898,0.122878298163414,-0.1019066572189331,0.04353274032473564,-0.10406298190355301,-0.10199838876724243,-0.0232422836124897,0.17164736986160278,0.15247926115989685,-0.05598384886980057,0.0844762921333313,-0.06478528678417206,-0.13726820051670074,0.06788913905620575,-0.16357553005218506,-0.1566179394721985,-0.05250432342290878,-0.19841031730175018,0.20177215337753296,0.05397326126694679,0.12138652056455612,0.1272408366203308,-0.20707297325134277},{0.09835607558488846,-0.0335635244846344,0.11621933430433273,-0.014274153858423233,0.19634966552257538,-0.0820624828338623,-0.07527733594179153,-0.06926995515823364,-0.10829997062683105,-0.18093940615653992,-0.078526571393013,-0.0272064171731472,-0.05942055955529213,-0.19807688891887665,-0.15933865308761597,0.07274394482374191,-0.05277857929468155,0.1420026272535324,-0.1920345425605774,0.16938449442386627,0.018917985260486603,-0.20814290642738342,0.11344989389181137,0.03515593707561493,0.11382246017456055,0.04868687689304352,0.11469430476427078,0.26753732562065125,-0.17717817425727844,-0.15879492461681366,-0.08965061604976654,0.13157416880130768,-0.06491157412528992,0.2381645292043686,-0.1283321976661682,-0.15156565606594086,-0.08604232966899872,0.18625041842460632,-0.08007431030273438,-0.05827873945236206,0.08267490565776825,0.0007538820500485599,-0.19251172244548798,-0.15673214197158813,-0.1006365641951561,-0.1614435315132141,0.03195611387491226,-0.08799045532941818,0.04638080298900604,-0.061723895370960236,-0.10666614770889282,-0.2228371798992157,0.02989881858229637,-0.08180021494626999,0.08204738050699234,-0.08223435282707214,-0.13864074647426605,-0.043211862444877625,0.1446162611246109,0.10940784215927124,0.1404433250427246,-0.1894873082637787,0.07987013459205627,-0.01667540892958641},{-0.1654423475265503,0.0978318452835083,0.1897358000278473,-0.13762050867080688,-0.01815825328230858,-0.187542125582695,-0.13000933825969696,0.07370913028717041,-0.042864520102739334,-0.1458461582660675,0.11031314730644226,0.1544029712677002,0.07188770174980164,0.1526547521352768,0.0751238763332367,0.10190914571285248,0.20955245196819305,-0.17581768333911896,-0.1835142821073532,-0.06419425457715988,0.20375537872314453,-0.21896643936634064,0.0888281762599945,0.0391240157186985,0.022593561559915543,0.06745076179504395,0.010054768063127995,-0.0806095078587532,-0.25384679436683655,-0.2008199840784073,0.024149756878614426,-0.09774351865053177,0.1514779031276703,-0.022336633875966072,0.10792871564626694,0.18727457523345947,-0.09553007036447525,0.10558856278657913,-0.07698311656713486,0.043508268892765045,0.03612315654754639,0.0723901242017746,-0.16527986526489258,0.11127419024705887,0.13855455815792084,-0.18100956082344055,0.14467909932136536,-0.13605856895446777,0.012883578427135944,-0.06493467092514038,0.11335451900959015,0.2073667198419571,0.10916917026042938,-0.06924587488174438,0.06677509099245071,-0.171653613448143,-0.0608542300760746,0.12589403986930847,-0.22463130950927734,-0.1532650738954544,-0.10488158464431763,0.12185994535684586,-0.17650850117206573,0.14606031775474548},{-0.06482964754104614,0.040970660746097565,0.10838817805051804,0.24789592623710632,-0.08322805911302567,0.13904616236686707,-0.05299658328294754,0.099391408264637,-0.0870961919426918,-0.08258165419101715,0.0936378687620163,-0.09212595969438553,0.11353624612092972,-0.1104862168431282,-0.1734478771686554,-0.14321482181549072,0.16658303141593933,-0.11873549968004227,-0.054761260747909546,0.01716889999806881,-0.14451126754283905,0.016533304005861282,0.12155715376138687,-0.05832887068390846,-0.17534728348255157,0.04119099676609039,0.18585367500782013,0.15345335006713867,-0.12964119017124176,-0.1908140927553177,-0.13866308331489563,-0.21609197556972504,0.17486266791820526,0.008221853524446487,0.1539095640182495,-0.3015972375869751,0.07026063650846481,0.06097642332315445,0.21082937717437744,-0.11490313708782196,0.007376425433903933,-0.2077171355485916,-0.16749270260334015,-0.11115172505378723,-0.05270327627658844,0.0048246849328279495,-0.12700223922729492,-0.06629208475351334,0.021201761439442635,0.019763492047786713,0.12554636597633362,0.14511238038539886,-0.014755339361727238,-0.19700582325458527,-0.2597155272960663,-0.08152313530445099,0.15259727835655212,-0.15589727461338043,0.19288691878318787,0.20729345083236694,0.21176227927207947,-0.03461914137005806,0.12404517829418182,-0.18741048872470856},{-0.09745392948389053,0.1348782181739807,-0.03331528976559639,0.007676734589040279,-0.023843731731176376,0.15055394172668457,0.03942184895277023,-0.16698236763477325,0.15224960446357727,-0.25814202427864075,-0.21608299016952515,-0.11619043350219727,0.020847899839282036,-0.044228971004486084,0.016344664618372917,-0.03558950871229172,0.13117708265781403,-0.12779484689235687,0.15573732554912567,0.09906021505594254,0.015762871131300926,0.1881207525730133,0.12782247364521027,-0.13773727416992188,0.17327386140823364,0.28190967440605164,-0.034060072153806686,0.030120588839054108,-0.27688685059547424,-0.10846435278654099,-0.0876723974943161,0.01860194094479084,-0.1939724236726761,-0.10736102610826492,-0.13193722069263458,-0.09684380143880844,-0.12373204529285431,-0.06960481405258179,-0.030012715607881546,-0.14940036833286285,0.09272929280996323,0.0965152159333229,0.05455274507403374,0.05070161819458008,0.17058950662612915,-0.13360656797885895,0.14217308163642883,-0.013024996034801006,0.06946692615747452,-0.043452538549900055,0.08098645508289337,-0.07845352590084076,-0.04831349477171898,-0.07565218210220337,0.132538303732872,-0.11663847416639328,-0.13315528631210327,-0.09874539822340012,-0.015770340338349342,-0.07994946092367172,-0.15618573129177094,-0.007301450707018375,-0.0938296988606453,0.12861327826976776},{0.12702576816082,-0.16033463180065155,0.1712222844362259,-0.3049401640892029,-0.1340244561433792,0.04805614799261093,-0.21102984249591827,0.13854704797267914,-0.19111649692058563,-0.16059421002864838,0.009147543460130692,-0.02274199016392231,0.20626422762870789,0.0585506297647953,0.17686805129051208,0.001824562787078321,-0.04567616432905197,0.20771171152591705,0.076504647731781,-0.03292008489370346,0.06230073422193527,0.02605673484504223,0.08689914643764496,0.05087096616625786,0.014249813742935658,-0.11311887949705124,0.13066083192825317,-0.06340612471103668,0.05893658101558685,0.05097394809126854,-0.0818566307425499,0.11978290975093842,0.057780053466558456,-0.15670007467269897,0.22559137642383575,-0.08157095313072205,-0.026936793699860573,0.09077169746160507,-0.13964226841926575,0.11090017110109329,-0.0933186486363411,0.09407222270965576,-0.12830619513988495,0.07208607345819473,0.06737060844898224,0.029440008103847504,0.07249518483877182,-0.17015716433525085,-0.05337829515337944,0.1165507584810257,-0.029289230704307556,-0.042542580515146255,0.12077299505472183,-0.06781234592199326,0.23544462025165558,-0.13801348209381104,-0.14866283535957336,-0.0905710980296135,0.24971738457679749,-0.2389991730451584,0.05325085297226906,-0.04101075977087021,-0.024541987106204033,0.040842361748218536},{-0.029462939128279686,-0.20567308366298676,0.14457158744335175,-0.06523563712835312,0.1906728446483612,0.16006781160831451,-0.010250515304505825,-0.034974563866853714,-0.10773005336523056,-0.0483689121901989,-0.04576951265335083,0.03908434510231018,-0.1921779364347458,0.16899961233139038,0.020053159445524216,0.06971372663974762,0.03645133227109909,0.04610598459839821,0.078658826649189,0.05485948920249939,0.09067452698945999,0.1828945279121399,0.11894546449184418,0.15726932883262634,-0.03941375017166138,0.129815012216568,0.018276721239089966,-0.17156897485256195,0.12488971650600433,0.03627985343337059,0.1491326093673706,-0.20896072685718536,0.19077865779399872,-0.21524830162525177,-0.08699961751699448,0.1343688815832138,-0.26142415404319763,-0.18556249141693115,0.029872575774788857,0.011039884760975838,-0.036890722811222076,-0.23468740284442902,0.11759069561958313,0.1854494959115982,0.18800583481788635,0.07730267941951752,0.10068747401237488,-0.04786631464958191,-0.16788683831691742,-0.07507578283548355,0.10164409130811691,0.003594527253881097,-0.17646488547325134,-0.09658151119947433,-0.1468012034893036,-0.07765327394008636,-0.13926109671592712,0.030161913484334946,-0.057499535381793976,0.022400405257940292,0.2633165419101715,-0.07856803387403488,0.21473205089569092,-0.1638641208410263},{0.10465806722640991,0.22698912024497986,-0.07480742037296295,0.13396701216697693,0.14749671518802643,-0.035066500306129456,-0.10701460391283035,-0.07628407329320908,-0.19267317652702332,-0.018384505063295364,-0.17494472861289978,-0.1692713052034378,0.09798304736614227,0.23114487528800964,-0.06009794771671295,0.14934779703617096,-0.18199294805526733,-0.24960185587406158,-0.19246414303779602,0.03550465777516365,-0.16180095076560974,0.17488063871860504,-0.030513416975736618,-0.09834180027246475,0.055146750062704086,0.11552486568689346,0.13581503927707672,-0.10237690061330795,0.0852905660867691,-0.06720387190580368,-0.17224489152431488,0.1549273282289505,-0.03315120190382004,-0.060341671109199524,0.009202498011291027,0.1949869692325592,-0.06352266669273376,-0.13467907905578613,-0.20567648112773895,0.18558241426944733,-0.10492458194494247,0.2052193284034729,0.10815108567476273,0.12288662791252136,-0.010500824078917503,0.09384339302778244,-0.09511936455965042,-0.1634940505027771,0.12372215837240219,-0.14081989228725433,-0.1812102198600769,0.0756848007440567,-0.014560088515281677,-0.17687831819057465,-0.044754013419151306,-0.02356209047138691,-0.2398384064435959,-0.02465285174548626,0.075548455119133,0.12017244100570679,0.007388648111373186,0.034131262451410294,-0.15929576754570007,-0.20333339273929596},{0.1618855595588684,0.07187333703041077,-0.10872123390436172,0.004211339633911848,0.2665376663208008,-0.05079413205385208,-0.04636072367429733,-0.10020948946475983,-0.03230516240000725,0.11286009103059769,0.1946762055158615,-0.0006393366493284702,-0.17479416728019714,0.13620564341545105,-0.17102622985839844,-0.14350971579551697,0.14091451466083527,-0.22280322015285492,0.04681238532066345,-0.02311939187347889,-0.01574309542775154,0.12548130750656128,0.1324138641357422,0.19108973443508148,-0.052419163286685944,-0.010830714367330074,0.14345452189445496,-0.11594180762767792,-0.021540040150284767,0.1279311180114746,-0.03621794655919075,-0.06063332408666611,0.065054751932621,0.22528140246868134,0.1273384541273117,-0.17109224200248718,0.1435663402080536,-0.10091961920261383,0.19967979192733765,0.08949790149927139,-0.06897616386413574,0.1685715913772583,-0.08378525078296661,-0.25068458914756775,-0.03161563724279404,0.21443498134613037,0.02063704840838909,-0.19431620836257935,-0.1442517340183258,0.048891544342041016,0.12314994633197784,-0.04465704411268234,0.07422537356615067,-0.023036975413560867,0.0588064007461071,0.09283308684825897,-0.10875401645898819,-0.14073942601680756,-0.02062305435538292,-0.013143353164196014,-0.0935557633638382,-0.21048671007156372,0.1770971119403839,0.03925076127052307},{-0.15910743176937103,0.12320264428853989,-0.07030728459358215,0.10305292904376984,-0.09889733046293259,0.09939263015985489,-0.017453353852033615,0.17124031484127045,-0.18632003664970398,-0.06843291223049164,-0.025045009329915047,-0.02975565940141678,-0.058056265115737915,0.023039601743221283,-0.23857925832271576,-0.06422498822212219,0.13957208395004272,-0.09960851818323135,-0.07171077281236649,-0.15331102907657623,0.08250030875205994,0.09031706303358078,-0.01751239039003849,0.17039145529270172,-0.04861826449632645,0.11397668719291687,-0.13853342831134796,-0.13291344046592712,-0.07583992183208466,-0.1791793704032898,-0.026088876649737358,-0.045540016144514084,-0.016109058633446693,0.08535746484994888,-0.03177376464009285,0.021686840802431107,0.1284928321838379,-0.034101732075214386,-0.17741113901138306,-0.24225379526615143,0.046918440610170364,0.09410460293292999,-0.01973845809698105,-0.24994295835494995,-0.0834774300456047,-0.14468400180339813,-0.160146102309227,0.11154408752918243,0.06332400441169739,-0.1400739848613739,0.08122599869966507,-0.20795577764511108,-0.049252964556217194,0.17290142178535461,-0.029649097472429276,0.08818203955888748,0.11531077325344086,0.12869827449321747,0.1878483146429062,0.2000703364610672,0.23055940866470337,-0.12332890182733536,-0.0607907809317112,-0.11023158580064774},{0.044713761657476425,0.012623006477952003,-0.09026669710874557,0.09936080127954483,-0.22211043536663055,-0.03109932132065296,-0.04459773376584053,0.12526309490203857,0.2421751618385315,0.09960398077964783,0.18394050002098083,-0.1586041897535324,-0.022057637572288513,0.18236416578292847,0.048343807458877563,-0.12026717513799667,0.028759531676769257,0.2194531410932541,-0.14735527336597443,-0.19930943846702576,-0.06337474286556244,-0.19613242149353027,-0.05061086267232895,0.07778440415859222,-0.1564512550830841,0.10812713950872421,0.17245393991470337,-0.04474853724241257,-0.20041623711585999,0.18308569490909576,0.014078225009143353,-0.08257721364498138,0.04224635660648346,0.06057948246598244,-0.08390425890684128,0.11324180662631989,0.16998489201068878,0.06656299531459808,0.1571422815322876,0.13761571049690247,0.029347248375415802,0.0594172477722168,-0.16853423416614532,0.12036404758691788,0.09776613116264343,-0.0798725038766861,0.19287817180156708,0.08069182932376862,0.12993672490119934,0.08391997963190079,-0.1514589786529541,0.006631003227084875,0.20114418864250183,-0.04478299617767334,0.09679514169692993,-0.0019151619635522366,0.18569494783878326,-0.019851768389344215,-0.12784618139266968,-0.10474325716495514,0.026806343346834183,0.08090388029813766,-0.03619885444641113,-0.06898663938045502},{-0.03435555845499039,-0.035352081060409546,0.1151069775223732,-0.03707017004489899,-0.098233662545681,0.0009453134262003005,0.05857246369123459,-0.024256499484181404,0.05684162303805351,0.06014857068657875,-0.11205561459064484,-0.04276582971215248,-0.09732017666101456,-0.010262797586619854,0.025416523218154907,0.1609957367181778,0.006664181128144264,0.1198282390832901,-0.028507603332400322,-0.21316611766815186,-0.10559079796075821,-0.1189090758562088,0.13837790489196777,0.04323897138237953,0.04973503202199936,-0.0426313616335392,-0.09439200162887573,0.13739435374736786,-0.11319142580032349,-0.07704916596412659,-0.15634317696094513,0.09856432676315308,-0.051476091146469116,0.02271723560988903,0.0030728699639439583,-0.05743186175823212,0.11791125684976578,0.1434883177280426,-0.015064639039337635,0.019925475120544434,0.08518257737159729,0.08286619186401367,0.133867546916008,-0.22656193375587463,-0.2138330340385437,-0.12552987039089203,-0.037968527525663376,0.11047383397817612,-0.07462844997644424,-0.19102561473846436,-0.1804509162902832,0.13078869879245758,-0.00992237962782383,-0.06095122545957565,-0.1628980040550232,-0.14346736669540405,-0.08085708320140839,-0.15138019621372223,-0.054166004061698914,0.023226460441946983,0.004946448374539614,0.06396562606096268,0.16814634203910828,-0.07589048892259598},{0.060754578560590744,-0.1626228392124176,-0.16925279796123505,0.10619360953569412,-0.026011686772108078,0.07539442181587219,0.011771099641919136,0.04738564416766167,0.11486325412988663,0.20118962228298187,0.01572059653699398,-0.04121903330087662,0.027887381613254547,-0.08395840227603912,0.03398643806576729,0.1296575516462326,-0.053640689700841904,0.03990712761878967,-0.1464659720659256,0.19510962069034576,-0.025974972173571587,-0.16951891779899597,-0.15510305762290955,0.07401810586452484,0.038458723574876785,-0.12379105389118195,0.1555047184228897,-0.22614800930023193,0.03273459151387215,-0.05861162766814232,0.03973601758480072,0.05813642963767052,-0.1192082092165947,-0.022848987951874733,-0.15158918499946594,-0.11626681685447693,-0.15541785955429077,-0.02754043973982334,0.04408497363328934,-0.11198877543210983,0.18677909672260284,0.06261132657527924,0.01514497585594654,-0.14525486528873444,0.14291374385356903,0.019736628979444504,0.04946349561214447,0.04138945788145065,-0.0822705551981926,0.008862991817295551,0.05901181325316429,-0.09308188408613205,0.027223795652389526,0.08361541479825974,0.023912332952022552,0.0817977637052536,0.09134242683649063,-0.022823158651590347,-0.16210192441940308,0.061552148312330246,0.11801841109991074,0.028293021023273468,0.024329058825969696,0.07839851826429367},{0.15701909363269806,0.19087262451648712,0.25619927048683167,-0.01616172306239605,0.03266765922307968,0.06856736540794373,0.12027797102928162,0.012855660170316696,0.0937078595161438,-0.08790905773639679,-0.10242266207933426,-0.18726672232151031,-0.15377415716648102,0.041159484535455704,-0.11218346655368805,0.09680701792240143,0.05088543891906738,0.026638448238372803,-0.04627113789319992,0.14659398794174194,-0.07295256108045578,0.055576812475919724,-0.03375152871012688,0.18274617195129395,-0.014255507849156857,0.09062936902046204,-0.06300897151231766,0.18820330500602722,0.0985107496380806,-0.020447008311748505,0.14798516035079956,-0.1533234417438507,0.037478044629096985,0.031262703239917755,0.10431095212697983,0.0016364424955099821,0.08354438096284866,-0.16138102114200592,-0.018233168870210648,0.08271829783916473,0.10120441764593124,-0.006286055780947208,0.02868361584842205,-0.09745578467845917,0.12532716989517212,-0.17025291919708252,-0.008659777231514454,-0.12058085203170776,-0.1473720669746399,0.022485598921775818,0.11429641395807266,0.1973220705986023,-0.06011946499347687,0.10483509302139282,0.1206694170832634,0.04703674837946892,-0.10103362798690796,0.15949521958827972,0.034646060317754745,0.08279319852590561,0.12185770273208618,-0.09515857696533203,0.10227414965629578,-0.0580722875893116},{0.20947402715682983,0.21774493157863617,0.04830556735396385,-0.19165952503681183,-0.19768720865249634,0.09698253870010376,0.004412443842738867,-0.17120617628097534,0.17533864080905914,0.010543999262154102,0.026911236345767975,0.1930100917816162,-0.04911883920431137,0.05432451143860817,-0.18809209764003754,0.05871795117855072,0.00852346234023571,-0.17255836725234985,-0.2440900355577469,0.19088424742221832,0.19964759051799774,0.02368936501443386,-0.13027945160865784,-0.11738685518503189,-0.10090276598930359,0.19651442766189575,0.15301130712032318,0.07227514684200287,-0.19669294357299805,-0.07511905580759048,-0.009810848161578178,0.16670209169387817,0.10864207148551941,-0.21775665879249573,-0.18422219157218933,-0.12373095750808716,-0.13182589411735535,0.021600494161248207,-0.2245989292860031,-0.15548484027385712,0.14981591701507568,0.0165044367313385,0.020944662392139435,-0.20554588735103607,-0.11367150396108627,0.11495240032672882,-0.12773984670639038,0.17014336585998535,0.1454465538263321,0.14397087693214417,-0.12967900931835175,-0.02347482368350029,0.13639207184314728,0.19303977489471436,0.23442085087299347,0.21170252561569214,0.014490733854472637,0.10771429538726807,0.18884415924549103,0.19250990450382233,0.04500638321042061,-0.10742707550525665,0.20199035108089447,-0.11525395512580872},{0.1538616567850113,0.014771818183362484,-0.024978771805763245,0.0898292288184166,-0.14950940012931824,0.15613602101802826,0.112909235060215,0.16845418512821198,-0.13899122178554535,-0.15011829137802124,-0.20260655879974365,0.06904984265565872,0.16641145944595337,0.021908631548285484,-0.04654170200228691,-0.06249060109257698,-0.2020423263311386,-0.03910060226917267,0.009315218776464462,0.13697919249534607,0.0716438889503479,0.006565190386027098,0.21097621321678162,0.027958551421761513,-0.135349839925766,-0.026210889220237732,-0.07818973064422607,0.10965190827846527,0.1298268437385559,0.07977830618619919,-0.025685274973511696,-0.06425490975379944,-0.05257559195160866,0.006405734457075596,0.1018904373049736,-0.016837090253829956,-0.00545498775318265,0.028181781992316246,0.08922318369150162,0.12100311368703842,-0.047617822885513306,-0.14213472604751587,0.004717635456472635,0.09371623396873474,0.2086166888475418,0.03402094915509224,-0.06773779541254044,0.1493641585111618,-0.08985342085361481,-0.03704153373837471,0.14595039188861847,0.1446724534034729,-0.006206110119819641,0.18577563762664795,0.0808689072728157,-0.15629439055919647,-0.10114828497171402,-0.15677803754806519,-0.08375127613544464,-0.06548953801393509,-0.22343184053897858,-0.16926507651805878,0.038634929805994034,0.05877844616770744},{0.07170172035694122,-0.038096651434898376,0.06531669199466705,-0.09461768716573715,-0.10417971014976501,0.003926011733710766,0.024625904858112335,-0.1659860461950302,-0.07137224823236465,0.10184423625469208,0.0831935852766037,-0.050637226551771164,0.02244451455771923,-0.06526719778776169,0.03263239189982414,0.038368623703718185,-0.054700110107660294,0.14947177469730377,0.08441433310508728,-0.07316568493843079,-0.07854490727186203,-0.17918765544891357,-0.052071619778871536,0.10043538361787796,0.224853977560997,0.03902668505907059,-0.017186276614665985,-0.027109401300549507,-0.10608736425638199,0.00418867589905858,0.03502059727907181,-0.20359967648983002,0.047048792243003845,-0.191417396068573,-0.05215027183294296,0.12265976518392563,0.06915219873189926,0.10704619437456131,0.06886322796344757,-0.05484103038907051,-0.08099763840436935,-0.017972907051444054,-0.16058771312236786,0.13855844736099243,0.059752386063337326,-0.0921945571899414,-0.07849451154470444,-0.16435106098651886,-0.1897706389427185,-0.1665463149547577,-0.015580044128000736,0.02272677980363369,-0.04377903416752815,-0.0888511911034584,0.12032797187566757,0.03585894778370857,-0.03614844009280205,-0.036816615611314774,-0.22613735496997833,0.05502435564994812,0.03874668478965759,0.24646148085594177,-0.2337498962879181,-0.15248264372348785},{-0.13536709547042847,0.09810518473386765,0.13133454322814941,-0.15385094285011292,-0.06339561939239502,-0.07517434656620026,0.03378145396709442,0.07072708010673523,0.19582708179950714,0.06901819258928299,-0.1421787291765213,0.013444878160953522,0.07827635854482651,-0.09234143793582916,0.11166387796401978,-0.20176133513450623,-0.0710652694106102,-0.1272660195827484,-0.2373833954334259,-0.15217038989067078,0.04489647597074509,0.05157532915472984,0.045639485120773315,-0.22928504645824432,0.07051531225442886,0.12733124196529388,0.18438920378684998,-0.08692000061273575,-0.22996608912944794,0.10049624741077423,0.012831906788051128,0.03591829165816307,0.003114228369668126,-0.15017008781433105,-0.013241997919976711,-0.039470124989748,0.18811151385307312,0.1723194122314453,0.038472503423690796,-0.12293095141649246,0.1350134015083313,0.13873030245304108,-0.03537530079483986,-0.14149343967437744,0.19258086383342743,0.19046291708946228,-0.08762197196483612,-0.0699300542473793,-0.17026862502098083,-0.08221683651208878,-0.08938678354024887,-0.09110943973064423,-0.09066557139158249,0.055443089455366135,-0.11491034924983978,0.12419051676988602,0.1593320220708847,0.010641044937074184,0.0487917885184288,0.149305060505867,-0.13090525567531586,-0.11784367263317108,-0.16708248853683472,0.1515154093503952},{-0.02541937679052353,-0.22295750677585602,-0.00946404505521059,-0.12627743184566498,-0.05750038102269173,-0.15082359313964844,-0.15247783064842224,0.07096745073795319,0.12745489180088043,0.022703085094690323,0.04047449678182602,0.04569350183010101,-0.039532534778118134,0.11999642848968506,0.12221686542034149,0.023819109424948692,0.1568630039691925,-0.0422874391078949,0.047074392437934875,-0.20707866549491882,-0.06651793420314789,-0.13475409150123596,0.17119576036930084,0.1060660257935524,-0.05051782727241516,0.009085377678275108,0.027689317241311073,0.10979151725769043,-0.005331581458449364,-0.07559705525636673,-0.00581997400149703,0.17276741564273834,-0.09654847532510757,0.10182138532400131,-0.04866967722773552,-0.07413052767515182,0.05157520994544029,-0.12011442333459854,0.034580957144498825,0.010076522827148438,0.18761733174324036,-0.0017966025043278933,0.02931913360953331,0.028572363778948784,-0.15019108355045319,-0.09399379044771194,0.07844751328229904,-0.04372874274849892,-0.05832564830780029,0.15421734750270844,0.13223500549793243,-0.03731990233063698,0.05521979555487633,-0.11424106359481812,0.029985005035996437,-0.006858961656689644,0.001119072549045086,0.06324024498462677,0.015710972249507904,-0.017028864473104477,-0.15000243484973907,0.15675684809684753,-0.0022763635497540236,-0.010910902172327042},{-0.09111906588077545,-0.00847425777465105,-0.15664611756801605,0.019064556807279587,0.1728159487247467,-0.016564728692173958,0.06411875784397125,0.03079133667051792,-0.08395817130804062,-0.05145573616027832,-0.1130295917391777,0.19527868926525116,0.04021915793418884,0.079205721616745,0.06119368225336075,-0.07748238742351532,-0.11410117149353027,0.10383289307355881,0.010813859291374683,-0.016787588596343994,-0.03417430818080902,-0.14780987799167633,0.17940233647823334,-0.21000228822231293,-0.031037628650665283,-0.01929388754069805,0.06330899149179459,0.06851231306791306,0.12969031929969788,-0.07764676958322525,0.016649631783366203,0.13882659375667572,-0.10118969529867172,0.06132723018527031,-0.18616467714309692,-0.03622004762291908,0.05177571624517441,0.06383613497018814,-0.18842069804668427,0.17851561307907104,0.06816952675580978,-0.24707335233688354,-0.08387801051139832,-0.0451749786734581,-0.09655772149562836,0.12400674819946289,-0.026302793994545937,-0.061001770198345184,-0.14666996896266937,0.004544222727417946,-0.12708275020122528,0.14414237439632416,0.20050086081027985,-0.04934018477797508,-0.020708343014121056,-0.001891354564577341,-0.07789764553308487,0.024038488045334816,0.054696645587682724,-0.1646895557641983,0.2206200808286667,-0.03840557858347893,-0.038557182997465134,-0.036599379032850266},{-0.01943201757967472,0.10020428150892258,-0.18370439112186432,-0.03234615549445152,-0.19498483836650848,-0.18762120604515076,0.07862437516450882,-0.072921521961689,-0.002076041419059038,0.18537655472755432,-0.009945637546479702,0.05743369460105896,-0.059523601084947586,0.07484755665063858,-0.09917596727609634,-0.12916432321071625,-0.09685321152210236,-0.06670882552862167,0.1501716673374176,-0.09965627640485764,0.02164706401526928,0.12687258422374725,-0.042333900928497314,-0.10784231126308441,-0.027365008369088173,-0.05077151954174042,0.013530866242945194,-0.004766909405589104,0.058562349528074265,0.05942164734005928,0.06448984891176224,-0.16684213280677795,-0.10332244634628296,-0.08239531517028809,0.12753793597221375,0.05173386260867119,0.11784082651138306,0.12357079982757568,0.0844448134303093,-0.09254869818687439,-0.031589049845933914,-0.006751491688191891,0.21014966070652008,-0.0002649218658916652,-0.1365300863981247,0.12633223831653595,0.07962190359830856,0.04993153363466263,0.07089049369096756,0.183393657207489,0.15662074089050293,0.05597766488790512,0.19038987159729004,-0.0384400300681591,-0.11217857152223587,-0.054731715470552444,-0.08677169680595398,0.020655477419495583,-0.030126281082630157,0.05551697686314583,-0.0680825486779213,-0.06114371120929718,0.09115161746740341,0.009176253341138363},{-0.14367687702178955,-0.03508215770125389,0.19332410395145416,0.1948334276676178,0.16148246824741364,-0.11987419426441193,-0.0638212338089943,-0.17909814417362213,0.0659768283367157,-0.1591004729270935,-0.12519098818302155,-0.013190261088311672,0.032003916800022125,-0.11184708029031754,0.14732478559017181,-0.19891569018363953,0.14533542096614838,-0.1083148866891861,0.1792384535074234,-0.05152051895856857,0.11064811050891876,-0.026457717642188072,0.019258076325058937,-0.0846521332859993,0.005629468709230423,-0.1366731822490692,0.13406652212142944,0.1158389002084732,0.1531260460615158,0.08071757107973099,0.11691390722990036,0.0592389851808548,0.13681191205978394,0.11212461441755295,0.12560983002185822,0.10256677120923996,0.19474217295646667,-0.12543241679668427,0.09634150564670563,0.1051054522395134,-0.060764558613300323,0.07264435291290283,0.025878146290779114,0.01656852848827839,0.038549549877643585,-0.14210672676563263,-0.010006984695792198,-0.07160733640193939,0.10253462195396423,0.03065274842083454,0.15985232591629028,0.17420503497123718,0.18216314911842346,-0.06139656528830528,-0.17282652854919434,0.067470982670784,-0.1570647805929184,0.02472446858882904,0.11599624902009964,0.05386216565966606,-0.14834848046302795,0.037502530962228775,0.16881273686885834,-0.07321994006633759},{0.14306584000587463,-0.05193203687667847,0.2665947377681732,-0.01152062602341175,-0.11973419785499573,-0.1084083542227745,-0.1241682842373848,0.13704565167427063,0.09360962361097336,0.04640242084860802,-0.1349664330482483,-0.019803814589977264,-0.18328601121902466,0.05477834865450859,-0.04921858757734299,0.0850415974855423,-0.1450958549976349,-0.14640648663043976,0.04349978640675545,-0.15273936092853546,0.06272450089454651,-0.10660304129123688,0.13352464139461517,-0.13112910091876984,-0.08345412462949753,0.060076579451560974,0.16809654235839844,0.18569009006023407,-0.026664383709430695,0.11064599454402924,-0.1386546641588211,0.06210470199584961,0.019689390435814857,0.08330664783716202,0.1467570662498474,-0.07295598834753036,0.11406449228525162,0.08329807221889496,0.09651859849691391,-0.12679733335971832,-0.1381772756576538,0.07120233029127121,-0.06062715873122215,0.067050501704216,-0.08775298297405243,0.16047358512878418,-0.07288612425327301,-0.016787072643637657,-0.09191582351922989,-0.20763173699378967,0.023301664739847183,0.17880061268806458,0.057643234729766846,-0.15408504009246826,-0.0987773910164833,0.0760435089468956,0.11932887136936188,-0.04367460310459137,-0.05606896057724953,-0.1528625637292862,-0.09309040009975433,-0.14104978740215302,-0.08254404366016388,0.04482278972864151},{-0.1272825449705124,0.09758815169334412,-0.08498070389032364,0.011241679079830647,0.20778025686740875,0.17097268998622894,-0.17709799110889435,-0.0008444520062766969,0.207763671875,0.20970141887664795,0.12876810133457184,-0.160078227519989,-0.20119275152683258,0.10493680089712143,0.04574224725365639,0.1813906878232956,0.10130535811185837,-0.12439502030611038,-0.13967889547348022,-0.13327428698539734,0.008850437588989735,0.015084045007824898,-0.05864531546831131,-0.14189016819000244,0.221828892827034,-0.1119283065199852,-0.033663902431726456,0.019207529723644257,0.015285074710845947,0.005776673089712858,0.048896290361881256,0.0907115787267685,0.09225062280893326,-0.09584194421768188,0.1998230516910553,0.11867514252662659,-0.0922335535287857,-0.03592197969555855,-0.19176797568798065,0.20759627223014832,0.130474254488945,0.06550183147192001,0.009292224422097206,-0.18642441928386688,0.047698672860860825,0.13560765981674194,0.049136750400066376,0.10896112024784088,0.07115504890680313,0.16458114981651306,-0.08412573486566544,-0.17411616444587708,0.04575524851679802,-0.026573102921247482,-0.08154723793268204,-0.09954948723316193,-0.25092825293540955,-0.23127481341362,0.017585307359695435,-0.19835911691188812,0.24594126641750336,-0.1332440972328186,-0.1448478400707245,0.07131779938936234},{0.14054137468338013,0.003810466267168522,0.16596387326717377,0.007986477576196194,-0.12130814045667648,-0.19151389598846436,0.11133664101362228,-0.0731717050075531,-0.11039961129426956,0.12714149057865143,0.22444939613342285,-0.18237224221229553,0.1264774352312088,-0.09992212057113647,-0.08072517812252045,-0.027585282921791077,-0.07429783791303635,-0.15496744215488434,-0.07335636019706726,0.019537480548024178,-0.016849640756845474,0.03081839345395565,0.0363590307533741,0.12907831370830536,-0.0906972736120224,0.0020592729561030865,-0.10143487900495529,-0.05872345715761185,0.04823856055736542,0.14122803509235382,-0.05483419448137283,-0.125788152217865,0.049861710518598557,0.12160783261060715,0.1375117003917694,-0.021532684564590454,0.0856594517827034,-0.11375293880701065,0.04027555510401726,-0.057529643177986145,0.12703466415405273,0.0682285949587822,-0.11063599586486816,0.03019808791577816,0.1460786759853363,-0.11015146970748901,0.19633126258850098,0.0732211321592331,0.05742715299129486,-0.0842055156826973,-0.03644924610853195,0.09149686992168427,0.04867604374885559,-0.048139315098524094,0.09436716884374619,-0.07576330751180649,-0.015323355793952942,0.09536294639110565,-0.022926872596144676,0.1803845316171646,-0.07932350784540176,0.057069338858127594,0.12306167930364609,0.1831289827823639},{0.21375049650669098,-0.05871555209159851,0.11732728034257889,0.013408354483544827,-0.2020440697669983,0.10218716412782669,-0.05189688503742218,-0.05826433748006821,-0.18218600749969482,0.1504630446434021,0.14438149333000183,-0.029733706265687943,0.12492843717336655,-0.10280231386423111,-0.08235985040664673,-0.136183500289917,-0.16503097116947174,-0.0039845905266702175,-0.07983610779047012,-0.1473289132118225,-0.15710441768169403,-0.1645852029323578,-0.1644050031900406,-0.17376375198364258,-0.1290963888168335,-0.09467338770627975,0.22322426736354828,0.08986691385507584,0.06951338797807693,-0.08919122070074081,0.02646791748702526,-0.19117917120456696,-0.13755202293395996,-0.1529291719198227,0.12788668274879456,-0.03085741028189659,-0.16884978115558624,-0.06634989380836487,0.14166608452796936,0.035271480679512024,0.02816765382885933,0.06005367636680603,0.050785452127456665,-0.020661283284425735,0.109372578561306,-0.19078059494495392,-0.13683468103408813,-0.11626029014587402,0.12659350037574768,0.15412300825119019,0.13496027886867523,-0.09806876629590988,-0.14301708340644836,-0.05048328638076782,0.13995419442653656,-0.18898813426494598,0.005509829148650169,0.09582480043172836,0.0744500458240509,0.06460161507129669,-0.1338452845811844,-0.11173057556152344,-0.14588110148906708,-0.017827395349740982},{0.14451651275157928,0.08097080141305923,-0.1917729675769806,-0.0313800610601902,-0.027765445411205292,-0.1320984661579132,0.12033423781394958,0.03347745165228844,0.11746151745319366,-0.14612068235874176,-0.19323702156543732,-0.16617454588413239,0.15657800436019897,0.1391976773738861,-0.09101130068302155,-0.09274913370609283,-0.19783906638622284,-0.012571161612868309,-0.03875860944390297,0.003874709829688072,0.14173954725265503,-0.016387242823839188,0.015845760703086853,-0.13401322066783905,-0.05244419723749161,-0.12684276700019836,0.12425504624843597,-0.10648011416196823,-0.08988608419895172,-0.0413980595767498,-0.08796743303537369,-0.12081222236156464,-0.0013689680490642786,-0.060486022382974625,0.06900787353515625,-0.1731802076101303,-0.027836333960294724,0.14135265350341797,-0.1724463403224945,-0.1669408082962036,0.00518314354121685,0.08801545202732086,-0.053379811346530914,0.05717630311846733,-0.004494908731430769,-0.0987887904047966,0.08898609131574631,0.06847647577524185,0.20239369571208954,-0.030904648825526237,-0.154253289103508,0.07689420133829117,-0.03198209032416344,0.0769524946808815,0.18963441252708435,0.1600586622953415,0.196553573012352,0.21282653510570526,0.03818096965551376,-0.11255784332752228,-0.13784688711166382,-0.14124813675880432,-0.19088071584701538,0.10811450332403183},{0.13381622731685638,-0.00399072514846921,-0.024649759754538536,-0.15186087787151337,0.09590592980384827,-0.21225936710834503,0.05983033403754234,0.1814461052417755,0.012328390963375568,0.1675039678812027,-0.07520963251590729,0.10998822003602982,-0.06876878440380096,-0.1123935729265213,-0.06584432721138,0.08163377642631531,0.020366940647363663,0.1418066918849945,-0.2492859661579132,-0.04438085854053497,-0.0628834143280983,0.1681791990995407,0.10180138796567917,-0.23149825632572174,0.040916819125413895,0.18258661031723022,0.16319787502288818,0.20344601571559906,0.00740130664780736,-0.19683152437210083,-0.008104166947305202,-0.010326884686946869,-0.02696855552494526,0.022930599749088287,0.04033242166042328,-0.23845680058002472,0.09433534741401672,0.19285765290260315,-0.13397760689258575,0.013233604840934277,0.12657225131988525,-0.11427102982997894,-0.03038525953888893,-0.1941826492547989,0.07101313024759293,0.22109423577785492,-0.17260298132896423,0.16124141216278076,0.012702910229563713,-0.07307198643684387,0.19037286937236786,-0.1358957141637802,0.16451752185821533,-0.05656345188617706,0.09091295301914215,0.19690439105033875,0.054716989398002625,-0.11795555055141449,0.1427486091852188,0.24481411278247833,-0.14235422015190125,0.14112518727779388,-0.11799781024456024,-0.1981235146522522},{0.14757466316223145,0.00508637772873044,-0.15849821269512177,0.0745856761932373,-0.13543184101581573,-0.18420928716659546,0.20769725739955902,-0.2299840897321701,-0.12366805970668793,0.13719898462295532,0.10503245890140533,-0.1760212779045105,-0.051391880959272385,0.0444493293762207,-0.13365565240383148,0.1275842785835266,-0.025240525603294373,-0.1181027740240097,-0.13823255896568298,0.14653725922107697,-0.20922431349754333,0.19763585925102234,-0.020623857155442238,-0.01785648986697197,-0.16550880670547485,-0.14306606352329254,-0.13598498702049255,0.04417432099580765,-0.07531853765249252,-0.18218399584293365,0.07040765136480331,-0.07992013543844223,0.06715895980596542,-0.08300390094518661,-0.09954260289669037,0.07898227125406265,0.03872857615351677,0.14218418300151825,0.08785386383533478,0.11323560774326324,-0.07623132318258286,-0.039719436317682266,0.162788987159729,-0.16163384914398193,-0.07872632145881653,0.17271831631660461,